tree
version=v4
num_class=1
num_tree_per_iteration=1
label_index=0
max_feature_idx=27
objective=quantile
feature_names=cust_code price cust_id item currency region category day_sin day_cos month dayofweek_cos dayofweek_sin dayofyear_sin dayofyear_cos quarter_sin quarter_cos qty_lag1 qty_lag5 qty_lag10 qty_lag20 rolling_mean_3 rolling_std_3 rolling_mean_5 rolling_std_5 rolling_mean_10 rolling_std_10 days_since_client_purchase days_since_client_item_purchase
feature_infos=-1:70:13:22:63:0:28:64:17:66:15:71:47:33:72:37:51:75:29:14:42:7:56:62:12:49:54:34:39:76:48:8:46:18:60:68:9:61:4:38:55:43:74:65:20:58:31:59:23:69:52:73:16:41:10:11:53:6:57:2:24:26:19:27:3:5:50:1:30:21:45:77:44:36:35:25 none -1:41:67:35:58:25:4:42:30:60:28:68:69:72:27:43:26:24:73:61:31:15:66:14:56:49:57:16:71:20:62:33:48:47:9:36:65:59:70:51:29:17:50:52:22:23:63:13:18:21:6:37:39:32:40:7:10:12:5:8:34:44:55:74:19:45:46:3:0:54:2:38 -1:820:819:818:821:823:652:491:822:11:669:651:668:670:667:672:671:830:9:0:1096:119:326:1097:327:120:328:1098:824:812:673:329:832:118:831:813:1099:121:94:569:227:226:229:582:674:93:228:92:95:615:618:7:616:617:581:523:580:629:524:1164:583:5:197:522:700:754:630:251:521:252:419:420:90:196:198:414:418:662:659:660:661:665:88:89:250:415:416:421:43:199:283:417:740:853:102:282:540:739:741:91:272:854:170:273:274:598:104:212:281:542:729:171:172:253:280:386:599:851:1169:103:105:173:209:211:387:391:738:4:210:390:572:596:838:1170:342:605:728:839:248:343:344:597:666:718:727:837:852:1172:8:49:99:100:247:380:381:570:573:840:876:1125:1171:98:240:246:275:426:477:483:601:678:716:730:1124:241:345:456:457:571:717:843:1168:59:478:482:586:587:600:675:744:874:13:239:242:332:514:519:584:604:619:679:875:1152:101:160:330:331:333:382:427:458:585:588:589:620:873:1153:1155:161:162:174:379:449:475:476:501:513:515:603:677:719:720:865:123:175:176:249:450:455:480:500:606:710:711:712:713:1110:1126:1154:148:149:150:177:200:363:428:459:481:484:512:800:801:802:1108:1127:3:137:142:201:205:217:257:258:365:466:479:499:775:778:803:983:122:143:144:163:203:215:289:364:448:451:452:460:465:498:535:564:566:567:676:776:779:780:889:1109:60:61:62:84:108:139:204:216:231:284:285:340:353:425:435:463:474:532:536:695:808:809:810:856:868:952:982:34:109:138:206:218:230:256:287:288:290:339:354:357:362:436:464:541:565:774:777:786:787:811:844:855:953:954:18:25:27:82:83:110:140:151:154:155:184:286:338:341:352:355:384:517:640:784:857:859:860:941:955:973:1068:1114:1115:1116:1161:14:17:28:29:111:117:146:153:261:356:383:434:461:516:534:538:539:644:691:692:693:694:721:722:723:724:781:785:805:806:858:863:864:866:934:1148:1149:10:30:31:85:114:116:152:234:262:276:279:313:370:462:531:537:663:685:725:759:867:933:935:976:977:978:979:1120:1160:1165:1:15:96:183:219:220:236:260:278:296:297:298:299:312:314:315:358:527:528:533:558:633:656:664:726:753:807:846:932:1117:1144:1150:26:97:115:207:208:221:232:235:277:359:371:437:520:743:770:782:783:798:845:899:962:1121:1138:1159:1162:21:53:57:113:187:222:369:439:467:493:494:495:496:526:530:549:632:634:645:654:655:714:737:771:772:773:847:861:862:895:896:960:961:963:971:972:974:1145:1174:1175:24:47:50:55:106:112:133:135:141:185:254:334:335:336:337:346:376:438:440:441:511:525:529:559:560:561:562:563:602:612:635:646:657:701:733:742:746:747:748:749:804:869:870:893:894:900:936:947:948:949:950:964:1081:1083:1122:1123:1146:1151:6:19:36:56:69:70:71:107:134:136:166:167:182:238:259:305:319:320:347:348:349:350:351:366:368:385:388:406:492:497:508:509:510:548:550:551:552:556:591:609:610:641:647:650:681:683:745:755:756:757:758:769:790:794:814:815:816:817:827:849:898:916:930:931:937:942:995:1084:1100:1107:1139:1167:1176:23:35:45:65:66:67:68:72:78:147:168:186:244:263:264:265:266:268:269:270:301:360:361:377:442:443:444:503:546:553:554:555:557:568:576:590:611:631:642:643:648:649:658:680:699:715:732:752:760:761:762:763:791:792:793:795:848:871:884:890:906:915:917:940:958:959:992:993:994:1064:1065:1066:1067:1082:1102:1104:1105:1106:1111:1112:1119:1129:1130:1131:1147:1158:1166:1173:22:39:44:46:58:73:74:75:76:77:157:169:190:223:243:255:267:271:293:300:302:303:304:318:367:372:373:374:375:378:389:400:401:404:407:410:411:413:422:423:424:430:431:433:445:453:468:488:502:506:543:544:545:547:574:593:594:607:608:682:696:697:698:702:703:704:731:734:765:768:797:828:872:881:882:883:897:901:902:903:904:905:908:918:951:975:1008:1009:1010:1011:1048:1049:1050:1088:1101:1163 -1:0:2:1 -1:34:44:36:22:4:5:30:17:10:40:11:35:6:20:7:43:16:12:28:32:3:39:26:24:25:41:42:2:19:37:1:31:23:21:33:29:14:27:18:13:15:8:45:38 -1:122:90:39:7:19:109:117:85:34:2:78:70:112:96:128:45:13:23:94:102:126:62:43:11:35:76:130:98:86:68:118:120:47:88:3:37:5:15:50:20:33:84:116:55:1:21:71:132:17:79:49:100:22:89:38:26:0:91:121:8:40:107:123:6:31:18:95:127:44:12:119:87:36:83:80:63:46:72:93:111:4:97:14:69:77:125:74:82:10:42:66:129:114:24:25:61:73:108:64:103:81:29:105:9:56:60:65:67:75:92:106:124:41:52:113 [-0.99452189536827329:0.9945218953682734] [-1:1] [1:12] [-0.90096886790241903:1] [-0.43388373911755801:0.97492791218182362] [-0.99999073973619013:0.99954628068735729] [-0.99907411510222999:0.99985183920911624] [-1:1] [-1:1] [0:7.8939451382359591] [0:7.8939451382359591] [0:7.7836405962212529] [0:6.5806391372849493] [0.69314718055994529:7.1653002110482875] [0:3.2940417966049629] [1.0986122886681098:6.9971807869699223] [0:2.9815439008988269] [1.1496948510447089:6.9242151338238198] [0:2.7957610625370255] [-726:583] [0:583]
tree_sizes=3256 3505 3470 3531 3471 3530 3614 3501 3514 3439 3475 3418 3470 3460 3498 3536 3720 3648 3471 3636 3620 3616 3664 3687 3753 3538 3664 3703 3695 3639 3592 3721 3572 3507 3643 3676 3635 3609 3583 3572 3734 3500 3742 3667 3551 3529 3747 3546 3481 3523 3549 3570 3507 3505 3502 3599 3502 3533 3518 3575 3521 3523 3531 3623 3536 3661 3547 3531 3597 3496 3536 3660 3512 3519 3512 3624 3626 3639 3634 3633 3604 3468 3522 3598 3541 3492 3590 3582 3498 3501 3498 3474 3436 3430 3464 3541 3637 3340 3613 3422 3434 3363 3484 3512 3445 3427 3355 3526 3466 3506 3521 3621 3485 3434 3507 3418 3270 3525 3486 3388 3421 3519 3447 3483 3579 3557 3676 3414 3517 3578 3409 3589 3504 3476 3481 3562 3550 3619 3529 3586 3440 3554 3495 3604 3496 3524 3588 3493 3561 3439 3498 3446 3630 3601 3553 3591 3569 3492 3701 3502 3626 3595 3614 3582 3519 3648 3735 3645 3579 3642 3528 3663 3486 3589 3644 3672 3644 3659 3557 3708 3589 3583 3581 3575 3466 3658 3574 3533 3505 3541 3502 3565 3556 3526 3536 3570 3591 3578 3526 3489 3630 3538 3613 3557 3532 3391 3556 3591 3364 3571 3350 3633 3388 3629 3575 3702 3623 3694 3567 3591 3563 3560 3592 3516 3581 3615 3560 3641 3441 3388 3635 3580 3644 3587 3608 3566 3637 3575 3612 3537 3574 3526 3563 3557 3502 3580 3600 3527 3514 3482 3569 3599 3542 3596 3554 3570 3511 3609 3574 3622 3614 3568 3547 3516 3542 3589 3562 3552 3580 3480 3507 3648 3581 3606 3627 3474 3487 3423 3521 3672 3595 3583 3467 3619 3638 3731 3608 3717 3449 3599 3462 3486 3600 3703 3486 3655 3704 3640 3630 3640 3552 3527 3657 3556 3503 3415 3288 3738 3592 3692 3585 3500 3569 3329 3606 3484 3500 3579 3553 3359 3538 3519 3534 3327 3514 3534 3539 3389 3471 3408 3597 3529 3512 3508 3474 3420 3516 3407 3566 3389 3430 3565 3487 3440 3406 3533 3485 3516 3452 3469 3436 3565 3464 3499 3490 3466 3409 3471 3461 3385 3523 3591 3460 3301 3471 3438 3542 3570 3429 3579 3452 3377 3579 3458 3492 3420 3580 3440 3449 3502 3555 3369 3459 3428 3496 3410 3455 3436 3379 3385 3540 3387 3450 3479 3510 3452 3458 3462 3390 3371 3519 3457 3433 3361 3433 3420 3472 3488 3383 3363 3552 3518 3459 3366 3469 3521 3474 3450 3546 3415 3554 3524 3477 3490 3403 3436 3544 3310 3453 3427 3370 3463 3509 3475 3403 3489 3584 3492 3390 3516 3540 3503 3493 3480 3563 3421 3355 3614 3546 3483 3532 3381 3527 3469 3471 3524 3613 3391 3465 3443 3453 3458 3406 3398 3303 3341 3380 3340 3376 3363 3454 3405 3430 3438 3458 3503 3385 3490 3509 3408 3329 3265 3423 3536 3595 3375 3388 3446 3676 3328 3392 3388 3435 3359 3289 3413 3590 3403 3442 3515 3514 3415 3392 3522 3495 3320 3455 3646 3397 3512 3363 3352 3314 3444 3295 3458 3441 3370 3462 3386 3442 3386 3468 3504 3487 3486 3336 3278 3451 3365 3412 3338 3463 3309 3391 3373 3375 3395 3356 3369 3329 3397 3405 3325 3345 3443 3361 3339 3307 3448 3543 3571 3340 3387 3465 3324 3420 3297 3294 3277 3311 3323 3315 3364 3351 3310 3255 3382 3486 3371 3387 3346 3403 3447 3356 3424 3316 3480 3356 3406 3493 3475 3386 3510 3361 3380 3369 3275 3392 3285 3366 3226 3372 3273 3467 3329 3390 3419 3384 3469 3424 3348 3487 3408 3433 3350 3317 3403 3378 3319 3387 3261 3297 3314 3264 3349 3377 3362 3236 3261 3256 3367 3352 3374 3282 3362 3490 3437 3346 3222 3438 3421 3491 3493 3337 3318 3383 3370 3301 3455 3361 3333 3395 3411 3387 3350 3361 3316 3327 3371 3352 3233 3355 3331 3493 3404 3273 3383 3236 3229 3388 3216 3178 3351 3448 3362 3276 3338 3346 3323 3319 3423 3354 3337 3423 3311 3295 3299 3283 3279 3281 3329 3279 3455 3279 3262 3247 3349 3317 3245 3267 3267 3281 3324 3296 3264 3272 3303 3288 3317 3293 3350 3285 3276 3464 3346 3221 3271 3295 3254 3309 3356 3241 3361 3296 3363 3198 3385 3325 3403 3304 3400 3422 3298 3436 3183 3332 3253 3236 3328 3177 3233 3219 3290 3276 3306 3265 3447 3306 3368 3280 3426 3306 3316 3374 3371 3243 3293 3421 3324 3230 3305 3296 3181 3257 3385 3301 3362 3256 3293 3337 3239 3344 3302 3196 3276 3317 3371 3277 3459 3394 3367 3228 3340 3336 3354 3222 3311 3208 3193 3177 3279 3244 3299 3257 3314 3216 3328 3299 3184 3291 3189 3359 3299 3184 3273 3282 3350 3219 3147 3317 3421 3291 3259 3256 3166 3277 3369 3345 3189 3240 3191 3151 3265 3249 3149 3172 3309 3300 3315 3378 3203 3258 3281 3375 3261 3343 3473 3266 3437 3268 3323 3315 3233 3374 3434 3339 3251 3251 3247 3231 3150 3228 3428 3298 3332 3417 3263 3251 3154 3236 3335 3260 3269 3283 3327 3230 3316 3241 3432 3253 3351 3250 3198 3315 3314 3334 3228 3334 3279 3341 3434 3339 3358 3188 3252 3214 3342 3270 3371 3269 3221 3187 3231 3150 3226 3234 3201 3158 3178 3211 3240 3222 3187 3293 3241 3386 3341 3338 3353 3372 3260 3305 3287 3320 3311 3357 3323 3245 3204 3275 3297 3295 3321 3371 3425 3315 3406 3470 3435 3180 3369 3349 3389 3325 3184 3367 3308 3363 3311 3212 3253 3297 3479 3119 3202 3337 3268 3289 3389 3189 3275 3310 3239 3208 3279 3197 3182 3165 3203 3263 3169 3275 3235 3163 3215 3342 3362 3328 3356 3212 3215 3222 3283 3171 3217 3320 3297 3252 3345 3390 3274 3324 3203 3205 3221 3249 3204 3331 3192 3261 3206 3345 3264 3265 3313 3247 3335 3211 3230 3203 3332 3260 3267 3190 3416 3281 3309 3209 3372

Tree=0
num_leaves=31
num_cat=14
split_feature=3 3 3 17 2 24 0 6 3 22 2 22 22 0 0 12 13 3 2 22 24 23 25 4 20 13 6 24 8 24
split_gain=258.442 40.9533 33.4207 13.556 15.3123 8.95753 16.6474 10.2513 8.48695 7.86529 11.9323 7.56518 7.16376 6.97627 6.46403 5.93363 5.26787 3.56046 4.27204 12.921 3.53807 3.09656 3.01384 4.46288 3.3925 3.52624 2.83983 2.35014 3.36499 3.7363
threshold=0 1 2 1.0000000180025095e-35 3 3.421515492372611 4 5 6 1.8159324096668144 7 4.3074056919014039 4.3589357303291312 8 9 0.895806108055896 0.33345642693991789 10 11 4.1178406624743813 3.4474481137370341 0.53814966415047838 0.72113337503165498 12 2.9136055425224519 0.73246693938583618 13 2.3616366294448663 -0.73907380036690273 2.5073340101707138
decision_type=9 9 9 2 9 10 9 9 9 10 9 8 8 9 9 2 2 9 9 10 10 10 10 1 10 2 9 8 2 8
left_child=1 11 3 4 -2 6 12 22 9 10 16 20 -3 -5 -9 -7 -4 18 19 -10 21 -1 24 -24 -8 -26 -12 -16 29 -29
right_child=2 5 8 13 -6 15 7 14 17 -11 26 -13 -14 -15 27 -17 -18 -19 -20 -21 -22 -23 23 -25 25 -27 -28 28 -30 -31
leaf_value=3.0475567237943006 3.0711484026908873 3.0662808585166932 3.0740169119834899 3.0496307802200318 3.0499576519645579 3.014077298641205 3.0617300533357068 3.014077298641205 3.0669338578918137 3.0380562520027161 3.014077298641205 3.0551860356330871 3.0756623236848339 3.0411578011512757 3.0490423750877382 3.0740169119834899 3.0679589412455095 3.014077298641205 3.039726791381836 3.014077298641205 3.06071169001053 3.0591858935356142 3.0551860356330871 3.014077298641205 3.0551860356330871 3.0748755232141183 3.0512130188941957 3.0568707764281022 3.0538172522466693 3.0551860356330871
leaf_weight=25 110 23 63 704 163 198 87 113 34 791 217 53 83 649 309 41 39 10123 1244 85 201 312 440 37 87 23 166 35 720 117
leaf_count=25 110 23 63 704 163 198 87 113 34 791 217 53 83 649 309 41 39 10123 1244 85 201 312 440 37 87 23 166 35 720 117
internal_value=3.04442 3.04714 3.04387 3.04522 3.04726 3.04652 3.04674 3.0465 3.0437 3.04448 3.04548 3.0495 3.05051 3.04482 3.04595 3.04469 3.04834 3.04362 3.04411 3.04585 3.04994 3.04931 3.04751 3.04713 3.0486 3.04743 3.04462 3.04617 3.04645 3.0478
internal_weight=17292 2904 14388 1626 273 2313 2074 1968 12762 1276 485 591 106 1353 1294 239 102 11486 1363 119 538 337 674 477 197 110 383 1181 872 152
internal_count=17292 2904 14388 1626 273 2313 2074 1968 12762 1276 485 591 106 1353 1294 239 102 11486 1363 119 538 337 674 477 197 110 383 1181 872 152
cat_boundaries=0 37 64 101 104 107 111 148 151 153 156 191 192 193 198
cat_threshold=2048 0 0 0 0 0 0 0 0 0 4096 0 140 3132 0 2048 0 369098752 0 0 6144 268435456 16384 0 0 3932160 1 0 0 0 0 0 0 0 0 48 2031617 0 0 0 0 0 0 0 0 0 0 0 0 0 0 0 2048 0 0 0 0 4096 0 0 0 0 0 1 0 0 0 0 0 0 0 32 0 0 0 0 64 4608 33286 0 0 134217728 4205568 2097152 536870912 4 9152 0 0 2160074752 0 0 0 0 0 0 0 0 4194560 192 10 1048592 1024 264 0 0 84 2621441 64 33554432 67108864 8192 0 1073741824 0 0 1024 33554480 24 0 0 3072 8192 3221225472 3 65552 0 2048 536870912 11538432 0 268435456 64 33624064 0 0 0 0 0 0 0 0 0 0 0 1051136 0 4 0 67109888 8 2952790016 31132770 131072 16777216 256 0 0 0 0 0 8192 131072 4 0 0 9088 0 0 0 1073743104 8 0 0 33554432 1792 1242038272 160 0 0 0 4096 0 0 0 0 0 0 0 0 1024 33554432 1 8 0 4194304 69206017 1
is_linear=0
shrinkage=1


Tree=1
num_leaves=31
num_cat=14
split_feature=3 3 3 17 3 6 24 0 3 2 22 22 0 12 3 26 14 0 24 24 12 5 23 25 4 22 8 26 2 17
split_gain=251.008 38.8006 37.0343 15.7874 13.7401 10.9066 8.73391 19.4517 8.28772 7.8068 7.56518 6.6504 12.5843 6.2718 5.03917 5.56782 4.55998 4.51074 3.53807 3.49212 3.2357 3.17062 3.09656 3.06982 4.29199 2.77212 2.69814 2.60417 2.5135 11.7591
threshold=0 1 2 1.0000000180025095e-35 3 4 3.421515492372611 5 6 7 4.3074056919014039 1.8159324096668144 8 0.895806108055896 9 -624.99999999999989 -0.5 10 3.4474481137370341 3.1684617653052638 -0.72660079619119988 11 0.53814966415047838 0.84853528667046529 12 4.6310627031502163 -0.3090169943749474 14.500000000000002 13 1.4978661367769956
decision_type=9 9 9 2 9 9 10 9 9 9 8 10 9 2 9 8 2 9 10 10 2 9 10 8 1 8 2 10 9 2
left_child=1 10 3 5 11 -2 7 25 -9 -5 18 12 16 -8 15 -6 -4 19 22 -10 -7 -13 -1 -19 26 -3 -25 -22 29 -17
right_child=2 6 4 9 14 20 13 8 17 -11 -12 21 -14 -15 -16 28 -18 23 -20 -21 27 -23 -24 24 -26 -27 -28 -29 -30 -31
leaf_value=0.0030038579151526836 0.0050153062549081239 0.02261629748689278 0.031817332673072816 0.0050571737766265867 0.022302350029139419 0.026359620022773745 -0.030140772986412049 0.012074940180778504 -4.5198512077333495e-05 -0.030380562520027164 0.010556876635551453 0.0016924510478973386 4.795732498168892e-05 0.029199444222450258 -0.030140772986412049 0.022699875908337188 0.017499803147586285 0.005571005543786969 0.016027274469220084 0.0090856175236516054 0.028581657572514633 -0.0064183145523071293 0.014516735959053038 0.011791812418367997 0.0047922085300448067 0.031002047570036426 0.0083943534665860062 0.011250978848070123 -0.0061618196249008193 -0.030140772986412049
leaf_weight=25 101 24 47 869 56 72 191 565 243 406 53 398 379 39 9971 96 60 213 201 21 40 621 312 263 33 80 498 24 1125 266
leaf_count=25 101 24 47 869 56 72 191 565 243 406 53 398 379 39 9971 96 60 213 201 21 40 621 312 263 33 80 498 24 1125 266
internal_value=-6.66206e-05 0.00269181 -0.000592188 0.000885677 -0.000764372 0.0032616 0.00205046 0.00227835 0.00200108 0.00045098 0.00497338 0.000135313 0.00109877 0.000217391 -0.000881986 -0.000343207 0.00395726 0.00152147 0.00541264 0.000313868 0.0049589 -0.000322866 0.00478635 0.00183186 0.00213602 0.00636842 0.00198292 0.0036875 -0.000462004 0.000263441
internal_weight=17292 2761 14531 1512 13019 237 2170 1940 1836 1275 591 1505 486 230 11514 1543 107 1271 538 264 136 1019 337 1007 794 104 761 64 1487 362
internal_count=17292 2761 14531 1512 13019 237 2170 1940 1836 1275 591 1505 486 230 11514 1543 107 1271 538 264 136 1019 337 1007 794 104 761 64 1487 362
cat_boundaries=0 37 64 101 138 142 145 181 183 186 221 224 226 227 230
cat_threshold=2048 0 0 0 0 0 0 0 0 0 0 0 140 3132 0 2048 0 335544320 0 0 6144 268435456 16384 0 0 3932160 1 0 0 0 0 0 0 0 0 48 983040 0 0 0 0 0 0 0 0 0 0 0 0 0 0 0 2048 0 0 0 0 4096 0 0 0 0 0 1 0 0 0 0 0 0 0 0 0 0 4096 0 64 4096 32774 0 0 167772160 4197376 2097152 536870912 0 13248 0 0 2160066560 0 0 0 0 0 0 0 0 4194560 192 1048587 0 0 1073741824 0 0 0 16 40 0 0 11264 0 2147483648 515 1552 0 2048 0 3158016 0 1476395008 68 33619968 0 0 8192 0 0 0 0 0 0 0 0 1049088 0 4 8912896 8 16448 65536 128 0 84 2048 0 0 0 0 0 0 0 0 0 0 0 0 0 0 0 0 0 0 0 0 0 0 0 0 1048576 0 0 0 0 0 0 0 0 0 48 0 2560 16384 2147483648 2116 8192 0 0 0 0 1024 33554464 20 0 0 896 8192 1073741824 0 1610678528 8 0 536870912 41943040 768 34078720 163 0 0 0 4096 0 0 0 0 0 0 0 0 3072 131072 17696768 256 202828 4104 1 167772160 1024 24
is_linear=0
shrinkage=0.01


Tree=2
num_leaves=31
num_cat=14
split_feature=3 3 3 17 2 3 24 0 6 22 22 0 22 2 0 12 13 3 26 24 23 25 4 20 13 0 0 24 8 24
split_gain=253.846 40.9533 32.5025 14.3804 15.5556 11.4982 8.95753 16.6474 10.2513 7.56518 7.16376 7.08645 6.52619 9.23693 6.46403 5.93363 4.38834 3.71231 5.44857 3.53807 3.09656 3.01384 4.46288 3.3925 3.52624 2.86624 2.77832 2.35014 3.36499 3.7363
threshold=0 1 2 1.0000000180025095e-35 3 4 3.421515492372611 5 6 4.3074056919014039 4.3589357303291312 7 1.8159324096668144 8 9 0.895806108055896 0.33345642693991789 10 -624.99999999999989 3.4474481137370341 0.53814966415047838 0.72113337503165498 11 2.9136055425224519 0.73246693938583618 12 13 2.3616366294448663 -0.73907380036690273 2.5073340101707138
decision_type=9 9 9 2 9 9 10 9 9 8 8 9 10 9 9 2 2 9 10 10 10 10 1 10 2 9 9 8 2 8
left_child=1 9 3 4 -2 12 7 10 21 19 -3 -5 13 16 -10 -8 -4 18 -7 20 -1 23 -23 -9 -25 -15 -14 -16 29 -29
right_child=2 6 5 11 -6 17 15 8 14 -11 -12 -13 26 25 27 -17 -18 -19 -20 -21 -22 22 -24 24 -26 -27 -28 28 -30 -31
leaf_value=0.0029738193360011557 0.026096023822546006 0.021314588315452423 0.029480964958482511 0.0050066020388603192 0.0050949602279825078 0.02114546552541556 -0.029836967361211778 0.016838996717861647 -0.030140321001291274 0.010451307869195939 0.030518381331080299 -0.0033816472392082233 4.7738208293912625e-05 0.011646222099954709 0.0044075876452063243 0.028907449780225757 0.019096717687731638 -0.029839365256547928 -0.0061002014286518106 0.015867001724527884 0.014371568599462505 0.010436127233743667 -0.029836967361211778 0.010372878873767016 0.0299287199389646 -0.0021680573563369614 -0.010857278412818907 0.012106851898432556 0.009120615908927052 0.010463841566820009
leaf_weight=25 115 23 59 704 163 54 198 87 113 53 83 668 351 113 309 41 42 9849 1337 201 312 440 37 87 23 299 634 35 720 117
leaf_count=25 115 23 59 704 163 54 198 87 113 53 83 668 351 113 309 41 42 9849 1337 201 312 440 37 87 23 299 634 35 720 117
internal_value=-7.47169e-05 0.00261702 -0.000619392 0.000698795 0.00277698 -0.000790556 0.00199613 0.00221601 0.0019727 0.00497338 0.00598276 0.000282799 3.44825e-05 0.000949318 0.00142331 0.000171548 0.0035045 -0.000900445 -0.000407566 0.00541264 0.00478635 0.00299123 0.00260587 0.00407614 0.00290909 0.000232227 -0.000441625 0.00164484 0.00192431 0.00327632
internal_weight=17292 2904 14388 1650 278 12738 2313 2074 1968 591 106 1372 1498 513 1294 239 101 11240 1391 538 337 674 477 197 110 412 985 1181 872 152
internal_count=17292 2904 14388 1650 278 12738 2313 2074 1968 591 106 1372 1498 513 1294 239 101 11240 1391 538 337 674 477 197 110 412 985 1181 872 152
cat_boundaries=0 37 64 101 104 141 144 148 150 153 156 191 192 195 198
cat_threshold=2048 0 0 0 0 0 0 0 0 0 4096 0 140 3132 0 2048 0 369098752 0 0 6144 268435456 16384 0 0 3932160 1 0 0 0 0 0 0 0 0 48 2031617 0 0 0 0 0 0 0 0 0 0 0 0 0 0 0 2048 0 0 0 0 4096 0 0 0 0 0 1 0 0 0 0 0 0 0 32 0 0 0 0 64 4608 33286 0 0 134217728 4205568 2097152 536870912 4 13248 0 0 2160074752 0 0 0 0 0 0 0 0 4194560 192 10 1048592 1024 264 8192 0 1073741824 0 0 1024 48 8 0 0 3328 0 3221225472 3 66832 0 2048 536870912 3149824 0 1476395008 64 33619968 0 0 0 0 0 0 0 0 0 0 0 1049088 0 4 0 0 84 2621441 64 33554432 67108864 2952790016 31132770 134217728 67109888 8 131072 16777216 256 0 0 0 0 0 8192 33685504 20 0 0 8832 8192 0 0 1610612736 8 0 0 41943040 1792 34078720 163 0 0 0 4096 0 0 0 0 0 0 0 0 3072 1 4202496 688128 128 2415919104 4900998 64
is_linear=0
shrinkage=0.01


Tree=3
num_leaves=31
num_cat=14
split_feature=3 3 3 17 3 6 24 0 3 2 22 23 0 12 3 26 0 13 0 12 24 25 4 24 23 22 8 26 0 22
split_gain=249.88 37.6551 37.4492 16.6923 12.3161 11.0545 8.73391 19.4517 8.28772 7.97817 7.35361 6.81948 11.5435 6.2718 5.46055 5.53268 4.51074 4.47125 3.9312 3.87239 3.49212 3.06982 4.29199 2.93609 3.09656 2.77212 2.69814 2.60754 2.51231 7.48903
threshold=0 1 2 1.0000000180025095e-35 3 4 3.421515492372611 5 6 7 4.3074056919014039 1.8527059312404506 8 0.895806108055896 9 -624.99999999999989 10 -0.15855351192338588 11 -0.72660079619119988 3.1684617653052638 0.84853528667046529 12 3.4474481137370341 0.53814966415047838 4.6310627031502163 -0.3090169943749474 14.500000000000002 13 1.229545620666487
decision_type=9 9 9 2 9 9 10 9 9 9 8 8 9 2 9 10 9 2 9 2 10 8 1 10 10 8 2 10 9 10
left_child=2 3 10 5 11 -2 7 25 -9 -5 23 18 17 -8 15 -6 20 -13 -3 -7 -10 -18 26 24 -1 -4 -23 -21 29 -17
right_child=1 4 6 9 14 19 13 8 16 -11 -12 12 -14 -15 -16 28 21 -19 -20 27 -22 22 -24 -25 -26 -27 -28 -29 -30 -31
leaf_value=0.002944081142641144 0.0048739471292488798 0.001729499163955675 0.022084950698713048 0.0049565360184717156 0.021775284233816632 0.025835063584320545 -0.029540995582935811 0.011849829506633278 -8.8822403408621582e-05 -0.03004294042243481 0.010346794790503978 0.031204349696757262 0.0017552600185499886 0.028618375282423499 -0.02954097160398245 0.017204191775030298 0.0054240893292598269 0.018383033227066876 -0.0082355604203319561 0.027957523129193574 0.0088263713812364759 0.011629818417732257 0.0045497169312568751 0.015708331707282606 0.014227852913467882 0.030386843281025259 0.0082333422991563085 0.009481263962563902 -0.0062476106449405643 -0.0047651770657491715
leaf_weight=25 101 374 24 869 61 75 191 565 243 426 53 48 286 39 9907 128 213 59 610 41 21 263 33 201 312 80 498 25 1029 492
leaf_count=25 101 374 24 869 61 75 191 565 243 426 53 48 286 39 9907 128 213 59 610 41 21 263 33 201 312 80 498 25 1029 492
internal_value=-7.12471e-05 -0.000595626 0.00268098 0.00088106 -0.00077084 0.00329752 0.00205046 0.00227835 0.00200108 0.000436293 0.00492346 0.000124729 0.00123919 0.000217391 -0.000877011 -0.000348837 0.00152147 0.00387179 -0.000319106 0.00496026 0.000313868 0.00183186 0.00213602 0.00535688 0.00478635 0.00636842 0.00198292 0.00354545 -0.000460279 4.76188e-05
internal_weight=17292 14531 2761 1537 12994 242 2170 1940 1836 1295 591 1377 393 230 11617 1710 1271 107 984 141 264 1007 794 538 337 104 761 66 1649 620
internal_count=17292 14531 2761 1537 12994 242 2170 1940 1836 1295 591 1377 393 230 11617 1710 1271 107 984 141 264 1007 794 538 337 104 761 66 1649 620
cat_boundaries=0 37 74 101 138 142 145 181 183 186 221 224 227 228 231
cat_threshold=2048 0 0 0 0 0 0 0 0 0 0 0 140 3132 0 2048 0 335544320 0 0 6144 268435456 16384 0 0 3932160 1 0 0 0 0 0 0 0 0 48 983040 0 0 0 0 0 0 0 0 0 0 4096 0 64 4096 32774 0 0 704643072 4197376 2097152 536870912 0 13248 0 0 2160066560 0 0 0 0 0 0 0 0 4194560 192 1048587 0 0 0 0 0 0 0 0 0 0 0 0 0 0 0 2048 0 0 0 0 4096 0 0 0 0 0 1 8192 0 1073741824 0 0 1024 16 40 0 0 3072 0 2147483648 515 1552 0 2048 0 3158016 0 402653184 68 33619968 0 0 8192 0 0 0 0 0 0 0 0 1049088 0 4 8912896 8 16448 65536 128 0 84 2048 0 0 0 0 0 0 0 0 0 0 0 0 0 0 0 0 0 0 0 0 0 0 0 0 1048576 0 0 0 0 0 0 0 0 0 48 0 2560 16384 2147483648 2116 0 0 0 0 0 0 33554464 20 0 0 9088 8192 1073741824 0 1610678528 8 0 0 41943040 1792 1107820544 163 0 0 0 4096 0 0 0 0 0 0 0 0 3072 131072 17696768 256 268435456 4868230 64 1 2147491840 8570502 68
is_linear=0
shrinkage=0.01


Tree=4
num_leaves=31
num_cat=12
split_feature=3 3 3 23 2 3 18 2 0 24 0 22 2 20 12 13 21 12 3 26 10 24 8 11 19 12 12 0 0 16
split_gain=250.728 39.0525 33.6868 13.5914 16.0002 9.49137 9.01441 35.0609 13.2696 7.6931 7.29915 7.14901 9.04412 5.25894 4.88322 4.38834 4.23916 3.85463 3.79501 5.73129 3.11855 3.0202 3.14782 3.26073 2.75714 2.36271 2.15802 2.08183 2.04994 1.98594
threshold=0 1 2 2.0785510096968545 3 4 1.0000000180025095e-35 5 6 3.2631089646679245 7 1.7269952454145248 8 4.2844022174599745 0.895806108055896 0.33345642693991789 1.8833860207048005 0.7206604759859373 9 -595.49999999999989 -0.56174490092936658 2.2673721117598711 -0.8612812260087741 0.6078576107927941 1.8688348091416842 -0.90880922144842613 0.56314550935064711 10 11 2.3502401828962087
decision_type=9 9 9 8 9 9 2 9 9 10 9 10 9 10 2 2 10 2 9 10 2 10 2 2 2 2 2 9 9 2
left_child=1 9 3 10 25 11 7 17 14 13 -2 12 15 20 -8 -4 -16 29 19 -7 -1 26 23 -23 -11 -5 -10 -14 -13 -3
right_child=2 6 5 4 -6 18 8 -9 21 24 -12 28 27 -15 16 -17 -18 -19 -20 -21 -22 22 -24 -25 -26 -27 -28 -29 -30 -31
leaf_value=0.011881575818659377 0.0049069706582869979 0.025568435621587532 0.028982933056371323 0.02557671294847734 0.0047644351216356642 0.020244687715948104 -0.0052459765849113271 -0.00018281369328848555 0.0022575926700790518 0.0048678709946350703 -0.0021457653439198054 9.3699809699887039e-05 0.012759647622208879 -0.030624910045045705 0.012819079199191022 0.018721920178583651 0.028332191529599263 0.028263917383615396 -0.029245561887942625 -0.0059767233079158853 0.014085574384333204 0.011897264383666607 0.0091950106544479073 0.0083700122176400167 0.01525054878258772 0.025939364902988489 0.010213266357255432 -0.0021763484956620481 -0.01081124190589226 0.028913433169573496
leaf_weight=220 778 40 59 37 173 67 342 191 144 22 739 256 101 23 31 42 23 35 9703 1470 235 94 904 72 332 77 71 247 639 125
leaf_count=220 778 40 59 37 173 67 342 191 144 22 739 256 101 23 31 42 23 35 9703 1470 235 94 904 72 332 77 71 247 639 125
internal_value=-7.52952e-05 0.00259986 -0.000616614 0.000659316 0.00265854 -0.000799905 0.00184342 0.00321995 0.00153421 0.00443943 0.000285432 -2.95445e-06 0.00102673 0.00366527 -8.86702e-05 0.0035045 0.0027037 0.006 -0.000895111 -0.000424693 0.0039011 0.0020193 0.00225234 0.00351807 0.00561017 0.00537097 0.000953488 0.000201117 -0.000519553 0.00693939
internal_weight=17292 2904 14388 1804 287 12584 2072 391 1681 832 1517 1344 449 478 396 101 54 200 11240 1537 455 1285 1070 166 354 114 215 348 895 165
internal_count=17292 2904 14388 1804 287 12584 2072 391 1681 832 1517 1344 449 478 396 101 54 200 11240 1537 455 1285 1070 166 354 114 215 348 895 165
cat_boundaries=0 37 64 101 104 141 144 147 149 152 187 190 193
cat_threshold=2048 0 0 0 0 0 0 0 0 0 4096 0 140 3132 0 2048 0 369098752 0 0 6144 268435456 16384 0 0 3932160 1 0 0 0 0 0 0 0 0 48 2031617 2048 0 0 0 0 0 0 0 0 0 0 0 0 0 0 2048 0 0 0 0 4096 0 0 0 0 0 1 0 0 0 0 0 0 0 32 0 0 0 0 64 4608 32774 0 0 134217728 4205568 2097152 805306368 4 13248 0 0 2160074752 0 0 0 0 0 0 0 0 4194560 192 10 1048592 1024 264 8192 0 1073741824 0 0 1024 48 8 0 0 3328 0 3221225472 3 67344 0 2048 536870912 3149824 0 1207959552 64 33619968 0 0 0 0 0 0 0 0 0 0 0 1049088 0 4 268468240 1024 8 49281 133120 84 2415919104 31149154 134217728 67109888 8 0 0 0 8388608 2097152 8192 33685504 20 0 0 8832 8192 0 0 1610612736 12 0 0 41943040 1792 34078720 163 0 0 0 4096 0 0 0 0 0 0 0 0 3072 4202497 0 128 0 1078642822 64
is_linear=0
shrinkage=0.01


Tree=5
num_leaves=31
num_cat=13
split_feature=3 3 3 17 2 3 24 0 3 22 0 22 17 2 12 0 13 0 3 26 24 24 22 4 26 24 26 26 24 23
split_gain=249.983 38.8844 32.5537 14.8453 15.1389 10.7121 8.87322 16.7448 9.86581 8.00834 7.19419 7.16376 6.11631 9.22438 5.93363 4.58257 4.38834 3.75805 3.75678 5.25951 3.52461 3.42871 3.58373 3.22937 3.77197 3.19419 3.39045 3.0783 3.0513 3.04253
threshold=0 1 2 1.0000000180025095e-35 3 4 3.421515492372611 5 6 4.3074056919014039 7 4.3589357303291312 1.0000000180025095e-35 8 0.895806108055896 9 0.33345642693991789 10 11 -595.49999999999989 3.1684617653052638 2.9548974178979668 2.5465380647132299 12 15.500000000000002 2.4615575845949924 1.5000000000000002 24.500000000000004 3.4474481137370341 0.53814966415047838
decision_type=9 9 9 2 9 9 10 9 9 8 9 8 2 9 2 9 2 9 9 10 10 10 8 1 8 10 10 10 10 10
left_child=1 9 3 4 -2 12 7 11 23 28 -5 -3 13 16 -8 20 -4 -14 19 -7 -10 22 -17 24 -9 27 -27 -24 29 -1
right_child=2 6 5 10 -6 18 14 8 15 -11 -12 -13 17 -15 -16 21 -18 -19 -20 -21 -22 -23 25 -25 -26 26 -28 -29 -30 -31
leaf_value=0.0028106554536743138 0.025320945818992566 0.020591458593615032 0.028693103725807606 0.0048579009517041262 0.0050855637106385033 0.020199430817823657 -0.029185708517526193 0.010433529269947435 -3.5474413525422576e-05 0.01012010305995634 -0.0033759384735616614 0.02962019475326351 0.0014933221686839061 0.0018262600526806484 0.028048869614303272 0.0062438581966784094 0.018534700976797814 -0.0064853757493002727 -0.028953106269063195 -0.0059169560748367281 0.0086461575608796307 0.002198405161234806 0.0085255289947975214 0.030057371363134036 -0.005916473783480365 0.011930067060982643 0.0082130900661711963 0.016150814168691571 0.015398742902383904 0.013944718640489873
leaf_weight=25 110 23 59 704 168 66 198 522 256 53 665 83 344 317 41 503 42 739 9720 1454 21 104 131 30 23 168 167 43 201 312
leaf_count=25 110 23 59 704 168 66 198 522 256 53 665 83 344 317 41 503 42 739 9720 1454 21 104 131 30 23 168 167 43 201 312
internal_value=-7.81867e-05 0.002593 -0.000618697 0.000701871 0.00281295 -0.000789821 0.00198752 0.00220636 0.00196259 0.00489018 0.000278305 0.00598276 5.95608e-06 0.00103349 0.000171548 0.0014804 0.0035045 -0.000390582 -0.000896 -0.000424837 0.000289198 0.00177087 0.00196443 0.00308547 0.0029633 0.00255599 0.00198507 0.00365517 0.00533829 0.00475668
internal_weight=17292 2904 14388 1647 278 12741 2313 2074 1968 591 1369 106 1501 418 239 1393 101 1083 11240 1520 277 1116 1012 575 545 509 335 174 538 337
internal_count=17292 2904 14388 1647 278 12741 2313 2074 1968 591 1369 106 1501 418 239 1393 101 1083 11240 1520 277 1116 1012 575 545 509 335 174 538 337
cat_boundaries=0 37 64 101 104 141 144 181 183 186 189 192 227 228
cat_threshold=2048 0 0 0 0 0 0 0 0 0 4096 0 140 3132 0 2048 0 369098752 0 0 6144 268435456 16384 0 0 3932160 1 0 0 0 0 0 0 0 0 48 2031617 0 0 0 0 0 0 0 0 0 0 0 0 0 0 0 2048 0 0 0 0 4096 0 0 0 0 0 1 0 0 0 0 0 0 0 32 0 0 8192 0 64 4608 32774 0 0 134217728 4205568 2097152 536870912 4 13248 0 0 2160074752 0 0 0 0 0 0 0 0 4194560 192 10 1048592 1024 264 8192 0 1073741824 0 0 1024 48 8 0 0 3328 0 3221225472 3 66320 0 2048 536870912 3149824 0 1476395008 64 33619968 0 0 0 0 0 0 0 0 0 0 0 1049088 0 4 0 0 84 2048 0 0 0 0 0 0 0 0 0 0 0 0 0 0 0 0 0 0 0 0 0 0 0 0 1048576 0 0 0 0 0 0 0 0 0 48 65536 2952790016 31132770 134217728 67109888 8 131072 17696768 256 0 4900998 64 0 0 0 8388608 0 8192 33685504 20 0 0 640 8192 0 0 1610613760 12 0 0 41943040 1792 34078720 163 0 0 0 4096 0 0 0 0 0 0 0 0 3072 1
is_linear=0
shrinkage=0.01


Tree=6
num_leaves=31
num_cat=14
split_feature=3 3 3 17 2 3 18 2 3 22 2 24 22 2 26 13 3 26 12 3 10 16 16 0 0 17 8 5 12 25
split_gain=247.52 42.7627 30.8137 15.6659 14.296 10.5325 7.9655 35.3132 11.6806 7.94203 6.77607 6.48178 6.19424 9.01367 5.4163 4.04365 3.79501 5.73129 3.48054 3.31753 2.7351 2.69103 2.62133 2.35119 2.30768 2.29513 2.11479 3.20417 2.6859 2.06005
threshold=0 1 2 1.0000000180025095e-35 3 4 1.0000000180025095e-35 5 6 4.3074056919014039 7 3.2631089646679245 1.8159324096668144 8 20.500000000000004 0.33345642693991789 9 -595.49999999999989 0.7206604759859373 10 -0.56174490092936658 2.3502401828962087 3.8606743063089755 11 12 5.6559367928778359 -0.10452846326765376 13 -0.94697898371965705 1.1079905746609673
decision_type=9 9 9 2 9 9 2 9 9 8 9 8 10 9 10 2 9 10 2 9 2 2 2 9 9 2 2 9 2 8
left_child=1 9 3 4 -2 12 7 18 14 11 -5 20 13 15 19 -4 17 -7 21 -8 -1 -3 -11 29 -15 26 27 28 -21 -14
right_child=2 6 5 10 -6 16 8 -9 -10 22 -12 -13 23 24 -16 -17 -18 -19 -20 25 -22 -23 -24 -25 -26 -27 -28 -29 -30 -31
leaf_value=0.010895774707854848 0.025067736360802641 0.025026663020221159 0.028406172688549534 0.0039154798008317199 0.0053612594221639446 0.019840246530610391 0.010347840515481625 -0.00048810698487788089 -0.028901268776082074 0.014533544260283231 -0.029718309471521241 0.014761568213226575 3.2580055770921677e-05 0.011093513602252617 -0.012187473544206009 0.018349353967029837 -0.028663575206372562 -0.0058577865140883615 0.027685076262246606 0.010850842029935729 0.013919134782797785 0.028328096890345128 -0.0096629670762857552 -0.0062711658125847117 -0.0030601228627866314 0.027768380918160238 0.0062724087547050738 0.010725385220298872 0.0060980442379896665 0.0055636374346663912
leaf_weight=183 110 40 59 735 168 67 321 195 211 29 438 367 222 121 87 42 9703 1470 35 24 214 125 39 734 291 20 739 230 241 32
leaf_count=183 110 40 59 735 168 67 321 195 211 29 438 367 222 121 87 42 9703 1470 35 24 214 125 39 734 291 20 739 230 241 32
internal_value=-7.2982e-05 0.00248231 -0.000632446 0.00074538 0.00288489 -0.000789821 0.00175241 0.00305063 0.00148799 0.00442755 0.000244672 0.00477225 -6.6205e-07 0.000890838 0.00176316 0.00341441 -0.000895111 -0.000424693 0.00585714 0.00190794 0.00388665 0.00675758 0.00120588 -0.000463563 0.000184834 0.00162658 0.00158509 0.00209091 0.00118182 0.000363636
internal_weight=17292 3100 14192 1451 278 12741 2268 395 1873 832 1173 764 1501 513 1662 101 11240 1537 200 1575 397 165 68 988 412 1254 1234 495 265 254
internal_count=17292 3100 14192 1451 278 12741 2268 395 1873 832 1173 764 1501 513 1662 101 11240 1537 200 1575 397 165 68 988 412 1254 1234 495 265 254
cat_boundaries=0 37 64 101 104 141 144 181 183 186 221 247 250 253 255
cat_threshold=2048 0 0 0 0 0 0 0 0 0 4096 0 140 3132 0 2048 0 335544320 0 0 6144 268435456 16384 0 0 12320768 1 0 0 0 0 0 0 0 0 48 2031617 2048 0 0 0 0 0 0 0 0 0 0 0 0 0 0 2048 0 0 0 0 4096 0 0 0 0 0 1 0 0 0 0 0 0 0 32 0 0 8192 0 64 4608 32774 0 0 167772160 4205568 2097152 536870912 4 13248 0 0 2151686144 0 0 0 0 0 0 0 0 4194560 192 10 1048592 1024 264 8192 0 1073741824 0 0 1024 48 8 0 0 3328 0 3221225472 3 66320 0 2048 536870912 3149824 0 1476395008 64 33619968 0 0 0 0 0 0 0 0 0 0 0 1049088 0 4 268468240 1024 8 0 0 0 0 0 0 0 0 0 0 0 0 0 28 0 0 0 0 0 0 2048 268435456 0 0 0 12320768 0 0 0 0 0 0 0 0 0 48 131072 0 2560 134217728 67109888 8 0 0 0 8388608 2097152 8192 33685504 20 0 0 640 8192 0 0 1610613760 12 0 0 41943040 1792 34078720 163 0 0 0 4096 0 0 0 0 0 0 0 0 3072 0 0 0 0 0 0 0 0 0 0 0 0 0 0 0 0 0 0 0 0 0 268435456 0 0 0 1048576 0 4868230 64 4202497 557056 128 135388 4096
is_linear=0
shrinkage=0.01


Tree=7
num_leaves=31
num_cat=11
split_feature=3 3 3 23 2 3 24 0 22 0 24 0 22 2 3 12 20 13 13 21 3 26 10 26 12 22 19 16 26 20
split_gain=248.922 38.7799 31.803 13.1663 14.2688 10.2615 8.37541 25.2846 8.83074 8.38064 8.02767 7.08525 6.73263 8.99394 6.40246 6.00198 5.16503 4.48909 4.04365 3.91841 3.89369 5.49162 3.4702 3.37204 3.09681 3.07426 2.75714 2.33748 2.07924 2.07628
threshold=0 1 2 2.0785510096968545 3 4 2.9548974178979668 5 4.2415083916726788 6 3.2631089646679245 7 1.8848320663501774 8 9 0.895806108055896 4.2844022174599745 0.75546532993267157 0.33345642693991789 1.8833860207048005 10 -595.49999999999989 -0.56174490092936658 5.5000000000000009 -0.90880922144842613 2.7811205202981637 1.8688348091416842 4.5849154143189876 1.5000000000000002 3.1710091262390492
decision_type=9 9 9 8 9 9 10 9 8 9 10 9 10 9 9 2 10 2 2 10 9 10 2 10 2 8 2 2 10 10
left_child=1 10 3 11 24 12 7 8 17 -9 16 -2 13 18 29 -16 22 23 -4 -17 21 -7 -1 -3 -5 -11 -12 -27 -10 -8
right_child=2 6 5 4 -6 20 14 9 28 25 26 -13 -14 -15 15 19 -18 -19 -20 -21 -22 -23 -24 -25 -26 27 -28 -29 -30 -31
leaf_value=0.011479562783593729 0.0047701671441787675 0.020102263038775429 0.028122110961664032 0.024817058997194615 0.0046123228118663652 0.019327464107234217 0.011260126015609146 -0.029830965616327362 0.02193884923633618 0.0079195327696811226 0.0045225544120248333 -0.0034049031763730975 -0.0047188969796413136 0.0012771757853346785 -0.010745377126950111 0.013385900175334703 -0.030432793332894545 0.012731964695100729 0.018165860427359539 0.027490697108978637 -0.028376939454308837 -0.0057992086489474784 0.013666080106256997 -0.02969301270858217 0.024994757590271525 0.010314879627410345 0.014797894322614207 0.015891965990292817 0.029227650307625398 0.010318105179542368
leaf_weight=220 704 32 59 35 163 69 47 121 23 890 22 646 942 450 288 26 23 26 42 22 9703 1496 235 30 79 364 332 22 99 82
leaf_count=220 704 32 59 35 163 69 47 121 23 890 22 646 942 450 288 26 23 26 42 22 9703 1496 235 30 79 364 332 22 99 82
internal_value=-8.28131e-05 0.0025827 -0.00062217 0.000692119 0.00268231 -0.00079015 0.00182901 0.00217984 0.00536364 0.00165103 0.00441568 0.000288889 -8.6496e-06 0.000869328 0.000655914 -0.000104046 0.00362343 0.00320455 0.00341441 0.00316667 -0.000893598 -0.000422222 0.00385714 0.00174194 0.00520968 0.00189269 0.00561017 0.00265285 0.00736066 0.00245324
internal_weight=17292 2904 14388 1627 277 12761 2072 1607 210 1397 832 1350 1493 551 465 336 478 88 101 48 11268 1565 455 62 114 1276 354 386 122 129
internal_count=17292 2904 14388 1627 277 12761 2072 1607 210 1397 832 1350 1493 551 465 336 478 88 101 48 11268 1565 455 62 114 1276 354 386 122 129
cat_boundaries=0 37 64 101 104 141 144 147 149 152 178 213
cat_threshold=2048 0 0 0 0 0 0 0 0 0 4096 0 140 3132 0 2048 0 369098752 0 0 6144 268435456 16384 0 0 3932160 1 0 0 0 0 0 0 0 0 48 2031617 2048 0 0 0 0 0 0 0 0 0 0 0 0 0 0 2048 0 0 0 0 4096 0 0 0 0 0 1 0 0 0 0 0 0 0 32 0 0 0 0 64 4608 33286 0 0 0 4205568 2097152 536870912 4 13248 0 0 2160074752 0 0 0 0 0 0 0 0 4194560 192 10 1048592 1024 264 8192 0 1073741824 0 0 1024 48 8 0 0 3328 0 3221225472 3 66832 0 2048 671088640 2101248 0 1476395008 64 33619968 0 0 0 0 0 0 0 0 0 0 0 1049088 0 4 129 8388608 84 131072 16777216 256 2952790016 31132770 134217728 67109888 8 0 0 0 0 0 0 0 0 0 0 0 0 0 0 0 0 0 0 0 0 0 268435456 0 0 0 1048576 0 0 0 8388608 2097152 8192 33685504 20 0 0 8832 8192 0 0 1610612736 12 0 0 42991616 1792 34078720 163 0 0 0 4096 0 0 0 0 0 0 0 0 3072
is_linear=0
shrinkage=0.01


Tree=8
num_leaves=31
num_cat=13
split_feature=3 3 3 23 2 3 24 0 3 22 2 22 17 2 12 0 3 26 13 24 0 24 22 4 26 24 26 24 23 26
split_gain=246.346 38.7954 33.228 11.4726 13.3716 10.2307 9.15626 15.2668 9.86581 7.93543 7.57274 6.62682 6.43839 8.20907 5.26132 4.58257 4.33253 5.3118 3.76696 3.52461 3.4464 3.42871 3.58373 3.22937 3.77197 3.19419 3.39045 3.16873 3.79897 3.0783
threshold=0 1 2 2.0785510096968545 3 4 3.421515492372611 5 6 4.3074056919014039 7 4.3589357303291312 1.0000000180025095e-35 8 0.895806108055896 9 10 -624.99999999999989 0.33345642693991789 3.1684617653052638 11 2.9548974178979668 2.5465380647132299 12 15.500000000000002 2.4615575845949924 1.5000000000000002 3.4474481137370341 0.53051677821358012 24.500000000000004
decision_type=9 9 9 8 9 9 10 9 9 8 9 8 2 9 2 9 9 10 2 10 9 10 8 1 8 10 10 10 10 10
left_child=1 9 3 10 -5 12 7 11 23 27 -2 -3 13 18 -8 19 17 -7 -4 -10 -14 22 -17 24 -9 29 -27 28 -1 -24
right_child=2 6 5 4 -6 16 14 8 15 -11 -12 -13 20 -15 -16 21 -18 -19 -20 -21 -22 -23 25 -25 -26 26 -28 -29 -30 -31
leaf_value=0.0011684252846143593 0.0041340603404432796 0.019960202756478321 0.027132369757501839 0.024568888407222666 0.0043373789324735101 0.020521684592712905 -0.028497384973320612 0.010116455320138378 -0.00017703908463403194 0.0099479696878746176 -0.029387077345042298 0.028748435333751168 0.00096416179583022653 0.00153379828061469 0.02721579013788885 0.0060437565100222067 -0.028093170059765749 -0.005130712425623454 0.015990795449226186 0.0083436163199599282 -0.007917300166929396 0.0022087352743263978 0.0082983542950100103 0.02918124017752299 -0.0061385353832329502 0.011524600509358017 0.0078803410099949137 0.014949160848001655 0.013529419305194428 0.015564862527570063
leaf_weight=20 946 23 71 104 175 59 198 522 256 53 403 83 349 247 41 503 9836 1499 51 21 648 104 131 30 23 168 167 201 317 43
leaf_count=20 946 23 71 104 175 59 198 522 256 53 403 83 349 247 41 503 9836 1499 51 21 648 104 131 30 23 168 167 201 317 43
internal_value=-7.24037e-05 0.00257927 -0.000608974 0.000733821 0.00258423 -0.000780736 0.0019746 0.00219672 0.00196259 0.00487354 0.00035656 0.00581034 3.92439e-05 0.00116802 0.000129707 0.0014804 -0.00087899 -0.000381378 0.00316667 0.000289198 -0.000378135 0.00177087 0.00196443 0.00308547 0.0029633 0.00255599 0.00198507 0.0053197 0.004727 0.00365517
internal_weight=17292 2904 14388 1628 279 12760 2313 2074 1968 591 1349 106 1366 369 239 1393 11394 1558 122 277 997 1116 1012 575 545 509 335 538 337 174
internal_count=17292 2904 14388 1628 279 12760 2313 2074 1968 591 1349 106 1366 369 239 1393 11394 1558 122 277 997 1116 1012 575 545 509 335 538 337 174
cat_boundaries=0 37 64 101 104 141 144 181 183 186 189 224 227 228
cat_threshold=2048 0 0 0 0 0 0 0 0 0 4096 0 140 3132 0 2048 0 369098752 0 0 6144 268435456 16384 0 0 3932160 1 0 0 0 0 0 0 0 0 48 2031617 0 0 0 0 0 0 0 0 0 0 0 0 0 0 0 2048 0 0 0 0 4096 0 0 0 0 0 1 0 0 0 0 0 0 0 32 0 0 8192 0 64 4608 33286 0 0 0 5254144 2097152 536870912 4 960 0 0 2160074752 0 0 0 0 0 0 0 0 4194560 192 10 1048592 1024 264 8192 0 1073741824 0 0 1024 48 8 0 0 3072 0 2147483648 3 1296 0 2048 134217728 2101248 0 1476395008 64 33632256 0 0 0 0 0 0 0 0 0 0 0 1049088 0 4 0 0 84 2048 0 0 0 0 0 0 0 0 0 0 0 0 0 0 0 0 0 0 0 0 0 0 0 0 1048576 0 0 0 0 0 0 0 0 0 48 65536 0 2560 134217744 67109888 8 131072 17696768 256 0 0 0 0 0 0 34603008 20 0 0 896 8192 1073741824 0 1610678400 12 0 536870912 41943040 1792 34078720 163 0 0 0 4096 0 0 0 0 0 0 0 0 3072 2147483648 4900998 64 1
is_linear=0
shrinkage=0.01


Tree=9
num_leaves=31
num_cat=15
split_feature=3 3 3 23 2 3 24 0 6 22 0 17 2 22 0 12 13 3 26 0 24 23 25 4 20 13 13 4 9 0
split_gain=244.877 39.4111 30.5015 11.5902 13.7163 10.7454 8.94392 15.5015 9.48132 7.93543 6.87222 6.75527 8.13027 6.62682 6.38009 5.26132 4.04365 3.86089 5.64441 3.46179 3.16873 3.79897 3.15105 4.24131 3.62992 2.86419 2.77212 3.04941 2.65947 2.43362
threshold=0 1 2 2.0785510096968545 3 4 3.421515492372611 5 6 4.3074056919014039 7 1.0000000180025095e-35 8 4.3589357303291312 9 0.895806108055896 0.33345642693991789 10 -624.99999999999989 11 3.4474481137370341 0.53051677821358012 0.72113337503165498 12 2.9136055425224519 0.73246693938583618 0.72064045540576316 13 3.5000000000000004 14
decision_type=9 9 9 8 9 9 10 9 9 8 9 2 9 8 9 2 2 9 10 9 10 10 10 1 10 2 2 1 2 9
left_child=1 9 3 10 26 11 7 13 22 20 -2 12 16 -3 -10 -8 -4 18 -7 -13 21 -1 24 -24 -9 -26 27 -5 -17 -14
right_child=2 6 5 4 -6 17 15 8 14 -11 -12 19 29 -15 -16 28 -18 -19 -20 -21 -22 -23 23 -25 25 -27 -28 -29 -30 -31
leaf_value=0.0011567410317682146 0.004681124869332547 0.019760600728913537 0.027827671258080233 0.024317796017674559 0.0045228257944229669 0.01831901477651238 -0.028212411123587407 0.015537503449203877 -0.029530885569317745 0.0098484899909958689 -0.0034121947480138014 0.00095452017787192394 0.011747928280393321 0.028460950980413659 0.0079938975892808461 0.027233042724865632 0.017824293868593685 -0.027812238359168094 -0.0056899094382017699 -0.0078277499015302707 0.014799669239521638 0.013394125112142486 0.0097331439810429288 -0.028833313462851482 0.0089627395777804337 0.02805385652542661 0.027192613528417876 0.026093855649997447 0.02694363223650996 -0.0068777266588962681
leaf_weight=20 704 23 59 37 163 57 198 87 113 53 609 349 106 83 1181 20 42 9819 1412 750 201 317 440 37 87 23 24 43 21 214
leaf_count=20 704 23 59 37 163 57 198 87 113 53 609 349 106 83 1181 20 42 9819 1412 750 201 317 440 37 87 23 24 43 21 214
internal_value=-8.16565e-05 0.00256211 -0.000616614 0.000691824 0.00259551 -0.000778437 0.00195308 0.00217261 0.00193731 0.00487354 0.000309977 1.30717e-05 0.00109026 0.00581034 0.00140798 0.000129707 0.00341441 -0.000884936 -0.000398242 -0.000399454 0.0053197 0.004727 0.00291813 0.00252201 0.00402538 0.00281818 0.00522807 0.006625 0.00339024 0.000242424
internal_weight=17292 2904 14388 1580 267 12808 2313 2074 1968 591 1313 1520 421 106 1294 239 101 11288 1469 1099 538 337 674 477 197 110 104 80 41 320
internal_count=17292 2904 14388 1580 267 12808 2313 2074 1968 591 1313 1520 421 106 1294 239 101 11288 1469 1099 538 337 674 477 197 110 104 80 41 320
cat_boundaries=0 37 64 101 104 141 144 148 150 153 156 191 194 195 196 199
cat_threshold=2048 0 0 0 0 0 0 0 0 0 4096 0 140 3132 0 2048 0 369098752 0 0 6144 268435456 16384 0 0 3932160 1 0 0 0 0 0 0 0 0 48 2031617 0 0 0 0 0 0 0 0 0 0 0 0 0 0 0 2048 0 0 0 0 4096 0 0 0 0 0 1 0 0 0 0 0 0 0 32 0 0 0 0 64 4608 33286 0 0 0 4205568 2097152 536870912 4 960 0 0 2160074752 0 0 0 0 0 0 0 0 4194560 192 10 1048592 1024 264 8192 0 1073741824 0 0 1024 48 8 0 0 3328 0 3221225472 3 65808 0 2048 671088640 2101248 0 1476395008 64 33632256 0 0 0 0 0 0 0 0 0 0 0 1049088 0 4 0 0 84 2621441 64 33554432 67108864 2952790016 31132770 134217728 67109888 8 131072 16777216 256 0 0 0 0 2097152 0 34603008 20 0 0 8832 8192 0 0 1610613888 12 0 0 42991616 1792 34078720 163 0 0 0 4096 0 0 0 0 0 0 0 0 3072 2147483648 4900998 64 1 4 4202497 0 128
is_linear=0
shrinkage=0.01


Tree=10
num_leaves=31
num_cat=13
split_feature=3 3 3 23 2 3 18 2 0 22 2 22 2 24 12 21 13 3 26 12 16 13 4 10 3 16 0 19 14 13
split_gain=240.341 39.7327 33.3309 11.4726 13.3716 10.519 8.23691 32.336 12.4108 7.7681 7.57274 6.64328 8.96449 5.91973 4.88322 4.23916 4.04365 3.79803 5.23273 3.24175 3.15075 2.77212 3.04941 2.7351 2.6911 2.62133 2.04484 2.03664 1.90502 1.89585
threshold=0 1 2 2.0785510096968545 3 4 1.0000000180025095e-35 5 6 4.3074056919014039 7 1.8848320663501774 8 3.2631089646679245 0.895806108055896 1.8833860207048005 0.33345642693991789 9 -595.49999999999989 0.7206604759859373 2.8029010331479989 0.72064045540576316 10 -0.56174490092936658 11 3.8606743063089755 12 2.4414009612931857 -0.5 -0.98208922706762081
decision_type=9 9 9 8 9 9 2 9 9 8 9 10 9 8 2 10 2 9 10 2 2 2 1 2 9 2 9 2 2 2
left_child=1 9 3 10 21 11 7 19 14 13 -2 12 16 23 -8 -16 -4 18 -7 20 -3 22 -5 27 29 -11 -13 -1 -14 -10
right_child=2 6 5 4 -6 17 8 -9 24 25 -12 26 28 -15 15 -17 -18 -19 -20 -21 -22 -23 -24 -25 -26 -27 -28 -29 -30 -31
leaf_value=0.011920204346031795 0.004045908488345522 0.025217387299443839 0.027549394545499432 0.024074618057497818 0.0042487768852045487 0.019217352409574725 -0.0057029785320167926 -0.00035706778091440039 -0.001846505085770143 0.014037186959513417 -0.02905908462411174 0.00018688828293485327 0.0053376531313374977 0.014168485286992931 0.011669328867886547 0.026674195914144862 0.017646050929907751 -0.027534115975576416 -0.0056330103438197512 0.026543855133406243 0.026629698892414049 0.026920687393133701 0.025832917093497474 0.013412362475014846 0.0058026194056445294 -0.0099122809455377513 -0.0078418598965591772 0.0095445262656052368 -0.00096926812715159905 0.009787058426633511
leaf_weight=51 946 49 59 37 175 66 342 191 26 29 403 247 176 367 31 23 42 9702 1472 35 116 24 43 214 560 39 717 132 279 699
leaf_count=51 946 49 59 37 175 66 342 191 26 29 403 247 176 367 31 23 42 9702 1472 35 116 24 43 214 560 39 717 132 279 699
internal_value=-8.10782e-05 0.00253809 -0.000611057 0.000733821 0.00258423 -0.000783086 0.00177618 0.00309207 0.00148067 0.00439192 0.00035656 -2.3686e-10 0.000870503 0.00473298 -8.86702e-05 0.0027037 0.00341441 -0.000888889 -0.000418605 0.0057619 0.00663636 0.00522807 0.006625 0.00388665 0.00194981 0.00120588 -0.000502075 0.00298907 0.000225806 0.00238775
internal_weight=17292 2904 14388 1628 279 12760 2072 391 1681 832 1349 1520 556 764 396 54 101 11240 1538 200 165 104 80 397 1285 68 964 183 455 725
internal_count=17292 2904 14388 1628 279 12760 2072 391 1681 832 1349 1520 556 764 396 54 101 11240 1538 200 165 104 80 397 1285 68 964 183 455 725
cat_boundaries=0 37 64 101 104 141 144 147 149 152 187 188 214 217
cat_threshold=2048 0 0 0 0 0 0 0 0 0 4096 0 140 3132 0 2048 0 369098752 0 0 6144 268435456 16384 0 0 3932160 1 0 0 0 0 0 0 0 0 48 2031617 2048 0 0 0 0 0 0 0 0 0 0 0 0 0 0 2048 0 0 0 0 4096 0 0 0 0 0 1 0 0 0 0 0 0 0 32 0 0 8192 0 64 4608 33286 0 0 0 5254144 2097152 536870912 4 960 0 0 2160074752 0 0 0 0 0 0 0 0 4194560 192 10 1048592 1024 264 8192 0 1073741824 0 0 1024 48 8 0 0 3328 0 3221225472 3 65808 0 2048 671088640 2101248 0 1476395008 64 33632256 0 0 0 0 0 0 0 0 0 0 0 1049088 0 4 268468240 1024 8 49281 133120 84 0 2560 134217728 67109888 8 0 0 0 8388608 0 8192 33685504 20 0 0 640 8192 0 0 1610613888 12 0 0 41943040 1792 34078720 163 0 0 0 4096 0 0 0 0 0 0 0 0 3072 4 0 0 0 0 0 0 0 0 0 0 0 0 0 0 0 0 0 0 0 0 2048 268435456 0 0 0 1572864 2147483648 4900994 64
is_linear=0
shrinkage=0.01


Tree=11
num_leaves=31
num_cat=12
split_feature=3 3 3 23 2 3 22 24 0 0 22 2 0 24 12 22 20 13 3 26 25 4 4 10 13 25 26 13 16 13
split_gain=240.416 39.543 31.1691 11.8595 13.4866 10.4309 7.7681 7.73479 18.0793 6.71227 6.64328 8.96449 6.58464 5.91973 5.70475 5.67212 5.52955 4.04365 3.86089 5.64441 3.49788 2.9746 2.78474 2.7351 2.70734 3.44371 3.97084 3.08853 2.62133 2.47364
threshold=0 1 2 2.0785510096968545 3 4 4.3074056919014039 3.3701314446674036 5 6 1.8848320663501774 7 8 3.2631089646679245 0.895806108055896 4.3589357303291312 4.2844022174599745 0.33345642693991789 9 -624.99999999999989 0.83197071469551453 10 11 -0.56174490092936658 -0.86092912513210462 1.5721644843542928 15.500000000000002 0.75546532993267157 3.8606743063089755 0.69635043120606444
decision_type=9 9 9 8 9 9 8 10 9 9 10 9 9 8 2 8 8 2 9 10 8 1 1 2 2 8 10 2 2 2
left_child=1 6 3 9 21 10 13 8 15 -2 11 17 20 23 -9 -3 24 -4 19 -7 -10 -5 -18 -1 -14 26 29 -27 -8 -26
right_child=2 7 5 4 -6 18 28 14 12 -11 -12 -13 16 -15 -16 -17 22 -19 -20 -21 -22 -23 -24 -25 25 27 -28 -29 -30 -31
leaf_value=0.010340175099282017 0.0045938545357557684 0.019311438332902043 0.027273900600044438 0.023839275382398717 0.0044351097676266927 0.017943651104651511 0.013896815089918284 -0.027880674570762504 0.0094173060806824731 -0.0033949625958783836 -0.0046350551749322448 0.0013199595469477428 0.0077632351571337499 0.014026800434123002 0.026488604717892234 0.027912869132482473 0.01332471233214109 0.017469590420608673 -0.02725877481582065 -0.0055766802403815555 -0.0002190084339467515 0.023927605542684218 0.028381281384206831 0.013278238850264698 0.0095379419569661655 0.014717195990469849 -0.0041709826352057952 0.024828427473139968 -0.0098131581360823717 0.0063082820805863702
leaf_weight=183 704 21 59 50 163 57 29 204 49 630 964 455 168 367 39 83 36 42 9819 1412 276 59 26 214 663 43 56 23 39 359
leaf_count=183 704 21 59 50 163 57 29 204 49 630 964 455 168 367 39 83 36 42 9819 1412 276 59 26 214 663 43 56 23 39 359
internal_value=-8.80178e-05 0.00254571 -0.000615225 0.000695544 0.00260294 -0.000779997 0.00439192 0.00177724 0.00201165 0.000311844 -2.3686e-10 0.000870503 0.00172674 0.00473298 0.000111111 0.00592982 0.00203468 0.00341441 -0.000884936 -0.000398242 0.000402985 0.00513445 0.00496774 0.00388665 0.00191159 0.00208566 0.00194991 0.00430303 0.00120588 0.00209198
internal_weight=17292 2878 14414 1606 272 12808 832 2046 1803 1334 1520 556 1699 764 243 104 1374 101 11288 1469 325 109 62 397 1312 1144 1078 66 68 1022
internal_count=17292 2878 14414 1606 272 12808 832 2046 1803 1334 1520 556 1699 764 243 104 1374 101 11288 1469 325 109 62 397 1312 1144 1078 66 68 1022
cat_boundaries=0 37 64 101 104 141 144 146 149 152 187 188 189
cat_threshold=2048 0 0 0 0 0 0 0 0 0 4096 0 140 3132 0 2048 0 369098752 0 0 6144 268435456 0 0 0 3932160 1 0 0 0 0 0 0 0 0 48 2031617 2048 0 0 0 0 0 0 0 0 0 0 0 0 0 0 2048 0 0 0 0 4096 0 0 0 0 0 1 0 0 0 0 0 0 0 32 0 0 0 0 64 4608 33286 0 0 0 4205568 2097152 536870912 4 17344 0 0 2160074752 0 0 0 0 0 0 0 0 4194560 192 10 1048592 1024 264 8192 0 1073741824 0 0 1024 48 8 0 0 3328 0 3221225472 3 65808 0 2048 671088640 2101248 0 1476395008 64 33632256 0 0 0 0 0 0 0 0 0 0 0 1049088 0 4 0 0 84 2952790016 31132770 134217728 67109888 8 147456 17434624 256 0 0 0 0 2097152 0 34603008 20 0 0 8832 8192 0 0 1610613888 12 0 0 42991616 1792 34078720 163 0 0 0 4096 0 0 0 0 0 0 0 0 3072 4 1
is_linear=0
shrinkage=0.01


Tree=12
num_leaves=31
num_cat=12
split_feature=3 3 3 3 23 24 0 22 17 2 22 2 0 6 12 12 13 3 26 22 26 12 0 24 26 2 17 12 24 10
split_gain=226.389 32.605 32.3865 9.9967 9.99511 8.86597 19.7678 16.3041 7.29101 8.3379 6.89697 6.64633 5.95677 5.87791 5.46846 4.49365 4.48223 4.29102 5.67779 3.80638 3.54175 3.36873 3.20959 3.05197 3.03874 2.82995 8.54678 5.25952 2.73737 2.7351
threshold=0 1 2 3 1.8527059312404506 3.3701314446674036 4 4.1178406624743813 1.0000000180025095e-35 5 4.2668066320088522 6 7 8 0.895806108055896 -0.73248728852523659 0.33345642693991789 9 -549.49999999999989 2.4166452760879618 8.5000000000000018 0.81150899888343053 10 3.098519704871221 20.500000000000004 11 1.8688348091416842 -0.6254047815183511 3.2631089646679245 -0.56174490092936658
decision_type=9 9 9 9 8 10 9 8 2 9 8 9 9 9 2 2 2 9 8 10 10 2 9 10 10 9 2 2 8 2
left_child=1 10 4 8 11 6 7 19 9 16 28 -2 23 -6 -7 -15 -4 18 -5 -3 -21 -9 -10 -8 -17 26 27 -20 29 -1
right_child=2 5 3 17 13 14 12 21 22 -11 -12 -13 -14 15 -16 24 -18 -19 25 20 -22 -23 -24 -25 -26 -27 -28 -29 -30 -31
leaf_value=0.010236773348289197 0.0039595108581045087 -0.0019519284911060769 0.028652429633854507 0.014122547221238686 0.0050860826860263672 -0.027601867825054881 -0.012562378458510938 0.027804560858877003 0.0011772665480101543 0.0020909384336639373 0.0099281861317324412 -0.028734544151911838 0.0089109161180390764 0.022508558364132542 0.026142567907824491 0.023591135039483031 0.018032490778561758 -0.026986187067662443 0.022554017940114756 0.011238503561293514 0.0050145557621376433 0.02671843282510809 -0.0058514887941847095 0.008090130536645224 -0.0021273870568335892 -0.0055357377737696558 -0.026986187067662443 -0.020925533174464703 0.013886532429781773 0.013145456461762054
leaf_weight=183 945 37 61 71 103 219 165 111 232 282 72 398 1348 77 41 60 40 9761 42 74 42 22 830 20 38 1206 207 28 363 214
leaf_count=183 945 37 61 71 103 219 165 111 232 282 72 398 1348 77 41 60 40 9761 42 74 42 22 830 20 38 1206 207 28 363 214
internal_value=-9.09093e-05 0.00244745 -0.000606004 -0.000775255 0.000722869 0.0017573 0.00201264 0.00440541 1.0309e-05 0.00119321 0.00413064 0.000370067 0.00152754 0.00245324 3.84613e-05 0.00348649 0.0035045 -0.000875497 -0.000379796 0.00233333 0.00322414 0.0071203 -0.000416196 -0.000179487 0.00226531 -0.000514498 0.000393728 0.00342857 0.00446053 0.00388665
internal_weight=17292 2911 14381 12760 1621 2079 1819 286 1445 383 832 1343 1533 278 260 175 101 11315 1554 153 116 133 1062 185 98 1483 277 70 760 397
internal_count=17292 2911 14381 12760 1621 2079 1819 286 1445 383 832 1343 1533 278 260 175 101 11315 1554 153 116 133 1062 185 98 1483 277 70 760 397
cat_boundaries=0 37 64 101 138 141 144 146 149 152 187 189 192
cat_threshold=2048 0 0 0 0 0 0 0 0 0 4096 0 204 7228 0 2048 0 268435456 0 0 6144 268435456 0 0 0 2151415808 1 0 0 0 0 0 0 0 0 48 2031617 2048 0 0 0 0 0 0 0 0 0 0 0 0 0 0 2048 0 0 0 0 4096 0 0 0 0 0 1 0 0 0 0 0 0 0 32 0 0 8192 0 0 512 33286 0 0 100663296 5254144 2097152 536870912 4 17344 0 0 12591104 0 0 0 0 0 0 0 0 4194560 192 10 8192 0 0 0 0 1024 48 8 0 0 3328 0 3221225472 3 65808 0 2048 671088640 2101248 0 1476395008 64 33632256 0 0 0 0 0 0 0 0 0 0 0 1049088 0 4 129 8388612 84 134217728 67109888 24 0 2560 131072 16779264 256 8388608 8396808 16448 0 0 1073741824 0 2097152 0 33554432 20 0 0 704 8192 0 0 1879049344 12 0 0 58720256 768 34078720 162 32768 0 0 1073745920 0 0 0 0 0 0 0 0 3072 2147483648 4769922 33554432 0 8
is_linear=0
shrinkage=0.01


Tree=13
num_leaves=31
num_cat=12
split_feature=3 3 3 17 0 3 0 0 18 0 13 12 22 2 22 3 26 12 24 20 24 13 21 13 2 17 12 21 0 22
split_gain=213.535 32.9558 23.2494 14.0614 16.4067 10.652 7.66581 7.39429 23.6988 10.3181 9.0183 6.51509 6.46228 8.31202 5.61741 5.00067 4.9625 4.17697 3.63044 3.60106 3.36127 3.36025 3.28646 3.08848 3.03007 7.92507 4.26952 2.5541 2.37935 2.08771
threshold=0 1 2 1.0000000180025095e-35 3 4 5 6 1.0000000180025095e-35 7 -0.63872576220844923 0.895806108055896 1.8159324096668144 8 4.2668066320088522 9 -624.99999999999989 0.7206604759859373 2.4013113042636847 1.8141392368406133 3.2631089646679245 0.33345642693991789 1.8833860207048005 0.72064045540576316 10 1.8688348091416842 -0.70862011619447618 0.65456653594294312 11 2.2799519132190667
decision_type=9 9 9 2 9 9 9 9 2 9 2 2 10 9 8 9 10 2 10 10 8 2 10 2 9 2 2 8 9 10
left_child=2 3 14 4 23 12 -5 18 10 11 19 -10 13 21 20 16 -7 -12 -4 -9 -1 -3 -13 -2 25 26 -18 -16 -14 -11
right_child=1 5 7 6 -6 15 -8 8 9 29 17 22 28 -15 27 -17 24 -19 -20 -21 -22 -23 -24 -25 -26 -27 -28 -29 -30 -31
leaf_value=0.01189754311096974 0.023375797044933404 0.028365905337515963 -0.0069835824410983596 0.005064017369243925 0.005035221859166104 0.020140332891384203 -0.0014537461019135157 0.023518893537784198 -0.027325849146804332 0.0074828863356329114 0.025751421764177974 0.012479833562289405 0.0010544302999582777 0.0014737310610648665 -0.0065148289968772182 -0.026716325196985819 0.022079451699680647 0.025721242282158586 0.006481807766412012 -0.0029019944248790844 0.013747667105483955 0.017852165870776142 0.025881142228746247 0.026177176414983547 -0.004066335944318396 -0.027383994008291293 0.011014060443190133 0.01322500815863027 -0.0061256005474950069 0.0093576247871496824
leaf_weight=397 78 61 165 585 168 51 763 43 232 316 118 24 227 357 35 9889 34 34 167 31 363 40 23 22 1303 184 28 37 741 776
leaf_count=397 78 61 165 585 168 51 763 43 232 316 118 24 227 357 35 9889 34 34 167 31 363 40 23 22 1303 184 28 37 741 776
internal_value=-0.000112307 -0.000597002 0.00243197 0.000746617 0.00284328 -0.000765571 0.000335311 0.00180557 0.00209272 0.00161123 0.00510619 -0.000134948 5.15318e-05 0.00103057 0.00384561 -0.000866945 -0.000341615 0.0065 0.000403509 0.00224324 0.00414474 0.00341441 0.00325532 0.00581818 -0.000444803 0.0005625 0.00367742 0.00122222 -0.000411157 0.00203993
internal_weight=17292 14531 2761 1616 268 12915 1348 1929 1597 1371 226 279 1426 458 832 11489 1600 152 332 74 760 101 47 100 1549 246 62 72 968 1092
internal_count=17292 14531 2761 1616 268 12915 1348 1929 1597 1371 226 279 1426 458 832 11489 1600 152 332 74 760 101 47 100 1549 246 62 72 968 1092
cat_boundaries=0 37 74 101 104 141 143 146 149 152 187 190 192
cat_threshold=2048 0 0 0 0 0 0 0 0 0 0 0 140 3132 0 2048 0 335544320 0 0 6144 268435456 0 0 0 3932160 1 0 0 0 0 0 0 0 0 48 2031616 0 0 0 0 0 0 0 32 0 0 4096 0 64 4096 32774 0 0 33554432 4205568 2097152 536870912 0 17344 0 0 2160074752 0 0 0 0 0 0 0 0 4194560 192 11 2048 0 0 0 0 0 0 0 0 0 0 0 0 0 0 2048 0 0 0 0 4096 0 0 0 0 0 1 513 0 2132 8192 0 0 0 0 1024 48 8 0 0 11264 0 2147483648 515 784 0 2048 134217728 3149824 0 1476395008 68 33632256 0 0 0 0 0 0 0 0 0 0 0 1049088 0 4 2415919104 26938466 131072 17434624 256 32897 0 84 134217728 67109888 24 0 0 1073741824 0 0 0 34603008 20 0 0 896 8192 1073741824 0 1879114880 12 0 536870912 41943040 512 34078720 163 0 0 0 1073745920 0 0 0 0 0 0 0 0 2048 33554432 0 8 0 4868230
is_linear=0
shrinkage=0.01


Tree=14
num_leaves=31
num_cat=14
split_feature=3 3 3 24 0 22 3 23 0 26 0 22 2 0 24 4 3 26 4 12 12 16 8 2 0 19 20 12 24 22
split_gain=208.04 30.7776 22.4161 11.262 18.8367 11.1131 9.69866 9.21772 14.8852 6.6281 6.4252 5.91532 10.3418 5.27591 4.89295 4.48533 4.06013 5.89858 4.0043 3.55365 3.54416 3.41481 2.90039 2.77452 2.63971 2.48614 2.16025 2.14272 2.08238 2.5162
threshold=0 1 2 2.9548974178979668 3 4.1178406624743813 4 1.8527059312404506 5 15.500000000000002 6 1.7269952454145248 7 8 3.2631089646679245 9 10 -624.99999999999989 11 0.895806108055896 0.81150899888343053 3.6242520361853052 0.73907380036690307 12 13 0.89587973461402759 4.3869700394049707 0.77214943412548942 2.7452516557505064 3.0020487302555003
decision_type=9 9 9 10 9 8 9 8 9 8 9 10 9 9 10 1 9 10 1 2 2 2 2 9 9 2 10 2 10 10
left_child=2 7 9 4 5 -4 11 10 15 14 28 12 18 -6 -1 -9 17 -8 -3 -5 -7 -15 -17 -14 27 -23 -16 -13 29 -2
right_child=1 6 3 19 13 20 16 8 -10 -11 -12 24 23 21 26 22 -18 -19 -20 -21 -22 25 -24 -25 -26 -27 -28 -29 -30 -31
leaf_value=0.011137032799470061 0.0044576807081247293 0.028511978062056957 0.0078413974992800201 -0.01034427406544329 -0.029034356342479861 0.026936291090836471 0.016619713899150738 0.023142039074484071 0.0031892182241439085 0.012778357217329839 -0.0018877639867230745 -6.3205291010324035e-06 0.0037716518044431176 0.0065349752833968487 0.013806275410625402 0.023254554771604395 -0.02644916194501596 -0.0040108487686396667 0.010904727845594039 0.025622330806458784 0.021756465913466166 0.014758557684968664 0.0017024485824898028 -0.0082137691050476764 -0.0059086308190686989 0.0094075173028512898 0.0085677210316491767 0.0051770117613706692 -0.0071168475091909445 0.015756310589989855
leaf_weight=739 636 36 136 257 102 95 55 50 192 118 637 195 154 797 377 51 9643 1471 73 39 20 42 24 203 816 130 21 47 87 49
leaf_count=739 636 36 136 257 102 95 55 50 192 118 637 195 154 797 377 51 9643 1471 73 39 20 42 24 203 816 130 21 47 87 49
internal_value=-0.000119246 -0.000609121 0.00233333 0.00153071 0.00193495 0.00436398 -0.00077958 0.000641705 0.00218612 0.00334783 0.000298793 -2.86834e-05 0.000909871 0.00131267 0.00360862 0.0047037 -0.000881922 -0.000394531 0.00345378 -0.000222973 0.00682609 0.00154341 0.00353333 3.54221e-05 -0.000442344 0.00283721 0.00450251 0.000468254 0.000905371 0.00110219
internal_weight=17292 14419 2873 1618 1322 251 12693 1726 317 1255 1409 1524 466 1071 1137 125 11169 1526 109 296 115 969 75 357 1058 172 398 242 772 685
internal_count=17292 14419 2873 1618 1322 251 12693 1726 317 1255 1409 1524 466 1071 1137 125 11169 1526 109 296 115 969 75 357 1058 172 398 242 772 685
cat_boundaries=0 37 74 110 113 150 153 156 159 162 163 198 199 202 205
cat_threshold=2048 0 0 0 0 0 0 0 0 0 4096 0 204 7228 0 2048 0 268435456 0 2097152 6144 268435456 0 0 0 3932160 1 0 0 0 0 0 0 0 0 48 2031617 0 0 0 0 0 0 0 32 0 0 0 0 0 512 33302 0 0 100663296 4205568 0 536870912 4 17344 0 0 2160074752 0 0 0 0 0 0 0 0 4195072 192 10 2048 0 0 0 0 0 0 0 0 0 0 0 0 4 0 2048 0 0 0 0 4096 268435456 0 0 0 1048576 1 0 0 0 0 0 0 0 0 16 536871041 9437184 84 8192 0 1073741824 0 0 1024 48 8 0 0 3456 0 3221225472 3 66816 0 2048 671088640 2101248 0 1476395008 64 33632256 0 0 0 0 0 0 0 0 0 0 0 1048576 0 4 513 16777216 2132 2415919104 31149154 64 167772160 67109888 8 131072 16777216 256 4 0 0 0 0 2097152 0 34734080 20 0 0 8704 8192 0 0 1879048320 12 0 0 59768832 768 34078720 163 32768 0 0 1073745920 0 0 0 0 0 0 0 0 3072 1 16 520 16 2147483648 4769922 64
is_linear=0
shrinkage=0.01


Tree=15
num_leaves=31
num_cat=12
split_feature=3 3 3 23 24 0 22 3 0 0 17 2 22 3 14 24 12 3 13 3 26 16 14 12 9 24 4 23 21 25
split_gain=201.808 31.4417 21.2628 9.82856 9.14159 18.0703 13.7203 8.33046 6.7923 6.40059 5.53916 10.7129 5.50465 5.50077 5.38656 5.18938 5.06751 4.28251 4.25608 4.09545 6.12866 3.9421 3.536 3.09128 2.96077 2.73776 2.71329 2.48482 2.47454 2.28471
threshold=0 1 2 1.8527059312404506 3.421515492372611 3 4.1178406624743813 4 5 6 1.0000000180025095e-35 7 4.2668066320088522 8 -0.5 3.1459334471442451 0.895806108055896 9 0.80898702767051967 10 -549.49999999999989 4.2413008733233104 -0.5 0.81150899888343053 3.5000000000000004 3.421515492372611 11 0.53213597113475042 1.4728086709914399 0.96041679041771655
decision_type=9 9 9 8 10 9 8 9 9 9 2 9 8 9 2 10 2 9 2 9 8 2 2 2 2 8 1 10 8 8
left_child=2 3 12 9 5 6 -4 10 15 -2 11 14 25 -5 26 -7 -6 28 21 20 -9 22 -15 -8 -18 -1 -3 -19 29 -10
right_child=1 7 4 13 16 8 23 19 17 -11 -12 -13 -14 18 -16 -17 24 27 -20 -21 -22 -23 -24 -25 -26 -27 -28 -29 -30 -31
leaf_value=0.012719993140516092 -0.001866006199241663 0.027797126503520234 0.010849434730130853 0.0047523240928584003 -0.026949147914681861 -0.028744012779055063 0.026999638536090134 0.014612118963705021 0.011391788973460833 0.003983418069430718 -0.0046686669238506263 -0.00025669729734561402 0.010390839347876341 0.013576267395919588 0.017048484616428376 0.0078063483995084006 0.025908279591959384 0.011309880412787288 -0.0030881800926826197 -0.0261846703255658 -0.0044055707965226995 0.025393698935174406 0.0076463357578846793 0.026072046259757453 0.025366107498394196 0.013668212656519145 0.015647336290520585 0.005658617271781418 0.010904538223618849 0.0088321845195116055
leaf_weight=305 660 23 94 103 213 146 111 68 283 877 990 326 57 86 61 20 20 93 27 9574 1519 35 40 22 23 229 30 855 83 319
leaf_count=305 660 23 94 103 213 146 111 68 283 877 990 326 57 86 61 20 20 93 27 9574 1519 35 40 22 23 229 30 855 83 319
internal_value=-0.000130812 -0.000613279 0.00228477 0.000610446 0.00182722 0.00206022 0.0046962 -0.000791287 0.00169209 0.00029473 -6.94447e-05 0.000863636 0.00399168 0.00229897 0.00335484 -0.000261364 5.46873e-05 0.00189105 0.00324242 -0.000883627 -0.000405135 0.00403106 0.00320635 0.00696992 0.00318605 0.00437453 0.00598113 0.00141127 0.00252518 0.00233887
internal_weight=17292 14419 2873 1828 2282 2026 227 12591 1799 1537 1430 440 591 291 114 166 256 1633 188 11161 1587 161 126 133 43 534 53 948 685 602
internal_count=17292 14419 2873 1828 2282 2026 227 12591 1799 1537 1430 440 591 291 114 166 256 1633 188 11161 1587 161 126 133 43 534 53 948 685 602
cat_boundaries=0 37 74 101 104 141 144 147 150 185 211 246 247
cat_threshold=2048 0 0 0 0 0 0 0 0 0 4096 0 204 7228 0 2048 0 268435456 0 2097152 6144 268435456 0 0 0 3932160 1 0 0 0 0 0 0 0 0 48 2031617 0 0 0 0 0 0 0 32 0 0 0 0 0 512 32790 0 0 100663296 4205568 0 805306368 68 21440 0 0 2160074752 0 0 0 0 0 0 0 0 4194560 192 10 0 0 0 0 0 0 0 0 0 0 0 0 0 0 0 2048 0 0 0 0 4096 0 0 0 0 0 1 129 8388608 84 8192 0 1073741824 0 0 1024 48 8 0 0 3456 0 3221225472 3 66304 0 2048 671088640 3149824 0 1207959552 0 33628160 0 0 0 0 0 0 0 0 0 0 0 1049088 0 4 131072 16777216 256 541204993 2149613700 2196 167772160 67109888 8 0 0 0 0 0 0 0 0 0 0 0 0 0 512 0 0 0 0 0 0 268435456 0 0 0 0 12591104 0 0 0 0 0 0 0 0 256 2048 0 0 0 0 0 0 0 0 0 0 0 0 0 0 0 0 0 0 0 2048 0 0 0 0 1048576 0 0 0 0 2097152 0 33685504 20 0 0 8768 8192 0 0 1879049344 12 0 0 58720256 768 34078720 163 32768 0 0 1073745920 0 0 0 0 0 0 0 0 3072 1
is_linear=0
shrinkage=0.01


Tree=16
num_leaves=31
num_cat=15
split_feature=3 3 3 23 3 0 18 3 3 0 22 3 17 2 14 3 3 26 12 13 16 25 14 0 4 24 16 0 27 22
split_gain=201.031 27.2644 24.0928 10.6956 8.53589 8.14974 22.664 10.3806 8.96036 6.0617 5.50465 4.86861 4.68443 10.2596 5.00117 4.68109 4.1369 4.51304 4.06923 4.05298 3.96808 3.86451 3.01742 2.85057 2.82609 2.73776 2.47596 2.35881 2.23716 1.96167
threshold=0 1 2 1.8527059312404506 3 4 1.0000000180025095e-35 5 6 7 4.2668066320088522 8 1.0000000180025095e-35 9 -0.5 10 11 -549.49999999999989 0.895806108055896 0.80898702767051967 4.2413008733233104 0.48333000476934457 -0.5 12 13 3.421515492372611 3.3140206880897671 14 1.5000000000000002 1.4665180602496544
decision_type=9 9 9 8 9 9 2 9 9 9 8 9 2 9 2 9 9 8 2 2 2 10 2 9 1 8 2 9 8 10
left_child=2 3 10 9 12 21 8 11 28 -2 25 -8 13 14 24 -5 17 -6 26 20 22 -4 -17 -14 -3 -1 -10 -13 -7 -19
right_child=1 4 5 15 16 6 7 -9 18 -11 -12 27 23 -15 -16 19 -18 29 -20 -21 -22 -23 -24 -25 -26 -27 -28 -29 -30 -31
leaf_value=0.012592793209110931 -0.0084272327142722522 0.02751915523848503 -0.027980376864581064 0.0047048008519298178 0.01449904450466937 -0.0022537147148130664 0.0092254146939488146 -0.026679656435535042 0.024158067500648653 0.0032779249442208423 0.01028693095439758 0.0052973077985179621 0.0016094402521326311 -0.00025413032437215948 0.017401900704580944 0.01352896596897139 -0.025922823622310142 -1.6881143283065713e-05 0.023903238687278849 -0.0026674725366877491 0.025139761945822663 0.0087925010889003171 0.0086398139233035565 -0.0068849222872989606 0.016215731874851622 0.013531530529953956 0.026622727432265667 0.0076985220586116114 0.0070775664361377236 -0.0053555528409371476
leaf_weight=305 466 20 187 103 67 38 948 208 45 815 57 530 234 326 58 84 9619 488 24 26 35 24 38 745 26 229 111 348 62 1026
leaf_count=305 466 20 187 103 67 38 948 208 45 815 57 530 234 326 58 84 9619 488 24 26 35 24 38 745 26 229 111 348 62 1026
internal_value=-0.000131969 -0.000637671 0.00216379 0.000604312 -0.000792377 0.00172189 0.00189587 0.00153687 0.00457143 0.000217798 0.00399168 0.00177233 -5.56732e-05 0.000813953 0.00338596 0.00235664 -0.000884924 -0.000402892 0.00584211 0.0032487 0.00403185 -0.000185521 0.00318033 -0.000438202 0.00617391 0.00437453 0.00675641 0.00119595 0.00154545 -0.000517834
internal_weight=17292 14176 3116 1567 12609 2525 2314 2034 280 1281 591 1826 1409 430 104 286 11200 1581 180 183 157 211 122 979 46 534 156 878 100 1514
internal_count=17292 14176 3116 1567 12609 2525 2314 2034 280 1281 591 1826 1409 430 104 286 11200 1581 180 183 157 211 122 979 46 534 156 878 100 1514
cat_boundaries=0 37 74 101 136 139 176 213 216 242 245 280 315 318 319 322
cat_threshold=2048 0 0 0 0 0 0 0 0 0 4096 0 204 7228 0 2048 0 0 0 2097152 6144 268435456 0 0 0 12320768 1 0 0 0 0 0 0 0 0 48 2031617 0 0 0 0 0 0 0 32 0 0 0 0 0 512 32790 0 0 369098752 4205568 0 671088640 68 21440 0 0 2151686144 0 0 0 0 0 0 0 0 4194560 192 10 0 0 0 0 0 0 0 0 0 0 0 0 0 0 0 2048 0 0 0 0 4096 0 0 0 0 0 1 0 0 1073741824 0 0 1024 48 8 0 0 3456 0 3221225472 3 66304 0 2048 671088640 3149824 0 1342177280 0 33628160 0 0 0 0 0 0 0 0 0 0 0 1049088 131072 16777216 256 2048 0 0 0 0 0 0 0 0 0 0 0 0 28 0 0 0 0 0 2097152 2048 0 0 0 0 12320768 0 0 0 0 0 0 0 0 0 0 131072 0 0 0 0 0 0 0 0 0 0 4096 0 0 4096 0 0 0 0 0 2097152 2048 0 0 0 0 12320768 0 0 0 0 0 0 0 0 0 0 1 4334081 2149580868 2196 2048 0 0 0 0 0 0 0 0 0 0 0 0 0 0 0 0 0 0 0 2048 0 0 0 0 1572864 167772160 67109888 8 0 0 0 0 0 0 0 0 0 0 0 0 0 512 0 0 0 0 0 0 134217728 4 0 0 0 4202496 0 0 0 0 0 0 0 0 256 8192 0 0 0 0 0 34734080 20 0 0 8768 8192 0 0 1879049344 12 0 0 41943040 768 34078720 163 0 0 0 1073745920 0 0 0 0 0 0 0 0 3072 2147483648 4900996 64 1 268468224 4898976 4
is_linear=0
shrinkage=0.01


Tree=17
num_leaves=31
num_cat=14
split_feature=3 3 3 23 3 0 18 3 3 17 2 14 0 22 3 12 12 4 25 3 26 24 24 16 12 0 27 16 0 26
split_gain=197.921 25.5802 23.3902 9.61188 8.33426 8.16204 20.57 12.1243 9.26466 5.86362 10.2054 5.82129 5.74788 5.50465 4.17529 4.06923 3.98408 3.86786 3.81114 3.80717 4.66597 3.22887 2.73776 2.47596 2.38333 2.37134 2.33122 2.44577 2.30198 2.76348
threshold=0 1 2 1.8527059312404506 3 4 1.0000000180025095e-35 5 6 1.0000000180025095e-35 7 -0.5 8 4.2668066320088522 9 0.895806108055896 -0.91236630913977479 10 0.52724321731970725 11 -624.99999999999989 2.6761790554521654 3.421515492372611 3.3140206880897671 -0.7721494341254892 12 19.500000000000004 3.1132683346437333 13 1.5000000000000002
decision_type=9 9 9 8 9 9 2 9 9 2 9 2 9 8 9 2 2 1 10 9 10 10 8 2 2 9 8 2 9 10
left_child=1 13 3 12 9 18 7 -7 14 10 11 -4 -2 22 -8 23 17 -5 -3 20 -6 -14 -1 -9 -13 -11 27 -18 29 -16
right_child=2 5 4 16 19 6 8 15 -10 25 -12 24 21 -15 28 -17 26 -19 -20 -21 -22 -23 -24 -25 -26 -27 -28 -29 -30 -31
leaf_value=0.012466865277019821 -0.004492292031452621 -0.027646238566212903 0.027243963686100183 0.02104176818742828 0.013412607195475853 0.0070067907717763457 0.0091331605470093263 0.023916486825642166 -0.026412859871179691 0.0012237335635909717 -5.6053111999570751e-05 0.028870862312746891 0.0039529238092180299 0.010184061644853606 0.010299238251814167 0.023664206300406058 0.0029046781408338467 0.017336814437765805 0.0079170816864163659 -0.025663595386087038 -0.0038731285250222982 -0.0071645910020805351 0.013396215224654413 0.026356500157943011 -0.030113892121380437 -0.0073451344938729873 0.0085582985766638527 0.024815793124903208 0.005429135947078079 0.0068213987302345527
leaf_weight=305 486 209 51 30 45 100 948 45 197 220 299 22 562 57 43 24 27 40 20 9833 1384 155 229 111 30 746 143 36 838 57
leaf_count=305 486 209 51 30 45 100 948 45 197 220 299 22 562 57 43 24 27 40 20 9833 1384 155 229 111 30 746 143 36 838 57
internal_value=-0.0001418 0.0021068 -0.000650117 0.000537945 -0.000789557 0.00166334 0.00184029 0.00439286 0.001506 -4.93471e-05 0.000965174 0.00351327 0.000155444 0.00399168 0.00171624 0.00584211 0.00222464 0.00428571 -0.00016318 -0.000879347 -0.000388464 0.000719395 0.00437453 0.00675641 0.0015 -0.00047205 0.00152427 0.00312698 0.00120464 0.00263636
internal_weight=17292 3183 14109 1479 12630 2592 2363 280 2083 1368 402 103 1203 591 1886 180 276 70 229 11262 1429 717 534 156 52 966 206 63 938 100
internal_count=17292 3183 14109 1479 12630 2592 2363 280 2083 1368 402 103 1203 591 1886 180 276 70 229 11262 1429 717 534 156 52 966 206 63 938 100
cat_boundaries=0 37 64 101 138 141 167 204 207 210 236 237 274 277 279
cat_threshold=2048 0 0 0 0 0 0 0 0 0 4096 0 204 7228 0 2048 0 0 0 2097152 6144 268435456 0 0 0 2159804416 1 0 0 0 0 0 0 0 0 48 2031616 0 0 0 0 0 0 0 0 0 0 0 0 0 0 0 2048 0 0 0 0 4096 0 0 0 0 0 1 0 0 0 0 0 0 0 32 0 0 0 0 0 512 32790 0 0 369098752 4205568 0 671088640 68 21440 0 0 4202496 0 0 0 0 0 0 0 0 4194560 192 10 0 0 0 0 0 1024 33554480 8 0 0 3456 0 3221225472 3 66304 0 2048 671088640 3149824 0 1342177280 0 33628160 0 0 0 0 0 0 0 0 0 0 0 1049088 0 4 131072 16777216 256 0 0 0 0 0 0 0 0 0 0 4096 0 0 4096 0 0 0 0 0 2097152 2048 0 0 0 0 2159804416 2048 0 0 0 0 0 0 0 0 0 0 0 0 28 0 0 0 0 0 2097152 2048 0 0 0 0 2159804416 0 0 0 0 0 0 0 0 0 0 131072 33554432 67109888 24 541204992 2149613764 2196 2048 0 0 0 0 0 0 0 0 0 0 0 0 0 0 0 0 0 0 0 2048 0 0 0 0 1572864 4 8192 0 1073741824 0 2097152 0 131072 20 0 0 8704 8192 0 0 1879049344 12 0 0 58720256 512 34078720 163 32768 0 0 1073745920 0 0 0 0 0 0 0 0 2048 0 1 2147483648 4769926 64 2147483648 8388674
is_linear=0
shrinkage=0.01


Tree=18
num_leaves=31
num_cat=12
split_feature=3 3 3 3 24 0 22 22 0 20 0 17 2 22 24 12 3 26 22 12 12 9 24 2 17 12 0 25 9 5
split_gain=193.912 28.9405 22.447 9.80092 8.56971 20.2251 15.5332 7.43934 9.85868 6.85609 5.9669 5.5769 8.07955 5.50465 5.18938 5.06751 4.994 6.86876 3.60473 3.55415 3.05672 2.96077 2.73776 2.65443 6.62815 5.25565 2.50074 2.40923 3.03971 2.96088
threshold=0 1 2 3 3.421515492372611 4 4.1178406624743813 3.3019342196738388 5 5.8607389606734399 6 1.0000000180025095e-35 7 4.2668066320088522 3.1459334471442451 0.895806108055896 8 -624.99999999999989 2.4166452760879618 0.81150899888343053 -0.7721494341254892 3.5000000000000004 3.421515492372611 9 1.8688348091416842 -0.70862011619447618 10 0.71525029644737337 2.5000000000000004 11
decision_type=9 9 9 9 10 9 8 10 9 8 9 2 9 8 10 2 9 10 10 2 2 2 8 9 2 2 9 10 2 9
left_child=2 7 13 11 5 6 18 8 9 -2 14 12 20 22 -7 -6 17 -5 -4 -8 -3 -17 -1 24 25 -19 -13 28 -12 -29
right_child=1 3 4 16 15 10 19 -9 -10 -11 27 26 -14 -15 -16 21 -18 23 -20 -21 -22 -23 -24 -25 -26 -27 -28 29 -30 -31
leaf_value=0.012342196624249624 0.0087942915310315149 0.028293433038572489 -0.003349972602625706 0.015573419127356077 -0.026148731272467893 -0.027900306496956573 0.026211012740457389 -0.028239205310350405 0.0037125561005210807 0.022194866393054978 0.014024593757298512 0.00024253330840493526 -4.4064771124001401e-05 0.010082221028405072 0.0075967522469126102 0.026180121959106937 -0.025406959432226168 0.021857208296070799 0.011153138431230726 0.025330239537584846 0.017534990183750182 0.025005181985954295 0.013262253072407871 -0.0050339371985467099 -0.026498007394996081 0.0095535789097501052 -0.0054403094438882343 0.0049911388965169284 0.010223871559635956 0.0084118632821509488
leaf_weight=305 116 43 34 52 213 146 106 314 1108 53 22 399 237 57 20 20 9762 35 114 22 73 23 229 1291 191 32 741 235 194 1105
leaf_count=305 116 43 34 52 213 146 106 314 1108 53 22 399 237 57 20 20 9762 35 114 22 73 23 229 1291 191 32 741 235 194 1105
internal_value=-0.00013833 -0.000608494 0.00224343 -0.00076605 0.00176943 0.001998 0.00448951 0.000661461 0.0010047 0.00318994 0.00156351 -1.99624e-06 0.00109632 0.00399168 -0.000261364 5.46873e-05 -0.00086635 -0.000342024 0.00244595 0.00720312 0.00312698 0.00318605 0.00437453 -0.000464171 0.000455224 0.0031791 -0.000342106 0.00175862 0.00275 0.00161194
internal_weight=17292 14447 2845 12856 2254 1998 276 1591 1277 169 1722 1493 353 591 166 256 11363 1601 148 128 116 43 534 1549 258 67 1140 1556 216 1340
internal_count=17292 14447 2845 12856 2254 1998 276 1591 1277 169 1722 1493 353 591 166 256 11363 1601 148 128 116 43 534 1549 258 67 1140 1556 216 1340
cat_boundaries=0 37 74 101 136 139 142 145 148 183 186 189 191
cat_threshold=2048 0 0 0 0 0 0 0 0 0 4096 0 204 7228 0 2048 0 0 0 2097152 6144 268435456 0 0 0 3932160 1 0 0 0 0 0 0 0 0 48 2031617 0 0 0 0 0 0 0 32 0 0 0 0 0 512 32774 0 0 301989888 4205568 0 536870912 4 17344 0 0 2160074752 0 0 0 0 0 0 0 0 4194560 192 10 0 0 0 0 0 0 0 0 0 0 0 0 0 0 0 2048 0 0 0 0 4096 0 0 0 0 0 1 0 0 0 0 0 1024 48 8 0 0 11264 0 2147483648 3 66320 0 2048 201326592 3149824 0 3623878656 64 33632256 0 0 0 0 0 0 0 0 0 0 0 1049088 129 8388612 84 512 16777218 2132 131072 16777216 256 134217728 67109896 24 8192 0 1073741824 0 2097152 0 34734080 20 0 0 896 8192 1073741824 0 1342178432 4 0 536870912 25165888 512 34078720 161 32768 0 0 1073745920 0 0 0 0 0 0 0 0 2048 33554432 0 8 2147483648 4778630 64 1052740 48
is_linear=0
shrinkage=0.01


Tree=19
num_leaves=31
num_cat=12
split_feature=3 3 3 3 0 18 3 3 22 0 20 17 2 22 12 3 26 12 24 12 2 17 12 16 24 24 22 16 12 0
split_gain=193.01 26.6982 22.8787 10.0458 7.89891 22.5109 9.24499 8.68064 7.50886 10.7698 7.04207 5.97421 8.25745 5.44177 5.19542 5.16161 5.23289 3.98892 3.82114 3.83275 3.01551 8.23582 7.24293 2.90308 2.86326 2.62249 2.72355 2.59117 3.06781 2.56323
threshold=0 1 2 3 4 1.0000000180025095e-35 5 6 3.3019342196738388 7 5.8607389606734399 1.0000000180025095e-35 8 4.2668066320088522 0.895806108055896 9 -624.99999999999989 0.7206604759859373 3.5712668837381236 0.18399664778440331 10 1.8688348091416842 -0.70862011619447618 3.3140206880897671 3.421515492372611 2.4013113042636847 1.9805573510797749 3.6762205501217919 -0.74119455533027034 11
decision_type=9 9 9 9 9 2 9 9 10 9 8 2 9 8 2 9 10 2 8 2 9 2 2 2 8 10 10 2 2 9
left_child=2 8 13 11 18 7 25 -6 9 10 -2 12 27 24 -8 16 -5 23 19 -4 21 22 -18 -9 -1 -7 -27 -3 -29 -13
right_child=1 3 4 15 5 6 14 17 -10 -11 -12 29 -14 -15 -16 -17 20 -19 -20 -21 -22 -23 -24 -25 -26 26 -28 28 -30 -31
leaf_value=0.012218774658007128 0.0097784166095383901 0.016962358885854071 -0.026626583341723551 0.017845022507277656 0.01012890226463522 0.0049077700861411815 -0.025887243959743213 0.023572896137266576 -0.027962158066713896 0.0032556432926741431 0.021972917729124429 0.00024010797532088459 -4.3624123412761877e-05 0.0099813988181210213 0.025081815108455183 -0.025152889837903904 0.021887662274143054 0.024132768159761075 -0.02756217224536046 0.011963145393488726 -0.0050258701976821545 -0.026794829319984094 0.0020167821552405387 0.025953367675892913 0.01312963054168379 0.00881122795443888 0.0087801000723983034 0.02834097802381047 0.017088612211880929 -0.0056730635343079658
leaf_weight=305 109 68 27 59 100 384 217 41 333 1156 52 375 237 57 39 9500 43 35 156 22 1357 225 39 94 229 32 1161 31 22 787
leaf_count=305 109 68 27 59 100 384 217 41 333 1156 52 375 237 57 39 9500 43 35 156 22 1357 225 39 94 229 32 1161 31 22 787
internal_value=-0.000142378 -0.000616747 0.00220729 -0.000771819 0.00173943 0.00192475 0.00153682 0.00462963 0.000578313 0.000921032 0.00326901 -6.53618e-06 0.0011229 0.00397504 -0.000248121 -0.000875367 -0.000365263 0.00594444 -0.000162791 0.00226531 -0.000471154 0.000419558 0.00314634 0.00707407 0.00435581 0.00181663 0.00205951 0.00312214 0.00503774 -0.000354561
internal_weight=17292 14393 2899 12743 2308 2103 1833 270 1650 1317 161 1520 358 591 256 11223 1723 170 205 49 1664 307 82 135 534 1577 1193 121 53 1162
internal_count=17292 14393 2899 12743 2308 2103 1833 270 1650 1317 161 1520 358 591 256 11223 1723 170 205 49 1664 307 82 135 534 1577 1193 121 53 1162
cat_boundaries=0 37 74 101 138 141 167 204 207 210 245 248 250
cat_threshold=2048 0 0 0 0 0 0 0 0 0 4096 0 204 7228 0 2048 0 33554432 0 2097152 6144 268435456 0 0 0 3932160 1 0 0 0 0 0 0 0 0 48 2031616 0 0 0 0 0 0 0 32 0 0 0 0 0 512 32790 0 0 335544320 4205568 0 536870912 4 17344 0 0 2160078848 0 0 0 0 0 0 0 0 4194560 192 10 0 0 0 0 0 0 0 0 0 0 0 0 0 0 0 2048 0 0 0 0 4096 0 0 0 0 0 1 8192 0 0 0 0 1024 48 8 0 0 3072 0 2147483648 3 66304 8 2048 134217728 36704256 0 3623878656 64 33632256 0 0 0 0 0 0 0 0 0 0 0 1049088 0 4 131072 16777216 256 2048 0 0 0 0 0 0 0 0 0 0 0 0 8 0 0 0 33554432 0 2097152 2048 0 0 0 0 3932160 0 0 0 0 0 0 0 0 0 0 4096 0 0 4096 0 0 0 33554432 0 2097152 2048 0 0 0 0 3932160 0 0 0 0 0 0 0 0 0 0 262144 512 16777218 2132 134217728 67109896 24 0 0 1073741824 0 0 0 34734080 20 0 0 9088 8192 1073741824 0 1879049344 4 0 536870912 8388672 768 34078720 163 0 0 0 1073741824 0 0 0 0 0 0 0 0 3072 33554432 0 8 2147483648 4909186
is_linear=0
shrinkage=0.01


Tree=20
num_leaves=31
num_cat=11
split_feature=3 3 3 3 0 18 3 3 24 0 22 22 17 2 14 12 12 3 26 12 24 12 24 24 22 0 16 22 9 26
split_gain=193.724 24.7715 23.1864 10.1659 8.21485 23.2235 9.83006 8.36068 6.92762 8.18687 8.81568 5.44177 5.04424 11.0069 5.29676 4.93167 4.06923 4.06194 5.71316 3.63393 3.34947 3.23813 2.86326 2.57642 2.73944 2.52401 2.47596 2.38489 2.30925 2.8843
threshold=0 1 2 3 4 1.0000000180025095e-35 5 6 2.704598361051417 7 1.9153567253161332 4.2668066320088522 1.0000000180025095e-35 8 -0.5 0.895806108055896 0.895806108055896 9 -624.99999999999989 -0.90880922144842613 3.5712668837381236 0.18399664778440331 3.421515492372611 2.4013113042636847 1.9805573510797749 10 3.3140206880897671 1.995003440735011 10.500000000000002 4.5000000000000009
decision_type=9 9 9 9 9 2 9 9 10 9 10 8 2 9 2 2 2 9 8 2 8 2 8 10 10 9 2 10 2 10
left_child=2 8 11 12 20 7 23 27 9 10 19 22 13 14 -3 -8 26 18 -5 -2 21 -4 -1 -7 -25 -14 -9 -6 29 -12
right_child=1 3 4 17 5 6 15 16 -10 -11 28 -13 25 -15 -16 -17 -18 -19 -20 -21 -22 -23 -24 24 -26 -27 -28 -29 -30 -31
leaf_value=0.012096586911427058 0.020919482014032972 0.026427316741991672 -0.026360317508306315 0.014597450506201709 0.009362748429570562 0.0048586923852797686 -0.025628371520145785 0.023274676569176582 -0.015037702478930267 0.0028746395149064964 0.005778363767835696 0.0098815848299398119 0.00023770689556767532 -0.00018907301720515898 0.018862670294845937 0.024622472559635834 0.022932934160428537 -0.024901360939524865 -0.0038166143007133482 0.021710041299522857 -0.02728655052290686 0.011843513939553841 0.012998334236266951 0.008723115674894491 0.0086922990716743215 -0.0053332317512519833 0.025571291747108548 0.00051953359287777224 0.019817552842160243 -0.0050996532967694744
leaf_weight=305 42 50 27 47 51 384 226 45 313 812 123 57 375 313 58 41 24 9629 1423 121 156 22 229 32 1161 896 111 49 41 129
leaf_count=305 42 50 27 47 51 384 226 45 313 812 123 57 375 313 58 41 24 9629 1423 121 156 22 229 32 1161 896 111 49 41 129
internal_value=-0.000149318 -0.000626617 0.00219454 -0.000772674 0.00172766 0.00191471 0.00151627 0.00460714 0.000552482 0.000884858 0.00193991 0.00397504 -4.81789e-05 0.000900237 0.00349153 -0.000277979 0.00584211 -0.000882978 -0.000385135 0.00384663 -0.000209303 0.00206122 0.00435581 0.00181033 0.00205113 -0.000362707 0.00675641 0.00163636 0.000945392 0.000587301
internal_weight=17292 14372 2920 12791 2329 2124 1844 280 1581 1268 456 591 1692 421 108 267 180 11099 1470 163 205 49 534 1577 1193 1271 156 100 293 252
internal_count=17292 14372 2920 12791 2329 2124 1844 280 1581 1268 456 591 1692 421 108 267 180 11099 1470 163 205 49 534 1577 1193 1271 156 100 293 252
cat_boundaries=0 37 73 100 135 138 164 201 204 207 244 246
cat_threshold=2048 0 0 0 0 0 0 0 0 0 4096 0 204 7228 0 2048 0 33554432 0 2097152 6144 268435456 0 0 0 3932160 1 0 0 0 0 0 0 0 0 48 2031617 0 0 0 0 0 0 0 32 0 0 0 0 0 512 32790 0 0 335544320 4205568 0 536870912 68 21440 0 0 2160074752 0 0 0 0 0 0 0 0 5243136 192 0 0 0 0 0 0 0 0 0 0 0 0 0 0 0 2048 0 0 0 0 4096 0 0 0 0 0 1 0 0 0 0 0 1024 33554480 8 0 0 3456 0 3221225472 3 66304 8 2048 671088640 36704256 0 3623878656 0 33628160 0 0 0 0 0 0 0 0 0 0 0 512 131072 16777216 256 2048 0 0 0 0 0 0 0 0 0 0 0 0 8 0 0 0 33554432 0 2097152 2048 0 0 0 0 3932160 0 0 0 0 0 0 0 0 0 0 4096 0 0 4096 0 0 0 33554432 0 2097152 2048 0 0 0 0 3932160 0 0 0 0 0 0 0 0 0 0 1 2147492353 25297986 2256 167772160 67109888 24 8192 0 1073741824 0 2097152 0 131072 20 0 0 8704 8192 0 0 1879049344 4 0 0 25165888 512 34078720 163 32768 0 0 1073745920 0 0 0 0 0 0 0 0 2048 0 10 2147483648 4909186
is_linear=0
shrinkage=0.01


Tree=21
num_leaves=31
num_cat=12
split_feature=3 3 3 3 0 18 3 26 22 0 22 21 17 2 3 26 12 3 24 12 13 24 2 17 12 12 16 0 21 24
split_gain=190.766 25.9941 23.0022 9.27672 8.14003 22.211 9.28468 9.08426 7.10864 9.44106 5.37925 5.09683 5.07449 8.47724 4.75015 5.41417 4.38399 3.59975 3.34947 3.23813 3.08964 2.99156 2.62955 6.62815 5.25565 2.5863 3.66748 2.47006 2.27145 2.659
threshold=0 1 2 3 4 1.0000000180025095e-35 5 15.500000000000002 3.3019342196738388 6 4.2668066320088522 1.8833860207048005 1.0000000180025095e-35 7 8 -624.99999999999989 0.895806108055896 9 3.5712668837381236 0.18399664778440331 -0.317191288589106 3.421515492372611 10 1.8688348091416842 -0.70862011619447618 -0.65513208963863023 3.6762205501217919 11 2.636429218887145 2.8508242555773573
decision_type=9 9 9 9 9 2 9 10 10 9 8 8 2 9 9 10 2 9 8 2 2 8 9 2 2 2 2 9 10 10
left_child=2 8 10 12 18 6 -6 17 9 11 21 -2 13 25 15 -5 -8 -7 19 -4 -13 -1 23 24 -17 26 -3 -14 29 -19
right_child=1 3 4 14 5 7 16 -9 -10 -11 -12 20 27 -15 -16 22 -18 28 -20 -21 -22 -23 -24 -25 -26 -27 -28 -29 -30 -31
leaf_value=0.011975621042312787 0.011198478838628281 0.0092149118227030664 -0.026096714333223251 0.016315331462977062 0.0088681753216582546 0.0088472009158369648 0.024461092851807767 -0.0058576429934917244 -0.027553537641496737 0.0030176942437899613 0.0097827689816404155 0.0055785652442009231 0.00023532982661199855 -0.00037288244129306372 -0.024652347330129616 0.021457925733375793 0.022703604818824254 0.0050305961709196535 -0.027013685017677789 0.011725078800158302 0.021744034357511845 0.012868350893904285 -0.0049099973173691988 -0.025716065418451034 0.00932452196566908 0.018961862506463392 0.027868941540623908 -0.0054428031700053236 0.02466665598261214 -0.0057689861122442055
leaf_weight=305 105 32 27 48 100 935 146 205 332 1182 57 20 367 214 9754 35 24 558 156 22 37 229 1209 191 32 53 36 746 20 115
leaf_count=305 105 32 27 48 100 935 146 205 332 1182 57 20 367 214 9754 35 24 558 156 22 37 229 1209 191 32 53 36 746 20 115
internal_value=-0.000149318 -0.000620913 0.00218666 -0.000775281 0.00171786 0.00190582 0.00459259 0.00152046 0.000548042 0.000875 0.0039584 0.00306977 -1.92046e-05 0.0010597 -0.000872329 -0.000344263 0.00594444 0.00177027 -0.000209303 0.00206122 0.00566667 0.00433708 -0.00045467 0.000455224 0.0031791 0.0030458 0.00458824 -0.000344115 0.00116216 0.00108024
internal_weight=17292 14393 2899 12717 2308 2103 270 1833 1676 1344 591 162 1448 335 11269 1515 170 1628 205 49 57 534 1467 258 67 121 68 1113 693 673
internal_count=17292 14393 2899 12717 2308 2103 270 1833 1676 1344 591 162 1448 335 11269 1515 170 1628 205 49 57 534 1467 258 67 121 68 1113 693 673
cat_boundaries=0 37 73 100 137 140 177 180 183 220 246 249 251
cat_threshold=2048 0 0 0 0 0 0 0 0 0 4096 0 204 7228 0 2048 0 33554432 0 2097152 6144 268435456 0 0 0 3932160 1 0 0 0 0 0 0 0 0 48 2031616 0 0 0 0 0 0 0 32 0 0 0 0 0 512 32790 0 0 268435456 6302720 0 536870912 68 21440 0 0 2160078848 0 0 0 0 0 0 0 0 5243136 192 0 0 0 0 0 0 0 0 0 0 0 0 0 0 0 2048 0 0 0 0 4096 0 0 0 0 0 1 0 0 0 0 0 1024 48 8 0 0 3072 0 2147483648 3 66304 8 2048 134217728 34607104 0 3623878656 0 33628160 0 0 0 0 0 0 0 0 0 0 0 512 0 14 131072 16777216 256 0 0 0 0 0 0 0 0 0 0 4096 0 0 4096 0 0 0 33554432 0 2097152 2048 0 0 0 0 3932160 0 0 0 0 0 0 0 0 0 0 131072 512 2164260866 2128 134217728 67109896 24 8192 0 1073741824 0 0 0 34734080 20 0 0 9088 8192 1073741824 0 1342178432 4 0 603979776 8388672 512 34078720 161 0 0 0 1073741824 0 0 0 0 0 0 0 0 2048 0 1 2048 0 0 0 0 0 0 0 0 0 0 0 0 0 0 0 0 0 0 0 2048 0 0 0 0 1572864 33554432 0 8 2147483648 4909186
is_linear=0
shrinkage=0.01


Tree=22
num_leaves=31
num_cat=14
split_feature=3 3 3 3 0 18 3 3 24 0 23 22 8 17 2 3 26 12 4 3 25 24 2 21 0 22 12 13 25 21
split_gain=190.853 24.0661 23.9135 9.31537 8.3244 20.3169 11.1884 9.21826 7.11604 10.5347 7.02258 5.37925 4.8562 4.49178 9.75838 4.30892 5.91867 3.95214 3.16161 3.12585 2.9961 2.99156 2.79643 2.88411 2.54973 5.16879 5.35361 2.53968 2.66536 2.57857
threshold=0 1 2 3 4 1.0000000180025095e-35 5 6 2.639298563387888 7 1.2965203864476391 4.2668066320088522 0.58456530317942923 1.0000000180025095e-35 8 9 -624.99999999999989 0.895806108055896 10 11 0.52724321731970725 3.421515492372611 12 2.2463083255502565 13 1.3730540731954191 -0.85206963063867713 0.51972456038539816 0.92632848905868148 0.59844094807609272
decision_type=9 9 9 9 9 2 9 9 10 9 8 8 2 2 9 9 10 2 1 9 10 8 9 8 9 10 2 2 8 10
left_child=1 11 8 13 20 6 -6 19 9 10 27 21 -12 14 18 16 -5 -8 -4 -7 -3 -1 23 -11 25 26 -18 28 -2 -29
right_child=2 4 3 15 5 7 17 -9 -10 22 12 -13 -14 -15 -16 -17 24 -19 -20 -21 -22 -23 -24 -25 -26 -27 -28 29 -30 -31
leaf_value=0.01185586483188966 0.0083726137385404173 -0.026295222509000214 0.026959786119605155 0.016861532317892482 0.0074540345402577179 0.0086943284886488188 0.023773699973819222 -0.025313511375009409 -0.011139813499452778 0.0029587457290241393 0.022669557636143693 0.0096849412918240101 0.0050194888680521318 -0.0015372053028613081 -0.00041480419062156981 -0.02440582385682832 0.020496268589805623 0.022476568770636009 0.016601199926991939 0.005268126209535433 0.0074403712964049963 0.012739667384965242 -0.027914821964718364 0.016528767681635654 -0.0069103153322774905 -0.0048608973441955075 0.0014629482635221071 0.014207653856808663 -0.0059285354955642211 0.0013712650087314981
leaf_weight=305 61 203 30 55 100 948 156 195 396 664 82 57 43 1283 280 9365 47 24 77 748 20 229 195 52 1119 321 74 45 83 35
leaf_count=305 61 203 30 55 100 948 156 195 396 664 82 57 43 1283 280 9365 47 24 77 748 20 229 195 52 1119 321 74 45 83 35
internal_value=-0.000153944 0.0021419 -0.000634002 -0.000782008 0.00167887 0.00187024 0.00439286 0.00150661 0.000494598 0.000865079 0.00231476 0.0039584 0.00428 -8.33336e-05 0.000860465 -0.00088809 -0.000403444 0.00578947 0.0032735 0.0017374 -0.00018455 0.00433708 0.000281216 0.000570248 -0.000519539 0.000128318 0.00189256 0.00132143 0.000527778 0.00275
internal_weight=17292 2985 14307 12651 2394 2171 280 1891 1656 1260 349 591 125 1670 387 10981 1616 180 107 1696 223 534 911 716 1561 442 121 224 144 80
internal_count=17292 2985 14307 12651 2394 2171 280 1891 1656 1260 349 591 125 1670 387 10981 1616 180 107 1696 223 534 911 716 1561 442 121 224 144 80
cat_boundaries=0 37 64 100 126 129 155 192 195 198 235 236 262 265 268
cat_threshold=2048 0 0 0 0 0 0 0 0 0 0 0 204 7228 2 2048 0 33554432 0 2097152 6144 268435456 0 0 0 2151415808 1 0 0 0 0 0 0 0 0 48 2031616 0 0 0 0 0 0 0 0 0 0 0 0 0 0 0 2048 0 0 0 0 4096 0 0 0 0 0 1 0 0 0 0 0 0 0 32 0 0 4096 0 0 514 32788 0 0 335544320 6302720 0 536870912 68 21440 0 0 12591104 0 0 0 0 0 0 0 0 5243648 192 0 0 0 0 0 1024 33685552 8 0 0 3456 8192 3221225472 1 66304 8 2048 671088640 34607104 0 3623878656 0 33628160 0 0 4096 131072 16777216 256 0 0 0 0 0 0 0 0 0 0 0 0 0 4096 2 0 0 33554432 0 2097152 2048 0 0 0 0 2151415808 2048 0 0 0 0 0 0 0 0 0 0 0 0 28 0 0 0 33554432 0 2097152 2048 0 0 0 0 2151415808 0 0 0 0 0 0 0 0 0 0 131072 2147500545 25166850 2116 167772160 67109896 16 8192 0 1073741824 8388608 2097152 0 0 20 0 0 8704 0 0 0 1879049344 4 0 0 25165888 768 34078720 163 32768 0 0 1073741824 0 0 0 0 0 0 0 0 3072 0 13 1 2048 0 0 0 0 0 0 0 0 0 0 0 0 0 0 0 0 0 0 0 2048 0 0 0 0 1572864 67108864 201328128 16 8192 25330820 64
is_linear=0
shrinkage=0.01


Tree=23
num_leaves=31
num_cat=14
split_feature=3 3 3 3 0 18 3 3 23 2 8 2 22 17 2 3 26 12 3 12 25 14 24 22 0 22 12 26 13 0
split_gain=187.705 24.5078 23.6806 9.62677 8.19392 21.1659 11.4694 9.15415 8.06017 6.50328 6.41693 5.29151 5.25529 4.7813 6.64047 4.4596 4.6108 4.06923 3.57311 3.29168 2.9961 2.68599 2.65602 2.63586 2.39115 5.42911 7.15208 2.58088 2.38876 2.36899
threshold=0 1 2 3 4 1.0000000180025095e-35 5 6 1.8527059312404506 7 0.58456530317942923 8 4.2668066320088522 1.0000000180025095e-35 9 10 -624.99999999999989 0.895806108055896 11 -0.69016699705532225 0.52724321731970725 -0.5 3.421515492372611 4.2415083916726788 12 1.3730540731954191 -0.85206963063867713 31.500000000000004 -0.29258949745833546 13
decision_type=9 9 9 9 9 2 9 9 8 9 2 9 8 2 9 9 10 2 9 2 10 2 8 8 9 10 2 10 2 9
left_child=2 8 12 13 20 6 -6 18 11 10 19 -2 22 14 21 16 -5 23 -7 -10 -4 -3 -1 -8 25 26 27 -18 -25 -15
right_child=1 3 4 15 5 7 17 -9 9 -11 -12 -13 -14 29 -16 -17 24 -19 -20 -21 -22 -23 -24 28 -26 -27 -28 -29 -30 -31
leaf_value=0.011737306183570762 0.0029446185526754948 0.025592619494593141 -0.026032270283910211 0.016692916994713557 0.0072747809860584682 0.0086073852037623303 0.019375863877090952 -0.025060376261259312 0.023226459520293476 0.0047824201290513294 0.0052393906243218824 -0.027166604130087244 0.0095880918789057693 0.00024834858137449343 -5.6275489050186238e-05 -0.024161765618260035 0.022538669329382251 0.02225180308292965 0.00521544494744008 0.023769887978673979 0.0073659675834409459 0.015070140930619254 0.012612270711115588 0.024355846228965184 -0.0065970278170226319 -0.0071054634726997433 -0.0026149139691277546 0.018086546713784148 0.024530309860948757 -0.0052060433118650898
leaf_weight=305 1045 50 203 55 100 948 34 197 35 186 32 308 57 372 261 9469 26 24 748 37 20 66 229 49 1158 285 62 23 73 835
leaf_count=305 1045 50 203 55 100 948 34 197 35 186 32 308 57 372 261 9469 26 24 748 37 20 66 229 49 1158 285 62 23 73 835
internal_value=-0.000152788 -0.000629061 0.00212312 -0.000778252 0.00166417 0.00185387 0.00442857 0.00148283 0.000518451 0.00203448 0.00391228 0.000197339 0.00392512 -4.64243e-05 0.000936339 -0.000882756 -0.000388512 0.00584211 0.00171395 0.00594444 -0.00018455 0.00280952 0.00429963 0.00675641 -0.000491635 0.000182266 0.00206306 0.00491837 0.00744262 -0.00035377
internal_weight=17292 14305 2987 12662 2396 2173 280 1893 1643 290 104 1353 591 1584 377 11078 1609 180 1696 72 223 116 534 156 1554 396 111 49 122 1207
internal_count=17292 14305 2987 12662 2396 2173 280 1893 1643 290 104 1353 591 1584 377 11078 1609 180 1696 72 223 116 534 156 1554 396 111 49 122 1207
cat_boundaries=0 37 73 100 135 138 175 212 215 218 221 258 284 287 289
cat_threshold=2048 0 0 0 0 0 0 0 0 0 0 0 204 7228 0 2048 0 33554432 0 2097152 6144 268435456 0 0 0 2151415808 1 0 0 0 0 0 0 0 0 48 2031617 0 0 0 0 0 0 0 32 0 0 4096 0 0 514 33302 0 0 268435456 6302720 0 536870912 68 17344 0 0 12595200 0 0 0 0 0 0 0 0 5243136 192 0 0 0 0 0 0 0 0 0 0 0 0 0 0 0 2048 0 0 0 0 4096 0 0 0 0 0 1 0 0 0 0 0 1024 48 8 0 0 11520 0 3221225472 1 65792 8 2048 738197504 51384320 0 3623878656 0 33632256 0 0 0 0 0 0 0 0 0 0 0 512 131072 16777216 256 0 0 0 0 0 0 0 0 0 0 0 0 0 4096 0 0 0 33554432 0 2097152 2048 0 0 0 0 2151415808 0 0 0 0 0 0 0 0 0 0 131072 2048 0 0 0 0 0 0 0 0 0 0 0 0 28 0 0 0 33554432 0 2097152 2048 0 0 0 0 2151415808 0 0 0 0 0 0 0 0 0 0 131072 1048592 1024 264 16 2560 8 134217728 67109896 24 8192 0 1073741824 0 2097152 0 34734080 20 0 0 640 8192 0 0 1879049344 4 0 0 64 768 34078720 163 32768 0 0 1073741824 0 0 0 0 0 0 0 0 3072 0 10 2048 0 0 0 0 0 0 0 0 0 0 0 0 0 0 0 0 0 0 0 2048 0 0 0 0 1572864 8192 8389760 64 2147483648 4909186
is_linear=0
shrinkage=0.01


Tree=24
num_leaves=31
num_cat=14
split_feature=3 3 3 3 0 18 3 3 23 0 2 3 26 22 22 0 9 8 12 3 3 16 24 12 24 2 17 12 24 14
split_gain=187.229 23.6806 23.4772 8.66317 7.79099 20.6558 11.1884 9.15415 7.11284 10.5934 5.67894 5.42585 5.70682 5.25529 4.66756 5.16716 4.39599 4.0333 4.07027 3.70944 3.57311 3.41038 3.00649 3.10037 2.65602 2.55501 6.62815 5.25565 2.37061 2.26518
threshold=0 1 2 3 4 1.0000000180025095e-35 5 6 1.8527059312404506 7 8 9 -624.99999999999989 4.2668066320088522 1.229545620666487 10 7.5000000000000009 0.58456530317942923 -0.59125596962661853 11 12 5.203991592053625 3.1320713528620661 0.18399664778440331 3.421515492372611 13 1.8688348091416842 -0.70862011619447618 2.9481157054445641 -0.5
decision_type=9 9 9 9 9 2 9 9 8 9 9 9 10 8 10 9 2 2 2 9 9 2 10 2 8 9 2 2 10 2
left_child=1 13 8 14 22 6 -6 20 10 17 28 12 -5 24 15 29 21 18 -10 -11 -7 -8 -3 -24 -1 26 27 -14 -2 -4
right_child=2 4 3 11 5 7 16 -9 9 19 -12 -13 25 -15 -16 -17 -18 -19 -20 -21 -22 -23 23 -25 -26 -27 -28 -29 -30 -31
leaf_value=0.011619933121735055 0.0036429272131840692 -0.026279404426198451 0.02539878122642909 0.016910349956782915 0.0072020331761978853 0.0085213113517247068 0.017231417621412212 -0.024809772498646718 0.023236142068255649 -0.020157967387620657 -0.026894938088786371 -0.023920147962077434 0.020839709796453807 0.009492210960116711 -0.0014246742835591242 -2.8819697350774676e-05 0.024630695098987569 0.0057690583178575021 0.0068027811231994193 0.01425334826773599 0.00516329049796568 0.024356744217182431 -0.025312472261961916 0.011104418186165362 0.012486148004004431 -0.0045243503473851197 -0.02514379189097124 0.0090133250508102128 -0.027169327325907721 0.013776216663308317
leaf_weight=305 878 167 49 55 100 948 60 197 57 120 316 9435 35 57 1177 198 97 21 22 100 748 23 30 26 229 1447 191 32 111 61
leaf_count=305 878 167 49 55 100 948 60 197 57 120 316 9435 35 57 1177 198 97 21 22 100 748 23 30 26 229 1447 191 32 111 61
internal_value=-0.000149896 0.00212312 -0.000625568 -0.000770686 0.00166417 0.00184929 0.00439286 0.00148283 0.000504587 0.00184375 0.000180076 -0.000866131 -0.000350283 0.00392512 -5.01675e-05 0.00104545 0.00578947 0.00436364 0.00583544 0.000478261 0.00171395 0.00442169 -0.000141631 0.00185714 0.00429963 -0.000454546 0.000455224 0.0031791 0.000551551 0.00266667
internal_weight=17292 2987 14305 12680 2396 2173 280 1893 1625 320 1305 11195 1760 591 1485 308 180 100 79 220 1696 83 223 56 534 1705 258 67 989 110
internal_count=17292 2987 14305 12680 2396 2173 280 1893 1625 320 1305 11195 1760 591 1485 308 180 100 79 220 1696 83 223 56 534 1705 258 67 989 110
cat_boundaries=0 37 64 101 138 141 178 215 218 221 258 261 296 322 325
cat_threshold=2048 0 0 0 0 0 0 0 0 0 4096 0 204 7228 0 2048 0 33554432 0 2097152 6144 268435456 0 0 0 2151415808 1 0 0 0 0 0 0 0 0 48 2031616 0 0 0 0 0 0 0 0 0 0 0 0 0 0 0 2048 0 0 0 0 4096 0 0 0 0 0 1 0 0 0 0 0 0 0 32 0 0 0 0 0 514 32790 0 0 268435456 6302720 0 536870912 68 17344 0 0 12591104 0 0 0 0 0 0 0 0 5243648 192 2 8192 0 0 0 0 1024 48 8 0 0 3072 0 2147483648 1 66304 8 2048 738197504 51384320 0 3623878656 0 33632256 0 0 16777216 0 0 0 0 0 0 0 0 0 0 4 131072 16777216 256 0 0 0 0 0 0 0 0 0 0 0 0 0 4096 0 0 0 33554432 0 2097152 2048 0 0 0 0 2151415808 0 0 0 0 0 0 0 0 0 0 131072 2048 0 0 0 0 0 0 0 0 0 0 0 0 28 0 0 0 33554432 0 2097152 2048 0 0 0 0 2151415808 0 0 0 0 0 0 0 0 0 0 131072 512 16777216 2132 16 2560 8 0 0 1073741824 8388608 0 0 34734080 20 0 0 9088 8192 1073741824 0 1879049344 4 0 0 8388672 512 34078720 163 0 0 0 1073745920 0 0 0 0 0 0 0 0 2048 0 8 4210688 2147483648 196 0 0 0 0 0 0 0 32 0 0 0 0 0 0 0 0 0 0 0 0 0 0 0 0 0 12582912 0 0 0 0 0 0 0 0 768 2048 0 0 0 0 0 0 0 0 0 0 0 0 0 0 0 0 0 0 0 2048 0 0 0 0 1572864 33554432 0 8
is_linear=0
shrinkage=0.01


Tree=25
num_leaves=31
num_cat=12
split_feature=3 3 3 3 24 0 22 22 2 20 8 3 22 12 0 23 2 21 3 26 12 25 9 12 24 0 0 23 21 22
split_gain=185.905 26.1477 23.1659 9.47151 7.67129 23.8594 12.9004 6.82707 10.0028 6.25827 6.35963 6.22411 5.25529 5.06751 4.71468 4.40072 5.8481 4.50149 4.15297 4.29399 3.55415 3.21278 2.96077 2.84387 2.65602 2.64167 2.51506 2.17603 2.12658 2.09041
threshold=0 1 2 3 3.421515492372611 4 4.1178406624743813 3.3019342196738388 5 3.762530672527673 0.58456530317942923 6 4.2668066320088522 0.895806108055896 7 0.96971436454095838 8 0.40976149578468007 9 -624.99999999999989 0.81150899888343053 0.72113337503165498 3.5000000000000004 -0.7721494341254892 3.421515492372611 10 11 0.53814966415047838 1.5063060102468582 1.4665180602496544
decision_type=9 9 9 9 10 9 8 10 9 8 2 9 8 2 9 8 9 10 9 10 2 8 2 2 8 9 9 10 8 10
left_child=2 7 12 15 5 6 -4 8 9 -2 -11 21 24 -6 -13 -3 17 23 19 -5 -8 -7 -15 -17 27 -23 -10 -1 -27 -21
right_child=1 3 4 18 13 11 20 -9 26 10 -12 14 -14 22 -16 16 -18 -19 -20 29 -22 25 -24 -25 -26 28 -28 -29 -30 -31
