tree
version=v4
num_class=1
num_tree_per_iteration=1
label_index=0
max_feature_idx=27
objective=quantile
feature_names=cust_code price cust_id item currency region category day_sin day_cos month dayofweek_cos dayofweek_sin dayofyear_sin dayofyear_cos quarter_sin quarter_cos qty_lag1 qty_lag5 qty_lag10 qty_lag20 rolling_mean_3 rolling_std_3 rolling_mean_5 rolling_std_5 rolling_mean_10 rolling_std_10 days_since_client_purchase days_since_client_item_purchase
feature_infos=-1:70:13:22:63:0:28:64:17:66:15:71:47:33:72:37:51:75:29:14:42:7:56:62:12:49:54:34:39:76:48:8:46:18:60:68:9:61:4:38:55:43:74:65:20:58:31:59:23:69:52:73:16:41:10:11:53:6:57:2:24:26:19:27:3:5:50:1:30:21:45:77:44:36:35:25 none -1:41:67:35:58:25:4:42:30:60:28:68:69:72:27:43:26:24:73:61:31:15:66:14:56:49:57:16:71:20:62:33:48:47:9:36:65:59:70:51:29:17:50:52:22:23:63:13:18:21:6:37:39:32:40:7:10:12:5:8:34:44:55:74:19:45:46:3:0:54:2:38 -1:820:819:818:821:823:652:491:822:11:669:651:668:670:667:672:671:830:9:0:1096:119:326:1097:327:120:328:1098:824:812:673:329:832:118:831:813:1099:121:94:569:227:226:229:582:674:93:228:92:95:615:618:7:616:617:581:523:580:629:524:1164:583:5:197:522:700:754:630:251:521:252:419:420:90:196:198:414:418:662:659:660:661:665:88:89:250:415:416:421:43:199:283:417:740:853:102:282:540:739:741:91:272:854:170:273:274:598:104:212:281:542:729:171:172:253:280:386:599:851:1169:103:105:173:209:211:387:391:738:4:210:390:572:596:838:1170:342:605:728:839:248:343:344:597:666:718:727:837:852:1172:8:49:99:100:247:380:381:570:573:840:876:1125:1171:98:240:246:275:426:477:483:601:678:716:730:1124:241:345:456:457:571:717:843:1168:59:478:482:586:587:600:675:744:874:13:239:242:332:514:519:584:604:619:679:875:1152:101:160:330:331:333:382:427:458:585:588:589:620:873:1153:1155:161:162:174:379:449:475:476:501:513:515:603:677:719:720:865:123:175:176:249:450:455:480:500:606:710:711:712:713:1110:1126:1154:148:149:150:177:200:363:428:459:481:484:512:800:801:802:1108:1127:3:137:142:201:205:217:257:258:365:466:479:499:775:778:803:983:122:143:144:163:203:215:289:364:448:451:452:460:465:498:535:564:566:567:676:776:779:780:889:1109:60:61:62:84:108:139:204:216:231:284:285:340:353:425:435:463:474:532:536:695:808:809:810:856:868:952:982:34:109:138:206:218:230:256:287:288:290:339:354:357:362:436:464:541:565:774:777:786:787:811:844:855:953:954:18:25:27:82:83:110:140:151:154:155:184:286:338:341:352:355:384:517:640:784:857:859:860:941:955:973:1068:1114:1115:1116:1161:14:17:28:29:111:117:146:153:261:356:383:434:461:516:534:538:539:644:691:692:693:694:721:722:723:724:781:785:805:806:858:863:864:866:934:1148:1149:10:30:31:85:114:116:152:234:262:276:279:313:370:462:531:537:663:685:725:759:867:933:935:976:977:978:979:1120:1160:1165:1:15:96:183:219:220:236:260:278:296:297:298:299:312:314:315:358:527:528:533:558:633:656:664:726:753:807:846:932:1117:1144:1150:26:97:115:207:208:221:232:235:277:359:371:437:520:743:770:782:783:798:845:899:962:1121:1138:1159:1162:21:53:57:113:187:222:369:439:467:493:494:495:496:526:530:549:632:634:645:654:655:714:737:771:772:773:847:861:862:895:896:960:961:963:971:972:974:1145:1174:1175:24:47:50:55:106:112:133:135:141:185:254:334:335:336:337:346:376:438:440:441:511:525:529:559:560:561:562:563:602:612:635:646:657:701:733:742:746:747:748:749:804:869:870:893:894:900:936:947:948:949:950:964:1081:1083:1122:1123:1146:1151:6:19:36:56:69:70:71:107:134:136:166:167:182:238:259:305:319:320:347:348:349:350:351:366:368:385:388:406:492:497:508:509:510:548:550:551:552:556:591:609:610:641:647:650:681:683:745:755:756:757:758:769:790:794:814:815:816:817:827:849:898:916:930:931:937:942:995:1084:1100:1107:1139:1167:1176:23:35:45:65:66:67:68:72:78:147:168:186:244:263:264:265:266:268:269:270:301:360:361:377:442:443:444:503:546:553:554:555:557:568:576:590:611:631:642:643:648:649:658:680:699:715:732:752:760:761:762:763:791:792:793:795:848:871:884:890:906:915:917:940:958:959:992:993:994:1064:1065:1066:1067:1082:1102:1104:1105:1106:1111:1112:1119:1129:1130:1131:1147:1158:1166:1173:22:39:44:46:58:73:74:75:76:77:157:169:190:223:243:255:267:271:293:300:302:303:304:318:367:372:373:374:375:378:389:400:401:404:407:410:411:413:422:423:424:430:431:433:445:453:468:488:502:506:543:544:545:547:574:593:594:607:608:682:696:697:698:702:703:704:731:734:765:768:797:828:872:881:882:883:897:901:902:903:904:905:908:918:951:975:1008:1009:1010:1011:1048:1049:1050:1088:1101:1163 -1:0:2:1 -1:34:44:36:22:4:5:30:17:10:40:11:35:6:20:7:43:16:12:28:32:3:39:26:24:25:41:42:2:19:37:1:31:23:21:33:29:14:27:18:13:15:8:45:38 -1:122:90:39:7:19:109:117:85:34:2:78:70:112:96:128:45:13:23:94:102:126:62:43:11:35:76:130:98:86:68:118:120:47:88:3:37:5:15:50:20:33:84:116:55:1:21:71:132:17:79:49:100:22:89:38:26:0:91:121:8:40:107:123:6:31:18:95:127:44:12:119:87:36:83:80:63:46:72:93:111:4:97:14:69:77:125:74:82:10:42:66:129:114:24:25:61:73:108:64:103:81:29:105:9:56:60:65:67:75:92:106:124:41:52:113 [-0.99452189536827329:0.9945218953682734] [-1:1] [1:12] [-0.90096886790241903:1] [-0.43388373911755801:0.97492791218182362] [-0.99999073973619013:0.99954628068735729] [-0.99907411510222999:0.99985183920911624] [-1:1] [-1:1] [0:7.8939451382359591] [0:7.8939451382359591] [0:7.7836405962212529] [0:6.5806391372849493] [0.69314718055994529:7.1653002110482875] [0:3.2940417966049629] [1.0986122886681098:6.9971807869699223] [0:2.9815439008988269] [1.1496948510447089:6.9242151338238198] [0:2.7957610625370255] [-726:583] [0:583]
tree_sizes=3130 3130 3129 3131 3131 3132 3131 3131 3131 3132 3133 3133 3132 3129 3133 3132 3130 3133 3104 3102 3101 3100 3104 3102 3104 3104 3105 3130 3130 3131 3080 3021 2976 3038 3040 3039 3039 3068 3090 3205 3144 3145 3144 3142 3143 3138 3154 3223 3253 3251 3254 3275 3267 3305 3335 3340 3354 3345 3313 3342 3353 3345 3301 3355 3339 3322 3344 3389 3373 3357 3303 3299 3320 3307 3271 3302 3281 3295 3322 3335 3238 3260 3241 3296 3270 3325 3322 3276 3222 3255 3291 3287 3275 3272 3323 3315 3309 3227 3237 3233 3248 3223 3373 3219 3299 3289 3403 3396 3387 3258 3258 3436 3404 3461 3472 3427 3438 3455 3358 3432 3281 3396 3483 3494 3366 3557 3532 3388 3387 3315 3348 3499 3388 3469 3380 3380 3510 3524 3502 3519 3348 3466 3435 3388 3405 3352 3398 3298 3413 3399 3343 3382 3449 3365 3330 3328 3433 3447 3412 3396 3448 3394 3317 3468 3489 3415 3481 3420 3429 3393 3459 3415 3418 3496 3447 3411 3421 3396 3409 3272 3294 3271 3418 3366 3369 3392 3342 3388 3385 3412 3400 3285 3295 3317 3478 3309 3323 3338 3324 3386 3326 3418 3419 3464 3331 3419 3475 3326 3310 3399 3379 3442 3343 3405 3467 3431 3374 3336 3395 3337 3349 3449 3391 3271 3346 3447 3370 3461 3534 3609 3649 3600 3534 3634 3497 3557 3570 3564 3518 3610 3543 3476 3502 3417 3472 3497 3435 3602 3504 3363 3359 3505 3473 3477 3438 3504 3439 3355 3396 3382 3315 3423 3402 3410 3477 3351 3328 3525 3375 3557 3430 3411 3406 3418 3532 3480 3342 3337 3420 3353 3334 3436 3471 3551 3393 3497 3616 3405 3325 3423 3313 3372 3386 3441 3422 3325 3347 3413 3465 3489 3440 3434 3498 3578 3509 3604 3473 3380 3457 3526 3339 3397 3473 3463 3455 3443 3449 3486 3488 3565 3443 3622 3553 3631 3610 3567 3640 3542 3459 3355 3417 3458 3551 3539 3451 3424 3470 3562 3451 3473 3485 3537 3464 3455 3483 3463 3484 3411 3423 3533 3574 3429 3434 3466 3473 3506 3449 3512 3519 3497 3523 3417 3465 3483 3435 3450 3514 3428 3448 3587 3583 3590 3497 3521 3542 3622 3489 3452 3455 3623 3458 3606 3459 3500 3596 3682 3479 3428 3321 3392 3467 3507 3515 3583 3455 3589 3576 3441 3508 3465 3558 3610 3482 3497 3587 3497 3541 3486 3496 3488 3463 3456 3339 3394 3301 3454 3511 3368 3266 3333 3383 3294 3280 3168 3287 3286 3255 3210 3273 3338 3342 3240 3405 3359 3446 3357 3289 3482 3369 3434 3404 3271 3524 3405 3442 3403 3328 3350 3338 3375 3301 3325 3455 3248 3355 3354 3351 3275 3356 3408 3295 3270 3359 3459 3490 3407 3509 3524 3513 3506 3442 3545 3503 3457 3439 3408 3409 3383 3377 3366 3451 3385 3515 3418 3411 3379 3382 3403 3331 3399 3362 3431 3338 3345 3365 3344 3444 3359 3376 3352 3439 3401 3403 3474 3471 3395 3314 3331 3322 3392 3410 3383 3293 3408 3324 3348 3399 3544 3375 3326 3367 3370 3377 3542 3361 3338 3392 3378 3429 3413 3484 3467 3409 3479 3527 3417 3455 3404 3362 3355 3408 3372 3426 3453 3362 3363 3425 3405 3375 3389 3332 3402 3416 3478 3397 3552 3570 3427 3410 3527 3449 3416 3451 3462 3585 3552 3580 3445 3488 3480 3461 3432 3442 3475 3435 3492 3431 3421 3398 3422 3529 3426 3518 3528 3502 3436 3457 3466 3447 3612 3482 3437 3436 3453 3415 3416 3421 3514 3523 3449 3479 3556 3454 3401 3403 3327 3359 3449 3443 3422 3483 3464 3418 3429 3478 3459 3448 3455 3424 3428 3497 3513 3433 3431 3362 3406 3412 3340 3398 3457 3416 3416 3461 3468 3544 3482 3411 3418 3408 3346 3370 3351 3370 3368 3362 3398 3396 3364 3476 3410 3419 3441 3458 3454 3438 3442 3451 3511 3596 3331 3415 3514 3455 3519 3467 3392 3439 3497 3367 3488 3447 3449 3383 3408 3479 3393 3344 3393 3287 3542 3374 3402 3382 3404 3425 3321 3431 3496 3409 3451 3370 3382 3224 3342 3382 3293 3382 3391 3490 3511 3365 3400 3438 3301 3424 3456 3422 3444 3409 3429 3407 3407 3463 3470 3385 3471 3472 3382 3283 3264 3346 3346 3337 3363 3409 3345 3479 3487 3411 3442 3505 3475 3514 3397 3498 3467 3276 3460 3437 3377 3403 3337 3324 3414 3469 3294 3309 3462 3510 3218 3387 3308 3291 3301 3319 3413 3365 3422 3339 3329 3327 3366 3394 3295 3425 3480 3323 3337 3350 3332 3450 3417 3464 3310 3378 3459 3409 3455 3464 3410 3275 3450 3449 3399 3413 3517 3376 3293 3451 3432 3323 3428 3382 3362 3344 3378 3395 3278 3470 3475 3471 3374 3624 3441 3429 3507 3565 3372 3411 3409 3326 3499 3498 3453 3357 3528 3596 3573 3486 3587 3514 3524 3496 3534 3498 3348 3336 3481 3417 3410 3327 3336 3429 3383 3413 3278 3263 3336 3392 3337 3386 3406 3303 3384 3444 3472 3372 3337 3351 3370 3253 3417 3245 3304 3298 3275 3372 3150 3268 3345 3333 3395 3305 3465 3349 3405 3451 3355 3419 3318 3314 3348 3418 3180 3252 3234 3388 3309 3357 3238 3309 3350 3416 3305 3370 3428 3414 3328 3293 3362 3474 3289 3343 3410 3450 3480 3317 3327 3380 3301 3305 3230 3545 3315 3414 3322 3331 3281 3302 3364 3305 3372 3307 3309 3284 3295 3387 3297 3303 3303 3319 3309 3471 3390 3450 3387 3398 3315 3443 3381 3407 3304 3403 3434 3261 3323 3331 3338 3502 3239 3322 3340 3432 3191 3341 3319 3284 3354 3203 3314 3392 3313 3352 3325 3340 3362 3244 3172 3498 3348 3230 3406 3183 3319 3393 3269 3267 3269 3293 3263 3449 3379 3453 3354 3271 3244 3336 3164 3229 3264 3360 3254 3380 3384 3401 3308 3350 3278 3393 3404 3307 3245 3422 3404 3366 3279 3207 3459 3331 3245

Tree=0
num_leaves=31
num_cat=12
split_feature=3 2 3 25 3 17 0 4 3 26 3 22 12 3 18 12 17 2 12 21 4 13 27 9 18 2 16 26 27 26
split_gain=2451.85 245.371 76.5363 65.844 34.3633 59.1752 24.4766 17.157 11.6564 12.7601 9.80322 8.99792 6.67063 6.4286 6.18416 5.89792 5.38559 6.67388 6.33139 5.18738 3.92409 7.05819 3.86955 3.04847 2.70531 3.69604 2.66284 2.2819 2.25725 2.13556
threshold=0 1 2 0.23582888057750759 3 0.89587973461402759 4 5 6 -549.49999999999989 7 4.709293723204147 -0.05591647229452347 8 1.0000000180025095e-35 0.49750868180287655 1.4978661367769956 9 -0.7721494341254892 1.1234717483758827 10 -0.49749486057528974 58.500000000000007 3.5000000000000004 0.89587973461402759 11 4.7706487139546434 -595.49999999999989 35.500000000000007 13.500000000000002
decision_type=9 9 9 10 9 2 9 1 9 8 9 8 2 9 2 2 2 9 2 8 1 2 8 2 2 9 2 8 8 10
left_child=1 -1 3 6 5 7 20 12 9 -6 14 23 22 15 19 29 17 18 28 -3 21 -2 26 -8 25 -7 -4 -10 -11 -5
right_child=2 10 4 13 8 24 11 -9 27 16 -12 -13 -14 -15 -16 -17 -18 -19 -20 -21 -22 -23 -24 -25 -26 -27 -28 -29 -30 -31
leaf_value=0.029444389343261719 0 0 0.039916830975611786 0.028966060146335765 0.041108736138114638 0.003295823959992106 0.019146485455271433 0.034965076446533204 0 0.045040386375939365 0 0.05256373728948404 0 0 0 0.059939613342285154 0 0 0 0.042904596127200989 0 0.031082026860699302 0 0.032958368612852951 0 0 0.057071104049682617 0 0.041108735527119508 0
leaf_weight=4213 22 20 22 30 41 100 37 160 428 38 269 155 42 366 55 35 486 206 43 31 77 32 41 71 419 123 21 9643 21 45
leaf_count=4213 22 20 22 30 41 100 37 160 428 38 269 155 42 366 55 35 486 206 43 31 77 32 41 71 419 123 21 9643 21 45
internal_value=-0.00016285 0.00609526 -0.00242583 0.000443182 -0.00263695 -0.000761194 0.00347208 0.00301399 -0.00279571 -0.00159172 -0.00167532 0.00513187 0.000253968 -0.00205462 0.00087931 0.000166667 -0.00189169 -0.000857143 0.00119643 0.00347059 -0.000234043 0.00181481 0.00188095 0.00311111 -0.00245483 -0.00156502 0.00397674 -0.00289386 0.00344068 -0.0014
internal_weight=17292 4588 12704 870 11834 928 394 286 10906 835 375 263 126 476 106 110 794 308 102 51 131 54 84 108 642 223 43 10071 59 75
internal_count=17292 4588 12704 870 11834 928 394 286 10906 835 375 263 126 476 106 110 794 308 102 51 131 54 84 108 642 223 43 10071 59 75
cat_boundaries=0 37 39 76 113 116 117 154 191 213 216 217 220
cat_threshold=2048 0 0 0 0 0 0 0 0 0 0 0 0 512 0 2048 0 33554432 0 2097152 4160755712 7 0 0 0 3254530048 1 0 0 0 0 0 0 0 0 0 393216 0 512 0 0 0 0 0 0 0 0 0 0 15360 0 12 7228 536871168 12 0 872415232 15728640 0 0 268435456 16384 0 0 0 2097152 0 0 0 0 0 0 0 0 48 1638400 8192 0 0 0 0 0 0 0 0 0 896 0 2147483840 0 1073775110 0 0 134217728 50334720 0 0 8 13248 0 0 0 4718592 0 0 0 0 0 0 0 4194304 192 11 147584 16777216 256 4 0 0 1073741824 0 0 0 33554432 32 0 0 64 8192 1073741824 3 268502032 0 2048 0 12288 0 0 224 33619968 0 0 0 1048576 0 0 0 0 0 0 0 1048832 0 4 0 0 0 0 0 0 0 0 0 0 0 0 0 512 0 0 0 0 0 0 0 0 0 0 0 4096 1 0 0 0 0 0 0 0 0 0 393216 0 0 0 0 0 0 0 0 0 0 0 0 0 28 0 0 0 0 4194304 0 0 268435456 100663296 67109888 8 4 33554448 33554944 8
is_linear=0
shrinkage=0.01


Tree=1
num_leaves=31
num_cat=12
split_feature=3 2 3 25 3 17 0 4 3 26 3 22 12 3 18 12 17 2 12 21 4 13 27 9 18 2 16 26 27 26
split_gain=2451.85 245.371 76.5363 65.844 34.3633 59.1752 24.4766 17.157 11.6564 12.7601 9.80322 8.99792 6.67063 6.4286 6.18416 5.89792 5.38559 6.67388 6.33139 5.18738 3.92409 7.05819 3.86955 3.04847 2.70531 3.69604 2.66284 2.2819 2.25725 2.13556
threshold=0 1 2 0.23582888057750759 3 0.89587973461402759 4 5 6 -549.49999999999989 7 4.709293723204147 -0.05591647229452347 8 1.0000000180025095e-35 0.49750868180287655 1.4978661367769956 9 -0.7721494341254892 1.1234717483758827 10 -0.49749486057528974 58.500000000000007 3.5000000000000004 0.89587973461402759 11 4.7706487139546434 -595.49999999999989 35.500000000000007 13.500000000000002
decision_type=9 9 9 10 9 2 9 1 9 8 9 8 2 9 2 2 2 9 2 8 1 2 8 2 2 9 2 8 8 10
left_child=1 -1 3 6 5 7 20 12 9 -6 14 23 22 15 19 29 17 18 28 -3 21 -2 26 -8 25 -7 -4 -10 -11 -5
right_child=2 10 4 13 8 24 11 -9 27 16 -12 -13 -14 -15 -16 -17 -18 -19 -20 -21 -22 -23 -24 -25 -26 -27 -28 -29 -30 -31
leaf_value=0.029149945449829101 0 0 0.039517662665855671 0.028676399544872406 0.040697648776733493 0.0032628657203921854 0.018955020600718717 0.034615425682067873 0 0.044589982512179972 0 0.052038099916589198 0 0 0 0.059340217208862303 0 0 0 0.04247555016592898 0 0.030771206592092308 0 0.03262878492672442 0 0 0.056500393009185794 0 0.040697648171848309 0
leaf_weight=4213 22 20 22 30 41 100 37 160 428 38 269 155 42 366 55 35 486 206 43 31 77 32 41 71 419 123 21 9643 21 45
leaf_count=4213 22 20 22 30 41 100 37 160 428 38 269 155 42 366 55 35 486 206 43 31 77 32 41 71 419 123 21 9643 21 45
internal_value=-0.00016285 0.00609526 -0.00242583 0.000443182 -0.00263695 -0.000761194 0.00347208 0.00301399 -0.00279571 -0.00159172 -0.00167532 0.00513187 0.000253968 -0.00205462 0.00087931 0.000166667 -0.00189169 -0.000857143 0.00119643 0.00347059 -0.000234043 0.00181481 0.00188095 0.00311111 -0.00245483 -0.00156502 0.00397674 -0.00289386 0.00344068 -0.0014
internal_weight=17292 4588 12704 870 11834 928 394 286 10906 835 375 263 126 476 106 110 794 308 102 51 131 54 84 108 642 223 43 10071 59 75
internal_count=17292 4588 12704 870 11834 928 394 286 10906 835 375 263 126 476 106 110 794 308 102 51 131 54 84 108 642 223 43 10071 59 75
cat_boundaries=0 37 39 76 113 116 117 154 191 213 216 217 220
cat_threshold=2048 0 0 0 0 0 0 0 0 0 0 0 0 512 0 2048 0 33554432 0 2097152 4160755712 7 0 0 0 3254530048 1 0 0 0 0 0 0 0 0 0 393216 0 512 0 0 0 0 0 0 0 0 0 0 15360 0 12 7228 536871168 12 0 872415232 15728640 0 0 268435456 16384 0 0 0 2097152 0 0 0 0 0 0 0 0 48 1638400 8192 0 0 0 0 0 0 0 0 0 896 0 2147483840 0 1073775110 0 0 134217728 50334720 0 0 8 13248 0 0 0 4718592 0 0 0 0 0 0 0 4194304 192 11 147584 16777216 256 4 0 0 1073741824 0 0 0 33554432 32 0 0 64 8192 1073741824 3 268502032 0 2048 0 12288 0 0 224 33619968 0 0 0 1048576 0 0 0 0 0 0 0 1048832 0 4 0 0 0 0 0 0 0 0 0 0 0 0 0 512 0 0 0 0 0 0 0 0 0 0 0 4096 1 0 0 0 0 0 0 0 0 0 393216 0 0 0 0 0 0 0 0 0 0 0 0 0 28 0 0 0 0 4194304 0 0 268435456 100663296 67109888 8 4 33554448 33554944 8
is_linear=0
shrinkage=0.01


Tree=2
num_leaves=31
num_cat=12
split_feature=3 2 3 25 3 17 0 4 3 26 3 22 12 3 18 12 17 2 12 21 4 13 27 9 18 2 16 26 27 26
split_gain=2451.85 245.371 76.5363 65.844 34.3633 59.1752 24.4766 17.157 11.6564 12.7601 9.80322 8.99792 6.67063 6.4286 6.18416 5.89792 5.38559 6.67388 6.33139 5.18738 3.92409 7.05819 3.86955 3.04847 2.70531 3.69604 2.66284 2.2819 2.25725 2.13556
threshold=0 1 2 0.23582888057750759 3 0.89587973461402759 4 5 6 -549.49999999999989 7 4.709293723204147 -0.05591647229452347 8 1.0000000180025095e-35 0.49750868180287655 1.4978661367769956 9 -0.7721494341254892 1.1234717483758827 10 -0.49749486057528974 58.500000000000007 3.5000000000000004 0.89587973461402759 11 4.7706487139546434 -595.49999999999989 35.500000000000007 13.500000000000002
decision_type=9 9 9 10 9 2 9 1 9 8 9 8 2 9 2 2 2 9 2 8 1 2 8 2 2 9 2 8 8 10
left_child=1 -1 3 6 5 7 20 12 9 -6 14 23 22 15 19 29 17 18 28 -3 21 -2 26 -8 25 -7 -4 -10 -11 -5
right_child=2 10 4 13 8 24 11 -9 27 16 -12 -13 -14 -15 -16 -17 -18 -19 -20 -21 -22 -23 -24 -25 -26 -27 -28 -29 -30 -31
leaf_value=0.028858445995330811 0 0 0.039122486039197116 0.028389635549423684 0.040290672288966156 0.003230237063188264 0.01876547039471153 0.034269271425247196 0 0.044144082687058168 0 0.051517718917423308 0 0 0 0.058746815036773682 0 0 0 0.04205079466426969 0 0.030463494526171388 0 0.032302497077457179 0 0 0.055935389079093935 0 0.040290671690129828 0
leaf_weight=4213 22 20 22 30 41 100 37 160 428 38 269 155 42 366 55 35 486 206 43 31 77 32 41 71 419 123 21 9643 21 45
leaf_count=4213 22 20 22 30 41 100 37 160 428 38 269 155 42 366 55 35 486 206 43 31 77 32 41 71 419 123 21 9643 21 45
internal_value=-0.00016285 0.00609526 -0.00242583 0.000443182 -0.00263695 -0.000761194 0.00347208 0.00301399 -0.00279571 -0.00159172 -0.00167532 0.00513187 0.000253968 -0.00205462 0.00087931 0.000166667 -0.00189169 -0.000857143 0.00119643 0.00347059 -0.000234043 0.00181481 0.00188095 0.00311111 -0.00245483 -0.00156502 0.00397674 -0.00289386 0.00344068 -0.0014
internal_weight=17292 4588 12704 870 11834 928 394 286 10906 835 375 263 126 476 106 110 794 308 102 51 131 54 84 108 642 223 43 10071 59 75
internal_count=17292 4588 12704 870 11834 928 394 286 10906 835 375 263 126 476 106 110 794 308 102 51 131 54 84 108 642 223 43 10071 59 75
cat_boundaries=0 37 39 76 113 116 117 154 191 213 216 217 220
cat_threshold=2048 0 0 0 0 0 0 0 0 0 0 0 0 512 0 2048 0 33554432 0 2097152 4160755712 7 0 0 0 3254530048 1 0 0 0 0 0 0 0 0 0 393216 0 512 0 0 0 0 0 0 0 0 0 0 15360 0 12 7228 536871168 12 0 872415232 15728640 0 0 268435456 16384 0 0 0 2097152 0 0 0 0 0 0 0 0 48 1638400 8192 0 0 0 0 0 0 0 0 0 896 0 2147483840 0 1073775110 0 0 134217728 50334720 0 0 8 13248 0 0 0 4718592 0 0 0 0 0 0 0 4194304 192 11 147584 16777216 256 4 0 0 1073741824 0 0 0 33554432 32 0 0 64 8192 1073741824 3 268502032 0 2048 0 12288 0 0 224 33619968 0 0 0 1048576 0 0 0 0 0 0 0 1048832 0 4 0 0 0 0 0 0 0 0 0 0 0 0 0 512 0 0 0 0 0 0 0 0 0 0 0 4096 1 0 0 0 0 0 0 0 0 0 393216 0 0 0 0 0 0 0 0 0 0 0 0 0 28 0 0 0 0 4194304 0 0 268435456 100663296 67109888 8 4 33554448 33554944 8
is_linear=0
shrinkage=0.01


Tree=3
num_leaves=31
num_cat=12
split_feature=3 2 3 25 3 17 0 4 3 26 3 22 12 3 18 12 17 2 12 21 4 13 27 9 18 2 16 26 27 26
split_gain=2451.85 245.371 76.5363 65.844 34.3633 59.1752 24.4766 17.157 11.6564 12.7601 9.80322 8.99792 6.67063 6.4286 6.18416 5.89792 5.38559 6.67388 6.33139 5.18738 3.92409 7.05819 3.86955 3.04847 2.70531 3.69604 2.66284 2.2819 2.25725 2.13556
threshold=0 1 2 0.23582888057750759 3 0.89587973461402759 4 5 6 -549.49999999999989 7 4.709293723204147 -0.05591647229452347 8 1.0000000180025095e-35 0.49750868180287655 1.4978661367769956 9 -0.7721494341254892 1.1234717483758827 10 -0.49749486057528974 58.500000000000007 3.5000000000000004 0.89587973461402759 11 4.7706487139546434 -595.49999999999989 35.500000000000007 13.500000000000002
decision_type=9 9 9 10 9 2 9 1 9 8 9 8 2 9 2 2 2 9 2 8 1 2 8 2 2 9 2 8 8 10
left_child=1 -1 3 6 5 7 20 12 9 -6 14 23 22 15 19 29 17 18 28 -3 21 -2 26 -8 25 -7 -4 -10 -11 -5
right_child=2 10 4 13 8 24 11 -9 27 16 -12 -13 -14 -15 -16 -17 -18 -19 -20 -21 -22 -23 -24 -25 -26 -27 -28 -29 -30 -31
leaf_value=0.028569861535377501 0 0 0.038731261178805147 0.028105739193929447 0.039887765566076497 0.0031979346925563811 0.018577815690764415 0.03392657871099472 0 0.043702641860187595 0 0.051002541728249071 0 0 0 0.058159346886405949 0 0 0 0.041630286717626995 0 0.030158859580909671 0 0.031979472106682609 0 0 0.055376035188302995 0 0.039887764973228532 0
leaf_weight=4213 22 20 22 30 41 100 37 160 428 38 269 155 42 366 55 35 486 206 43 31 77 32 41 71 419 123 21 9643 21 45
leaf_count=4213 22 20 22 30 41 100 37 160 428 38 269 155 42 366 55 35 486 206 43 31 77 32 41 71 419 123 21 9643 21 45
internal_value=-0.00016285 0.00609526 -0.00242583 0.000443182 -0.00263695 -0.000761194 0.00347208 0.00301399 -0.00279571 -0.00159172 -0.00167532 0.00513187 0.000253968 -0.00205462 0.00087931 0.000166667 -0.00189169 -0.000857143 0.00119643 0.00347059 -0.000234043 0.00181481 0.00188095 0.00311111 -0.00245483 -0.00156502 0.00397674 -0.00289386 0.00344068 -0.0014
internal_weight=17292 4588 12704 870 11834 928 394 286 10906 835 375 263 126 476 106 110 794 308 102 51 131 54 84 108 642 223 43 10071 59 75
internal_count=17292 4588 12704 870 11834 928 394 286 10906 835 375 263 126 476 106 110 794 308 102 51 131 54 84 108 642 223 43 10071 59 75
cat_boundaries=0 37 39 76 113 116 117 154 191 213 216 217 220
cat_threshold=2048 0 0 0 0 0 0 0 0 0 0 0 0 512 0 2048 0 33554432 0 2097152 4160755712 7 0 0 0 3254530048 1 0 0 0 0 0 0 0 0 0 393216 0 512 0 0 0 0 0 0 0 0 0 0 15360 0 12 7228 536871168 12 0 872415232 15728640 0 0 268435456 16384 0 0 0 2097152 0 0 0 0 0 0 0 0 48 1638400 8192 0 0 0 0 0 0 0 0 0 896 0 2147483840 0 1073775110 0 0 134217728 50334720 0 0 8 13248 0 0 0 4718592 0 0 0 0 0 0 0 4194304 192 11 147584 16777216 256 4 0 0 1073741824 0 0 0 33554432 32 0 0 64 8192 1073741824 3 268502032 0 2048 0 12288 0 0 224 33619968 0 0 0 1048576 0 0 0 0 0 0 0 1048832 0 4 0 0 0 0 0 0 0 0 0 0 0 0 0 512 0 0 0 0 0 0 0 0 0 0 0 4096 1 0 0 0 0 0 0 0 0 0 393216 0 0 0 0 0 0 0 0 0 0 0 0 0 28 0 0 0 0 4194304 0 0 268435456 100663296 67109888 8 4 33554448 33554944 8
is_linear=0
shrinkage=0.01


Tree=4
num_leaves=31
num_cat=12
split_feature=3 2 3 25 3 17 0 4 3 26 3 22 12 3 18 12 17 2 12 21 4 13 27 9 18 2 16 26 27 26
split_gain=2451.85 245.371 76.5363 65.844 34.3633 59.1752 24.4766 17.157 11.6564 12.7601 9.80322 8.99792 6.67063 6.4286 6.18416 5.89792 5.38559 6.67388 6.33139 5.18738 3.92409 7.05819 3.86955 3.04847 2.70531 3.69604 2.66284 2.2819 2.25725 2.13556
threshold=0 1 2 0.23582888057750759 3 0.89587973461402759 4 5 6 -549.49999999999989 7 4.709293723204147 -0.05591647229452347 8 1.0000000180025095e-35 0.49750868180287655 1.4978661367769956 9 -0.7721494341254892 1.1234717483758827 10 -0.49749486057528974 58.500000000000007 3.5000000000000004 0.89587973461402759 11 4.7706487139546434 -595.49999999999989 35.500000000000007 13.500000000000002
decision_type=9 9 9 10 9 2 9 1 9 8 9 8 2 9 2 2 2 9 2 8 1 2 8 2 2 9 2 8 8 10
left_child=1 -1 3 6 5 7 20 12 9 -6 14 23 22 15 19 29 17 18 28 -3 21 -2 26 -8 25 -7 -4 -10 -11 -5
right_child=2 10 4 13 8 24 11 -9 27 16 -12 -13 -14 -15 -16 -17 -18 -19 -20 -21 -22 -23 -24 -25 -26 -27 -28 -29 -30 -31
leaf_value=0.028284162920023729 0 0 0.038343948567017096 0.027824681801990152 0.039488887910415729 0.0031659553456308154 0.018392037533856771 0.033587312923884775 0 0.043265615441585713 0 0.050492516310966587 0 0 0 0.057577753417541885 0 0 0 0.041213983850450726 0 0.029857270985100572 0 0.03165967738561578 0 0 0.054822274836419965 0 0.039488887323496251 0
leaf_weight=4213 22 20 22 30 41 100 37 160 428 38 269 155 42 366 55 35 486 206 43 31 77 32 41 71 419 123 21 9643 21 45
leaf_count=4213 22 20 22 30 41 100 37 160 428 38 269 155 42 366 55 35 486 206 43 31 77 32 41 71 419 123 21 9643 21 45
internal_value=-0.00016285 0.00609526 -0.00242583 0.000443182 -0.00263695 -0.000761194 0.00347208 0.00301399 -0.00279571 -0.00159172 -0.00167532 0.00513187 0.000253968 -0.00205462 0.00087931 0.000166667 -0.00189169 -0.000857143 0.00119643 0.00347059 -0.000234043 0.00181481 0.00188095 0.00311111 -0.00245483 -0.00156502 0.00397674 -0.00289386 0.00344068 -0.0014
internal_weight=17292 4588 12704 870 11834 928 394 286 10906 835 375 263 126 476 106 110 794 308 102 51 131 54 84 108 642 223 43 10071 59 75
internal_count=17292 4588 12704 870 11834 928 394 286 10906 835 375 263 126 476 106 110 794 308 102 51 131 54 84 108 642 223 43 10071 59 75
cat_boundaries=0 37 39 76 113 116 117 154 191 213 216 217 220
cat_threshold=2048 0 0 0 0 0 0 0 0 0 0 0 0 512 0 2048 0 33554432 0 2097152 4160755712 7 0 0 0 3254530048 1 0 0 0 0 0 0 0 0 0 393216 0 512 0 0 0 0 0 0 0 0 0 0 15360 0 12 7228 536871168 12 0 872415232 15728640 0 0 268435456 16384 0 0 0 2097152 0 0 0 0 0 0 0 0 48 1638400 8192 0 0 0 0 0 0 0 0 0 896 0 2147483840 0 1073775110 0 0 134217728 50334720 0 0 8 13248 0 0 0 4718592 0 0 0 0 0 0 0 4194304 192 11 147584 16777216 256 4 0 0 1073741824 0 0 0 33554432 32 0 0 64 8192 1073741824 3 268502032 0 2048 0 12288 0 0 224 33619968 0 0 0 1048576 0 0 0 0 0 0 0 1048832 0 4 0 0 0 0 0 0 0 0 0 0 0 0 0 512 0 0 0 0 0 0 0 0 0 0 0 4096 1 0 0 0 0 0 0 0 0 0 393216 0 0 0 0 0 0 0 0 0 0 0 0 0 28 0 0 0 0 4194304 0 0 268435456 100663296 67109888 8 4 33554448 33554944 8
is_linear=0
shrinkage=0.01


Tree=5
num_leaves=31
num_cat=12
split_feature=3 2 3 25 3 17 0 4 3 26 3 22 12 3 18 12 17 2 12 21 4 13 27 9 18 2 16 26 27 26
split_gain=2451.85 245.371 76.5363 65.844 34.3633 59.1752 24.4766 17.157 11.6564 12.7601 9.80322 8.99792 6.67063 6.4286 6.18416 5.89792 5.38559 6.67388 6.33139 5.18738 3.92409 7.05819 3.86955 3.04847 2.70531 3.69604 2.66284 2.2819 2.25725 2.13556
threshold=0 1 2 0.23582888057750759 3 0.89587973461402759 4 5 6 -549.49999999999989 7 4.709293723204147 -0.05591647229452347 8 1.0000000180025095e-35 0.49750868180287655 1.4978661367769956 9 -0.7721494341254892 1.1234717483758827 10 -0.49749486057528974 58.500000000000007 3.5000000000000004 0.89587973461402759 11 4.7706487139546434 -595.49999999999989 35.500000000000007 13.500000000000002
decision_type=9 9 9 10 9 2 9 1 9 8 9 8 2 9 2 2 2 9 2 8 1 2 8 2 2 9 2 8 8 10
left_child=1 -1 3 6 5 7 20 12 9 -6 14 23 22 15 19 29 17 18 28 -3 21 -2 26 -8 25 -7 -4 -10 -11 -5
right_child=2 10 4 13 8 24 11 -9 27 16 -12 -13 -14 -15 -16 -17 -18 -19 -20 -21 -22 -23 -24 -25 -26 -27 -28 -29 -30 -31
leaf_value=0.028001321290823489 0 0 0.037960509081346919 0.027546434983970247 0.039093999031311569 0.0031342957921745088 0.018208117158518201 0.033251439794645926 0 0.042832959287169861 0 0.049987591147856919 0 0 0 0.057001975883366467 0 0 0 0.040801844011946219 0 0.029558698275249567 0 0.031343080611759618 0 0 0.054274052088055767 0 0.039093998450261284 0
leaf_weight=4213 22 20 22 30 41 100 37 160 428 38 269 155 42 366 55 35 486 206 43 31 77 32 41 71 419 123 21 9643 21 45
leaf_count=4213 22 20 22 30 41 100 37 160 428 38 269 155 42 366 55 35 486 206 43 31 77 32 41 71 419 123 21 9643 21 45
internal_value=-0.00016285 0.00609526 -0.00242583 0.000443182 -0.00263695 -0.000761194 0.00347208 0.00301399 -0.00279571 -0.00159172 -0.00167532 0.00513187 0.000253968 -0.00205462 0.00087931 0.000166667 -0.00189169 -0.000857143 0.00119643 0.00347059 -0.000234043 0.00181481 0.00188095 0.00311111 -0.00245483 -0.00156502 0.00397674 -0.00289386 0.00344068 -0.0014
internal_weight=17292 4588 12704 870 11834 928 394 286 10906 835 375 263 126 476 106 110 794 308 102 51 131 54 84 108 642 223 43 10071 59 75
internal_count=17292 4588 12704 870 11834 928 394 286 10906 835 375 263 126 476 106 110 794 308 102 51 131 54 84 108 642 223 43 10071 59 75
cat_boundaries=0 37 39 76 113 116 117 154 191 213 216 217 220
cat_threshold=2048 0 0 0 0 0 0 0 0 0 0 0 0 512 0 2048 0 33554432 0 2097152 4160755712 7 0 0 0 3254530048 1 0 0 0 0 0 0 0 0 0 393216 0 512 0 0 0 0 0 0 0 0 0 0 15360 0 12 7228 536871168 12 0 872415232 15728640 0 0 268435456 16384 0 0 0 2097152 0 0 0 0 0 0 0 0 48 1638400 8192 0 0 0 0 0 0 0 0 0 896 0 2147483840 0 1073775110 0 0 134217728 50334720 0 0 8 13248 0 0 0 4718592 0 0 0 0 0 0 0 4194304 192 11 147584 16777216 256 4 0 0 1073741824 0 0 0 33554432 32 0 0 64 8192 1073741824 3 268502032 0 2048 0 12288 0 0 224 33619968 0 0 0 1048576 0 0 0 0 0 0 0 1048832 0 4 0 0 0 0 0 0 0 0 0 0 0 0 0 512 0 0 0 0 0 0 0 0 0 0 0 4096 1 0 0 0 0 0 0 0 0 0 393216 0 0 0 0 0 0 0 0 0 0 0 0 0 28 0 0 0 0 4194304 0 0 268435456 100663296 67109888 8 4 33554448 33554944 8
is_linear=0
shrinkage=0.01


Tree=6
num_leaves=31
num_cat=12
split_feature=3 2 3 25 3 17 0 4 3 26 3 22 12 3 18 12 17 2 12 21 4 13 27 9 18 2 16 26 27 26
split_gain=2451.85 245.371 76.5363 65.844 34.3633 59.1752 24.4766 17.157 11.6564 12.7601 9.80322 8.99792 6.67063 6.4286 6.18416 5.89792 5.38559 6.67388 6.33139 5.18738 3.92409 7.05819 3.86955 3.04847 2.70531 3.69604 2.66284 2.2819 2.25725 2.13556
threshold=0 1 2 0.23582888057750759 3 0.89587973461402759 4 5 6 -549.49999999999989 7 4.709293723204147 -0.05591647229452347 8 1.0000000180025095e-35 0.49750868180287655 1.4978661367769956 9 -0.7721494341254892 1.1234717483758827 10 -0.49749486057528974 58.500000000000007 3.5000000000000004 0.89587973461402759 11 4.7706487139546434 -595.49999999999989 35.500000000000007 13.500000000000002
decision_type=9 9 9 10 9 2 9 1 9 8 9 8 2 9 2 2 2 9 2 8 1 2 8 2 2 9 2 8 8 10
left_child=1 -1 3 6 5 7 20 12 9 -6 14 23 22 15 19 29 17 18 28 -3 21 -2 26 -8 25 -7 -4 -10 -11 -5
right_child=2 10 4 13 8 24 11 -9 27 16 -12 -13 -14 -15 -16 -17 -18 -19 -20 -21 -22 -23 -24 -25 -26 -27 -28 -29 -30 -31
leaf_value=0.027721308077915254 0 0 0.037580903990533453 0.027270970634130545 0.03870305904099846 0.0031029528342527636 0.018026035986933021 0.032918925396699467 0 0.042404629694298153 0 0.049487715236378342 0 0 0 0.056431956124532806 0 0 0 0.040393825571826747 0 0.029263111292497077 0 0.031029649805642025 0 0 0.053731311567175206 0 0.038703058465758666 0
leaf_weight=4213 22 20 22 30 41 100 37 160 428 38 269 155 42 366 55 35 486 206 43 31 77 32 41 71 419 123 21 9643 21 45
leaf_count=4213 22 20 22 30 41 100 37 160 428 38 269 155 42 366 55 35 486 206 43 31 77 32 41 71 419 123 21 9643 21 45
internal_value=-0.00016285 0.00609526 -0.00242583 0.000443182 -0.00263695 -0.000761194 0.00347208 0.00301399 -0.00279571 -0.00159172 -0.00167532 0.00513187 0.000253968 -0.00205462 0.00087931 0.000166667 -0.00189169 -0.000857143 0.00119643 0.00347059 -0.000234043 0.00181481 0.00188095 0.00311111 -0.00245483 -0.00156502 0.00397674 -0.00289386 0.00344068 -0.0014
internal_weight=17292 4588 12704 870 11834 928 394 286 10906 835 375 263 126 476 106 110 794 308 102 51 131 54 84 108 642 223 43 10071 59 75
internal_count=17292 4588 12704 870 11834 928 394 286 10906 835 375 263 126 476 106 110 794 308 102 51 131 54 84 108 642 223 43 10071 59 75
cat_boundaries=0 37 39 76 113 116 117 154 191 213 216 217 220
cat_threshold=2048 0 0 0 0 0 0 0 0 0 0 0 0 512 0 2048 0 33554432 0 2097152 4160755712 7 0 0 0 3254530048 1 0 0 0 0 0 0 0 0 0 393216 0 512 0 0 0 0 0 0 0 0 0 0 15360 0 12 7228 536871168 12 0 872415232 15728640 0 0 268435456 16384 0 0 0 2097152 0 0 0 0 0 0 0 0 48 1638400 8192 0 0 0 0 0 0 0 0 0 896 0 2147483840 0 1073775110 0 0 134217728 50334720 0 0 8 13248 0 0 0 4718592 0 0 0 0 0 0 0 4194304 192 11 147584 16777216 256 4 0 0 1073741824 0 0 0 33554432 32 0 0 64 8192 1073741824 3 268502032 0 2048 0 12288 0 0 224 33619968 0 0 0 1048576 0 0 0 0 0 0 0 1048832 0 4 0 0 0 0 0 0 0 0 0 0 0 0 0 512 0 0 0 0 0 0 0 0 0 0 0 4096 1 0 0 0 0 0 0 0 0 0 393216 0 0 0 0 0 0 0 0 0 0 0 0 0 28 0 0 0 0 4194304 0 0 268435456 100663296 67109888 8 4 33554448 33554944 8
is_linear=0
shrinkage=0.01


Tree=7
num_leaves=31
num_cat=12
split_feature=3 2 3 25 3 17 0 4 3 26 3 22 12 3 18 12 17 2 12 21 4 13 27 9 18 2 16 26 27 26
split_gain=2451.85 245.371 76.5363 65.844 34.3633 59.1752 24.4766 17.157 11.6564 12.7601 9.80322 8.99792 6.67063 6.4286 6.18416 5.89792 5.38559 6.67388 6.33139 5.18738 3.92409 7.05819 3.86955 3.04847 2.70531 3.69604 2.66284 2.2819 2.25725 2.13556
threshold=0 1 2 0.23582888057750759 3 0.89587973461402759 4 5 6 -549.49999999999989 7 4.709293723204147 -0.05591647229452347 8 1.0000000180025095e-35 0.49750868180287655 1.4978661367769956 9 -0.7721494341254892 1.1234717483758827 10 -0.49749486057528974 58.500000000000007 3.5000000000000004 0.89587973461402759 11 4.7706487139546434 -595.49999999999989 35.500000000000007 13.500000000000002
decision_type=9 9 9 10 9 2 9 1 9 8 9 8 2 9 2 2 2 9 2 8 1 2 8 2 2 9 2 8 8 10
left_child=1 -1 3 6 5 7 20 12 9 -6 14 23 22 15 19 29 17 18 28 -3 21 -2 26 -8 25 -7 -4 -10 -11 -5
right_child=2 10 4 13 8 24 11 -9 27 16 -12 -13 -14 -15 -16 -17 -18 -19 -20 -21 -22 -23 -24 -25 -26 -27 -28 -29 -30 -31
leaf_value=0.027444094997136102 0 0 0.037205094950628119 0.026998260927789241 0.038316028450588471 0.0030719233059102358 0.01784577562706369 0.032589736142732473 0 0.041980583397355178 0 0.048992838084014563 0 0 0 0.055867636563287471 0 0 0 0.039989887316108488 0 0.028970480179572104 0 0.030719353307585604 0 0 0.053193998451503452 0 0.038316027881101083 0
leaf_weight=4213 22 20 22 30 41 100 37 160 428 38 269 155 42 366 55 35 486 206 43 31 77 32 41 71 419 123 21 9643 21 45
leaf_count=4213 22 20 22 30 41 100 37 160 428 38 269 155 42 366 55 35 486 206 43 31 77 32 41 71 419 123 21 9643 21 45
internal_value=-0.00016285 0.00609526 -0.00242583 0.000443182 -0.00263695 -0.000761194 0.00347208 0.00301399 -0.00279571 -0.00159172 -0.00167532 0.00513187 0.000253968 -0.00205462 0.00087931 0.000166667 -0.00189169 -0.000857143 0.00119643 0.00347059 -0.000234043 0.00181481 0.00188095 0.00311111 -0.00245483 -0.00156502 0.00397674 -0.00289386 0.00344068 -0.0014
internal_weight=17292 4588 12704 870 11834 928 394 286 10906 835 375 263 126 476 106 110 794 308 102 51 131 54 84 108 642 223 43 10071 59 75
internal_count=17292 4588 12704 870 11834 928 394 286 10906 835 375 263 126 476 106 110 794 308 102 51 131 54 84 108 642 223 43 10071 59 75
cat_boundaries=0 37 39 76 113 116 117 154 191 213 216 217 220
cat_threshold=2048 0 0 0 0 0 0 0 0 0 0 0 0 512 0 2048 0 33554432 0 2097152 4160755712 7 0 0 0 3254530048 1 0 0 0 0 0 0 0 0 0 393216 0 512 0 0 0 0 0 0 0 0 0 0 15360 0 12 7228 536871168 12 0 872415232 15728640 0 0 268435456 16384 0 0 0 2097152 0 0 0 0 0 0 0 0 48 1638400 8192 0 0 0 0 0 0 0 0 0 896 0 2147483840 0 1073775110 0 0 134217728 50334720 0 0 8 13248 0 0 0 4718592 0 0 0 0 0 0 0 4194304 192 11 147584 16777216 256 4 0 0 1073741824 0 0 0 33554432 32 0 0 64 8192 1073741824 3 268502032 0 2048 0 12288 0 0 224 33619968 0 0 0 1048576 0 0 0 0 0 0 0 1048832 0 4 0 0 0 0 0 0 0 0 0 0 0 0 0 512 0 0 0 0 0 0 0 0 0 0 0 4096 1 0 0 0 0 0 0 0 0 0 393216 0 0 0 0 0 0 0 0 0 0 0 0 0 28 0 0 0 0 4194304 0 0 268435456 100663296 67109888 8 4 33554448 33554944 8
is_linear=0
shrinkage=0.01


Tree=8
num_leaves=31
num_cat=12
split_feature=3 2 3 25 3 17 0 4 3 26 3 22 12 3 18 12 17 2 12 21 4 13 27 9 18 2 16 26 27 26
split_gain=2451.85 245.371 76.5363 65.844 34.3633 59.1752 24.4766 17.157 11.6564 12.7601 9.80322 8.99792 6.67063 6.4286 6.18416 5.89792 5.38559 6.67388 6.33139 5.18738 3.92409 7.05819 3.86955 3.04847 2.70531 3.69604 2.66284 2.2819 2.25725 2.13556
threshold=0 1 2 0.23582888057750759 3 0.89587973461402759 4 5 6 -549.49999999999989 7 4.709293723204147 -0.05591647229452347 8 1.0000000180025095e-35 0.49750868180287655 1.4978661367769956 9 -0.7721494341254892 1.1234717483758827 10 -0.49749486057528974 58.500000000000007 3.5000000000000004 0.89587973461402759 11 4.7706487139546434 -595.49999999999989 35.500000000000007 13.500000000000002
decision_type=9 9 9 10 9 2 9 1 9 8 9 8 2 9 2 2 2 9 2 8 1 2 8 2 2 9 2 8 8 10
left_child=1 -1 3 6 5 7 20 12 9 -6 14 23 22 15 19 29 17 18 28 -3 21 -2 26 -8 25 -7 -4 -10 -11 -5
right_child=2 10 4 13 8 24 11 -9 27 16 -12 -13 -14 -15 -16 -17 -18 -19 -20 -21 -22 -23 -24 -25 -26 -27 -28 -29 -30 -31
leaf_value=0.027169654047164742 0 0 0.036833044001121834 0.02672827831851135 0.037932868166082587 0.0030412040728511336 0.017667317870793054 0.032263838781305149 0 0.041560777563381626 0 0.048502909703174418 0 0 0 0.055308960197654598 0 0 0 0.039589988442947401 0 0.028680775377776382 0 0.030412159774509753 0 0 0.052662058466988418 0 0.037932867602290074 0
leaf_weight=4213 22 20 22 30 41 100 37 160 428 38 269 155 42 366 55 35 486 206 43 31 77 32 41 71 419 123 21 9643 21 45
leaf_count=4213 22 20 22 30 41 100 37 160 428 38 269 155 42 366 55 35 486 206 43 31 77 32 41 71 419 123 21 9643 21 45
internal_value=-0.00016285 0.00609526 -0.00242583 0.000443182 -0.00263695 -0.000761194 0.00347208 0.00301399 -0.00279571 -0.00159172 -0.00167532 0.00513187 0.000253968 -0.00205462 0.00087931 0.000166667 -0.00189169 -0.000857143 0.00119643 0.00347059 -0.000234043 0.00181481 0.00188095 0.00311111 -0.00245483 -0.00156502 0.00397674 -0.00289386 0.00344068 -0.0014
internal_weight=17292 4588 12704 870 11834 928 394 286 10906 835 375 263 126 476 106 110 794 308 102 51 131 54 84 108 642 223 43 10071 59 75
internal_count=17292 4588 12704 870 11834 928 394 286 10906 835 375 263 126 476 106 110 794 308 102 51 131 54 84 108 642 223 43 10071 59 75
cat_boundaries=0 37 39 76 113 116 117 154 191 213 216 217 220
cat_threshold=2048 0 0 0 0 0 0 0 0 0 0 0 0 512 0 2048 0 33554432 0 2097152 4160755712 7 0 0 0 3254530048 1 0 0 0 0 0 0 0 0 0 393216 0 512 0 0 0 0 0 0 0 0 0 0 15360 0 12 7228 536871168 12 0 872415232 15728640 0 0 268435456 16384 0 0 0 2097152 0 0 0 0 0 0 0 0 48 1638400 8192 0 0 0 0 0 0 0 0 0 896 0 2147483840 0 1073775110 0 0 134217728 50334720 0 0 8 13248 0 0 0 4718592 0 0 0 0 0 0 0 4194304 192 11 147584 16777216 256 4 0 0 1073741824 0 0 0 33554432 32 0 0 64 8192 1073741824 3 268502032 0 2048 0 12288 0 0 224 33619968 0 0 0 1048576 0 0 0 0 0 0 0 1048832 0 4 0 0 0 0 0 0 0 0 0 0 0 0 0 512 0 0 0 0 0 0 0 0 0 0 0 4096 1 0 0 0 0 0 0 0 0 0 393216 0 0 0 0 0 0 0 0 0 0 0 0 0 28 0 0 0 0 4194304 0 0 268435456 100663296 67109888 8 4 33554448 33554944 8
is_linear=0
shrinkage=0.01


Tree=9
num_leaves=31
num_cat=12
split_feature=3 2 3 25 3 17 0 4 3 26 3 22 12 3 18 12 17 2 12 21 4 13 27 9 18 2 16 26 27 26
split_gain=2451.85 245.371 76.5363 65.844 34.3633 59.1752 24.4766 17.157 11.6564 12.7601 9.80322 8.99792 6.67063 6.4286 6.18416 5.89792 5.38559 6.67388 6.33139 5.18738 3.92409 7.05819 3.86955 3.04847 2.70531 3.69604 2.66284 2.2819 2.25725 2.13556
threshold=0 1 2 0.23582888057750759 3 0.89587973461402759 4 5 6 -549.49999999999989 7 4.709293723204147 -0.05591647229452347 8 1.0000000180025095e-35 0.49750868180287655 1.4978661367769956 9 -0.7721494341254892 1.1234717483758827 10 -0.49749486057528974 58.500000000000007 3.5000000000000004 0.89587973461402759 11 4.7706487139546434 -595.49999999999989 35.500000000000007 13.500000000000002
decision_type=9 9 9 10 9 2 9 1 9 8 9 8 2 9 2 2 2 9 2 8 1 2 8 2 2 9 2 8 8 10
left_child=1 -1 3 6 5 7 20 12 9 -6 14 23 22 15 19 29 17 18 28 -3 21 -2 26 -8 25 -7 -4 -10 -11 -5
right_child=2 10 4 13 8 24 11 -9 27 16 -12 -13 -14 -15 -16 -17 -18 -19 -20 -21 -22 -23 -24 -25 -26 -27 -28 -29 -30 -31
leaf_value=0.026897957506693097 0 0 0.036464713561110619 0.026460995535326239 0.037553539484421757 0.0030107920321226223 0.017490644692085121 0.031941200393492096 0 0.041145169787747807 0 0.048017880606142677 0 0 0 0.054755870595678061 0 0 0 0.039194088558517928 0 0.028393967623998619 0 0.030108038176764655 0 0 0.052135437882318537 0 0.037553538926267171 0
leaf_weight=4213 22 20 22 30 41 100 37 160 428 38 269 155 42 366 55 35 486 206 43 31 77 32 41 71 419 123 21 9643 21 45
leaf_count=4213 22 20 22 30 41 100 37 160 428 38 269 155 42 366 55 35 486 206 43 31 77 32 41 71 419 123 21 9643 21 45
internal_value=-0.00016285 0.00609526 -0.00242583 0.000443182 -0.00263695 -0.000761194 0.00347208 0.00301399 -0.00279571 -0.00159172 -0.00167532 0.00513187 0.000253968 -0.00205462 0.00087931 0.000166667 -0.00189169 -0.000857143 0.00119643 0.00347059 -0.000234043 0.00181481 0.00188095 0.00311111 -0.00245483 -0.00156502 0.00397674 -0.00289386 0.00344068 -0.0014
internal_weight=17292 4588 12704 870 11834 928 394 286 10906 835 375 263 126 476 106 110 794 308 102 51 131 54 84 108 642 223 43 10071 59 75
internal_count=17292 4588 12704 870 11834 928 394 286 10906 835 375 263 126 476 106 110 794 308 102 51 131 54 84 108 642 223 43 10071 59 75
cat_boundaries=0 37 39 76 113 116 117 154 191 213 216 217 220
cat_threshold=2048 0 0 0 0 0 0 0 0 0 0 0 0 512 0 2048 0 33554432 0 2097152 4160755712 7 0 0 0 3254530048 1 0 0 0 0 0 0 0 0 0 393216 0 512 0 0 0 0 0 0 0 0 0 0 15360 0 12 7228 536871168 12 0 872415232 15728640 0 0 268435456 16384 0 0 0 2097152 0 0 0 0 0 0 0 0 48 1638400 8192 0 0 0 0 0 0 0 0 0 896 0 2147483840 0 1073775110 0 0 134217728 50334720 0 0 8 13248 0 0 0 4718592 0 0 0 0 0 0 0 4194304 192 11 147584 16777216 256 4 0 0 1073741824 0 0 0 33554432 32 0 0 64 8192 1073741824 3 268502032 0 2048 0 12288 0 0 224 33619968 0 0 0 1048576 0 0 0 0 0 0 0 1048832 0 4 0 0 0 0 0 0 0 0 0 0 0 0 0 512 0 0 0 0 0 0 0 0 0 0 0 4096 1 0 0 0 0 0 0 0 0 0 393216 0 0 0 0 0 0 0 0 0 0 0 0 0 28 0 0 0 0 4194304 0 0 268435456 100663296 67109888 8 4 33554448 33554944 8
is_linear=0
shrinkage=0.01


Tree=10
num_leaves=31
num_cat=12
split_feature=3 2 3 25 3 17 0 4 3 26 3 22 12 3 18 12 17 2 12 21 4 13 27 9 18 2 16 26 27 26
split_gain=2451.85 245.371 76.5363 65.844 34.3633 59.1752 24.4766 17.157 11.6564 12.7601 9.80322 8.99792 6.67063 6.4286 6.18416 5.89792 5.38559 6.67388 6.33139 5.18738 3.92409 7.05819 3.86955 3.04847 2.70531 3.69604 2.66284 2.2819 2.25725 2.13556
threshold=0 1 2 0.23582888057750759 3 0.89587973461402759 4 5 6 -549.49999999999989 7 4.709293723204147 -0.05591647229452347 8 1.0000000180025095e-35 0.49750868180287655 1.4978661367769956 9 -0.7721494341254892 1.1234717483758827 10 -0.49749486057528974 58.500000000000007 3.5000000000000004 0.89587973461402759 11 4.7706487139546434 -595.49999999999989 35.500000000000007 13.500000000000002
decision_type=9 9 9 10 9 2 9 1 9 8 9 8 2 9 2 2 2 9 2 8 1 2 8 2 2 9 2 8 8 10
left_child=1 -1 3 6 5 7 20 12 9 -6 14 23 22 15 19 29 17 18 28 -3 21 -2 26 -8 25 -7 -4 -10 -11 -5
right_child=2 10 4 13 8 24 11 -9 27 16 -12 -13 -14 -15 -16 -17 -18 -19 -20 -21 -22 -23 -24 -25 -26 -27 -28 -29 -30 -31
leaf_value=0.026628977931626167 0 0 0.036100066425499511 0.026196385579972975 0.037178004089577547 0.0029806841118013949 0.017315738245164271 0.031621788389557176 0 0.040733718089870329 0 0.047537701800081253 0 0 0 0.054208311889721278 0 0 0 0.038802147672932746 0 0.028110027947758631 0 0.029806957794997008 0 0 0.051614083503495348 0 0.037178003537004498 0
leaf_weight=4213 22 20 22 30 41 100 37 160 428 38 269 155 42 366 55 35 486 206 43 31 77 32 41 71 419 123 21 9643 21 45
leaf_count=4213 22 20 22 30 41 100 37 160 428 38 269 155 42 366 55 35 486 206 43 31 77 32 41 71 419 123 21 9643 21 45
internal_value=-0.00016285 0.00609526 -0.00242583 0.000443182 -0.00263695 -0.000761194 0.00347208 0.00301399 -0.00279571 -0.00159172 -0.00167532 0.00513187 0.000253968 -0.00205462 0.00087931 0.000166667 -0.00189169 -0.000857143 0.00119643 0.00347059 -0.000234043 0.00181481 0.00188095 0.00311111 -0.00245483 -0.00156502 0.00397674 -0.00289386 0.00344068 -0.0014
internal_weight=17292 4588 12704 870 11834 928 394 286 10906 835 375 263 126 476 106 110 794 308 102 51 131 54 84 108 642 223 43 10071 59 75
internal_count=17292 4588 12704 870 11834 928 394 286 10906 835 375 263 126 476 106 110 794 308 102 51 131 54 84 108 642 223 43 10071 59 75
cat_boundaries=0 37 39 76 113 116 117 154 191 213 216 217 220
cat_threshold=2048 0 0 0 0 0 0 0 0 0 0 0 0 512 0 2048 0 33554432 0 2097152 4160755712 7 0 0 0 3254530048 1 0 0 0 0 0 0 0 0 0 393216 0 512 0 0 0 0 0 0 0 0 0 0 15360 0 12 7228 536871168 12 0 872415232 15728640 0 0 268435456 16384 0 0 0 2097152 0 0 0 0 0 0 0 0 48 1638400 8192 0 0 0 0 0 0 0 0 0 896 0 2147483840 0 1073775110 0 0 134217728 50334720 0 0 8 13248 0 0 0 4718592 0 0 0 0 0 0 0 4194304 192 11 147584 16777216 256 4 0 0 1073741824 0 0 0 33554432 32 0 0 64 8192 1073741824 3 268502032 0 2048 0 12288 0 0 224 33619968 0 0 0 1048576 0 0 0 0 0 0 0 1048832 0 4 0 0 0 0 0 0 0 0 0 0 0 0 0 512 0 0 0 0 0 0 0 0 0 0 0 4096 1 0 0 0 0 0 0 0 0 0 393216 0 0 0 0 0 0 0 0 0 0 0 0 0 28 0 0 0 0 4194304 0 0 268435456 100663296 67109888 8 4 33554448 33554944 8
is_linear=0
shrinkage=0.01


Tree=11
num_leaves=31
num_cat=12
split_feature=3 2 3 25 3 17 0 4 3 26 3 22 12 3 18 12 17 2 12 21 4 13 27 9 18 2 16 26 27 26
split_gain=2451.85 245.371 76.5363 65.844 34.3633 59.1752 24.4766 17.157 11.6564 12.7601 9.80322 8.99792 6.67063 6.4286 6.18416 5.89792 5.38559 6.67388 6.33139 5.18738 3.92409 7.05819 3.86955 3.04847 2.70531 3.69604 2.66284 2.2819 2.25725 2.13556
threshold=0 1 2 0.23582888057750759 3 0.89587973461402759 4 5 6 -549.49999999999989 7 4.709293723204147 -0.05591647229452347 8 1.0000000180025095e-35 0.49750868180287655 1.4978661367769956 9 -0.7721494341254892 1.1234717483758827 10 -0.49749486057528974 58.500000000000007 3.5000000000000004 0.89587973461402759 11 4.7706487139546434 -595.49999999999989 35.500000000000007 13.500000000000002
decision_type=9 9 9 10 9 2 9 1 9 8 9 8 2 9 2 2 2 9 2 8 1 2 8 2 2 9 2 8 8 10
left_child=1 -1 3 6 5 7 20 12 9 -6 14 23 22 15 19 29 17 18 28 -3 21 -2 26 -8 25 -7 -4 -10 -11 -5
right_child=2 10 4 13 8 24 11 -9 27 16 -12 -13 -14 -15 -16 -17 -18 -19 -20 -21 -22 -23 -24 -25 -26 -27 -28 -29 -30 -31
leaf_value=0.026362688152309903 0 0 0.035739065761244512 0.025934421724173245 0.036806224048681772 0.0029508772706833808 0.017142580862712628 0.031305570505661601 0 0.040326380908971622 0 0.047062324782080438 0 0 0 0.053666228770824061 0 0 0 0.038414126196203421 0 0.027828927668281045 0 0.029508888217047034 0 0 0.051097942668460399 0 0.036806223501634455 0
leaf_weight=4213 22 20 22 30 41 100 37 160 428 38 269 155 42 366 55 35 486 206 43 31 77 32 41 71 419 123 21 9643 21 45
leaf_count=4213 22 20 22 30 41 100 37 160 428 38 269 155 42 366 55 35 486 206 43 31 77 32 41 71 419 123 21 9643 21 45
internal_value=-0.00016285 0.00609526 -0.00242583 0.000443182 -0.00263695 -0.000761194 0.00347208 0.00301399 -0.00279571 -0.00159172 -0.00167532 0.00513187 0.000253968 -0.00205462 0.00087931 0.000166667 -0.00189169 -0.000857143 0.00119643 0.00347059 -0.000234043 0.00181481 0.00188095 0.00311111 -0.00245483 -0.00156502 0.00397674 -0.00289386 0.00344068 -0.0014
internal_weight=17292 4588 12704 870 11834 928 394 286 10906 835 375 263 126 476 106 110 794 308 102 51 131 54 84 108 642 223 43 10071 59 75
internal_count=17292 4588 12704 870 11834 928 394 286 10906 835 375 263 126 476 106 110 794 308 102 51 131 54 84 108 642 223 43 10071 59 75
cat_boundaries=0 37 39 76 113 116 117 154 191 213 216 217 220
cat_threshold=2048 0 0 0 0 0 0 0 0 0 0 0 0 512 0 2048 0 33554432 0 2097152 4160755712 7 0 0 0 3254530048 1 0 0 0 0 0 0 0 0 0 393216 0 512 0 0 0 0 0 0 0 0 0 0 15360 0 12 7228 536871168 12 0 872415232 15728640 0 0 268435456 16384 0 0 0 2097152 0 0 0 0 0 0 0 0 48 1638400 8192 0 0 0 0 0 0 0 0 0 896 0 2147483840 0 1073775110 0 0 134217728 50334720 0 0 8 13248 0 0 0 4718592 0 0 0 0 0 0 0 4194304 192 11 147584 16777216 256 4 0 0 1073741824 0 0 0 33554432 32 0 0 64 8192 1073741824 3 268502032 0 2048 0 12288 0 0 224 33619968 0 0 0 1048576 0 0 0 0 0 0 0 1048832 0 4 0 0 0 0 0 0 0 0 0 0 0 0 0 512 0 0 0 0 0 0 0 0 0 0 0 4096 1 0 0 0 0 0 0 0 0 0 393216 0 0 0 0 0 0 0 0 0 0 0 0 0 28 0 0 0 0 4194304 0 0 268435456 100663296 67109888 8 4 33554448 33554944 8
is_linear=0
shrinkage=0.01


Tree=12
num_leaves=31
num_cat=12
split_feature=3 2 3 25 3 17 0 4 3 26 3 22 12 3 18 12 17 2 12 21 4 13 27 9 18 2 16 26 27 26
split_gain=2451.85 245.371 76.5363 65.844 34.3633 59.1752 24.4766 17.157 11.6564 12.7601 9.80322 8.99792 6.67063 6.4286 6.18416 5.89792 5.38559 6.67388 6.33139 5.18738 3.92409 7.05819 3.86955 3.04847 2.70531 3.69604 2.66284 2.2819 2.25725 2.13556
threshold=0 1 2 0.23582888057750759 3 0.89587973461402759 4 5 6 -549.49999999999989 7 4.709293723204147 -0.05591647229452347 8 1.0000000180025095e-35 0.49750868180287655 1.4978661367769956 9 -0.7721494341254892 1.1234717483758827 10 -0.49749486057528974 58.500000000000007 3.5000000000000004 0.89587973461402759 11 4.7706487139546434 -595.49999999999989 35.500000000000007 13.500000000000002
decision_type=9 9 9 10 9 2 9 1 9 8 9 8 2 9 2 2 2 9 2 8 1 2 8 2 2 9 2 8 8 10
left_child=1 -1 3 6 5 7 20 12 9 -6 14 23 22 15 19 29 17 18 28 -3 21 -2 26 -8 25 -7 -4 -10 -11 -5
right_child=2 10 4 13 8 24 11 -9 27 16 -12 -13 -14 -15 -16 -17 -18 -19 -20 -21 -22 -23 -24 -25 -26 -27 -28 -29 -30 -31
leaf_value=0.026099061270786802 0 0 0.03538167510363207 0.025675077506931512 0.036438161808194952 0.0029213684979765486 0.016971155054085502 0.030992514800604987 0 0.039923117099881909 0 0.046591701534259629 0 0 0 0.053129566483115821 0 0 0 0.038029984934241388 0 0.027550638391598239 0 0.029213799334876566 0 0 0.050586963241775793 0 0.036438161266618113 0
leaf_weight=4213 22 20 22 30 41 100 37 160 428 38 269 155 42 366 55 35 486 206 43 31 77 32 41 71 419 123 21 9643 21 45
leaf_count=4213 22 20 22 30 41 100 37 160 428 38 269 155 42 366 55 35 486 206 43 31 77 32 41 71 419 123 21 9643 21 45
internal_value=-0.00016285 0.00609526 -0.00242583 0.000443182 -0.00263695 -0.000761194 0.00347208 0.00301399 -0.00279571 -0.00159172 -0.00167532 0.00513187 0.000253968 -0.00205462 0.00087931 0.000166667 -0.00189169 -0.000857143 0.00119643 0.00347059 -0.000234043 0.00181481 0.00188095 0.00311111 -0.00245483 -0.00156502 0.00397674 -0.00289386 0.00344068 -0.0014
internal_weight=17292 4588 12704 870 11834 928 394 286 10906 835 375 263 126 476 106 110 794 308 102 51 131 54 84 108 642 223 43 10071 59 75
internal_count=17292 4588 12704 870 11834 928 394 286 10906 835 375 263 126 476 106 110 794 308 102 51 131 54 84 108 642 223 43 10071 59 75
cat_boundaries=0 37 39 76 113 116 117 154 191 213 216 217 220
cat_threshold=2048 0 0 0 0 0 0 0 0 0 0 0 0 512 0 2048 0 33554432 0 2097152 4160755712 7 0 0 0 3254530048 1 0 0 0 0 0 0 0 0 0 393216 0 512 0 0 0 0 0 0 0 0 0 0 15360 0 12 7228 536871168 12 0 872415232 15728640 0 0 268435456 16384 0 0 0 2097152 0 0 0 0 0 0 0 0 48 1638400 8192 0 0 0 0 0 0 0 0 0 896 0 2147483840 0 1073775110 0 0 134217728 50334720 0 0 8 13248 0 0 0 4718592 0 0 0 0 0 0 0 4194304 192 11 147584 16777216 256 4 0 0 1073741824 0 0 0 33554432 32 0 0 64 8192 1073741824 3 268502032 0 2048 0 12288 0 0 224 33619968 0 0 0 1048576 0 0 0 0 0 0 0 1048832 0 4 0 0 0 0 0 0 0 0 0 0 0 0 0 512 0 0 0 0 0 0 0 0 0 0 0 4096 1 0 0 0 0 0 0 0 0 0 393216 0 0 0 0 0 0 0 0 0 0 0 0 0 28 0 0 0 0 4194304 0 0 268435456 100663296 67109888 8 4 33554448 33554944 8
is_linear=0
shrinkage=0.01


Tree=13
num_leaves=31
num_cat=12
split_feature=3 2 3 25 3 17 0 4 3 26 3 22 12 3 18 12 17 2 12 21 4 13 27 9 18 2 16 26 27 26
split_gain=2451.85 245.371 76.5363 65.844 34.3633 59.1752 24.4766 17.157 11.6564 12.7601 9.80322 8.99792 6.67063 6.4286 6.18416 5.89792 5.38559 6.67388 6.33139 5.18738 3.92409 7.05819 3.86955 3.04847 2.70531 3.69604 2.66284 2.2819 2.25725 2.13556
threshold=0 1 2 0.23582888057750759 3 0.89587973461402759 4 5 6 -549.49999999999989 7 4.709293723204147 -0.05591647229452347 8 1.0000000180025095e-35 0.49750868180287655 1.4978661367769956 9 -0.7721494341254892 1.1234717483758827 10 -0.49749486057528974 58.500000000000007 3.5000000000000004 0.89587973461402759 11 4.7706487139546434 -595.49999999999989 35.500000000000007 13.500000000000002
decision_type=9 9 9 10 9 2 9 1 9 8 9 8 2 9 2 2 2 9 2 8 1 2 8 2 2 9 2 8 8 10
left_child=1 -1 3 6 5 7 20 12 9 -6 14 23 22 15 19 29 17 18 28 -3 21 -2 26 -8 25 -7 -4 -10 -11 -5
right_child=2 10 4 13 8 24 11 -9 27 16 -12 -13 -14 -15 -16 -17 -18 -19 -20 -21 -22 -23 -24 -25 -26 -27 -28 -29 -30 -31
leaf_value=0.025838070658078936 0 0 0.035027858352595753 0.025418326731862197 0.036073780190113001 0.0028921548129967833 0.01680144350354465 0.030682589652598936 0 0.03952388592888309 0 0.046125784518917037 0 0 0 0.052598270818284665 0 0 0 0.037649685084898972 0 0.027275132007682251 0 0.0289216613415278 0 0 0.050081093609358029 0 0.036073779653951928 0
leaf_weight=4213 22 20 22 30 41 100 37 160 428 38 269 155 42 366 55 35 486 206 43 31 77 32 41 71 419 123 21 9643 21 45
leaf_count=4213 22 20 22 30 41 100 37 160 428 38 269 155 42 366 55 35 486 206 43 31 77 32 41 71 419 123 21 9643 21 45
internal_value=-0.00016285 0.00609526 -0.00242583 0.000443182 -0.00263695 -0.000761194 0.00347208 0.00301399 -0.00279571 -0.00159172 -0.00167532 0.00513187 0.000253968 -0.00205462 0.00087931 0.000166667 -0.00189169 -0.000857143 0.00119643 0.00347059 -0.000234043 0.00181481 0.00188095 0.00311111 -0.00245483 -0.00156502 0.00397674 -0.00289386 0.00344068 -0.0014
internal_weight=17292 4588 12704 870 11834 928 394 286 10906 835 375 263 126 476 106 110 794 308 102 51 131 54 84 108 642 223 43 10071 59 75
internal_count=17292 4588 12704 870 11834 928 394 286 10906 835 375 263 126 476 106 110 794 308 102 51 131 54 84 108 642 223 43 10071 59 75
cat_boundaries=0 37 39 76 113 116 117 154 191 213 216 217 220
cat_threshold=2048 0 0 0 0 0 0 0 0 0 0 0 0 512 0 2048 0 33554432 0 2097152 4160755712 7 0 0 0 3254530048 1 0 0 0 0 0 0 0 0 0 393216 0 512 0 0 0 0 0 0 0 0 0 0 15360 0 12 7228 536871168 12 0 872415232 15728640 0 0 268435456 16384 0 0 0 2097152 0 0 0 0 0 0 0 0 48 1638400 8192 0 0 0 0 0 0 0 0 0 896 0 2147483840 0 1073775110 0 0 134217728 50334720 0 0 8 13248 0 0 0 4718592 0 0 0 0 0 0 0 4194304 192 11 147584 16777216 256 4 0 0 1073741824 0 0 0 33554432 32 0 0 64 8192 1073741824 3 268502032 0 2048 0 12288 0 0 224 33619968 0 0 0 1048576 0 0 0 0 0 0 0 1048832 0 4 0 0 0 0 0 0 0 0 0 0 0 0 0 512 0 0 0 0 0 0 0 0 0 0 0 4096 1 0 0 0 0 0 0 0 0 0 393216 0 0 0 0 0 0 0 0 0 0 0 0 0 28 0 0 0 0 4194304 0 0 268435456 100663296 67109888 8 4 33554448 33554944 8
is_linear=0
shrinkage=0.01


Tree=14
num_leaves=31
num_cat=12
split_feature=3 2 3 25 3 17 0 4 3 26 3 22 12 3 18 12 17 2 12 21 4 13 27 9 18 2 16 26 27 26
split_gain=2451.85 245.371 76.5363 65.844 34.3633 59.1752 24.4766 17.157 11.6564 12.7601 9.80322 8.99792 6.67063 6.4286 6.18416 5.89792 5.38559 6.67388 6.33139 5.18738 3.92409 7.05819 3.86955 3.04847 2.70531 3.69604 2.66284 2.2819 2.25725 2.13556
threshold=0 1 2 0.23582888057750759 3 0.89587973461402759 4 5 6 -549.49999999999989 7 4.709293723204147 -0.05591647229452347 8 1.0000000180025095e-35 0.49750868180287655 1.4978661367769956 9 -0.7721494341254892 1.1234717483758827 10 -0.49749486057528974 58.500000000000007 3.5000000000000004 0.89587973461402759 11 4.7706487139546434 -595.49999999999989 35.500000000000007 13.500000000000002
decision_type=9 9 9 10 9 2 9 1 9 8 9 8 2 9 2 2 2 9 2 8 1 2 8 2 2 9 2 8 8 10
left_child=1 -1 3 6 5 7 20 12 9 -6 14 23 22 15 19 29 17 18 28 -3 21 -2 26 -8 25 -7 -4 -10 -11 -5
right_child=2 10 4 13 8 24 11 -9 27 16 -12 -13 -14 -15 -16 -17 -18 -19 -20 -21 -22 -23 -24 -25 -26 -27 -28 -29 -30 -31
leaf_value=0.025579689951498143 0 0 0.034677579769069794 0.025164143464543574 0.035713042388211873 0.0028632332648668136 0.016633429068509203 0.030375763756072947 0 0.039128647069594263 0 0.045664526673727862 0 0 0 0.052072288110101818 0 0 0 0.037273188234049986 0 0.027002380687605434 0 0.028632444728112522 0 0 0.049580282673264461 0 0.035713041857412406 0
leaf_weight=4213 22 20 22 30 41 100 37 160 428 38 269 155 42 366 55 35 486 206 43 31 77 32 41 71 419 123 21 9643 21 45
leaf_count=4213 22 20 22 30 41 100 37 160 428 38 269 155 42 366 55 35 486 206 43 31 77 32 41 71 419 123 21 9643 21 45
internal_value=-0.00016285 0.00609526 -0.00242583 0.000443182 -0.00263695 -0.000761194 0.00347208 0.00301399 -0.00279571 -0.00159172 -0.00167532 0.00513187 0.000253968 -0.00205462 0.00087931 0.000166667 -0.00189169 -0.000857143 0.00119643 0.00347059 -0.000234043 0.00181481 0.00188095 0.00311111 -0.00245483 -0.00156502 0.00397674 -0.00289386 0.00344068 -0.0014
internal_weight=17292 4588 12704 870 11834 928 394 286 10906 835 375 263 126 476 106 110 794 308 102 51 131 54 84 108 642 223 43 10071 59 75
internal_count=17292 4588 12704 870 11834 928 394 286 10906 835 375 263 126 476 106 110 794 308 102 51 131 54 84 108 642 223 43 10071 59 75
cat_boundaries=0 37 39 76 113 116 117 154 191 213 216 217 220
cat_threshold=2048 0 0 0 0 0 0 0 0 0 0 0 0 512 0 2048 0 33554432 0 2097152 4160755712 7 0 0 0 3254530048 1 0 0 0 0 0 0 0 0 0 393216 0 512 0 0 0 0 0 0 0 0 0 0 15360 0 12 7228 536871168 12 0 872415232 15728640 0 0 268435456 16384 0 0 0 2097152 0 0 0 0 0 0 0 0 48 1638400 8192 0 0 0 0 0 0 0 0 0 896 0 2147483840 0 1073775110 0 0 134217728 50334720 0 0 8 13248 0 0 0 4718592 0 0 0 0 0 0 0 4194304 192 11 147584 16777216 256 4 0 0 1073741824 0 0 0 33554432 32 0 0 64 8192 1073741824 3 268502032 0 2048 0 12288 0 0 224 33619968 0 0 0 1048576 0 0 0 0 0 0 0 1048832 0 4 0 0 0 0 0 0 0 0 0 0 0 0 0 512 0 0 0 0 0 0 0 0 0 0 0 4096 1 0 0 0 0 0 0 0 0 0 393216 0 0 0 0 0 0 0 0 0 0 0 0 0 28 0 0 0 0 4194304 0 0 268435456 100663296 67109888 8 4 33554448 33554944 8
is_linear=0
shrinkage=0.01


Tree=15
num_leaves=31
num_cat=12
split_feature=3 2 3 25 3 17 0 4 3 26 3 22 12 3 18 12 17 2 12 21 4 13 27 9 18 2 16 26 27 26
split_gain=2451.85 245.371 76.5363 65.844 34.3633 59.1752 24.4766 17.157 11.6564 12.7601 9.80322 8.99792 6.67063 6.4286 6.18416 5.89792 5.38559 6.67388 6.33139 5.18738 3.92409 7.05819 3.86955 3.04847 2.70531 3.69604 2.66284 2.2819 2.25725 2.13556
threshold=0 1 2 0.23582888057750759 3 0.89587973461402759 4 5 6 -549.49999999999989 7 4.709293723204147 -0.05591647229452347 8 1.0000000180025095e-35 0.49750868180287655 1.4978661367769956 9 -0.7721494341254892 1.1234717483758827 10 -0.49749486057528974 58.500000000000007 3.5000000000000004 0.89587973461402759 11 4.7706487139546434 -595.49999999999989 35.500000000000007 13.500000000000002
decision_type=9 9 9 10 9 2 9 1 9 8 9 8 2 9 2 2 2 9 2 8 1 2 8 2 2 9 2 8 8 10
left_child=1 -1 3 6 5 7 20 12 9 -6 14 23 22 15 19 29 17 18 28 -3 21 -2 26 -8 25 -7 -4 -10 -11 -5
right_child=2 10 4 13 8 24 11 -9 27 16 -12 -13 -14 -15 -16 -17 -18 -19 -20 -21 -22 -23 -24 -25 -26 -27 -28 -29 -30 -31
leaf_value=0.025323893051983168 0 0 0.034330803971379095 0.024912502029898139 0.035355911964329752 0.0028346009322181456 0.016467094777824109 0.030072006118512219 0 0.038737360598898318 0 0.045207881406990585 0 0 0 0.051551565229000798 0 0 0 0.036900456351709486 0 0.026732356880729377 0 0.028346120280831392 0 0 0.04908447984653181 0 0.035355911438838289 0
leaf_weight=4213 22 20 22 30 41 100 37 160 428 38 269 155 42 366 55 35 486 206 43 31 77 32 41 71 419 123 21 9643 21 45
leaf_count=4213 22 20 22 30 41 100 37 160 428 38 269 155 42 366 55 35 486 206 43 31 77 32 41 71 419 123 21 9643 21 45
internal_value=-0.00016285 0.00609526 -0.00242583 0.000443182 -0.00263695 -0.000761194 0.00347208 0.00301399 -0.00279571 -0.00159172 -0.00167532 0.00513187 0.000253968 -0.00205462 0.00087931 0.000166667 -0.00189169 -0.000857143 0.00119643 0.00347059 -0.000234043 0.00181481 0.00188095 0.00311111 -0.00245483 -0.00156502 0.00397674 -0.00289386 0.00344068 -0.0014
internal_weight=17292 4588 12704 870 11834 928 394 286 10906 835 375 263 126 476 106 110 794 308 102 51 131 54 84 108 642 223 43 10071 59 75
internal_count=17292 4588 12704 870 11834 928 394 286 10906 835 375 263 126 476 106 110 794 308 102 51 131 54 84 108 642 223 43 10071 59 75
cat_boundaries=0 37 39 76 113 116 117 154 191 213 216 217 220
cat_threshold=2048 0 0 0 0 0 0 0 0 0 0 0 0 512 0 2048 0 33554432 0 2097152 4160755712 7 0 0 0 3254530048 1 0 0 0 0 0 0 0 0 0 393216 0 512 0 0 0 0 0 0 0 0 0 0 15360 0 12 7228 536871168 12 0 872415232 15728640 0 0 268435456 16384 0 0 0 2097152 0 0 0 0 0 0 0 0 48 1638400 8192 0 0 0 0 0 0 0 0 0 896 0 2147483840 0 1073775110 0 0 134217728 50334720 0 0 8 13248 0 0 0 4718592 0 0 0 0 0 0 0 4194304 192 11 147584 16777216 256 4 0 0 1073741824 0 0 0 33554432 32 0 0 64 8192 1073741824 3 268502032 0 2048 0 12288 0 0 224 33619968 0 0 0 1048576 0 0 0 0 0 0 0 1048832 0 4 0 0 0 0 0 0 0 0 0 0 0 0 0 512 0 0 0 0 0 0 0 0 0 0 0 4096 1 0 0 0 0 0 0 0 0 0 393216 0 0 0 0 0 0 0 0 0 0 0 0 0 28 0 0 0 0 4194304 0 0 268435456 100663296 67109888 8 4 33554448 33554944 8
is_linear=0
shrinkage=0.01


Tree=16
num_leaves=31
num_cat=12
split_feature=3 2 3 25 3 17 0 4 3 26 3 22 12 3 18 12 17 2 12 21 4 13 27 9 18 2 16 26 27 26
split_gain=2451.85 245.371 76.5363 65.844 34.3633 59.1752 24.4766 17.157 11.6564 12.7601 9.80322 8.99792 6.67063 6.4286 6.18416 5.89792 5.38559 6.67388 6.33139 5.18738 3.92409 7.05819 3.86955 3.04847 2.70531 3.69604 2.66284 2.2819 2.25725 2.13556
threshold=0 1 2 0.23582888057750759 3 0.89587973461402759 4 5 6 -549.49999999999989 7 4.709293723204147 -0.05591647229452347 8 1.0000000180025095e-35 0.49750868180287655 1.4978661367769956 9 -0.7721494341254892 1.1234717483758827 10 -0.49749486057528974 58.500000000000007 3.5000000000000004 0.89587973461402759 11 4.7706487139546434 -595.49999999999989 35.500000000000007 13.500000000000002
decision_type=9 9 9 10 9 2 9 1 9 8 9 8 2 9 2 2 2 9 2 8 1 2 8 2 2 9 2 8 8 10
left_child=1 -1 3 6 5 7 20 12 9 -6 14 23 22 15 19 29 17 18 28 -3 21 -2 26 -8 25 -7 -4 -10 -11 -5
right_child=2 10 4 13 8 24 11 -9 27 16 -12 -13 -14 -15 -16 -17 -18 -19 -20 -21 -22 -23 -24 -25 -26 -27 -28 -29 -30 -31
leaf_value=0.025070654121463334 0 0 0.0339874959316653 0.024663377009599158 0.035002352844686453 0.0028062549228959656 0.016302423830045869 0.029771286057327099 0 0.038349986992909334 0 0.044755802592920675 0 0 0 0.05103604957671079 0 0 0 0.036531451788192386 0 0.026465033311922084 0 0.028062659078023081 0 0 0.048593635048066491 0 0.035002352324449898 0
leaf_weight=4213 22 20 22 30 41 100 37 160 428 38 269 155 42 366 55 35 486 206 43 31 77 32 41 71 419 123 21 9643 21 45
leaf_count=4213 22 20 22 30 41 100 37 160 428 38 269 155 42 366 55 35 486 206 43 31 77 32 41 71 419 123 21 9643 21 45
internal_value=-0.00016285 0.00609526 -0.00242583 0.000443182 -0.00263695 -0.000761194 0.00347208 0.00301399 -0.00279571 -0.00159172 -0.00167532 0.00513187 0.000253968 -0.00205462 0.00087931 0.000166667 -0.00189169 -0.000857143 0.00119643 0.00347059 -0.000234043 0.00181481 0.00188095 0.00311111 -0.00245483 -0.00156502 0.00397674 -0.00289386 0.00344068 -0.0014
internal_weight=17292 4588 12704 870 11834 928 394 286 10906 835 375 263 126 476 106 110 794 308 102 51 131 54 84 108 642 223 43 10071 59 75
internal_count=17292 4588 12704 870 11834 928 394 286 10906 835 375 263 126 476 106 110 794 308 102 51 131 54 84 108 642 223 43 10071 59 75
cat_boundaries=0 37 39 76 113 116 117 154 191 213 216 217 220
cat_threshold=2048 0 0 0 0 0 0 0 0 0 0 0 0 512 0 2048 0 33554432 0 2097152 4160755712 7 0 0 0 3254530048 1 0 0 0 0 0 0 0 0 0 393216 0 512 0 0 0 0 0 0 0 0 0 0 15360 0 12 7228 536871168 12 0 872415232 15728640 0 0 268435456 16384 0 0 0 2097152 0 0 0 0 0 0 0 0 48 1638400 8192 0 0 0 0 0 0 0 0 0 896 0 2147483840 0 1073775110 0 0 134217728 50334720 0 0 8 13248 0 0 0 4718592 0 0 0 0 0 0 0 4194304 192 11 147584 16777216 256 4 0 0 1073741824 0 0 0 33554432 32 0 0 64 8192 1073741824 3 268502032 0 2048 0 12288 0 0 224 33619968 0 0 0 1048576 0 0 0 0 0 0 0 1048832 0 4 0 0 0 0 0 0 0 0 0 0 0 0 0 512 0 0 0 0 0 0 0 0 0 0 0 4096 1 0 0 0 0 0 0 0 0 0 393216 0 0 0 0 0 0 0 0 0 0 0 0 0 28 0 0 0 0 4194304 0 0 268435456 100663296 67109888 8 4 33554448 33554944 8
is_linear=0
shrinkage=0.01


Tree=17
num_leaves=31
num_cat=12
split_feature=3 2 3 25 3 17 0 4 3 26 3 22 12 3 18 12 17 2 12 21 4 13 27 9 18 2 16 26 27 26
split_gain=2451.85 245.371 76.5363 65.844 34.3633 59.1752 24.4766 17.157 11.6564 12.7601 9.80322 8.99792 6.67063 6.4286 6.18416 5.89792 5.38559 6.67388 6.33139 5.18738 3.92409 7.05819 3.86955 3.04847 2.70531 3.69604 2.66284 2.2819 2.25725 2.13556
threshold=0 1 2 0.23582888057750759 3 0.89587973461402759 4 5 6 -549.49999999999989 7 4.709293723204147 -0.05591647229452347 8 1.0000000180025095e-35 0.49750868180287655 1.4978661367769956 9 -0.7721494341254892 1.1234717483758827 10 -0.49749486057528974 58.500000000000007 3.5000000000000004 0.89587973461402759 11 4.7706487139546434 -595.49999999999989 35.500000000000007 13.500000000000002
decision_type=9 9 9 10 9 2 9 1 9 8 9 8 2 9 2 2 2 9 2 8 1 2 8 2 2 9 2 8 8 10
left_child=1 -1 3 6 5 7 20 12 9 -6 14 23 22 15 19 29 17 18 28 -3 21 -2 26 -8 25 -7 -4 -10 -11 -5
right_child=2 10 4 13 8 24 11 -9 27 16 -12 -13 -14 -15 -16 -17 -18 -19 -20 -21 -22 -23 -24 -25 -26 -27 -28 -29 -30 -31
leaf_value=0.024819947580248698 0 0 0.033647620972348649 0.024416743239503168 0.034652329316239593 0.0027781923736670054 0.016139399591745408 0.029473573196753824 0 0.037966487122980237 0 0.044308244566991471 0 0 0 0.050525689080943681 0 0 0 0.036166137270310462 0 0.026200382978802863 0 0.027782032487242852 0 0 0.048107698697585834 0 0.034652328801205404 0
leaf_weight=4213 22 20 22 30 41 100 37 160 428 38 269 155 42 366 55 35 486 206 43 31 77 32 41 71 419 123 21 9643 21 45
leaf_count=4213 22 20 22 30 41 100 37 160 428 38 269 155 42 366 55 35 486 206 43 31 77 32 41 71 419 123 21 9643 21 45
internal_value=-0.00016285 0.00609526 -0.00242583 0.000443182 -0.00263695 -0.000761194 0.00347208 0.00301399 -0.00279571 -0.00159172 -0.00167532 0.00513187 0.000253968 -0.00205462 0.00087931 0.000166667 -0.00189169 -0.000857143 0.00119643 0.00347059 -0.000234043 0.00181481 0.00188095 0.00311111 -0.00245483 -0.00156502 0.00397674 -0.00289386 0.00344068 -0.0014
internal_weight=17292 4588 12704 870 11834 928 394 286 10906 835 375 263 126 476 106 110 794 308 102 51 131 54 84 108 642 223 43 10071 59 75
internal_count=17292 4588 12704 870 11834 928 394 286 10906 835 375 263 126 476 106 110 794 308 102 51 131 54 84 108 642 223 43 10071 59 75
cat_boundaries=0 37 39 76 113 116 117 154 191 213 216 217 220
cat_threshold=2048 0 0 0 0 0 0 0 0 0 0 0 0 512 0 2048 0 33554432 0 2097152 4160755712 7 0 0 0 3254530048 1 0 0 0 0 0 0 0 0 0 393216 0 512 0 0 0 0 0 0 0 0 0 0 15360 0 12 7228 536871168 12 0 872415232 15728640 0 0 268435456 16384 0 0 0 2097152 0 0 0 0 0 0 0 0 48 1638400 8192 0 0 0 0 0 0 0 0 0 896 0 2147483840 0 1073775110 0 0 134217728 50334720 0 0 8 13248 0 0 0 4718592 0 0 0 0 0 0 0 4194304 192 11 147584 16777216 256 4 0 0 1073741824 0 0 0 33554432 32 0 0 64 8192 1073741824 3 268502032 0 2048 0 12288 0 0 224 33619968 0 0 0 1048576 0 0 0 0 0 0 0 1048832 0 4 0 0 0 0 0 0 0 0 0 0 0 0 0 512 0 0 0 0 0 0 0 0 0 0 0 4096 1 0 0 0 0 0 0 0 0 0 393216 0 0 0 0 0 0 0 0 0 0 0 0 0 28 0 0 0 0 4194304 0 0 268435456 100663296 67109888 8 4 33554448 33554944 8
is_linear=0
shrinkage=0.01


Tree=18
num_leaves=31
num_cat=11
split_feature=3 2 3 25 3 17 0 3 26 2 22 17 2 13 12 3 3 12 23 18 4 13 9 18 20 14 26 27 27 7
split_gain=2452.01 246.553 76.4383 65.844 30.648 52.5891 24.4766 15.6191 15.8993 14.6647 8.99792 8.73016 13.0447 8.65483 7.67751 6.7364 6.4286 5.89792 4.69272 4.87838 3.92409 7.05819 3.04847 2.91391 3.22506 2.64208 2.2819 2.26962 2.14342 2.14281
threshold=0 1 2 0.23582888057750759 3 0.89587973461402759 4 5 -549.49999999999989 6 4.709293723204147 1.4978661367769956 7 0.1500498401600889 -0.72660079619119988 8 9 0.49750868180287655 1.0044310831825773 1.0000000180025095e-35 10 -0.49749486057528974 3.5000000000000004 0.89587973461402759 2.9936370624852811 -0.5 -595.49999999999989 58.500000000000007 84.500000000000014 -0.66546503888493358
decision_type=9 9 9 10 9 2 9 9 8 9 8 2 9 2 2 9 9 2 8 2 1 2 2 2 10 2 8 8 8 2
left_child=1 -1 3 6 5 9 20 8 -6 -4 22 12 13 -10 27 18 17 -5 -3 -20 21 -2 -8 24 29 28 -9 -11 -14 -7
right_child=2 15 4 16 7 23 10 26 11 14 -12 -13 25 -15 -16 -17 -18 -19 19 -21 -22 -23 -24 -25 -26 -27 -28 -29 -30 -31
leaf_value=0.024571748104446213 0 0 0.028086791847390827 0 0.034305806876844883 0.023433539851449463 0.015978005595827956 0 0.041180484117340869 0.042302832155818919 0.043865162121321556 0 0.0065610101068559424 0 0 0 0 0.050020432190134245 0.036012454855137273 0 0 0.025938379149014833 0.027504212162370423 0 0 0 0 0.033694537101109465 0 0
leaf_weight=4213 22 35 100 75 48 22 37 428 46 45 155 567 57 61 71 252 366 35 37 37 77 32 71 366 125 171 9643 22 29 47
leaf_count=4213 22 35 100 75 48 22 37 428 46 45 155 567 57 61 71 252 366 35 37 37 77 32 71 366 125 171 9643 22 29 47
internal_value=-0.000165742 0.00610558 -0.0024241 0.000443182 -0.00263485 -0.000710396 0.00347208 -0.00277306 -0.00151365 0.00321849 0.00513187 -0.00181847 -0.00060989 0.00221368 0.000783784 -0.00184097 -0.00205462 0.000166667 0.000277311 0.00172973 -0.000234043 0.00181481 0.00311111 -0.00239286 -0.00140206 -0.0018015 -0.00289386 0.00326866 -0.000441861 0.000333333
internal_weight=17292 4574 12718 870 11848 798 394 11050 979 238 263 931 364 107 138 361 476 110 109 74 131 54 108 560 194 257 10071 67 86 69
internal_count=17292 4574 12718 870 11848 798 394 11050 979 238 263 931 364 107 138 361 476 110 109 74 131 54 108 560 194 257 10071 67 86 69
cat_boundaries=0 37 39 76 113 116 153 156 159 196 218 219
cat_threshold=2048 0 0 0 0 0 0 0 0 0 0 0 0 0 0 2048 0 33554432 0 2097152 4160755712 7 0 0 0 3254530048 1 0 0 0 0 0 0 0 0 0 393216 0 512 0 0 0 0 0 0 0 0 0 0 15360 0 12 7228 536871168 12 0 872415232 15728640 0 0 268435456 16384 0 0 0 2097152 0 0 0 0 0 0 0 0 48 1638400 8192 0 0 0 0 0 0 0 0 0 384 0 192 512 1073775110 0 0 134217728 50334720 0 0 8 13248 0 0 0 4718592 0 0 0 0 0 0 0 0 192 11 147584 16777216 256 0 0 1073741824 0 0 0 33554432 32 0 0 576 8192 3221225472 3 268502032 0 2048 0 12288 0 0 224 33619968 0 0 0 1048576 0 0 0 0 0 0 0 5243136 0 4 100663312 33554944 8 33554432 100664320 8 0 0 0 0 0 0 0 0 0 0 0 0 0 0 0 0 0 0 0 0 0 0 0 0 0 12288 1 0 0 0 0 0 0 0 0 0 393216 0 0 0 0 0 0 0 0 0 0 0 0 0 28 0 0 0 0 4194304 0 0 268435456 4
is_linear=0
shrinkage=0.01


Tree=19
num_leaves=31
num_cat=11
split_feature=3 2 3 25 3 17 0 3 26 2 22 17 2 13 12 3 3 12 23 18 4 13 9 18 20 14 26 27 27 7
split_gain=2452.01 246.553 76.4383 65.844 30.648 52.5891 24.4766 15.6191 15.8993 14.6647 8.99792 8.73016 13.0447 8.65483 7.67751 6.7364 6.4286 5.89792 4.69272 4.87838 3.92409 7.05819 3.04847 2.91391 3.22506 2.64208 2.2819 2.26962 2.14342 2.14281
threshold=0 1 2 0.23582888057750759 3 0.89587973461402759 4 5 -549.49999999999989 6 4.709293723204147 1.4978661367769956 7 0.1500498401600889 -0.72660079619119988 8 9 0.49750868180287655 1.0044310831825773 1.0000000180025095e-35 10 -0.49749486057528974 3.5000000000000004 0.89587973461402759 2.9936370624852811 -0.5 -595.49999999999989 58.500000000000007 84.500000000000014 -0.66546503888493358
decision_type=9 9 9 10 9 2 9 9 8 9 8 2 9 2 2 9 9 2 8 2 1 2 2 2 10 2 8 8 8 2
left_child=1 -1 3 6 5 9 20 8 -6 -4 22 12 13 -10 27 18 17 -5 -3 -20 21 -2 -8 24 29 28 -9 -11 -14 -7
right_child=2 15 4 16 7 23 10 26 11 14 -12 -13 25 -15 -16 -17 -18 -19 19 -21 -22 -23 -24 -25 -26 -27 -28 -29 -30 -31
leaf_value=0.024326030623401752 0 0 0.027805923928916922 0 0.033962748808076433 0.023199204452934965 0.015818225539869678 0 0.040768679276167459 0.04187980383426073 0.043426510500108345 0 0.0064954000057873829 0 0 0 0 0.049520227868232902 0.035652330306585905 0 0 0.025678995357524683 0.027229170040746719 0 0 0 0 0.03335759173009837 0 0
leaf_weight=4213 22 35 100 75 48 22 37 428 46 45 155 567 57 61 71 252 366 35 37 37 77 32 71 366 125 171 9643 22 29 47
leaf_count=4213 22 35 100 75 48 22 37 428 46 45 155 567 57 61 71 252 366 35 37 37 77 32 71 366 125 171 9643 22 29 47
internal_value=-0.000165742 0.00610558 -0.0024241 0.000443182 -0.00263485 -0.000710396 0.00347208 -0.00277306 -0.00151365 0.00321849 0.00513187 -0.00181847 -0.00060989 0.00221368 0.000783784 -0.00184097 -0.00205462 0.000166667 0.000277311 0.00172973 -0.000234043 0.00181481 0.00311111 -0.00239286 -0.00140206 -0.0018015 -0.00289386 0.00326866 -0.000441861 0.000333333
internal_weight=17292 4574 12718 870 11848 798 394 11050 979 238 263 931 364 107 138 361 476 110 109 74 131 54 108 560 194 257 10071 67 86 69
internal_count=17292 4574 12718 870 11848 798 394 11050 979 238 263 931 364 107 138 361 476 110 109 74 131 54 108 560 194 257 10071 67 86 69
cat_boundaries=0 37 39 76 113 116 153 156 159 196 218 219
cat_threshold=2048 0 0 0 0 0 0 0 0 0 0 0 0 0 0 2048 0 33554432 0 2097152 4160755712 7 0 0 0 3254530048 1 0 0 0 0 0 0 0 0 0 393216 0 512 0 0 0 0 0 0 0 0 0 0 15360 0 12 7228 536871168 12 0 872415232 15728640 0 0 268435456 16384 0 0 0 2097152 0 0 0 0 0 0 0 0 48 1638400 8192 0 0 0 0 0 0 0 0 0 384 0 192 512 1073775110 0 0 134217728 50334720 0 0 8 13248 0 0 0 4718592 0 0 0 0 0 0 0 0 192 11 147584 16777216 256 0 0 1073741824 0 0 0 33554432 32 0 0 576 8192 3221225472 3 268502032 0 2048 0 12288 0 0 224 33619968 0 0 0 1048576 0 0 0 0 0 0 0 5243136 0 4 100663312 33554944 8 33554432 100664320 8 0 0 0 0 0 0 0 0 0 0 0 0 0 0 0 0 0 0 0 0 0 0 0 0 0 12288 1 0 0 0 0 0 0 0 0 0 393216 0 0 0 0 0 0 0 0 0 0 0 0 0 28 0 0 0 0 4194304 0 0 268435456 4
is_linear=0
shrinkage=0.01


Tree=20
num_leaves=31
num_cat=11
split_feature=3 2 3 25 3 17 0 3 26 2 22 17 2 13 12 3 3 12 23 18 4 13 9 18 20 14 26 27 27 7
split_gain=2452.01 246.553 76.4383 65.844 30.648 52.5891 24.4766 15.6191 15.8993 14.6647 8.99792 8.73016 13.0447 8.65483 7.67751 6.7364 6.4286 5.89792 4.69272 4.87838 3.92409 7.05819 3.04847 2.91391 3.22506 2.64208 2.2819 2.26962 2.14342 2.14281
threshold=0 1 2 0.23582888057750759 3 0.89587973461402759 4 5 -549.49999999999989 6 4.709293723204147 1.4978661367769956 7 0.1500498401600889 -0.72660079619119988 8 9 0.49750868180287655 1.0044310831825773 1.0000000180025095e-35 10 -0.49749486057528974 3.5000000000000004 0.89587973461402759 2.9936370624852811 -0.5 -595.49999999999989 58.500000000000007 84.500000000000014 -0.66546503888493358
decision_type=9 9 9 10 9 2 9 9 8 9 8 2 9 2 2 9 9 2 8 2 1 2 2 2 10 2 8 8 8 2
left_child=1 -1 3 6 5 9 20 8 -6 -4 22 12 13 -10 27 18 17 -5 -3 -20 21 -2 -8 24 29 28 -9 -11 -14 -7
right_child=2 15 4 16 7 23 10 26 11 14 -12 -13 25 -15 -16 -17 -18 -19 19 -21 -22 -23 -24 -25 -26 -27 -28 -29 -30 -31
leaf_value=0.024082770317167733 0 0 0.027527864689627753 0 0.033623121319995668 0.022967212408405616 0.01566004328447098 0 0.040360992483405786 0.041461005795918125 0.042992245395107258 0 0.0064304460057295074 0 0 0 0 0.049025025589550568 0.035295807003520044 0 0 0.02542220540394944 0.02695687834033925 0 0 0 0 0.033024015812797382 0 0
leaf_weight=4213 22 35 100 75 48 22 37 428 46 45 155 567 57 61 71 252 366 35 37 37 77 32 71 366 125 171 9643 22 29 47
leaf_count=4213 22 35 100 75 48 22 37 428 46 45 155 567 57 61 71 252 366 35 37 37 77 32 71 366 125 171 9643 22 29 47
internal_value=-0.000165742 0.00610558 -0.0024241 0.000443182 -0.00263485 -0.000710396 0.00347208 -0.00277306 -0.00151365 0.00321849 0.00513187 -0.00181847 -0.00060989 0.00221368 0.000783784 -0.00184097 -0.00205462 0.000166667 0.000277311 0.00172973 -0.000234043 0.00181481 0.00311111 -0.00239286 -0.00140206 -0.0018015 -0.00289386 0.00326866 -0.000441861 0.000333333
internal_weight=17292 4574 12718 870 11848 798 394 11050 979 238 263 931 364 107 138 361 476 110 109 74 131 54 108 560 194 257 10071 67 86 69
internal_count=17292 4574 12718 870 11848 798 394 11050 979 238 263 931 364 107 138 361 476 110 109 74 131 54 108 560 194 257 10071 67 86 69
cat_boundaries=0 37 39 76 113 116 153 156 159 196 218 219
cat_threshold=2048 0 0 0 0 0 0 0 0 0 0 0 0 0 0 2048 0 33554432 0 2097152 4160755712 7 0 0 0 3254530048 1 0 0 0 0 0 0 0 0 0 393216 0 512 0 0 0 0 0 0 0 0 0 0 15360 0 12 7228 536871168 12 0 872415232 15728640 0 0 268435456 16384 0 0 0 2097152 0 0 0 0 0 0 0 0 48 1638400 8192 0 0 0 0 0 0 0 0 0 384 0 192 512 1073775110 0 0 134217728 50334720 0 0 8 13248 0 0 0 4718592 0 0 0 0 0 0 0 0 192 11 147584 16777216 256 0 0 1073741824 0 0 0 33554432 32 0 0 576 8192 3221225472 3 268502032 0 2048 0 12288 0 0 224 33619968 0 0 0 1048576 0 0 0 0 0 0 0 5243136 0 4 100663312 33554944 8 33554432 100664320 8 0 0 0 0 0 0 0 0 0 0 0 0 0 0 0 0 0 0 0 0 0 0 0 0 0 12288 1 0 0 0 0 0 0 0 0 0 393216 0 0 0 0 0 0 0 0 0 0 0 0 0 28 0 0 0 0 4194304 0 0 268435456 4
is_linear=0
shrinkage=0.01


Tree=21
num_leaves=31
num_cat=11
split_feature=3 2 3 25 3 17 0 3 26 2 22 17 2 13 12 3 3 12 23 18 4 13 9 18 20 14 26 27 27 7
split_gain=2452.01 246.553 76.4383 65.844 30.648 52.5891 24.4766 15.6191 15.8993 14.6647 8.99792 8.73016 13.0447 8.65483 7.67751 6.7364 6.4286 5.89792 4.69272 4.87838 3.92409 7.05819 3.04847 2.91391 3.22506 2.64208 2.2819 2.26962 2.14342 2.14281
threshold=0 1 2 0.23582888057750759 3 0.89587973461402759 4 5 -549.49999999999989 6 4.709293723204147 1.4978661367769956 7 0.1500498401600889 -0.72660079619119988 8 9 0.49750868180287655 1.0044310831825773 1.0000000180025095e-35 10 -0.49749486057528974 3.5000000000000004 0.89587973461402759 2.9936370624852811 -0.5 -595.49999999999989 58.500000000000007 84.500000000000014 -0.66546503888493358
decision_type=9 9 9 10 9 2 9 9 8 9 8 2 9 2 2 9 9 2 8 2 1 2 2 2 10 2 8 8 8 2
left_child=1 -1 3 6 5 9 20 8 -6 -4 22 12 13 -10 27 18 17 -5 -3 -20 21 -2 -8 24 29 28 -9 -11 -14 -7
right_child=2 15 4 16 7 23 10 26 11 14 -12 -13 25 -15 -16 -17 -18 -19 19 -21 -22 -23 -24 -25 -26 -27 -28 -29 -30 -31
leaf_value=0.023841942613996053 0 0 0.027252586042731473 0 0.033286890106795711 0.02273754028432156 0.01550344285162627 0 0.03995738255857173 0.041046395737958943 0.042562322941156187 0 0.0063661415456722137 0 0 0 0 0.048534775333655064 0.034942848933484844 0 0 0.025167983349909943 0.026687309556935858 0 0 0 0 0.03269377565466941 0 0
leaf_weight=4213 22 35 100 75 48 22 37 428 46 45 155 567 57 61 71 252 366 35 37 37 77 32 71 366 125 171 9643 22 29 47
leaf_count=4213 22 35 100 75 48 22 37 428 46 45 155 567 57 61 71 252 366 35 37 37 77 32 71 366 125 171 9643 22 29 47
internal_value=-0.000165742 0.00610558 -0.0024241 0.000443182 -0.00263485 -0.000710396 0.00347208 -0.00277306 -0.00151365 0.00321849 0.00513187 -0.00181847 -0.00060989 0.00221368 0.000783784 -0.00184097 -0.00205462 0.000166667 0.000277311 0.00172973 -0.000234043 0.00181481 0.00311111 -0.00239286 -0.00140206 -0.0018015 -0.00289386 0.00326866 -0.000441861 0.000333333
internal_weight=17292 4574 12718 870 11848 798 394 11050 979 238 263 931 364 107 138 361 476 110 109 74 131 54 108 560 194 257 10071 67 86 69
internal_count=17292 4574 12718 870 11848 798 394 11050 979 238 263 931 364 107 138 361 476 110 109 74 131 54 108 560 194 257 10071 67 86 69
cat_boundaries=0 37 39 76 113 116 153 156 159 196 218 219
cat_threshold=2048 0 0 0 0 0 0 0 0 0 0 0 0 0 0 2048 0 33554432 0 2097152 4160755712 7 0 0 0 3254530048 1 0 0 0 0 0 0 0 0 0 393216 0 512 0 0 0 0 0 0 0 0 0 0 15360 0 12 7228 536871168 12 0 872415232 15728640 0 0 268435456 16384 0 0 0 2097152 0 0 0 0 0 0 0 0 48 1638400 8192 0 0 0 0 0 0 0 0 0 384 0 192 512 1073775110 0 0 134217728 50334720 0 0 8 13248 0 0 0 4718592 0 0 0 0 0 0 0 0 192 11 147584 16777216 256 0 0 1073741824 0 0 0 33554432 32 0 0 576 8192 3221225472 3 268502032 0 2048 0 12288 0 0 224 33619968 0 0 0 1048576 0 0 0 0 0 0 0 5243136 0 4 100663312 33554944 8 33554432 100664320 8 0 0 0 0 0 0 0 0 0 0 0 0 0 0 0 0 0 0 0 0 0 0 0 0 0 12288 1 0 0 0 0 0 0 0 0 0 393216 0 0 0 0 0 0 0 0 0 0 0 0 0 28 0 0 0 0 4194304 0 0 268435456 4
is_linear=0
shrinkage=0.01


Tree=22
num_leaves=31
num_cat=11
split_feature=3 2 3 25 3 17 0 3 26 2 22 17 2 13 12 3 3 12 23 18 4 13 9 18 20 14 26 27 27 7
split_gain=2452.01 246.553 76.4383 65.844 30.648 52.5891 24.4766 15.6191 15.8993 14.6647 8.99792 8.73016 13.0447 8.65483 7.67751 6.7364 6.4286 5.89792 4.69272 4.87838 3.92409 7.05819 3.04847 2.91391 3.22506 2.64208 2.2819 2.26962 2.14342 2.14281
threshold=0 1 2 0.23582888057750759 3 0.89587973461402759 4 5 -549.49999999999989 6 4.709293723204147 1.4978661367769956 7 0.1500498401600889 -0.72660079619119988 8 9 0.49750868180287655 1.0044310831825773 1.0000000180025095e-35 10 -0.49749486057528974 3.5000000000000004 0.89587973461402759 2.9936370624852811 -0.5 -595.49999999999989 58.500000000000007 84.500000000000014 -0.66546503888493358
decision_type=9 9 9 10 9 2 9 9 8 9 8 2 9 2 2 9 9 2 8 2 1 2 2 2 10 2 8 8 8 2
left_child=1 -1 3 6 5 9 20 8 -6 -4 22 12 13 -10 27 18 17 -5 -3 -20 21 -2 -8 24 29 28 -9 -11 -14 -7
right_child=2 15 4 16 7 23 10 26 11 14 -12 -13 25 -15 -16 -17 -18 -19 19 -21 -22 -23 -24 -25 -26 -27 -28 -29 -30 -31
leaf_value=0.023603523187856093 0 0 0.026980060182304158 0 0.032954021205727754 0.022510164881478344 0.015348408423110008 0 0.039557808732986012 0.040635931780579358 0.042136699711744628 0 0.0063024801302154921 0 0 0 0 0.048049427580318514 0.034593420444149994 0 0 0.024916303516410842 0.026420436461366503 0 0 0 0 0.032366837898122711 0 0
leaf_weight=4213 22 35 100 75 48 22 37 428 46 45 155 567 57 61 71 252 366 35 37 37 77 32 71 366 125 171 9643 22 29 47
leaf_count=4213 22 35 100 75 48 22 37 428 46 45 155 567 57 61 71 252 366 35 37 37 77 32 71 366 125 171 9643 22 29 47
internal_value=-0.000165742 0.00610558 -0.0024241 0.000443182 -0.00263485 -0.000710396 0.00347208 -0.00277306 -0.00151365 0.00321849 0.00513187 -0.00181847 -0.00060989 0.00221368 0.000783784 -0.00184097 -0.00205462 0.000166667 0.000277311 0.00172973 -0.000234043 0.00181481 0.00311111 -0.00239286 -0.00140206 -0.0018015 -0.00289386 0.00326866 -0.000441861 0.000333333
internal_weight=17292 4574 12718 870 11848 798 394 11050 979 238 263 931 364 107 138 361 476 110 109 74 131 54 108 560 194 257 10071 67 86 69
internal_count=17292 4574 12718 870 11848 798 394 11050 979 238 263 931 364 107 138 361 476 110 109 74 131 54 108 560 194 257 10071 67 86 69
cat_boundaries=0 37 39 76 113 116 153 156 159 196 218 219
cat_threshold=2048 0 0 0 0 0 0 0 0 0 0 0 0 0 0 2048 0 33554432 0 2097152 4160755712 7 0 0 0 3254530048 1 0 0 0 0 0 0 0 0 0 393216 0 512 0 0 0 0 0 0 0 0 0 0 15360 0 12 7228 536871168 12 0 872415232 15728640 0 0 268435456 16384 0 0 0 2097152 0 0 0 0 0 0 0 0 48 1638400 8192 0 0 0 0 0 0 0 0 0 384 0 192 512 1073775110 0 0 134217728 50334720 0 0 8 13248 0 0 0 4718592 0 0 0 0 0 0 0 0 192 11 147584 16777216 256 0 0 1073741824 0 0 0 33554432 32 0 0 576 8192 3221225472 3 268502032 0 2048 0 12288 0 0 224 33619968 0 0 0 1048576 0 0 0 0 0 0 0 5243136 0 4 100663312 33554944 8 33554432 100664320 8 0 0 0 0 0 0 0 0 0 0 0 0 0 0 0 0 0 0 0 0 0 0 0 0 0 12288 1 0 0 0 0 0 0 0 0 0 393216 0 0 0 0 0 0 0 0 0 0 0 0 0 28 0 0 0 0 4194304 0 0 268435456 4
is_linear=0
shrinkage=0.01


Tree=23
num_leaves=31
num_cat=11
split_feature=3 2 3 25 3 17 0 3 26 2 22 17 2 13 12 3 3 12 23 18 4 13 9 18 20 14 26 27 27 7
split_gain=2452.01 246.553 76.4383 65.844 30.648 52.5891 24.4766 15.6191 15.8993 14.6647 8.99792 8.73016 13.0447 8.65483 7.67751 6.7364 6.4286 5.89792 4.69272 4.87838 3.92409 7.05819 3.04847 2.91391 3.22506 2.64208 2.2819 2.26962 2.14342 2.14281
threshold=0 1 2 0.23582888057750759 3 0.89587973461402759 4 5 -549.49999999999989 6 4.709293723204147 1.4978661367769956 7 0.1500498401600889 -0.72660079619119988 8 9 0.49750868180287655 1.0044310831825773 1.0000000180025095e-35 10 -0.49749486057528974 3.5000000000000004 0.89587973461402759 2.9936370624852811 -0.5 -595.49999999999989 58.500000000000007 84.500000000000014 -0.66546503888493358
decision_type=9 9 9 10 9 2 9 9 8 9 8 2 9 2 2 9 9 2 8 2 1 2 2 2 10 2 8 8 8 2
left_child=1 -1 3 6 5 9 20 8 -6 -4 22 12 13 -10 27 18 17 -5 -3 -20 21 -2 -8 24 29 28 -9 -11 -14 -7
right_child=2 15 4 16 7 23 10 26 11 14 -12 -13 25 -15 -16 -17 -18 -19 19 -21 -22 -23 -24 -25 -26 -27 -28 -29 -30 -31
leaf_value=0.023367487955977533 0 0 0.026710259580481118 0 0.032624480993670477 0.022285063232663563 0.015194924338878906 0 0.039162230645656153 0.040229572462773561 0.041715332714627178 0 0.0062394553289133372 0 0 0 0 0.04756893330451533 0.034247486239708497 0 0 0.024667140481246737 0.026156232096752836 0 0 0 0 0.03204316951914149 0 0
leaf_weight=4213 22 35 100 75 48 22 37 428 46 45 155 567 57 61 71 252 366 35 37 37 77 32 71 366 125 171 9643 22 29 47
leaf_count=4213 22 35 100 75 48 22 37 428 46 45 155 567 57 61 71 252 366 35 37 37 77 32 71 366 125 171 9643 22 29 47
internal_value=-0.000165742 0.00610558 -0.0024241 0.000443182 -0.00263485 -0.000710396 0.00347208 -0.00277306 -0.00151365 0.00321849 0.00513187 -0.00181847 -0.00060989 0.00221368 0.000783784 -0.00184097 -0.00205462 0.000166667 0.000277311 0.00172973 -0.000234043 0.00181481 0.00311111 -0.00239286 -0.00140206 -0.0018015 -0.00289386 0.00326866 -0.000441861 0.000333333
internal_weight=17292 4574 12718 870 11848 798 394 11050 979 238 263 931 364 107 138 361 476 110 109 74 131 54 108 560 194 257 10071 67 86 69
internal_count=17292 4574 12718 870 11848 798 394 11050 979 238 263 931 364 107 138 361 476 110 109 74 131 54 108 560 194 257 10071 67 86 69
cat_boundaries=0 37 39 76 113 116 153 156 159 196 218 219
cat_threshold=2048 0 0 0 0 0 0 0 0 0 0 0 0 0 0 2048 0 33554432 0 2097152 4160755712 7 0 0 0 3254530048 1 0 0 0 0 0 0 0 0 0 393216 0 512 0 0 0 0 0 0 0 0 0 0 15360 0 12 7228 536871168 12 0 872415232 15728640 0 0 268435456 16384 0 0 0 2097152 0 0 0 0 0 0 0 0 48 1638400 8192 0 0 0 0 0 0 0 0 0 384 0 192 512 1073775110 0 0 134217728 50334720 0 0 8 13248 0 0 0 4718592 0 0 0 0 0 0 0 0 192 11 147584 16777216 256 0 0 1073741824 0 0 0 33554432 32 0 0 576 8192 3221225472 3 268502032 0 2048 0 12288 0 0 224 33619968 0 0 0 1048576 0 0 0 0 0 0 0 5243136 0 4 100663312 33554944 8 33554432 100664320 8 0 0 0 0 0 0 0 0 0 0 0 0 0 0 0 0 0 0 0 0 0 0 0 0 0 12288 1 0 0 0 0 0 0 0 0 0 393216 0 0 0 0 0 0 0 0 0 0 0 0 0 28 0 0 0 0 4194304 0 0 268435456 4
is_linear=0
shrinkage=0.01


Tree=24
num_leaves=31
num_cat=11
split_feature=3 2 3 25 3 17 0 3 26 2 22 17 2 13 12 3 3 12 12 23 18 18 20 4 13 12 14 27 26 27
split_gain=2454.27 246.553 73.1448 64.8758 31.1902 49.2196 18.9664 15.6191 15.8993 15.3072 9.86415 8.73016 13.0447 8.65483 7.91115 6.7364 6.53397 5.89792 5.34499 4.69272 4.87838 3.30579 3.72042 3.30031 7.05819 2.89283 2.64208 2.53032 2.2819 2.14342
threshold=0 1 2 0.23582888057750759 3 0.89587973461402759 4 5 -549.49999999999989 6 4.709293723204147 1.4978661367769956 7 0.1500498401600889 -0.72660079619119988 8 9 0.49750868180287655 0.61866567420209762 1.0044310831825773 1.0000000180025095e-35 0.89587973461402759 3.0009003357326494 10 -0.49749486057528974 0.80392051724781077 -0.5 58.500000000000007 -595.49999999999989 84.500000000000014
decision_type=9 9 9 10 9 2 9 9 8 9 8 2 9 2 2 9 9 2 2 8 2 2 10 1 2 2 2 8 8 8
left_child=1 -1 3 6 5 9 23 8 -6 -4 18 12 13 -10 27 19 17 -5 -8 -3 -21 22 25 24 -2 -7 29 -11 -9 -14
right_child=2 15 4 16 7 21 10 28 11 14 -12 -13 26 -15 -16 -17 -18 -19 -20 20 -22 -23 -24 -25 -26 -27 -28 -29 -30 -31
leaf_value=0.023133813076417757 0 0 0.026243083575887682 0 0.032298236183733772 0 0.027266276303486308 0 0.03877060833919959 0.039827276738145824 0.041298179387480913 0 0.0061770607756242027 0 0 0 0 0.047093243971470182 -0.0027914493305302096 0.03390501137731141 0 0 0 0 0.024420469076434265 0.018913686961198568 0 0.031077404031369556 0 0
leaf_weight=4213 22 35 100 75 48 44 79 428 46 45 155 567 57 61 75 252 364 35 29 37 37 368 124 67 32 31 171 23 9643 29
leaf_count=4213 22 35 100 75 48 44 79 428 46 45 155 567 57 61 75 252 364 35 29 37 37 368 124 67 32 31 171 23 9643 29
internal_value=-0.000168633 0.00610558 -0.00242803 0.000398617 -0.00263269 -0.000707317 0.00345833 -0.00277306 -0.00151365 0.00304938 0.00487546 -0.00181847 -0.00060989 0.00221368 0.000660131 -0.00184097 -0.00207173 0.000166667 0.00274074 0.000277311 0.00172973 -0.00232981 -0.00129146 -2.29009e-05 0.00181481 0.000466667 -0.0018015 0.00317647 -0.00289386 -0.000441861
internal_weight=17292 4574 12718 858 11860 810 384 11050 979 243 263 931 364 107 143 361 474 110 108 109 74 567 199 121 54 75 257 68 10071 86
internal_count=17292 4574 12718 858 11860 810 384 11050 979 243 263 931 364 107 143 361 474 110 108 109 74 567 199 121 54 75 257 68 10071 86
cat_boundaries=0 37 39 76 113 116 153 156 159 196 218 219
cat_threshold=2048 0 0 0 0 0 0 0 0 0 0 0 0 0 0 2048 0 33554432 0 2097152 4160755712 7 0 0 0 3254530048 1 0 0 0 0 0 0 0 0 0 393216 0 512 0 0 0 0 0 0 0 0 0 0 15360 0 12 7228 536871680 12 0 872415232 15728640 0 0 268435456 16384 0 0 0 0 0 0 0 0 0 0 0 0 48 1638400 8192 0 0 0 0 0 0 0 0 0 384 0 192 512 1073774598 0 0 134217728 50334720 0 0 8 13248 0 0 0 6815744 0 0 0 0 0 0 0 0 192 11 147584 16777216 256 0 0 1073741824 0 0 0 33554432 32 0 0 576 8192 3221225472 3 268502032 0 2048 0 12288 0 0 224 33619968 0 0 0 1048576 0 0 0 0 0 0 0 5243136 0 4 100663312 33554944 8 33554432 100664320 8 0 0 0 0 0 0 0 0 0 0 0 0 0 0 0 0 0 0 0 0 0 0 0 0 0 12288 1 0 0 0 0 0 0 0 0 0 393216 0 0 0 0 0 0 0 0 0 0 0 0 0 28 0 0 0 0 4194304 0 0 268435456 4
is_linear=0
shrinkage=0.01


Tree=25
num_leaves=31
num_cat=11
split_feature=3 2 3 25 3 17 0 3 26 2 22 17 2 13 12 3 3 12 12 23 18 18 20 4 13 12 14 27 26 27
split_gain=2454.27 246.553 73.1448 64.8758 31.1902 49.2196 18.9664 15.6191 15.8993 15.3072 9.86415 8.73016 13.0447 8.65483 7.91115 6.7364 6.53397 5.89792 5.34499 4.69272 4.87838 3.30579 3.72042 3.30031 7.05819 2.89283 2.64208 2.53032 2.2819 2.14342
threshold=0 1 2 0.23582888057750759 3 0.89587973461402759 4 5 -549.49999999999989 6 4.709293723204147 1.4978661367769956 7 0.1500498401600889 -0.72660079619119988 8 9 0.49750868180287655 0.61866567420209762 1.0044310831825773 1.0000000180025095e-35 0.89587973461402759 3.0009003357326494 10 -0.49749486057528974 0.80392051724781077 -0.5 58.500000000000007 -595.49999999999989 84.500000000000014
decision_type=9 9 9 10 9 2 9 9 8 9 8 2 9 2 2 9 9 2 2 8 2 2 10 1 2 2 2 8 8 8
left_child=1 -1 3 6 5 9 23 8 -6 -4 18 12 13 -10 27 19 17 -5 -8 -3 -21 22 25 24 -2 -7 29 -11 -9 -14
right_child=2 15 4 16 7 21 10 28 11 14 -12 -13 26 -15 -16 -17 -18 -19 -20 20 -22 -23 -24 -25 -26 -27 -28 -29 -30 -31
leaf_value=0.022902474945653579 0 0 0.025980652740128805 0 0.031975253821896435 0 0.026993613540451444 0 0.038382902255807594 0.039429003970764369 0.0408851975936061 0 0.0061152901678679606 0 0 0 0 0.046622311531755473 -0.0027635348372249077 0.033565961263538294 0 0 0 0 0.024176264385669922 0.018724550091586582 0 0.030766629991055863 0 0
leaf_weight=4213 22 35 100 75 48 44 79 428 46 45 155 567 57 61 75 252 364 35 29 37 37 368 124 67 32 31 171 23 9643 29
leaf_count=4213 22 35 100 75 48 44 79 428 46 45 155 567 57 61 75 252 364 35 29 37 37 368 124 67 32 31 171 23 9643 29
internal_value=-0.000168633 0.00610558 -0.00242803 0.000398617 -0.00263269 -0.000707317 0.00345833 -0.00277306 -0.00151365 0.00304938 0.00487546 -0.00181847 -0.00060989 0.00221368 0.000660131 -0.00184097 -0.00207173 0.000166667 0.00274074 0.000277311 0.00172973 -0.00232981 -0.00129146 -2.29009e-05 0.00181481 0.000466667 -0.0018015 0.00317647 -0.00289386 -0.000441861
internal_weight=17292 4574 12718 858 11860 810 384 11050 979 243 263 931 364 107 143 361 474 110 108 109 74 567 199 121 54 75 257 68 10071 86
internal_count=17292 4574 12718 858 11860 810 384 11050 979 243 263 931 364 107 143 361 474 110 108 109 74 567 199 121 54 75 257 68 10071 86
cat_boundaries=0 37 39 76 113 116 153 156 159 196 218 219
cat_threshold=2048 0 0 0 0 0 0 0 0 0 0 0 0 0 0 2048 0 33554432 0 2097152 4160755712 7 0 0 0 3254530048 1 0 0 0 0 0 0 0 0 0 393216 0 512 0 0 0 0 0 0 0 0 0 0 15360 0 12 7228 536871680 12 0 872415232 15728640 0 0 268435456 16384 0 0 0 0 0 0 0 0 0 0 0 0 48 1638400 8192 0 0 0 0 0 0 0 0 0 384 0 192 512 1073774598 0 0 134217728 50334720 0 0 8 13248 0 0 0 6815744 0 0 0 0 0 0 0 0 192 11 147584 16777216 256 0 0 1073741824 0 0 0 33554432 32 0 0 576 8192 3221225472 3 268502032 0 2048 0 12288 0 0 224 33619968 0 0 0 1048576 0 0 0 0 0 0 0 5243136 0 4 100663312 33554944 8 33554432 100664320 8 0 0 0 0 0 0 0 0 0 0 0 0 0 0 0 0 0 0 0 0 0 0 0 0 0 12288 1 0 0 0 0 0 0 0 0 0 393216 0 0 0 0 0 0 0 0 0 0 0 0 0 28 0 0 0 0 4194304 0 0 268435456 4
is_linear=0
shrinkage=0.01


Tree=26
num_leaves=31
num_cat=11
split_feature=3 2 3 25 3 17 0 3 26 2 22 17 2 13 12 3 3 12 12 23 18 18 20 4 13 12 14 27 26 27
split_gain=2454.27 246.553 73.1448 64.8758 31.1902 49.2196 18.9664 15.6191 15.8993 15.3072 9.86415 8.73016 13.0447 8.65483 7.91115 6.7364 6.53397 5.89792 5.34499 4.69272 4.87838 3.30579 3.72042 3.30031 7.05819 2.89283 2.64208 2.53032 2.2819 2.14342
threshold=0 1 2 0.23582888057750759 3 0.89587973461402759 4 5 -549.49999999999989 6 4.709293723204147 1.4978661367769956 7 0.1500498401600889 -0.72660079619119988 8 9 0.49750868180287655 0.61866567420209762 1.0044310831825773 1.0000000180025095e-35 0.89587973461402759 3.0009003357326494 10 -0.49749486057528974 0.80392051724781077 -0.5 58.500000000000007 -595.49999999999989 84.500000000000014
decision_type=9 9 9 10 9 2 9 9 8 9 8 2 9 2 2 9 9 2 2 8 2 2 10 1 2 2 2 8 8 8
left_child=1 -1 3 6 5 9 23 8 -6 -4 18 12 13 -10 27 19 17 -5 -8 -3 -21 22 25 24 -2 -7 29 -11 -9 -14
right_child=2 15 4 16 7 21 10 28 11 14 -12 -13 26 -15 -16 -17 -18 -19 -20 20 -22 -23 -24 -25 -26 -27 -28 -29 -30 -31
leaf_value=0.022673450196197046 0 0 0.025720846212727518 0 0.031655501283677473 0 0.026723677405046931 0 0.037999073233249518 0.039034713931056723 0.04047634561767003 0 0.0060541372661892827 0 0 0 0 0.046156088416437917 -0.0027358994888526584 0.033230301650902912 0 0 0 0 0.023934501741813222 0.018537304590670715 0 0.030458963691145306 0 0
leaf_weight=4213 22 35 100 75 48 44 79 428 46 45 155 567 57 61 75 252 364 35 29 37 37 368 124 67 32 31 171 23 9643 29
leaf_count=4213 22 35 100 75 48 44 79 428 46 45 155 567 57 61 75 252 364 35 29 37 37 368 124 67 32 31 171 23 9643 29
internal_value=-0.000168633 0.00610558 -0.00242803 0.000398617 -0.00263269 -0.000707317 0.00345833 -0.00277306 -0.00151365 0.00304938 0.00487546 -0.00181847 -0.00060989 0.00221368 0.000660131 -0.00184097 -0.00207173 0.000166667 0.00274074 0.000277311 0.00172973 -0.00232981 -0.00129146 -2.29009e-05 0.00181481 0.000466667 -0.0018015 0.00317647 -0.00289386 -0.000441861
internal_weight=17292 4574 12718 858 11860 810 384 11050 979 243 263 931 364 107 143 361 474 110 108 109 74 567 199 121 54 75 257 68 10071 86
internal_count=17292 4574 12718 858 11860 810 384 11050 979 243 263 931 364 107 143 361 474 110 108 109 74 567 199 121 54 75 257 68 10071 86
cat_boundaries=0 37 39 76 113 116 153 156 159 196 218 219
cat_threshold=2048 0 0 0 0 0 0 0 0 0 0 0 0 0 0 2048 0 33554432 0 2097152 4160755712 7 0 0 0 3254530048 1 0 0 0 0 0 0 0 0 0 393216 0 512 0 0 0 0 0 0 0 0 0 0 15360 0 12 7228 536871680 12 0 872415232 15728640 0 0 268435456 16384 0 0 0 0 0 0 0 0 0 0 0 0 48 1638400 8192 0 0 0 0 0 0 0 0 0 384 0 192 512 1073774598 0 0 134217728 50334720 0 0 8 13248 0 0 0 6815744 0 0 0 0 0 0 0 0 192 11 147584 16777216 256 0 0 1073741824 0 0 0 33554432 32 0 0 576 8192 3221225472 3 268502032 0 2048 0 12288 0 0 224 33619968 0 0 0 1048576 0 0 0 0 0 0 0 5243136 0 4 100663312 33554944 8 33554432 100664320 8 0 0 0 0 0 0 0 0 0 0 0 0 0 0 0 0 0 0 0 0 0 0 0 0 0 12288 1 0 0 0 0 0 0 0 0 0 393216 0 0 0 0 0 0 0 0 0 0 0 0 0 28 0 0 0 0 4194304 0 0 268435456 4
is_linear=0
shrinkage=0.01


Tree=27
num_leaves=31
num_cat=11
split_feature=3 2 3 25 3 17 0 2 3 26 22 17 2 12 13 3 3 12 12 23 18 18 20 4 13 12 27 14 26 26
split_gain=2403.54 241.086 73.1854 64.8758 31.2179 49.2196 18.9664 15.3072 15.1161 15.3142 9.86415 8.22309 13.7252 7.91115 7.84252 6.7364 6.53397 5.89792 5.34499 4.69272 4.87838 3.30579 3.72042 3.30031 7.05819 2.89283 2.53032 2.49453 2.42009 2.13556
threshold=0 1 2 0.23582888057750759 3 0.89587973461402759 4 5 6 -549.49999999999989 4.709293723204147 1.4978661367769956 7 -0.72660079619119988 0.1500498401600889 8 9 0.49750868180287655 0.61866567420209762 1.0044310831825773 1.0000000180025095e-35 0.89587973461402759 3.0009003357326494 10 -0.49749486057528974 0.80392051724781077 58.500000000000007 -0.5 -595.49999999999989 13.500000000000002
decision_type=9 9 9 10 9 2 9 9 9 8 8 2 9 2 2 9 9 2 2 8 2 2 10 1 2 2 8 2 8 10
left_child=1 -1 3 6 5 7 23 -4 9 -6 18 12 14 26 -11 19 17 29 -8 -3 -21 22 25 24 -2 -7 -9 -14 -10 -5
right_child=2 15 4 16 8 21 10 13 28 11 -12 -13 27 -15 -16 -17 -18 -19 -20 20 -22 -23 -24 -25 -26 -27 -28 -29 -30 -31
leaf_value=0.022446715694235075 0 0 0.025463637750600242 0.024172575807108135 0.031542283939983276 0 0.026456440630996465 0.038644366791746154 0 0.038542330351782061 0.040071582161493334 0 0 0 0.009277319394662956 0 0 0.045694527532273543 -0.0027085404939641319 0.032897998634393882 0 0 0 0 0.023695156724395094 0.01835193154476401 0.030154374054233851 0 0 0
leaf_weight=4213 22 35 100 30 47 44 79 45 429 45 155 562 90 75 58 252 364 35 29 37 37 368 124 67 32 31 23 176 9643 45
leaf_count=4213 22 35 100 30 47 44 79 45 429 45 155 562 90 75 58 252 364 35 29 37 37 368 124 67 32 31 23 176 9643 45
internal_value=-0.000192922 0.00601614 -0.00242882 0.000398617 -0.00263353 -0.000707317 0.00345833 0.00304938 -0.00277396 -0.00153239 0.00487546 -0.00182922 -0.000669377 0.000660131 0.00230973 -0.00184097 -0.00207173 0.000166667 0.00274074 0.000277311 0.00172973 -0.00232981 -0.00129146 -2.29009e-05 0.00181481 0.000466667 0.00317647 -0.00184058 -0.00289288 -0.0014
internal_weight=17292 4574 12718 858 11860 810 384 243 11050 978 263 931 369 143 103 361 474 110 108 109 74 567 199 121 54 75 68 266 10072 75
internal_count=17292 4574 12718 858 11860 810 384 243 11050 978 263 931 369 143 103 361 474 110 108 109 74 567 199 121 54 75 68 266 10072 75
cat_boundaries=0 37 39 76 113 116 119 156 159 196 218 219
cat_threshold=2048 0 0 0 0 0 0 0 0 0 0 0 0 0 0 2048 0 33554432 0 2097152 4160755712 7 0 0 0 3254530048 1 0 0 0 0 0 0 0 0 0 393216 0 512 0 0 0 0 0 0 0 0 0 0 15360 0 12 7228 536871680 12 0 872415232 15728640 0 0 268435456 16384 0 0 0 0 0 0 0 0 0 0 0 0 48 1638400 8192 0 0 0 0 0 0 0 0 0 384 0 192 512 1073774598 0 0 134217728 50334720 0 0 8 13248 0 0 0 6815744 0 0 0 0 0 0 0 0 192 11 147584 16777216 256 100663312 33554944 8 1073742848 0 1073741824 0 0 0 33554432 32 0 0 576 8192 3221225472 3 268502032 0 2048 0 12288 0 0 96 33619968 0 0 0 1048576 0 0 0 0 0 0 0 5243136 0 4 33554432 100664320 8 0 0 0 0 0 0 0 0 0 0 0 0 0 0 0 0 0 0 0 0 0 0 0 0 0 12288 1 0 0 0 0 0 0 0 0 0 393216 0 0 0 0 0 0 0 0 0 0 0 0 0 28 0 0 0 0 4194304 0 0 268435456 4
is_linear=0
shrinkage=0.01


Tree=28
num_leaves=31
num_cat=11
split_feature=3 2 3 25 3 17 0 2 3 26 22 17 2 12 13 3 3 12 12 23 18 18 20 4 13 12 27 14 26 26
split_gain=2403.54 241.086 73.1854 64.8758 31.2179 49.2196 18.9664 15.3072 15.1161 15.3142 9.86415 8.22309 13.7252 7.91115 7.84252 6.7364 6.53397 5.89792 5.34499 4.69272 4.87838 3.30579 3.72042 3.30031 7.05819 2.89283 2.53032 2.49453 2.42009 2.13556
threshold=0 1 2 0.23582888057750759 3 0.89587973461402759 4 5 6 -549.49999999999989 4.709293723204147 1.4978661367769956 7 -0.72660079619119988 0.1500498401600889 8 9 0.49750868180287655 0.61866567420209762 1.0044310831825773 1.0000000180025095e-35 0.89587973461402759 3.0009003357326494 10 -0.49749486057528974 0.80392051724781077 58.500000000000007 -0.5 -595.49999999999989 13.500000000000002
decision_type=9 9 9 10 9 2 9 9 9 8 8 2 9 2 2 9 9 2 2 8 2 2 10 1 2 2 8 2 8 10
left_child=1 -1 3 6 5 7 23 -4 9 -6 18 12 14 26 -11 19 17 29 -8 -3 -21 22 25 24 -2 -7 -9 -14 -10 -5
right_child=2 15 4 16 8 21 10 13 28 11 -12 -13 27 -15 -16 -17 -18 -19 -20 20 -22 -23 -24 -25 -26 -27 -28 -29 -30 -31
leaf_value=0.022222248537292724 0 0 0.025209001373094241 0.023930850049037052 0.031226861100583442 0 0.026191876224686498 0.038257923123828697 0 0.038156907048264244 0.039670866339878402 0 0 0 0.009184546200716329 0 0 0.045237582256950806 -0.0026814550890244906 0.032569018648049945 0 0 0 0 0.023458205157151139 0.01816841222931637 0.029852830313691514 0 0 0
leaf_weight=4213 22 35 100 30 47 44 79 45 429 45 155 562 90 75 58 252 364 35 29 37 37 368 124 67 32 31 23 176 9643 45
leaf_count=4213 22 35 100 30 47 44 79 45 429 45 155 562 90 75 58 252 364 35 29 37 37 368 124 67 32 31 23 176 9643 45
internal_value=-0.000192922 0.00601614 -0.00242882 0.000398617 -0.00263353 -0.000707317 0.00345833 0.00304938 -0.00277396 -0.00153239 0.00487546 -0.00182922 -0.000669377 0.000660131 0.00230973 -0.00184097 -0.00207173 0.000166667 0.00274074 0.000277311 0.00172973 -0.00232981 -0.00129146 -2.29009e-05 0.00181481 0.000466667 0.00317647 -0.00184058 -0.00289288 -0.0014
internal_weight=17292 4574 12718 858 11860 810 384 243 11050 978 263 931 369 143 103 361 474 110 108 109 74 567 199 121 54 75 68 266 10072 75
