tree
version=v4
num_class=1
num_tree_per_iteration=1
label_index=0
max_feature_idx=27
objective=quantile
feature_names=cust_code price cust_id item currency region category day_sin day_cos month dayofweek_cos dayofweek_sin dayofyear_sin dayofyear_cos quarter_sin quarter_cos qty_lag1 qty_lag5 qty_lag10 qty_lag20 rolling_mean_3 rolling_std_3 rolling_mean_5 rolling_std_5 rolling_mean_10 rolling_std_10 days_since_client_purchase days_since_client_item_purchase
feature_infos=-1:70:13:22:63:0:28:64:17:66:15:71:47:33:72:37:51:75:29:14:42:7:56:62:12:49:54:34:39:76:48:8:46:18:60:68:9:61:4:38:55:43:74:65:20:58:31:59:23:69:52:73:16:41:10:11:53:6:57:2:24:26:19:27:3:5:50:1:30:21:45:77:44:36:35:25 none -1:41:67:35:58:25:4:42:30:60:28:68:69:72:27:43:26:24:73:61:31:15:66:14:56:49:57:16:71:20:62:33:48:47:9:36:65:59:70:51:29:17:50:52:22:23:63:13:18:21:6:37:39:32:40:7:10:12:5:8:34:44:55:74:19:45:46:3:0:54:2:38 -1:820:819:818:821:823:652:491:822:11:669:651:668:670:667:672:671:830:9:0:1096:119:326:1097:327:120:328:1098:824:812:673:329:832:118:831:813:1099:121:94:569:227:226:229:582:674:93:228:92:95:615:618:7:616:617:581:523:580:629:524:1164:583:5:197:522:700:754:630:251:521:252:419:420:90:196:198:414:418:662:659:660:661:665:88:89:250:415:416:421:43:199:283:417:740:853:102:282:540:739:741:91:272:854:170:273:274:598:104:212:281:542:729:171:172:253:280:386:599:851:1169:103:105:173:209:211:387:391:738:4:210:390:572:596:838:1170:342:605:728:839:248:343:344:597:666:718:727:837:852:1172:8:49:99:100:247:380:381:570:573:840:876:1125:1171:98:240:246:275:426:477:483:601:678:716:730:1124:241:345:456:457:571:717:843:1168:59:478:482:586:587:600:675:744:874:13:239:242:332:514:519:584:604:619:679:875:1152:101:160:330:331:333:382:427:458:585:588:589:620:873:1153:1155:161:162:174:379:449:475:476:501:513:515:603:677:719:720:865:123:175:176:249:450:455:480:500:606:710:711:712:713:1110:1126:1154:148:149:150:177:200:363:428:459:481:484:512:800:801:802:1108:1127:3:137:142:201:205:217:257:258:365:466:479:499:775:778:803:983:122:143:144:163:203:215:289:364:448:451:452:460:465:498:535:564:566:567:676:776:779:780:889:1109:60:61:62:84:108:139:204:216:231:284:285:340:353:425:435:463:474:532:536:695:808:809:810:856:868:952:982:34:109:138:206:218:230:256:287:288:290:339:354:357:362:436:464:541:565:774:777:786:787:811:844:855:953:954:18:25:27:82:83:110:140:151:154:155:184:286:338:341:352:355:384:517:640:784:857:859:860:941:955:973:1068:1114:1115:1116:1161:14:17:28:29:111:117:146:153:261:356:383:434:461:516:534:538:539:644:691:692:693:694:721:722:723:724:781:785:805:806:858:863:864:866:934:1148:1149:10:30:31:85:114:116:152:234:262:276:279:313:370:462:531:537:663:685:725:759:867:933:935:976:977:978:979:1120:1160:1165:1:15:96:183:219:220:236:260:278:296:297:298:299:312:314:315:358:527:528:533:558:633:656:664:726:753:807:846:932:1117:1144:1150:26:97:115:207:208:221:232:235:277:359:371:437:520:743:770:782:783:798:845:899:962:1121:1138:1159:1162:21:53:57:113:187:222:369:439:467:493:494:495:496:526:530:549:632:634:645:654:655:714:737:771:772:773:847:861:862:895:896:960:961:963:971:972:974:1145:1174:1175:24:47:50:55:106:112:133:135:141:185:254:334:335:336:337:346:376:438:440:441:511:525:529:559:560:561:562:563:602:612:635:646:657:701:733:742:746:747:748:749:804:869:870:893:894:900:936:947:948:949:950:964:1081:1083:1122:1123:1146:1151:6:19:36:56:69:70:71:107:134:136:166:167:182:238:259:305:319:320:347:348:349:350:351:366:368:385:388:406:492:497:508:509:510:548:550:551:552:556:591:609:610:641:647:650:681:683:745:755:756:757:758:769:790:794:814:815:816:817:827:849:898:916:930:931:937:942:995:1084:1100:1107:1139:1167:1176:23:35:45:65:66:67:68:72:78:147:168:186:244:263:264:265:266:268:269:270:301:360:361:377:442:443:444:503:546:553:554:555:557:568:576:590:611:631:642:643:648:649:658:680:699:715:732:752:760:761:762:763:791:792:793:795:848:871:884:890:906:915:917:940:958:959:992:993:994:1064:1065:1066:1067:1082:1102:1104:1105:1106:1111:1112:1119:1129:1130:1131:1147:1158:1166:1173:22:39:44:46:58:73:74:75:76:77:157:169:190:223:243:255:267:271:293:300:302:303:304:318:367:372:373:374:375:378:389:400:401:404:407:410:411:413:422:423:424:430:431:433:445:453:468:488:502:506:543:544:545:547:574:593:594:607:608:682:696:697:698:702:703:704:731:734:765:768:797:828:872:881:882:883:897:901:902:903:904:905:908:918:951:975:1008:1009:1010:1011:1048:1049:1050:1088:1101:1163 -1:0:2:1 -1:34:44:36:22:4:5:30:17:10:40:11:35:6:20:7:43:16:12:28:32:3:39:26:24:25:41:42:2:19:37:1:31:23:21:33:29:14:27:18:13:15:8:45:38 -1:122:90:39:7:19:109:117:85:34:2:78:70:112:96:128:45:13:23:94:102:126:62:43:11:35:76:130:98:86:68:118:120:47:88:3:37:5:15:50:20:33:84:116:55:1:21:71:132:17:79:49:100:22:89:38:26:0:91:121:8:40:107:123:6:31:18:95:127:44:12:119:87:36:83:80:63:46:72:93:111:4:97:14:69:77:125:74:82:10:42:66:129:114:24:25:61:73:108:64:103:81:29:105:9:56:60:65:67:75:92:106:124:41:52:113 [-0.99452189536827329:0.9945218953682734] [-1:1] [1:12] [-0.90096886790241903:1] [-0.43388373911755801:0.97492791218182362] [-0.99999073973619013:0.99954628068735729] [-0.99907411510222999:0.99985183920911624] [-1:1] [-1:1] [0:7.8939451382359591] [0:7.8939451382359591] [0:7.7836405962212529] [0:6.5806391372849493] [0.69314718055994529:7.1653002110482875] [0:3.2940417966049629] [1.0986122886681098:6.9971807869699223] [0:2.9815439008988269] [1.1496948510447089:6.9242151338238198] [0:2.7957610625370255] [-726:583] [0:583]
tree_sizes=3918 3800 3930 4199 3692 3976 3933 3652 3720 3951 3781 3697 4071 3875 4042 4064 4005 4020 3973 3557 3973 3923 3671 3672 4055 3818 3818 3940 3913 3796 3664 3869 3783 3545 3909 3812 3514 3511 3675 3864 3591 3618 3778 3614 3672 3780 3748 3731 3742 3527 3756 3845 3681 3642 3638 3653 3726 3523 3653 3804 3720 3681 3694 3761 3707 3646 3557 3675 3675 3902 3631 3776 3806 3801 3657 3830 3843 3835 3758 3600 3740 3886 3801 3675 3734 3695 3706 3652 3848 3845 3848 3561 3686 3793 3445 3677 3795 3663 3817 3725 3657 3686 3747 3779 3883 3770 3816 3818 3733 3940 3710 3783 3809 3837 3848 3801 3808 4039 3842 3813 3852 3830 3687 3546 3536 3598 3871 3615 3694 3838 3700 3552 3709 3687 3715 3556 3710 3575 3696 3823 3659 3678 3558 3797 4045 3879 3820 3787 3840 3875 4002 3866 3897 3870 3994 3650 3828 3615 3601 3426 3483 3881 3947 3892 3766 3757 3888 4062 3733 3759 3849 3724 4005 3807 3746 3601 3816 3675 3619 3867 3555 3633 3651 3716 3618 3653 3628 3568 3638 3625 3601 3751 3760 3623 3868 3794 3815 3584 3633 3703 3618 3606 3374 3806 3633 3587 3652 3491 3738 3575 3748 3578 3464 3440 3560 3605 3408 3549 3660 3702 3626 3633 3645 3658 3692 3735 3727 3410 3598 3598 3772 3698 3739 3642 3449 3910 3611 3525 3797 3486 3599 3682 3547 3569 3528 3763 3465 3551 3679 3390 3698 3381 3803 3732 3643 3701 3743 3878 3774 3797 3335 3395 3389 3537 3648 3642 3645 3712 3802 3397 3658 3589 3904 3485 3819 3827 3614 3471 3830 3561 3552 3710 3657 3785 3467 3632 3697 3504 3683 3532 3519 3530 3981 3755 3790 3599 3709 3564 3716 3747 3540 3319 3607 3304 3296 3567 3445 3575 3633 3641 3522 3517 3738 3521 3596 3758 3604 3516 3521 3519 3544 3508 3295 3535 3425 3314 3409 3424 3320 3290 3572 3504 3552 3286 3393 3206 3311 3207 3314 3324 3279 3543 3462 3193 3315 3533 3281 3159 3304 3177 3200 3159 3302 3211 3198 3201 3184 3197 3218 3471 3200 3176 3461 3446 3182 3179 3196 3419 3172 3491 3319 3173 3416 3194 3200 3215 3226 3336 3243 3213 3188 3337 3217 3328 3367 3343 3201 3327 3329 3430 3458 3244 3102 3232 3217 3279 3472 3573 3400 3560 3370 3210 3476 3520 3562 3611 3881 3515 3776 3373 3774 4166 3934 3900 3498 3662 3808 3864 3662 3437 3878 3479 3571 3637 3404 3564 3490 3549 3533 3491 3752 3651 3617 3948 3599 3435 3826 3443 3467 3527 3507 3455 3454 3530 3860 3363 3453 3393 3509 3394 3673 3672 3746 3775 3784 3743 3530 3509 3805 3721 3819 4095 3832 3666 3761 3484 3515 3566 3743 4112 3672 3845 3798 3742 3621 3837 3396 3841 3897 3386 3439 4016 3933 3952 4037 4054 3936 3859 3988 3894 4229 3701 3893 3751 4198 3808 3591 3696 3811 3947 3846 3515 3846 3974 3681 3568 4045 4070 3961 3711 3725 3888 3386 3731 3697 4053 3926 3891 3587 3886 3784 3423 4078 3552 3581 3692 3969 3546 3557 3886 3506 3549 3610 3635 3826 4010 3835 3932 3717 3548 3808 3770 3787 4015 3424 3699 3479 3610 3372 3772 3532 3343 3549 4213 3730 3360 3852 3719 3618 3893 3692 3747 3568 3444 3479 3912 3722 3576 3954 3854 3634 3697 3833 3587 3952 3750 3820 3710 4078 3481 3853 3439 3455 3279 3665 3561 3736 4041 3854 3541 3666 3892 3665 3991 3770 3660 3588 3510 4136 3776 3526 3522 3744 3869 3863 3774 3585 3545 3349 3675 4015 3399 3564 3365 3365 3480 3509 3508 3584 3678 3806 3827 3954 3791 4116 4137 3654 3768 3685 3446 3706 3747 3588 3284 3858 4133 3378 4014 4110 3687 4032 4020 3813 3451 3428 3767 3783 3590 3632 3410 3432 3597 3565 3587 3770 3673 3594 3667 3409 3957 3441 3545 3706 3554 3607 3463 3765 3402 3301 3864 3894 3741 3437 3283 3538 3746 3932 3731 3586 3420 3716 3888 3479 3730 3745 3603 3782 3828 3570 3628 3836 3287 3266 3747 3873 3434 3499 3628 3626 3877 3824 3418 3706 3649 4023 3849 3647 3513 3797 3764 3603 3434 3564 3509 3766 3694 3745 3899 3953 3864 3452 3729 3669 3908 3925 3965 3454 3586 3315 3613 3554 3693 3711 3453 3886 3770 3960 3862 3530 4047 3281 3895 3569 3399 3432 3547 3811 3965 3853 4053 4057 3906 3886 3855 3371 3665 3992 3884 3779 3397 3643 3891 4252 3664 3903 3415 4014 3822 3679 3661 3444 3831 3741 3666 3717 4076 3642 3586 3518 3803 3550 3709 3737 3680 3751 3754 3597 3632 3506 3663 4159 3512 3249 3560 3448 3335 3859 3357 3614 3414 3412 3254 3592 3818 3455 3569 3427 3430 3485 3786 3543 3663 3533 3656 3303 3409 3430 3687 3722 3909 3387 3559 3618 3544 3261 3291 3272 3473 3442 3510 3425 3403 3558 3232 3579 3213 3268 4188 3257 3124 3157 3248 3370 3519 3503 3250 3273 3399 3213 3566 3262 3266 3125 3395 3117 3266 3340 3693 3527 3516 3279 3527 3331 3682 3393 3592 3409 3767 3770 3327 3642 3321 3362 3126 3568 3447 3325 3549 3275 3234 3425 3215 3309 3271 3152 3236 3265 3437 3672 3090 3585 3910 3582 3326 3765 3529 3519 3943 3620 3730 3604 3527 3401 3390 3262 3248 3232 3321 3699 3466 3399 3264 3265 3395 3511 3264 3776 3282 3790 3287 3248 3414 3281 3287 3784 3289 3244 3519 3277 3505 3740 3842 3668 3910 3814 3259 3770 3474 3679 3282 4032 3734 3667 3856 3295 3647 3569 3853 3928 3594 3433 3425 3278 3565 3669 3255 3814 3235 3390 3728 3570 3295 3360 3275 3434 3265 3120 3452 3539 3360 3698 3408 3484 3365 3244 3254 3274 3568 3534 3447 3472 3352 3448 3108 3516 3260 3302 3389 3381 3648 3403 3908 3545 3364 3431 3890 3402 3391 3893 4091

Tree=0
num_leaves=31
num_cat=19
split_feature=2 27 3 26 6 3 2 3 3 2 0 3 0 3 13 3 27 20 3 2 12 27 12 6 19 2 24 0 3 24
split_gain=434.359 139.82 137.907 73.5772 71.5268 38.7973 32.4191 26.1908 24.1031 23.4259 23.1961 20.1375 17.7846 14.3088 13.7726 12.9094 12.6363 11.0212 10.5281 10.093 8.82418 10.0233 8.8053 8.57789 8.55272 8.47769 8.2478 9.42337 8.11994 8.00733
threshold=0 74.500000000000014 1 -570.49999999999989 2 3 4 5 6 7 8 9 10 11 -0.59815875725621348 12 103.50000000000001 3.9723331083226023 13 14 0.85206963063867758 110.50000000000001 0.81900730237416519 15 1.0000000180025095e-35 16 2.5486058191284973 17 18 2.4310624780751282
decision_type=9 8 9 8 9 9 9 9 9 9 9 9 9 9 2 9 8 10 9 9 2 8 2 9 2 9 10 9 9 10
left_child=1 2 -1 19 6 -6 7 -4 26 16 14 -8 24 -13 -2 -14 -5 23 29 -3 22 -22 25 -17 -10 -11 27 -7 -20 -15
right_child=10 3 4 9 5 8 11 -9 12 20 -12 13 15 18 -16 17 -18 -19 28 -21 21 -23 -24 -25 -26 -27 -28 -29 -30 -31
leaf_value=1.9425453746318817 1.9264509952068329 1.9459100961685181 1.9640629971027375 1.9558953845500946 1.9568962204456328 1.9459100961685181 1.9625601732730866 1.9459100961685181 1.9264509952068329 1.9264509952068329 1.9264509952068329 1.9640629971027375 1.9504299485683441 1.9653691971302032 1.9264509952068329 1.9264509952068329 1.9264509952068329 1.9675597321987153 1.9568962204456328 1.9586397540569305 1.9558953845500946 1.9264509952068329 1.9264509952068329 1.9459100961685181 1.9459100961685181 1.9264509952068329 1.9504299485683441 1.9568962204456328 1.9547831284999848 1.9568962204456328
leaf_weight=1201 275 123 330 278 535 112 1175 752 392 589 1446 882 847 353 638 203 520 138 556 485 87 158 165 1347 477 944 436 464 905 479
leaf_count=1201 275 123 330 278 535 112 1175 752 392 589 1446 882 847 353 638 203 520 138 556 485 87 158 165 1347 477 944 436 464 905 479
internal_value=1.94589 1.94652 1.94704 1.94472 1.94741 1.94654 1.9482 1.94663 1.94623 1.94402 1.94191 1.94859 1.94582 1.94816 1.94325 1.94625 1.94549 1.94574 1.94772 1.94787 1.94343 1.9452 1.94317 1.9455 1.9446 1.9434 1.94757 1.94838 1.94718 1.94863
internal_weight=17292 14933 11584 3349 10383 4951 5432 1082 4416 2741 2359 4350 3404 3175 913 2535 798 1688 2293 608 1943 245 1698 1550 869 1533 1012 576 1461 832
internal_count=17292 14933 11584 3349 10383 4951 5432 1082 4416 2741 2359 4350 3404 3175 913 2535 798 1688 2293 608 1943 245 1698 1550 869 1533 1012 576 1461 832
cat_boundaries=0 3 31 36 73 76 113 150 153 156 192 195 232 269 305 307 311 313 315 340
cat_threshold=1599194128 503844360 796 176 0 134217728 134217728 0 0 0 25165824 524288 0 0 0 0 1048576 0 16 0 0 256 6144 2281701376 15 0 262144 0 1090519040 7864512 2 69744717 14412 3262119936 1315971073 1 0 0 67895296 0 0 1024 0 65536 7 2 11392 0 0 0 537133312 0 0 201326592 11264 0 0 160 45056 0 2048 0 0 0 0 0 0 0 0 0 0 0 4 1426096128 34078728 512 0 0 0 25165824 0 0 144 8 0 0 0 0 0 0 0 0 0 5242880 0 0 536870912 268435456 0 0 0 1048576 1 0 0 0 0 0 0 0 7341312 0 593920 0 1342308356 838860800 28 134219264 8192 0 131072 0 0 0 6 0 0 2147484672 0 0 570425344 2097152 0 2048 0 0 0 1728 524290 0 0 0 0 0 0 0 0 0 0 262144 4276224 67111936 268 262144 1073741824 769 2048 0 1073741824 16777216 0 0 1835008 32 0 0 0 8192 2147483852 3073 1073741839 0 2048 0 64 128 2101248 64 33554432 0 0 0 1 0 0 0 0 0 0 0 256 32 4194304 721956 129 0 0 0 8388608 15810560 0 33554432 12 0 0 1048576 2048 0 514 0 2049 1536 0 4096 4195584 34603008 0 65536 0 0 0 0 0 0 0 0 0 0 0 3072 16 11 8192 0 2164260864 8192 33554432 0 0 469762048 0 0 64 0 0 0 131072 0 25165960 0 1048576 0 0 0 0 0 0 10749440 0 0 0 0 0 0 0 0 0 0 1048576 8 0 1048576 37748736 0 6144 25178112 16 0 0 524288 0 1073741824 4096 36864 0 0 268435456 32 512 4718592 0 16384 0 4096 1048576 0 0 0 0 0 0 0 0 512 192 100663296 512 4194306 34 61584 32768 1107329024 524296 4333568 524290 1 536870912 0 576 32768 0 0 0 393216 0 4352 4096 0 28 512 0 4096 0 128 0 536870912 0 83886080 0 256
is_linear=0
shrinkage=1


Tree=1
num_leaves=31
num_cat=16
split_feature=2 27 6 26 27 3 3 2 3 0 2 3 3 13 20 3 0 0 2 6 9 6 25 26 12 25 23 13 12 22
split_gain=452.023 130.928 88.6236 55.9022 46.1705 45.7629 31.2877 30.0435 28.0003 26.7291 23.1983 16.2968 14.8003 14.6307 13.7022 11.8136 11.0265 10.5041 10.4527 10.4087 9.58177 8.83423 8.81746 8.3198 7.44229 7.42789 7.41198 6.67748 9.84128 6.54519
threshold=0 55.500000000000007 1 -414.49999999999994 110.50000000000001 2 3 4 5 6 7 8 9 -0.59815875725621348 3.4247065461405062 10 11 12 13 14 5.5000000000000009 15 1.5721644843542928 56.500000000000007 0.85206963063867758 0.83774851880990531 1.1825746316734691 0.50494235051780201 0.81900730237416519 2.515669390470753
decision_type=9 8 9 8 8 9 9 9 9 9 9 9 9 2 8 9 9 9 9 9 2 9 8 10 2 8 8 2 2 10
left_child=1 2 8 18 7 -4 17 23 -1 13 20 29 -12 -2 24 22 -13 -7 -3 -6 -10 -18 -14 -5 -9 -17 -22 -16 -29 -8
right_child=9 3 5 4 19 6 11 14 10 -11 12 16 15 -15 27 25 21 -19 -20 -21 26 -23 -24 -25 -26 -27 -28 28 -30 -31
leaf_value=0.016483576333522796 -0.01926450995206833 9.7295504808425634e-05 0.012619796645641328 -0.019558396744728087 -0.01926450995206833 0.012684459364414216 0.0027077362179756159 -0.01926450995206833 0.011374296742677687 -0.01926450995206833 0.016220002734661104 0.0044099911570549023 0.0087631710886955268 -0.01926450995206833 0.0098804313182830825 1.6823607683181808e-05 0 0.0044746538758277899 0.012602361309528352 -0.01926450995206833 -0.019459100961685179 -0.0084393306612968438 0.021455045020580293 0.013693859302997588 0.0060855347156524662 0.0108973939538002 0.0061903917789459233 -0.0031701305270195011 -0.01926450995206833 0
leaf_weight=1267 275 266 435 30 593 273 1108 636 192 1446 904 384 472 638 280 352 1074 878 569 917 189 798 369 667 76 1096 254 267 51 536
leaf_count=1267 275 266 435 30 593 273 1108 636 192 1446 904 384 472 638 280 352 1074 878 569 917 189 798 369 667 76 1096 254 267 51 536
internal_value=0.000172912 0.000816101 0.00141716 -0.000643382 -0.00119562 0.000531295 0.00025983 -0.000201794 0.00236533 -0.00388561 0.00192548 -0.000168798 0.00227443 -0.00246479 -0.00109091 0.00182471 -0.000719329 0.00170112 0.00168263 -0.00251656 0.000162791 -0.00103613 0.00277908 0.00146393 -0.00203652 0.00125514 -0.000643341 1.67224e-05 -0.000974843 0.000586457
internal_weight=17292 14933 10581 4352 3517 5486 5051 2007 5095 2359 3828 3900 3193 913 1310 2289 2256 1151 835 1510 635 1872 841 697 712 1448 443 598 318 1644
internal_count=17292 14933 10581 4352 3517 5486 5051 2007 5095 2359 3828 3900 3193 913 1310 2289 2256 1151 835 1510 635 1872 841 697 712 1448 443 598 318 1644
cat_boundaries=0 3 8 45 82 85 122 125 128 165 202 238 241 244 246 251 255
cat_threshold=1599194128 503844360 796 2635877 14444 1113587712 1331699713 1 0 2048 786432 8 0 14336 0 0 2 2 1024 0 0 0 537133312 0 0 738197504 11264 0 0 160 45056 0 2048 0 0 0 0 0 0 0 0 0 0 0 6 0 4 2986344448 0 512 1024 0 196608 134217732 0 10432 6 0 0 2147484672 0 128 33554432 3145728 0 2048 0 0 0 1728 524290 0 0 0 0 0 0 0 0 2048 0 262144 1064960 67634176 792 2048 0 0 25165824 0 0 524288 8 0 0 0 8192 2147483844 3073 1073741839 0 2048 0 0 0 2101248 68 33554432 0 0 0 1 0 0 0 0 0 0 0 5243136 48 65536 262144 1073741824 769 352354304 524296 512 8192 134217728 0 0 0 0 0 134217728 117440512 0 0 0 0 0 268568704 0 8388608 0 41943040 0 1207959552 0 0 0 0 2158243841 0 0 0 0 0 0 0 0 0 0 1179648 0 0 1140850688 0 7356416 0 1048576 52 0 0 1048576 0 8 514 0 2064 512 268435456 4160 1408 5767168 268435456 81920 0 4096 0 0 0 0 0 0 0 0 0 0 0 9 8 0 135266304 37748752 32768 0 41951232 0 0 0 524288 2048 1073741824 4120 37376 3 0 0 32 4194816 33554432 0 67108864 0 0 1048576 0 0 0 0 0 0 0 0 1536 128 8576 14682112 4 16384 2165325824 68 251658240 268435968 3670144 43182 84934656 83951617 1 1048704 32896 83890240 1114112
is_linear=0
shrinkage=0.01


Tree=2
num_leaves=31
num_cat=18
split_feature=2 27 3 26 3 27 3 3 20 0 3 6 13 2 0 2 3 13 2 3 6 3 12 18 20 2 13 25 12 5
split_gain=446.125 124.656 97.2263 55.6815 53.4652 46.5689 34.6089 30.4749 28.3934 26.7291 22.9903 17.9198 14.6307 14.428 12.945 12.6081 10.8121 10.8049 10.4527 10.4176 10.4087 9.9868 9.37601 9.3368 8.81348 8.80989 8.15497 11.9116 8.08494 6.92457
threshold=0 55.500000000000007 1 -414.49999999999994 2 110.50000000000001 3 4 3.4001091597462305 5 6 7 -0.59815875725621348 8 9 10 11 0.50494235051780201 12 13 14 15 0.84753307444029569 1.0000000180025095e-35 3.6282784736812146 16 0.51972456038539816 1.2950045776737034 0.81900730237416519 17
decision_type=9 8 9 8 9 8 9 9 8 9 9 9 2 9 9 9 9 2 9 9 9 9 2 2 8 9 2 8 2 9
left_child=1 2 21 18 -4 8 -6 26 22 12 -9 13 -2 24 -13 -10 -16 -17 -3 -15 -7 29 28 25 -12 -19 -8 -28 -5 -1
right_child=9 3 4 5 6 20 7 10 15 -11 11 14 -14 19 16 17 -18 23 -20 -21 -22 -23 -24 -25 -26 -27 27 -29 -30 -31
leaf_value=-0.003208405770838261 -0.019071864852547648 9.6322549760341489e-05 0.016318740570187569 -0.019071864852547648 0.017440560082077981 -0.019071864852547648 0.016625656145811081 0.0095761469217538839 0.015280306568503378 -0.019071864852547648 0.0044299073370695123 0.0059926875160932541 -0.019071864852547648 0.0044746538758277899 0.014471628985047341 0.010849185684084892 -0.0034099200606346127 0.0064166840938329698 0.012476337696433068 0 -0.019071864852547648 -0.0032466810146570203 0.0085695929673910137 -0.019071864852547648 0.019622449580073358 -0.019232808646798133 -0.019656593915343284 0.014544555527329446 -0.019071864852547648 0.0024690452967882147
leaf_weight=530 275 266 1198 708 866 593 464 999 420 1446 415 800 638 1301 121 341 801 130 569 1094 917 516 101 89 651 142 85 128 76 612
leaf_count=530 275 266 1198 708 866 593 464 999 420 1446 415 800 638 1301 121 341 801 130 569 1094 917 516 101 89 651 142 85 128 76 612
internal_value=0.00014631 0.000785318 0.0013718 -0.000638787 0.00178384 -0.00118993 0.00147447 0.00123235 -0.000191829 -0.00388561 0.00100775 0.000736568 -0.00246479 0.00115097 -9.81524e-05 0.000864528 -0.000901288 2.80899e-05 0.00168263 0.000713098 -0.00251656 -0.000851319 -0.00153107 -0.00117729 0.00211896 -0.000257353 0.00323872 0.00166667 -0.00190051 -0.000321181
internal_weight=17292 14933 10581 4352 8923 3517 7725 6859 2007 2359 6182 5183 913 3461 1722 1122 922 702 835 2395 1510 1658 885 361 1066 272 677 213 784 1142
internal_count=17292 14933 10581 4352 8923 3517 7725 6859 2007 2359 6182 5183 913 3461 1722 1122 922 702 835 2395 1510 1658 885 361 1066 272 677 213 784 1142
cat_boundaries=0 3 31 68 105 142 145 181 186 189 192 195 218 220 257 262 288 291 293
cat_threshold=1599194128 503844360 796 160 0 0 0 0 0 0 872415232 0 0 512 0 0 0 0 28 1073741824 0 16777216 6144 3489660928 15 0 262144 0 1094713352 7864512 2 2048 0 0 25165824 0 0 524288 0 0 0 0 8192 2147483844 3073 1073741839 0 0 201326592 11264 0 4096 64 33554432 0 0 0 1 0 0 0 0 0 0 0 4194560 48 65536 0 0 524288 0 7356416 0 262144 60 0 0 1048576 0 8 514 0 2048 2048 268435456 4096 128 2621440 268435616 65536 0 4096 0 0 0 0 0 0 0 0 0 3145728 0 11 0 0 1310720 16 0 2048 34603136 0 2 2 0 268437504 1073741824 8 536875008 1 0 0 64 1792 38797312 0 67137536 0 2048 0 0 0 0 0 0 0 0 0 1024 128 524292 262144 1073741824 769 8 2048 1140850688 4194312 32768 12288 8396816 0 0 0 529408 0 0 4116 295680 0 0 0 0 0 536870912 0 32768 0 0 1048576 0 0 0 0 0 0 0 0 512 64 11675820 8423844 1828716544 1695612944 4 173031424 234884096 12 805446400 16793794 2116 1081344 67109888 264 1 0 0 0 0 1024 0 65536 0 0 0 0 0 0 0 0 1024 0 32 0 0 0 16777216 251658240 268435968 0 0 0 4 2560 0 0 131072 4 0 256 0 0 0 2147484672 0 128 570425344 3145728 0 134219776 0 0 0 0 2150105094 0 0 0 0 0 0 0 0 0 0 266240 3670144 43182 84934656 83951617 1 0 0 0 0 0 0 0 872415232 0 0 512 0 0 0 0 12 1073741824 0 16777216 2048 3489660928 3 0 0 0 4194312 1241513984 8 16 805395488 44
is_linear=0
shrinkage=0.01


Tree=3
num_leaves=31
num_cat=17
split_feature=2 27 3 26 3 0 3 3 0 3 27 3 3 2 3 13 3 22 6 3 26 20 24 26 2 25 9 0 24 25
split_gain=453.44 141.573 94.1022 65.6673 62.0591 42.028 47.0292 29.9808 26.7291 26.0293 23.8198 23.0421 21.3485 18.9052 16.6687 14.6307 14.6151 12.7849 12.3002 10.6801 10.2431 10.1795 10.1779 9.66995 8.55464 8.37467 7.91009 11.0739 7.77354 7.06048
threshold=0 74.500000000000014 1 -414.49999999999994 2 3 4 5 6 7 176.50000000000003 8 9 10 11 -0.59815875725621348 12 3.2192562015510666 13 14 -612.49999999999989 3.5208966923477232 2.5486058191284973 -194.49999999999997 15 1.0102634645396138 2.5000000000000004 16 2.5140231665312349 1.1553006098032794
decision_type=9 8 9 10 9 9 9 9 9 9 8 9 9 9 9 2 9 8 9 9 8 8 10 10 9 8 2 9 10 8
left_child=1 2 -1 20 -4 7 -7 -6 15 22 13 28 29 26 25 -2 -13 -15 -18 -16 -3 -21 -8 -12 -20 -14 -5 -28 -11 -9
right_child=8 3 4 10 5 6 9 12 -10 11 23 16 14 17 19 -17 18 -19 24 21 -22 -23 -24 -25 -26 -27 27 -29 -30 -31
leaf_value=-0.0032145969569486368 -0.018881146204022172 0.012351574319468739 0.016155553164485692 -0.018881146204022172 0.018940966324175596 0.012493348369802237 0.0095964632022106661 0.013767389587725403 -0.018881146204022172 0.0054703815105098487 -0.018881146204022172 0.0023585374268293392 0.0073281471255099784 -0.018881146204022172 0.0073813215142488489 -0.018881146204022172 0.00016751364743709419 0.0048898925156319138 -0.019146017444849017 -0.00020807198834419172 0.00038530479336708725 0.012531953625559807 0.0043140614517605319 -0.018881146204022172 -0.018881146204022172 0.018904513946589232 0.0086266281708204749 -0.018881146204022172 0 0.021101580015238524
leaf_weight=1150 275 460 1236 205 647 1029 583 237 1446 960 254 820 271 211 342 638 398 718 582 640 400 765 367 673 407 371 105 323 465 314
leaf_count=1150 275 460 1236 205 647 1029 583 237 1446 960 254 820 271 211 342 638 398 718 582 640 400 765 367 673 407 371 105 323 465 314
internal_value=0.000179274 0.000823462 0.00134755 -0.000986862 0.00164592 0.00135969 0.000815691 0.00220601 -0.00388561 0.00037892 -0.00180996 -8.23723e-06 0.00176271 -0.00105634 0.00134014 -0.00246479 -0.000647271 -0.00013312 -0.00127058 0.000822425 0.00139535 0.000427562 0.00184375 -0.00307983 -0.00186687 0.00271472 -0.0023717 -0.00163551 0.000979094 0.00353832
internal_weight=17292 14933 11584 3349 10434 9198 5611 3587 2359 4582 2489 3632 2940 1562 2389 913 2207 929 1387 1747 860 1405 950 927 989 642 633 428 1425 551
internal_count=17292 14933 11584 3349 10434 9198 5611 3587 2359 4582 2489 3632 2940 1562 2389 913 2207 929 1387 1747 860 1405 950 927 989 642 633 428 1425 551
cat_boundaries=0 3 31 68 71 108 145 148 185 222 259 262 298 333 338 363 366 369
cat_threshold=1599194128 503844360 796 176 0 0 134217728 0 0 0 25165824 0 0 0 0 0 1048576 0 16 0 0 0 2048 2281701376 15 0 262144 0 1090519040 7864512 2 2048 0 0 25165824 0 0 524288 0 0 0 0 8192 2147483852 3073 1073741839 4 0 201326592 2048 0 4096 192 33554432 0 0 0 1 0 0 0 0 0 0 0 5243904 0 65536 1073743489 3234875392 2132 0 0 0 0 81920 2048 58732672 65596 0 2 5120 0 0 0 0 2048 0 0 96 1920 0 268435456 0 0 0 1052672 0 0 0 0 0 0 0 0 2097152 0 524288 0 0 4093640704 512 7340032 0 1310720 32 0 0 1049216 0 1073741824 2 0 0 3584 0 9216 0 2097152 32 65536 0 0 1052672 0 0 0 0 0 0 0 0 2816 32 1 262144 1073741824 769 0 0 0 4194332 34304 13312 2064 131072 0 0 10240 0 0 2 0 0 0 47185920 2097296 0 536872960 0 0 0 0 2147483650 0 0 0 0 0 0 0 0 256 0 266240 8193 0 0 33562624 2048 0 96 0 0 0 20971776 0 1073741824 0 2064 0 25165960 0 5242880 2097152 1073741824 0 0 0 0 11020036 0 0 0 0 0 0 0 0 512 0 1179648 1 0 1835008 37748928 8388608 0 0 0 2 0 0 2048 0 528 536870912 1 0 268435456 4096 4194304 35127296 0 16384 0 6144 524288 0 0 0 0 0 0 0 0 0 144 14 454034448 268435968 512 8 0 33554432 256 0 0 0 12 0 0 524544 0 0 4140 299776 2048 4096 0 0 1408 4194304 0 83898368 0 0 2359296 0 0 0 0 0 0 0 0 0 64 0 0 0 0 4096 0 131072 134217728 0 0 8388800 0 0 0 134217728 0 0 0 8388608 0 268435456 0 0 0 0 4458505 0 0 0 0 0 0 0 0 2048 25339970 163840 1074794624 1056784 4 0 1879048192 0 0 0 0 0 16 458757 0 64 4098 0 0 2147484672 8 0 536870912 0 0 536870912 0 8421376 0 1280 335544320 268435976 16 8192 0 4096
is_linear=0
shrinkage=0.01


Tree=4
num_leaves=31
num_cat=14
split_feature=2 27 3 26 3 20 3 0 27 3 3 2 21 13 2 13 25 22 26 22 2 26 0 2 16 21 9 0 12 2
split_gain=448.557 135.787 91.6125 65.0104 62.4692 42.7754 38.8754 26.7291 24.4265 21.5893 19.0894 18.3054 14.8433 14.6307 13.266 13.2159 24.4074 12.3558 10.2431 9.80126 9.79613 9.66995 9.24595 8.99274 8.52172 8.66607 8.38109 10.5567 6.95525 6.64911
threshold=0 74.500000000000014 1 -414.49999999999994 2 3.7293693396726968 3 4 176.50000000000003 5 6 7 0.57691014227225046 -0.59815875725621348 8 0.51972456038539816 1.4238110654900156 3.2192562015510666 -612.49999999999989 1.7539014240060464 9 -194.49999999999997 10 11 3.6242520361853052 0.62250103306743554 2.5000000000000004 12 -0.085961614525331256 13
decision_type=9 8 9 10 9 10 9 9 8 9 9 9 8 2 9 2 8 8 8 10 9 10 9 9 2 10 2 9 2 9
left_child=1 2 -1 18 -4 6 -6 13 11 -8 19 26 14 -2 -12 20 23 -13 29 -11 -7 -10 -14 -17 -24 -26 -5 -28 -22 -3
right_child=7 3 4 8 5 15 9 -9 21 10 12 17 22 -15 -16 16 -18 -19 -20 -21 28 -23 24 -25 25 -27 27 -29 -30 -31
leaf_value=-0.0031824509873791505 -0.01869233474198195 0.0023876932846183907 0.015993997632840835 -0.01869233474198195 0.010401983510299076 0.022857944642598629 0.0072498871334868674 -0.01869233474198195 -0.01869233474198195 0.0096538440284204483 -0.019038950577013495 -0.01869233474198195 -4.9697119576472824e-05 -0.01869233474198195 -4.7681976678510819e-05 0.014591768995538103 0.021726523719708922 0.0048409935904755938 0.00038145174543341654 0.0043851607983112339 0.015123640473981226 -0.01869233474198195 0.0040548015497211109 -0.019592354875036157 0.020522190520456608 0.0034112528287362364 0.0085403618891122697 -0.01869233474198195 0.02142186166071296 0.014379171132731572
leaf_weight=1150 275 108 1215 205 1037 789 810 1446 254 277 377 211 929 638 1177 124 428 718 400 1161 245 673 1094 159 270 142 105 323 200 352
leaf_count=1150 275 108 1215 205 1037 789 810 1446 254 277 377 211 929 638 1177 124 428 718 400 1161 245 673 1094 159 270 142 105 323 200 352
internal_value=0.000157298 0.000798033 0.00131129 -0.000974918 0.00160571 0.00132138 0.00097058 -0.00388561 -0.00179389 0.000668321 0.000438661 -0.00103073 8.12703e-05 -0.00246479 -0.000682111 0.0026401 0.00155415 -0.000122471 0.00139535 0.00142265 0.0032658 -0.00307983 0.000568789 -0.000724382 0.00104881 0.00228155 -0.00232504 -0.00156542 0.00192308 0.00241304
internal_weight=17292 14933 11584 3349 10434 9219 7274 2359 2489 6237 5427 1562 3989 913 1554 1945 711 929 860 1438 1234 927 2435 283 1506 412 633 428 445 460
internal_count=17292 14933 11584 3349 10434 9219 7274 2359 2489 6237 5427 1562 3989 913 1554 1945 711 929 860 1438 1234 927 2435 283 1506 412 633 428 445 460
cat_boundaries=0 3 31 68 105 108 145 180 183 186 189 192 195 198 200
cat_threshold=1599194128 503844360 796 176 0 0 134217728 0 0 0 25165824 0 0 0 0 0 1048576 0 16 0 0 0 2048 2281701376 15 0 262144 0 1090519040 7864512 2 2048 0 0 25165824 0 0 524288 0 0 0 0 8192 2147483852 3073 1073741839 0 0 201326592 2048 0 4096 192 33554432 0 0 0 1 0 0 0 0 0 0 0 5243904 0 65536 0 2048 100663296 0 0 0 1310720 0 0 0 7168 0 0 0 537133952 2049 0 268435456 9216 384 34078720 0 28672 0 6144 1048576 0 0 0 0 0 0 0 0 256 0 524289 262144 1073741824 769 0 1879048192 1073741824 4194304 512 0 0 65548 0 0 8192 536870912 0 26 2147484672 0 0 570425344 96 4195328 540016640 268435456 32768 0 1024 0 0 0 0 0 0 0 0 0 0 0 262158 1 4 16777216 33554432 0 0 131104 393248 134545408 0 384 0 1073741824 0 0 0 4096 0 2097152 0 4196352 0 8388608 0 832 2150114818 0 0 0 0 0 0 0 0 2560 454034448 268435968 512 486637568 268435464 256 33554448 67108864 280 2688581632 3900640 4240 1074790400 1536 8 8192 0 4096 33554432 268435968
is_linear=0
shrinkage=0.01


Tree=5
num_leaves=31
num_cat=14
split_feature=2 27 6 26 3 3 3 2 3 0 27 3 2 3 13 3 12 22 20 20 13 25 26 3 24 26 9 0 12 24
split_gain=450.353 135.394 85.2407 64.3569 47.0187 34.1618 28.7253 27.5812 29.0029 26.7291 25.0408 21.1304 19.4905 16.0277 14.6307 13.209 11.5634 18.1575 11.2245 10.7613 10.3861 14.8162 10.2431 10.1753 10.168 9.66995 8.22257 10.0152 7.84229 7.27554
threshold=0 74.500000000000014 1 -414.49999999999994 2 3 4 5 6 7 176.50000000000003 8 9 10 -0.59815875725621348 11 -0.12447811117596669 4.5305444896348126 3.3892192924673163 3.249801178484089 0.51972456038539816 0.69445077370045249 -612.49999999999989 12 2.4231183423192948 -194.49999999999997 2.5000000000000004 13 0.85654306401281499 2.5486058191284973
decision_type=9 8 9 10 9 9 9 9 9 9 8 9 9 9 2 9 2 8 10 8 2 8 8 9 10 10 2 9 2 10
left_child=1 2 5 22 -4 -1 29 15 -9 14 12 24 26 -13 -2 -7 17 -10 -15 28 23 -22 -3 -17 -8 -12 -5 -28 -14 -6
right_child=9 3 4 10 6 7 11 8 16 -11 25 13 19 18 -16 20 -18 -19 -20 -21 21 -23 -24 -25 -26 -27 27 -29 -30 -31
leaf_value=-3.4751258379015496e-05 -0.018505411394562129 0.012084266864946737 0.011455142922929129 -0.018505411394562129 0.0084921525073186049 0.018643081513629128 0.0048345867976947133 0.015819029418215922 -0.01911955009801122 -0.018505411394562129 -0.018505411394562129 0.00015339785010298201 -0.018505411394562129 -0.0077030861247849216 -0.018505411394562129 0.022283311595611369 0.010144779991552659 0.0085391593613750282 0.012395376518780636 0.0061665721670868595 -0.019361430063563431 0.012306159198646067 0.00037763722797908185 0.012490212091839339 -6.8307078499767472e-05 -0.018505411394562129 0.0084549582702211478 -0.018505411394562129 0.0041000561322453218 0.0042036352944508672
leaf_weight=455 275 460 578 205 627 1131 814 577 335 1446 254 1170 271 1659 638 324 493 431 193 603 158 679 400 1075 451 673 105 323 55 434
leaf_count=455 275 460 578 205 627 1131 814 577 335 1446 254 1170 271 1659 638 324 493 431 193 603 158 679 400 1075 451 673 105 323 55 434
internal_value=0.000165394 0.000807401 0.00131992 -0.000962974 0.000478437 0.00219654 0.000182904 0.00242758 0.00141928 -0.00388561 -0.00177782 -0.000182686 -0.00100512 -0.000636544 -0.00246479 0.00297157 0.000555556 -0.000208877 -0.00121375 -6.92226e-05 0.00248887 0.00161888 0.00139535 0.00302716 0.000898039 -0.00307983 -0.00234059 -0.00158879 -0.00153374 0.00164799
internal_weight=17292 14933 11584 3349 5926 5658 5348 5203 1836 2359 2489 4287 1562 3022 913 3367 1259 766 1852 929 2236 837 860 1399 1265 927 633 428 326 1061
internal_count=17292 14933 11584 3349 5926 5658 5348 5203 1836 2359 2489 4287 1562 3022 913 3367 1259 766 1852 929 2236 837 860 1399 1265 927 633 428 326 1061
cat_boundaries=0 3 8 45 73 110 113 150 153 190 193 219 255 291 294
cat_threshold=1599194128 503844360 796 69744717 14412 1130364928 1331699713 1 0 0 786432 0 0 7168 0 65536 7 2 11392 0 0 0 537133312 0 0 201326592 11264 0 0 160 45056 0 2048 0 0 0 0 0 0 0 0 0 0 0 6 528 0 0 0 67108864 0 0 0 524288 0 8388608 0 0 1572864 134217728 12 1073741828 0 144 2097152 67108864 8388612 0 24 0 0 2097152 2 0 1342308356 822083584 4 134219264 8192 0 131072 134217728 0 64 6 0 0 2147484672 0 0 570425344 2097152 0 2048 0 0 0 1728 524290 0 0 0 0 0 0 0 0 0 0 262144 16400 201328128 280 0 0 0 25165824 81920 0 58732672 0 0 0 1576960 0 2147483648 0 0 0 0 0 64 1920 0 268435456 0 0 0 0 0 0 0 0 0 0 0 0 7341312 0 589824 262144 1073741824 769 8192 0 2147483648 8192 33558528 0 0 262144 100663296 0 0 9 0 0 268568704 0 25165960 0 1048576 0 134217728 0 0 0 0 2149852928 0 0 0 0 0 0 0 0 0 0 1179648 454034448 268435968 512 0 134217728 134217728 4096 0 0 0 402653184 16777216 0 0 0 0 0 0 2 2 0 58720512 0 1342177280 0 0 0 0 12589065 2048 0 1073741824 0 0 0 1835008 36 0 0 0 8192 2147483852 3075 1073741839 0 2048 0 0 0 2101248 64 33554432 0 0 0 1 0 0 0 0 0 0 0 2816 32 1 0 0 16777240 7340032 0 0 24 0 0 0 0 1073741824 0 0 0 0 0 4096 4196224 39321600 0 65536 0 0 0 0 0 0 0 0 0 0 0 0 80 8192 0 4096
is_linear=0
shrinkage=0.01


Tree=6
num_leaves=31
num_cat=14
split_feature=2 27 3 3 26 2 3 3 0 3 0 3 27 13 3 27 26 24 3 12 13 25 27 26 27 9 0 20 2 24
split_gain=447.404 133.624 91.6475 52.7184 49.3959 36.8473 35.1772 29.9677 26.7291 23.2432 17.3081 19.8841 16.8378 14.6307 13.8714 13.407 10.3278 9.53013 9.32 9.16193 8.94587 12.5025 8.86506 8.70653 13.663 10.0922 10.7279 8.63184 8.4163 8.06318
threshold=0 55.500000000000007 1 2 -595.49999999999989 3 4 5 6 7 8 9 101.50000000000001 -0.59815875725621348 10 76.500000000000014 -330.49999999999994 2.5486058191284973 11 0.85206963063867758 0.51972456038539816 1.2950045776737034 207.50000000000003 -295.99999999999994 180.00000000000003 2.5000000000000004 12 3.3748288370470489 13 2.3213800973440146
decision_type=9 8 9 9 8 9 9 9 9 9 9 9 8 2 9 8 10 10 9 2 2 8 8 10 8 2 9 8 9 10
left_child=1 2 18 -4 28 12 -5 20 13 -9 14 17 -6 -2 29 27 -14 -12 -1 -13 -8 -22 -18 -17 25 -25 -27 -7 -3 -11
right_child=8 4 3 6 5 15 7 9 -10 10 11 19 16 -15 -16 23 22 -19 -20 -21 21 -23 -24 24 -26 26 -28 -29 -30 -31
leaf_value=-0.0030732128638193234 -0.018320357280616508 -0.00027017152523602485 0.015660839124033762 0.016620012186383624 0.010806357369190243 -0.018547642391780493 0.017282520804180388 0.0082268427333375919 -0.018320357280616508 0.014113960151285573 0.0086357880180655787 -0.00033659619301012133 0.0099176484634659803 -0.018320357280616508 0.0059195009143744801 -0.0033781016548498368 -0.018320357280616508 0.0022494250313987241 -4.9312834541439533e-05 0.0087580398933305246 -0.019312684083192852 0.014266870035416965 -0.018320357280616508 -0.018320357280616508 -0.018320357280616508 3.1508912167721447e-06 -0.018320357280616508 0.0091167774000552402 0.013447622766548735 0.0060025743638861704
leaf_weight=430 275 108 1198 880 731 331 441 1080 1446 252 411 1916 165 638 1740 331 284 299 1213 203 83 124 211 311 522 357 319 277 405 311
leaf_count=430 275 108 1198 880 731 331 441 1080 1446 252 411 1916 165 638 1740 331 284 299 1213 203 83 124 211 311 522 357 319 277 405 311
internal_value=0.000152093 0.00079201 0.00139921 0.00179705 -0.000682445 -0.00107189 0.00149032 0.00124454 -0.00388561 0.001027 0.000742902 0.000216626 0.000231977 -0.00246479 0.00138565 -0.00180635 -0.000924242 0.00165278 -0.000771325 -0.00027008 0.00328267 0.00161836 -0.00164646 -0.00223913 -0.0025613 -0.0018693 -0.00118343 -0.000526316 0.00223197 0.00274869
internal_weight=17292 14933 10581 8938 4352 3839 7740 6860 2359 6212 5132 2829 1391 913 2303 2448 660 710 1643 2119 648 207 495 1840 1509 987 676 608 513 563
internal_count=17292 14933 10581 8938 4352 3839 7740 6860 2359 6212 5132 2829 1391 913 2303 2448 660 710 1643 2119 648 207 495 1840 1509 987 676 608 513 563
cat_boundaries=0 3 31 68 71 108 145 148 183 186 223 258 286 289 291
cat_threshold=1599194128 503844360 796 160 0 0 0 0 0 0 872415232 134217728 0 512 0 0 0 0 12 1073741824 0 0 6144 3623878656 15 0 262144 0 1090523144 7864512 2 2048 0 0 25165824 0 0 524288 0 0 0 0 8192 2147483844 3073 1073741839 0 0 201326592 11264 0 4096 64 33554432 0 0 0 1 0 0 0 0 0 0 0 4194560 48 65536 4308992 100666368 284 0 0 524288 0 7356416 0 262144 60 0 0 1048576 0 8 514 0 2064 2048 268435456 4096 128 2621440 268435616 65536 0 4096 0 0 0 0 0 0 0 0 0 3145728 0 11 0 0 1310720 16 0 2048 34603136 0 2 2 0 268437504 1073741824 8 536875008 1 0 0 0 1792 38797312 0 67137536 0 2048 0 0 0 0 0 0 0 0 0 1024 192 524292 262144 1073741824 769 8 2048 1073741824 4194312 32768 12288 8396816 0 0 0 529664 0 0 4116 295680 0 0 0 64 0 536870912 0 32768 0 0 1048576 0 0 0 0 0 0 0 0 512 805324672 3251652736 68 0 0 0 4 2560 1024 2048 196608 0 0 0 0 0 0 2147484672 0 8388736 570425344 3145904 4194304 2048 0 0 0 0 2148007942 0 0 0 0 0 0 0 0 0 0 266240 1 0 3053453312 33554496 0 0 0 0 0 0 10368 2 0 0 0 0 512 33554432 0 0 0 0 25165824 0 1024 2621440 0 0 0 0 0 0 0 0 2048 32 0 0 0 0 0 0 0 0 0 0 0 0 0 0 0 0 0 0 0 0 12 0 0 0 1090519040 3670208 2 4333568 536870912 4096 100663296 512
is_linear=0
shrinkage=0.01


Tree=7
num_leaves=31
num_cat=17
split_feature=2 27 3 3 26 16 2 3 0 6 26 13 25 13 6 2 2 25 3 0 26 2 13 25 0 6 3 27 26 0
split_gain=444.465 131.673 87.4029 56.0748 50.6535 37.6399 37.1545 41.4927 26.7291 22.5036 16.5685 16.5134 26.083 14.6307 12.9681 13.0438 12.9077 13.5561 11.8532 11.455 11.3878 9.07799 8.42046 8.35108 8.07143 9.86836 7.74528 7.12151 7.6447 6.74801
threshold=0 55.500000000000007 1 2 -570.49999999999989 3.2769667020129059 3 4 5 6 101.50000000000001 0.51972456038539816 1.1720334525583376 -0.59815875725621348 7 8 9 0.2773543543837535 10 11 -295.99999999999994 12 0.49001051533419898 0.5653749685163022 13 14 15 105.50000000000001 -362.99999999999994 16
decision_type=9 8 9 9 8 2 9 9 9 9 10 2 8 2 9 9 9 10 9 9 10 9 2 8 9 9 9 8 10 9
left_child=1 2 26 -4 21 14 7 -5 13 11 16 18 29 -2 15 -6 -7 -18 -8 23 -17 -3 -19 -11 -9 -26 -1 -16 -29 -13
right_child=8 4 3 6 5 10 9 24 -10 19 -12 12 -14 -15 27 20 17 22 -20 -21 -22 -23 -24 -25 25 -27 -28 28 -30 -31
leaf_value=-5.0240998536323912e-05 -0.018137153707810345 -0.00026746980998366477 0.015504230732793426 0.0080598445391585182 0.0011725246976171699 0.015553322885050933 0.021370211511359111 0.0024899714448854949 -0.018137153707810345 -0.019710689818756781 -0.018137153707810345 0.0055667552942582701 0.014408419685970406 -0.018137153707810345 -0.018137153707810345 0.0032069035111432819 0.010529506171966945 0.01458594707374648 0.013082594796756386 -0.00024902414337132364 -0.018137153707810345 0.012240953897166283 -0.01885691721394795 0.012374336277473832 0.0062143700972479609 -0.0028214907799989555 -0.0030424807351811301 -0.018286576264068013 -0.018137153707810345 -0.019441692613475194
leaf_weight=876 275 123 1198 1686 434 386 528 1141 1446 27 352 132 522 638 441 150 381 33 1214 507 703 485 89 330 461 1262 523 170 605 174
leaf_count=876 275 123 1198 1686 434 386 528 1141 1446 27 352 132 522 638 441 150 381 33 1214 507 703 485 89 330 461 1262 523 170 605 174
internal_value=0.000138793 0.000776618 0.00137936 0.00173303 -0.00068704 -0.00112179 0.00142607 0.000828947 -0.00388561 0.00221254 0.000302176 0.00268605 0.00153382 -0.00246479 -0.00182781 -0.00109869 0.00102925 -4.87329e-05 0.00324914 0.000789474 -0.00181344 0.00199013 -0.00295082 0.00213896 9.39457e-05 -0.000337565 -0.00094748 -0.00256933 -0.00316774 -0.000784314
internal_weight=17292 14933 10581 9182 4352 3744 7984 4550 2359 3434 1241 2570 828 913 2503 1287 889 503 1742 864 853 608 122 357 2864 1723 1399 1216 775 306
internal_count=17292 14933 10581 9182 4352 3744 7984 4550 2359 3434 1241 2570 828 913 2503 1287 889 503 1742 864 853 608 122 357 2864 1723 1399 1216 775 306
cat_boundaries=0 3 31 68 71 108 111 116 120 123 126 162 165 167 169 173 199 202
cat_threshold=1599194128 503844360 796 160 0 0 0 0 0 0 872415232 134217728 0 512 0 0 0 0 28 1073741824 0 0 6144 3355443200 15 0 262144 0 1090519048 7864512 2 2048 0 0 25165824 0 0 524288 0 0 0 0 8192 2147483844 3073 1073741839 0 0 201326592 11264 0 4096 64 33554432 0 0 0 1 0 0 0 0 0 0 0 4194560 48 65536 1560313856 268960264 512 0 0 0 0 49152 0 144 196608 6 0 15360 0 0 0 0 2048 0 33554432 2097248 0 536872960 268435456 0 0 0 1572866 0 0 0 0 0 0 0 0 3146752 0 790528 262144 1073741824 769 10444 10372 1164967936 1198530561 1 7866496 43182 1158742016 1160841237 49152 100665352 264 1091567616 67109888 264 0 0 1879048192 24 3145728 6144 1048576 60 0 0 0 0 1073741832 2 0 0 2048 0 4096 4196224 41418752 0 65536 0 0 0 0 0 0 0 0 0 0 0 0 64 8576 0 4 100663296 512 805437440 16271554 8423684 8431872 1078988800 1075904513 0 0 0 0 0 0 0 805306368 134217728 0 512 0 0 0 0 12 1073741824 0 0 6144 3355443200 3 0 0 0 8 512 1073741824 64
is_linear=0
shrinkage=0.01


Tree=8
num_leaves=31
num_cat=16
split_feature=2 27 6 26 3 27 3 2 3 0 2 3 13 3 0 6 13 22 0 6 2 25 6 20 26 8 20 26 12 20
split_gain=450.995 130.38 88.0466 53.1686 48.0116 46.969 30.4921 28.6006 28.2681 26.7291 19.6858 15.8154 14.6307 13.4471 12.0294 13.0901 11.4211 13.3924 10.4661 10.4087 9.12711 8.88755 8.76017 8.68971 8.09097 7.85607 7.28073 7.95458 7.2509 7.08947
threshold=0 55.500000000000007 1 -414.49999999999994 2 110.50000000000001 3 4 5 6 7 8 -0.59815875725621348 9 10 11 0.50494235051780201 4.7960383937887938 12 13 14 1.5721644843542928 15 2.0012956890355182 56.500000000000007 0.86128122600877433 3.6282784736812146 17.500000000000004 0.7266007961912001 3.2190890217846011
decision_type=9 8 9 8 9 8 9 9 9 9 9 9 2 9 9 9 2 8 9 9 9 8 9 8 10 2 8 10 2 10
left_child=1 2 8 20 -4 7 18 24 -1 12 22 -12 -2 21 -8 -16 23 25 -6 -7 -3 -13 -10 -9 -5 -18 27 -15 -25 -26
right_child=9 3 4 5 6 19 14 16 10 -11 11 13 -14 26 15 -17 17 -19 -20 -21 -22 -23 -24 28 29 -27 -28 -29 -30 -31
leaf_value=0.015349188425465492 -0.017955782170732241 0.00039785767059254519 0.01039058195507348 -0.018978018361623477 0.010322460915851485 -0.017955782170732241 0.0027429048776872003 -0.017955782170732241 0.0094806729494991589 -0.017955782170732241 0.015247216395822801 0.0080630555961466663 -0.017955782170732241 0.0038818209005717554 -2.1556535774562846e-05 -0.0081203122678561741 -0.018195304371287354 -0.0032826736278717306 0.0041961801416780433 -0.017955782170732241 0.011706538429660119 0.020366532248235255 -0.0031762905074192637 -0.0179535093196206 0.0056986582316320405 0.0015033187909529412 0.01598218972874706 -0.00047933639094503987 0.0092710251412595236 0.018646935033880051
leaf_weight=1267 275 323 554 30 283 593 764 61 237 1446 907 476 638 405 1953 741 299 309 1219 917 512 392 393 434 336 57 705 285 124 357
leaf_count=1267 275 323 554 30 283 593 764 61 237 1446 907 476 638 405 1953 741 299 309 1219 917 512 392 393 434 336 57 705 285 124 357
internal_value=0.000168286 0.000810748 0.00141055 -0.00064568 0.000532223 -0.00118425 0.000217304 -0.000181863 0.00236065 -0.00388561 0.00191601 0.00223899 -0.00246479 0.00177079 -0.000299885 -0.000613905 -0.00107419 -0.00199248 0.00140212 -0.00251656 0.00162275 0.00275626 0.00028125 -0.000105008 0.00139836 -0.00331461 0.00114235 0.00042029 0.000286738 0.00163781
internal_weight=17292 14933 10581 4352 5514 3517 4960 2007 5067 2359 3800 3170 913 2263 3458 2694 1284 665 1502 1510 835 868 630 619 723 356 1395 690 558 693
internal_count=17292 14933 10581 4352 5514 3517 4960 2007 5067 2359 3800 3170 913 2263 3458 2694 1284 665 1502 1510 835 868 630 619 723 356 1395 690 558 693
cat_boundaries=0 3 8 45 82 85 122 125 128 165 201 204 209 212 217 219 223
cat_threshold=1599194128 503844360 796 2635845 14444 3261071360 1331699713 1 0 2048 786432 8 0 14336 0 0 2 2 11264 2 0 0 2684616960 0 0 771751936 11264 0 0 160 45056 0 3072 0 0 0 0 0 0 0 0 0 0 0 4 8192 4 2986344448 0 512 1024 0 196608 33554436 0 192 4 0 0 1024 0 8388736 0 3145728 0 2048 0 0 0 704 2150113282 0 0 0 0 0 0 0 0 2048 0 1310720 1097728 67634176 792 2048 0 0 25165824 0 0 524288 8 0 0 0 8192 2147483844 3073 1073741839 0 2048 0 0 0 2101248 68 33554432 0 0 0 1 0 0 0 0 0 0 0 5243136 48 65536 262144 1073741824 769 352354304 524296 512 0 0 1140850688 0 7356416 0 1048576 52 0 0 1048576 0 8 514 0 2048 512 268435456 4160 1408 5767168 268435456 81920 0 4096 0 0 0 0 0 0 0 0 0 0 0 11 9 0 1048576 37748752 32768 0 41951232 0 0 0 524288 2048 1073741824 4120 37376 1 0 0 32 4194816 33554432 0 67108864 0 0 1048576 0 0 0 0 0 0 0 0 1536 192 139648 14698560 4 1048736 295296 83906624 0 16 0 3239067648 68 3670144 43182 84934656 83951617 1 1325400064 268435968 2099200 2048 1111490560 1214251008
is_linear=0
shrinkage=0.01


Tree=9
num_leaves=31
num_cat=16
split_feature=2 27 3 3 26 27 3 3 2 0 6 0 13 3 0 3 20 6 2 3 13 25 3 12 26 12 13 12 26 20
split_gain=446.381 127.724 92.5147 54.3057 51.9663 45.3371 35.1265 30.6982 28.7794 26.7291 24.0743 20.1499 14.6307 14.3938 13.0488 13.0357 11.7163 10.542 9.4819 9.11951 8.94587 12.5025 8.82549 8.15987 8.09097 7.962 7.35293 9.29992 7.18262 7.08947
threshold=0 55.500000000000007 1 2 -431.49999999999994 110.50000000000001 3 4 5 6 7 8 -0.59815875725621348 9 10 11 3.4247065461405062 12 13 14 0.51972456038539816 1.2950045776737034 15 0.85206963063867758 56.500000000000007 0.85206963063867758 0.50494235051780201 0.81900730237416519 -624.99999999999989 3.2190890217846011
decision_type=9 8 9 9 8 8 9 9 9 9 9 9 2 9 9 9 8 9 9 9 2 8 9 2 10 2 2 2 10 10
left_child=1 2 22 -4 18 8 -5 20 24 12 11 19 -2 -12 -15 -13 25 -7 -3 -9 -8 -22 -1 -17 -6 -10 -18 -28 -20 -26
right_child=9 4 3 6 5 17 7 10 16 -11 13 15 -14 14 -16 23 26 -19 28 -21 21 -23 -24 -25 29 -27 27 -29 -30 -31
leaf_value=-4.925430387232477e-05 -0.017776224349024917 1.9097019728924193e-05 0.015195696541210836 0.016467906728230203 -0.018788238178007243 -0.017776224349024917 0.016842046477339633 0.0097344978716408098 -0.017875871244108024 -0.017776224349024917 0.013564495891765121 0.0068978000545447758 -0.017776224349024917 0.0025276311150606314 -0.0033822379360899536 4.8908030036152181e-05 0.0092238830223911224 -0.017776224349024917 0.014937841451659294 0.0082113148449995694 -0.019032305116037318 0.013826331567186545 -0.0029308528051507567 0.012084403753396891 0.0056416716493157201 0.0062457097982657837 -0.0080724251392834505 -0.018464507522715102 0.0060277422461110898 0.01846046568354125
leaf_weight=1030 275 261 1198 866 30 617 441 829 628 1446 334 779 638 861 856 1445 273 920 290 1077 83 124 523 135 336 73 259 51 257 357
leaf_count=1030 275 261 1198 866 30 617 441 829 628 1446 334 779 638 861 856 1445 273 920 290 1077 83 124 523 135 336 73 259 51 257 357
internal_value=0.000147467 0.000786656 0.0013803 0.00176698 -0.000654871 -0.00117664 0.00145918 0.00121881 -0.000186846 -0.00388561 0.00100221 0.00143041 -0.00246479 0.00010917 -0.000263463 0.000804137 -0.00108192 -0.0024691 0.00163366 0.00219729 0.00328267 0.00161836 -0.000873321 0.00027673 0.00139836 -0.00196148 -4.28816e-05 -0.00109677 0.00236086 0.00163781
internal_weight=17292 14933 10581 9028 4352 3544 7830 6964 2007 2359 6316 4265 913 2051 1717 2359 1284 1537 808 1906 648 207 1553 1580 723 701 583 310 547 693
internal_count=17292 14933 10581 9028 4352 3544 7830 6964 2007 2359 6316 4265 913 2051 1717 2359 1284 1537 808 1906 648 207 1553 1580 723 701 583 310 547 693
cat_boundaries=0 3 31 68 105 142 145 148 153 156 193 196 233 238 240 275 301
cat_threshold=1599194128 503844360 796 160 0 0 0 0 0 0 872415232 0 0 512 0 0 0 0 28 1073741824 0 0 6144 3623878656 15 0 262144 0 1090519048 7864512 2 2048 0 0 25165824 0 0 524288 0 0 0 0 8192 2147483844 3073 1073741839 0 0 201326592 11264 0 4096 64 33554432 0 0 0 1 0 0 0 0 0 0 0 4194560 48 65536 0 0 524288 0 7356416 0 262144 60 0 0 1048576 0 8 514 0 2048 2048 268435456 4096 128 2621440 268435616 65536 0 4096 0 0 0 0 0 0 0 0 0 3145728 0 11 0 0 1310720 16 0 2048 34603136 0 2 2 0 268437504 1073741824 8 536875008 1 0 0 0 1792 38797312 0 67137536 0 2048 0 0 0 0 0 0 0 0 0 1024 192 524292 1097728 67634176 792 262144 1073741824 769 76687500 43172 1296039936 1697710096 5 2684371585 3253749888 84 9 0 0 0 0 9216 0 65536 0 0 524288 2 0 0 262144 0 8389632 0 32 6291456 0 0 16777344 0 0 0 0 0 0 0 0 0 0 0 0 0 1052672 805314944 12665030 68 0 0 0 12 32768 4096 8398864 131072 0 0 0 0 0 0 0 0 128 33554432 2097232 0 536872960 0 0 0 0 1048578 0 0 0 0 0 0 0 0 0 0 262144 3670144 43182 84934656 85000193 1 251658240 268435968 0 0 4093640704 37748800 0 0 0 0 0 0 5504 0 0 4116 33536 0 512 0 0 0 536870912 0 32768 0 0 3670016 0 0 0 0 0 0 0 0 2560 0 0 0 0 0 0 0 805306368 0 0 512 0 0 0 0 12 1073741824 0 0 6144 3623878656 3 0 0 0 8
is_linear=0
shrinkage=0.01


Tree=10
num_leaves=31
num_cat=14
split_feature=2 27 3 26 3 20 3 0 27 3 2 13 3 0 2 20 23 26 16 22 3 26 22 9 0 25 13 24 2 6
split_gain=445.742 131.733 90.2239 66.2749 63.7977 44.6133 41.3563 26.7291 24.5794 19.9503 18.4875 14.6307 13.3301 16.0259 13.0176 11.9642 11.0799 9.66995 9.6635 14.3221 10.4193 9.55292 8.62455 8.38109 10.5567 7.1054 15.6499 6.73318 6.64911 6.07826
threshold=0 74.500000000000014 1 -414.49999999999994 2 3.7293693396726968 3 4 176.50000000000003 5 6 -0.59815875725621348 7 8 9 3.249801178484089 0.46462334079657414 -194.49999999999997 3.6242520361853052 3.438949546629654 10 -612.49999999999989 1.7539014240060464 2.5000000000000004 11 0.65460820149424159 0.51972456038539816 2.5486058191284973 12 13
decision_type=9 8 9 10 9 10 9 9 8 9 9 2 9 9 9 8 8 10 2 8 9 8 10 2 9 8 2 10 9 9
left_child=1 2 -1 21 -4 6 -6 11 10 27 23 -2 22 16 25 -12 -14 -10 20 -20 -15 28 -11 -5 -25 26 -7 -8 -3 -22
right_child=7 3 4 8 5 14 9 -9 17 12 15 -13 13 18 -16 -17 -18 -19 19 -21 29 -23 -24 24 -26 -27 -28 -29 -30 -31
leaf_value=-0.0030718919695302627 -0.017598462105534667 0.0022441805495717216 0.015030527293141104 -0.017598462105534667 0.0085511890347835361 0.022287653383124932 0.0090295294997754915 -0.017598462105534667 -0.017598462105534667 0.010169904080238417 -0.017598462105534667 -0.017598462105534667 -0.018051249341343719 0.0043123715285159035 0.018817573265624464 0.0060942515428911046 -7.5312713990338681e-05 -0.017598462105534667 -0.00054995404523314304 0.018746057788288039 0.0025741780184276885 0.00059313674456801246 0.0039187419550825546 0.0085455129710809707 -0.017598462105534667 0.020783830044528426 -0.01911308223815545 0.004153729259960901 0.013680308179359923 -0.0032648158742906385
leaf_weight=1170 275 108 1215 205 1273 209 526 1446 254 206 326 638 313 725 697 603 1579 673 119 298 688 400 610 105 323 933 98 326 352 599
leaf_count=1170 275 108 1215 205 1273 209 526 1446 254 206 326 638 313 725 697 603 1579 673 119 298 688 400 610 105 323 933 98 326 352 599
internal_value=0.000144576 0.00078331 0.00128885 -0.000962974 0.00158384 0.00129601 0.000937758 -0.00388561 -0.00178988 0.000585931 -0.00102433 -0.00246479 0.000348747 0.000125837 0.00264584 -0.000111821 -0.000562566 -0.00307983 0.000662157 0.00205036 0.000377734 0.00143023 0.00151332 -0.00232504 -0.00156542 0.003264 0.00197068 0.00199536 0.00241304 -0.000165767
internal_weight=17292 14933 11584 3349 10414 9199 7262 2359 2489 5989 1562 913 5137 4321 1937 929 1892 927 2429 417 2012 860 816 633 428 1240 307 852 460 1287
internal_count=17292 14933 11584 3349 10414 9199 7262 2359 2489 5989 1562 913 5137 4321 1937 929 1892 927 2429 417 2012 860 816 633 428 1240 307 852 460 1287
cat_boundaries=0 3 31 68 105 108 145 148 183 186 189 215 218 220 224
cat_threshold=1599194128 503844360 796 262320 0 0 134217728 0 16384 0 25165824 0 0 0 0 0 1048576 0 16 0 0 0 2048 2281701376 15 0 262144 0 1090519040 7864512 2 2048 0 0 25165824 0 0 524288 0 0 0 0 8192 2147483852 3073 1073741839 0 0 201326592 2048 0 4096 192 33554432 0 0 0 1 0 0 0 0 0 0 0 5243904 0 65536 0 2048 67108864 0 0 0 1310720 0 0 0 7168 0 0 0 537133824 2049 0 268435456 9280 384 570949632 268435456 28672 0 6144 1048576 0 0 0 0 0 0 0 0 256 0 524289 262144 1073741824 769 0 1879048192 1107296256 4194304 512 0 0 65548 0 0 8192 536870912 0 26 2147484672 0 0 570425344 0 4195328 3145728 0 32768 0 1024 524288 0 0 0 0 0 0 0 0 512 0 262158 454034448 268435968 512 1 4 16777216 33554432 0 0 131104 393248 134217728 0 384 0 1073741824 0 0 0 0 0 2097184 0 4196352 0 8388608 0 832 2147493378 0 0 0 0 0 0 0 0 2048 2151723264 17499172 4241 33603600 67109888 264 8192 0 268435456 0 0 0 0 0 458752 0 512 0 0 0 131072 0 128 0 1048576 0 0 0 0 0 0 14942208 8192 0 4096 33554432 268435968 8921216 270464 69206016 2097152
is_linear=0
shrinkage=0.01


Tree=11
num_leaves=31
num_cat=14
split_feature=2 27 3 26 3 20 3 0 27 3 2 3 21 13 24 2 2 20 0 26 26 9 0 0 12 25 13 24 2 22
split_gain=449.454 133.316 85.1666 65.7797 64.1303 44.6716 40.6415 26.7291 25.0408 19.4783 19.0388 15.4877 14.7374 14.6307 13.191 13.0176 12.9695 11.056 10.0105 9.66995 9.55292 8.38109 10.5567 7.43302 7.16884 7.1054 15.6499 6.73318 6.64911 6.16327
threshold=0 74.500000000000014 1 -414.49999999999994 2 3.7293693396726968 3 4 176.50000000000003 5 6 7 0.57691014227225046 -0.59815875725621348 2.4231183423192948 8 9 3.249801178484089 10 -194.49999999999997 -612.49999999999989 2.5000000000000004 11 12 0.85654306401281499 0.65460820149424159 0.51972456038539816 2.5486058191284973 13 3.5222417700085287
decision_type=9 8 9 10 9 10 9 9 8 9 9 9 8 2 10 9 9 8 9 10 8 2 9 9 2 8 2 10 9 10
left_child=1 2 -1 20 -4 6 -6 13 10 27 21 14 16 -2 23 25 -13 24 -14 -10 28 -5 -23 -11 -12 26 -7 -8 -3 -18
right_child=7 3 4 8 5 15 9 -9 19 11 17 12 18 -15 -16 -17 29 -19 -20 -21 -22 22 -24 -25 -26 -27 -28 -29 -30 -31
leaf_value=-0.0030411730498349598 -0.01742247748447932 0.0022217387440760052 0.014880222020209694 -0.01742247748447932 0.0084656771444356991 0.022064776849293685 0.0089392342047777355 -0.01742247748447932 -0.01742247748447932 0.0022176103266343117 -0.017604738825757939 -0.018486151854713161 0.0058091240238330186 -0.01742247748447932 0.00054207023785697865 0.018629397532968217 -0.00011094916059967375 0.0060333090274621946 -2.0852786893753583e-05 -0.01742247748447932 0.00058720537712233286 0.008460057841370161 -0.01742247748447932 0.0084686136854685273 0.0041949448565549406 0.020575991744083141 -0.018921951415773894 0.004112191967361292 0.013543505097566327 0.014219448537339861
leaf_weight=1015 275 108 1215 205 1273 209 526 1446 254 277 271 392 1255 638 476 697 1107 603 1260 673 400 105 323 471 55 933 98 326 352 54
leaf_count=1015 275 108 1215 205 1273 209 526 1446 254 277 271 392 1255 638 476 697 1107 603 1260 673 400 105 323 471 55 933 98 326 352 54
internal_value=0.000161346 0.000802717 0.00131129 -0.000954016 0.00157624 0.00129218 0.000940407 -0.00388561 -0.00177782 0.00059961 -0.00100512 0.000371558 7.35655e-05 -0.00246479 0.00135332 0.00264584 -0.000692209 -7.98722e-05 0.00054672 -0.00307983 0.00143023 -0.00232504 -0.00156542 0.00219251 -0.00156442 0.003264 0.00197068 0.00199536 0.00241304 -0.000149445
internal_weight=17292 14933 11584 3349 10569 9354 7417 2359 2489 6144 1562 5292 4068 913 1224 1937 1553 929 2515 927 860 633 428 748 326 1240 307 852 460 1161
internal_count=17292 14933 11584 3349 10569 9354 7417 2359 2489 6144 1562 5292 4068 913 1224 1937 1553 929 2515 927 860 633 428 748 326 1240 307 852 460 1161
cat_boundaries=0 3 31 68 105 108 145 148 183 186 189 192 195 197 199
cat_threshold=1599194128 503844360 796 262320 0 0 134217728 0 16384 0 25165824 0 0 0 0 0 1048576 0 16 0 0 0 2048 2147483648 15 0 262144 0 1090519040 7864512 2 2048 0 0 25165824 0 0 524288 0 0 0 0 8192 2147483852 3073 1073741839 0 0 201326592 2048 0 4096 192 33554432 0 0 0 1 0 0 0 0 0 0 0 5243904 0 65536 0 2048 67108864 0 0 0 1310720 0 0 0 7168 0 0 0 537133824 2049 0 268435456 9280 384 570949632 268435456 28672 0 6144 1048576 0 0 0 0 0 0 0 0 256 0 524289 262144 1073741824 769 0 1879048192 1107296256 4194304 512 0 0 65548 0 0 8192 536870912 0 26 2147484672 0 0 570425344 0 4195328 3145728 0 32768 0 1024 524288 0 0 0 0 0 0 0 0 512 0 262158 454034448 268435968 512 1 4 16777216 33554432 2048 0 131104 393248 0 0 384 0 1073741824 0 131072 0 8388608 0 3145760 0 4196352 0 0 0 960 2149594626 0 0 0 0 0 0 0 0 2048 33603600 67109888 264 486637568 268435464 256 268583297 2696955906 2117 8192 0 4096 268447745 4260934 33554432 268435968
is_linear=0
shrinkage=0.01


Tree=12
num_leaves=31
num_cat=16
split_feature=2 27 6 26 3 3 3 3 0 3 27 3 3 2 13 22 3 9 2 24 9 26 0 26 20 0 24 2 20 12
split_gain=449.454 135.19 83.0641 64.9014 44.2087 33.7235 28.1781 27.8002 26.7291 26.2597 25.8917 24.0563 23.7741 20.8023 14.6307 14.3244 13.6715 12.0888 10.8454 9.79278 9.73159 9.66995 9.56548 9.55292 9.42826 9.36264 12.2304 8.83839 8.52415 11.158
threshold=0 71.500000000000014 1 -414.49999999999994 2 3 4 5 6 7 176.50000000000003 8 9 10 -0.59815875725621348 3.8434990519504937 11 2.5000000000000004 12 2.5486058191284973 9.5000000000000018 -194.49999999999997 13 -612.49999999999989 3.4094764238230826 14 2.4491878745062805 15 3.2708044627122548 0.7025209685794126
decision_type=9 8 9 10 9 9 9 9 9 9 8 9 9 9 2 8 9 2 9 10 2 10 9 8 10 9 10 9 8 2
left_child=1 2 5 23 -4 -1 19 -7 14 -9 13 22 25 -5 -2 20 -14 -15 28 -6 -13 -12 -11 -3 -18 26 -8 -17 29 -19
right_child=8 3 4 10 6 7 12 9 -10 11 21 15 16 17 -16 27 24 18 -20 -21 -22 -23 -24 -25 -26 -27 -28 -29 -30 -31
leaf_value=0.015757961986744659 -0.017248252709634527 0.011167856498077664 0.010744376865769208 0.0067520437729295252 0.0080548088358372641 0.016124003295163267 0.0097336139034918685 0.013027758525248878 -0.017248252709634527 0.019631306846348985 -0.017248252709634527 -3.6299515814715023e-05 2.0927523343559073e-05 -0.017248252709634527 -0.017248252709634527 -0.0012306029530918773 -0.0071274728162188184 -0.017429665177940076 -0.017248252709634527 0.0037286563475766024 -0.01890296678228193 -0.017248252709634527 0.0040355662440411935 0.00058133332335110973 0.011390190371131956 0.00018107992078512992 -3.3813036200536217e-05 0.011690344258327063 0.0064702771908522853 0.0083869467959473663
leaf_weight=1186 275 460 559 486 590 1001 402 1074 1446 383 254 362 1047 349 638 408 1592 145 307 430 195 673 506 400 172 873 221 521 273 64
leaf_count=1186 275 460 559 486 590 1001 402 1074 1446 383 254 362 1047 349 638 408 1592 145 307 430 195 673 506 400 172 873 221 521 273 64
internal_value=0.000161346 0.000802717 0.00132095 -0.000945471 0.000486771 0.00218739 0.000203298 0.00177803 -0.00388561 0.00134287 -0.00174637 0.000748428 -0.000151726 -0.000985222 -0.00246479 -3.34225e-05 -0.000693017 -0.00171603 -0.00104563 0.00168932 -0.00130162 -0.00307983 0.00204116 0.00143023 -0.00122886 0.000863214 0.00179305 0.000726588 -8.13008e-05 -0.00160287
internal_weight=17292 14933 11522 3411 5886 5636 5327 4450 2359 3449 2551 2375 4307 1624 913 1486 2811 1138 789 1020 557 927 889 860 1764 1496 623 929 482 209
internal_count=17292 14933 11522 3411 5886 5636 5327 4450 2359 3449 2551 2375 4307 1624 913 1486 2811 1138 789 1020 557 927 889 860 1764 1496 623 929 482 209
cat_boundaries=0 3 8 45 82 119 156 159 196 231 268 271 297 300 303 306 309
cat_threshold=1599194128 503844360 796 69744717 14444 3261071360 1331699713 1 0 0 786432 0 0 7168 0 65536 7 2 11392 0 0 0 537133312 0 0 201326592 11264 0 0 160 45056 0 2048 0 0 0 0 0 0 0 0 0 0 0 4 2048 0 0 25165824 0 0 524288 0 0 0 0 8192 2147483852 3073 1073741839 0 0 0 0 0 2101248 64 33554432 0 0 0 1 0 0 0 0 0 0 0 5243904 32 65536 0 1342308356 570425344 8 134219264 8192 0 131072 0 0 64 6 0 0 2147484672 0 0 570425344 2097152 0 2048 0 0 0 1728 525826 0 0 0 0 0 0 0 0 0 0 262144 0 0 0 0 7421952 0 33816704 44 0 0 1048576 2048 0 514 0 2049 2048 0 4096 384 35127296 268435456 65536 0 0 0 0 0 0 0 0 0 0 0 2097408 16 11 262144 1073741824 769 8 2048 1074790400 4194304 0 0 26226688 16 0 0 528384 268435456 1073741824 4104 36864 0 0 268435456 64 1536 4194304 0 67125248 0 4096 1048576 0 0 0 0 0 0 0 0 512 192 524288 1 536870912 83886080 33555156 32768 0 133136 0 0 0 256 0 0 52 512 0 1536 5242880 32 4194304 536870912 0 16777408 0 256 0 0 0 0 0 0 0 0 0 2048 8192 0 2415919104 8192 33558528 0 0 262144 234881024 0 0 9 0 0 133248 0 25165960 0 1048576 0 0 0 0 0 0 2158246144 0 0 0 0 0 0 0 0 0 0 1179648 4210688 101189632 284 0 134217728 134217728 0 0 0 0 939524096 16777216 0 512 0 0 0 268435456 4 2 0 58720512 0 1476395008 0 0 0 0 4194313 1442873344 1032 512 163841 2149712000 69 537018625 2160085152 68 352321536 67110408 16
is_linear=0
shrinkage=0.01


Tree=13
num_leaves=31
num_cat=17
split_feature=2 27 6 26 3 16 3 3 0 2 26 3 13 3 13 25 2 25 0 3 26 27 0 0 6 3 2 20 22 12
split_gain=450.738 137.641 79.9167 50.6535 44.1956 37.2151 28.7366 28.3662 26.7291 19.7992 16.4234 15.5876 14.6307 14.2457 15.2127 14.2754 13.1241 13.3709 12.6803 12.3244 12.0091 17.9495 11.3676 9.84491 9.52056 9.33496 9.07799 9.02884 8.96036 10.7402
threshold=0 55.500000000000007 1 -570.49999999999989 2 3.2769667020129059 3 4 5 6 101.50000000000001 7 -0.59815875725621348 8 0.51972456038539816 0.71242846670567628 9 0.2773543543837535 10 11 -362.99999999999994 180.00000000000003 12 13 14 15 16 2.2384611287782374 4.2415083916726788 0.48625469513788289
decision_type=9 8 9 8 9 2 9 9 9 9 10 9 2 9 2 8 9 10 9 9 10 8 9 9 9 9 9 8 8 2
left_child=1 2 6 26 -4 20 -1 23 12 19 16 -9 -2 -11 25 -16 -7 -18 27 -8 -5 22 -22 -6 -20 -15 -3 -13 29 -21
right_child=8 3 4 5 7 10 9 11 -10 13 -12 18 -14 14 15 -17 17 -19 24 28 21 -23 -24 -25 -26 -27 -28 -29 -30 -31
leaf_value=0.01607666400979103 -0.017075770182538183 -0.00042530241670429625 0.011422238866097284 -4.5952700129505698e-05 0.011578013792484158 0.014803505990868295 0.01055232181731037 0.0022664790936129729 -0.017075770182538183 0.00015273015200810482 -0.017075770182538183 -0.0033023745941770043 -0.017075770182538183 0.019395683574120477 -0.018607933396900724 0.011134154235544643 0.010418802744762146 -0.017436520009027855 -9.3395119743182596e-05 -0.018827427339345584 0.0013680286883552451 -0.017075770182538183 -0.017075770182538183 0.0037617221965937377 -0.0078773952387702646 0.012997481129180902 0.011914796712834699 0.0066773422453834334 0.0061691929342708599 0.0091683727784510199
leaf_weight=1204 275 123 435 339 265 386 215 1750 1446 318 352 97 638 434 212 754 381 122 840 195 318 739 1107 847 943 1372 485 309 327 64
leaf_count=1204 275 123 435 339 265 386 215 1750 1446 318 352 97 638 434 212 754 381 122 840 195 318 739 1107 847 943 1372 485 309 327 64
internal_value=0.000167129 0.000809409 0.00142567 -0.00068704 0.000584061 -0.00112179 0.00232615 0.000317131 -0.00388561 0.00189567 0.000294118 -8.22993e-05 -0.00246479 0.00226129 0.00249461 0.00149068 0.001018 -6.82261e-05 -0.000643474 0.000474723 -0.00182381 -0.00209797 -0.00144211 0.00172014 -0.00100669 0.0030454 0.00199013 0.0009375 -0.000285235 -0.00167954
internal_weight=17292 14933 10581 4352 5486 3744 5095 5051 2359 3891 1241 3939 913 3090 2772 966 889 503 2189 801 2503 2164 1425 1112 1783 1806 608 406 586 259
internal_count=17292 14933 10581 4352 5486 3744 5095 5051 2359 3891 1241 3939 913 3090 2772 966 889 503 2189 801 2503 2164 1425 1112 1783 1806 608 406 586 259
cat_boundaries=0 3 8 45 82 119 122 125 162 199 202 205 242 245 248 253 289 291
cat_threshold=1599194128 503844360 796 2635877 14444 1113587712 1331699713 1 0 2048 786432 8 0 14336 0 0 2 2 1024 0 0 0 537133312 0 0 738197504 11264 0 0 160 45056 0 2048 0 0 0 0 0 0 0 0 0 0 0 6 2048 0 0 25165824 0 0 524288 8 0 0 0 8192 2147483844 3073 1073741839 0 2048 0 0 0 2101248 64 33554432 0 0 0 1 0 0 0 0 0 0 0 5243136 48 65536 0 4 2986344448 0 512 1024 0 196608 4 0 10432 6 0 0 2147484672 0 128 33554432 2097152 0 2048 0 0 0 1728 524290 0 0 0 0 0 0 0 0 2048 0 262144 262144 1073741824 769 1560313856 34078728 512 8192 134217728 0 0 0 0 0 268435456 251658240 0 0 0 0 0 133248 0 8388608 0 42991616 0 134217728 0 0 0 0 2162438145 0 0 0 0 0 0 0 0 0 0 1179648 512 0 134217728 384 67108864 0 0 0 0 0 0 0 0 0 0 2 1073741824 0 4194304 2097152 67108864 4 0 262144 0 0 2097152 2 0 0 0 0 0 0 0 0 4096 1091567616 67109888 264 139648 10487808 4 0 0 0 4194304 0 0 144 4 0 0 4352 0 0 0 0 0 0 0 0 0 0 268435456 0 0 0 0 0 0 0 0 0 0 0 0 2098176 0 528384 128 3774873600 2112 16384 2165325824 68 9437312 32896 83890176 65536 4 1 0 1073741824 0 0 0 1048576 52 0 0 0 0 1073741832 2 0 16 0 0 4160 4196224 39321600 0 0 0 0 0 0 0 0 0 0 0 0 0 1024 64 100663296 512
is_linear=0
shrinkage=0.01


Tree=14
num_leaves=31
num_cat=17
split_feature=2 27 6 26 3 3 3 3 0 27 3 3 3 2 13 3 9 20 0 0 0 0 24 20 16 26 26 12 24 5
split_gain=446.637 131.577 89.033 64.4217 45.5297 32.9322 29.6668 27.2111 26.7291 26.3504 25.1518 22.798 20.6556 20.3661 14.6307 13.3328 12.5036 12.2467 12.0244 11.1016 10.501 9.94488 12.215 9.89082 9.77482 9.66995 9.55292 9.4849 9.05789 7.51619
threshold=0 71.500000000000014 1 -414.49999999999994 2 3 4 5 6 176.50000000000003 7 8 9 10 -0.59815875725621348 11 2.5000000000000004 3.6282784736812146 12 13 14 15 2.4231183423192948 3.2708044627122548 2.740319461670996 -194.49999999999997 -612.49999999999989 0.7025209685794126 2.5486058191284973 16
decision_type=9 8 9 10 9 9 9 9 9 8 9 9 9 9 2 9 2 8 9 9 9 9 10 8 2 10 8 2 10 9
left_child=1 2 5 26 -4 -1 28 -7 14 13 -9 18 21 -5 -2 29 -15 -13 -12 -18 -17 -8 -23 27 -19 -11 -3 -21 -6 -14
right_child=8 3 4 9 6 7 12 10 -10 25 11 17 15 16 -16 20 19 24 -20 23 -22 22 -24 -25 -26 -27 -28 -29 -30 -31
leaf_value=0.015439615726779298 -0.0169050124807128 0.010937029965968539 0.010521152959186675 0.0066036656618041114 0.0079259136140404658 0.01585142171985619 -0.00013358959294490269 0.013076376852569013 -0.0169050124807128 -0.0169050124807128 0.0036066683625253716 -0.0030792325833905012 0.0034003727856005174 -0.0169050124807128 -0.0169050124807128 0.00050400889784963266 -0.0169050124807128 -0.0039298517089827413 0.012566129492923982 -0.017084610824335295 -0.0050475974435692603 0.0095575760220247604 0.001921858063265316 0.0061025667576362821 0.013571188549641301 -0.0169050124807128 0.00057597951711889416 0.0072650100971395149 0.0037241049746278023 -8.4783533668695286e-05
leaf_weight=1186 275 460 559 486 598 1001 448 995 1446 254 314 725 630 349 638 389 270 113 555 163 1548 412 285 288 679 673 400 68 436 649
leaf_count=1186 275 460 559 486 598 1001 448 995 1446 254 314 725 630 349 638 389 270 113 555 163 1548 412 285 288 679 673 400 68 436 649
internal_value=0.000148624 0.000787994 0.00129925 -0.000936675 0.000446009 0.00220688 0.000161887 0.00179645 -0.00388561 -0.00173461 0.00135801 0.000792988 -0.000200183 -0.000966749 -0.00246479 -0.000610663 -0.0016899 4.91159e-05 0.00207622 -0.0010076 -0.00113251 0.000948052 0.00169024 -0.000122873 0.000909091 -0.00307983 0.00143023 -0.00166667 0.00167625 0.000182312
internal_weight=17292 14933 11522 3411 5954 5568 5395 4382 2359 2551 3381 2386 4361 1624 913 3216 1138 1517 869 789 1937 1145 697 519 792 927 860 231 1034 1279
internal_count=17292 14933 11522 3411 5954 5568 5395 4382 2359 2551 3381 2386 4361 1624 913 3216 1138 1517 869 789 1937 1145 697 519 792 927 860 231 1034 1279
cat_boundaries=0 3 8 45 82 119 156 159 196 231 268 271 297 300 303 306 309 311
cat_threshold=1599194128 503844360 796 69744717 14412 3261071360 1331699713 1 0 0 786432 0 0 7168 0 65536 7 2 11392 0 0 0 537133312 0 0 201326592 11264 0 0 160 45056 0 2048 0 0 0 0 0 0 0 0 0 0 0 4 2048 0 0 25165824 0 0 524288 0 0 0 0 8192 2147483852 3073 1073741839 0 0 0 0 0 2101248 64 33554432 0 0 0 1 0 0 0 0 0 0 0 5243904 32 65536 0 1342308356 587202560 12 1536 8192 0 131072 0 0 64 6 0 0 2147484672 0 0 570425344 2097152 0 2048 0 0 0 1216 525826 0 0 0 0 0 0 0 0 0 0 262144 0 0 0 0 7421952 0 33816704 44 0 0 1048576 2048 0 514 0 2049 2048 0 4096 384 35127296 268435456 65536 0 0 0 0 0 0 0 0 0 0 0 2097408 16 11 262144 1073741824 769 8 2048 68157440 4194304 0 0 26226688 16 0 0 528384 268435456 1073741824 4104 36864 0 0 268435456 0 1536 4194304 0 67125248 0 4096 1048576 0 0 0 0 0 0 0 0 512 192 524288 1 536870912 1073741824 33555008 32768 0 133136 0 0 0 256 0 0 52 512 0 1536 5242880 96 4194304 536870912 0 16777216 0 256 0 0 0 0 0 0 0 0 0 2048 8192 0 2415919104 8192 167776256 0 0 262144 201326592 0 0 9 0 0 133248 0 25165960 0 1048576 0 0 0 0 0 512 2149853440 0 0 0 0 0 0 0 0 0 0 1179648 4210688 101189632 284 0 134217728 134217728 0 0 0 0 939524096 50331648 0 512 0 0 0 268435456 6 2 0 58720512 0 1342177280 0 0 0 0 12587017 272642176 17301504 128 20497 2147483650 1 9344 8519808 4100 272637952 197702 129 79824924 4625
is_linear=0
shrinkage=0.01


Tree=15
num_leaves=31
num_cat=16
split_feature=2 27 6 26 3 3 3 0 27 3 3 3 3 2 3 13 9 0 20 26 24 20 22 26 0 24 26 0 12 2
split_gain=448.301 133.808 87.2633 63.4785 47.0387 32.6157 27.2259 26.7291 26.3504 25.8974 25.0748 23.0539 20.935 20.3661 15.0005 14.6307 12.5036 11.1016 10.9101 10.0104 9.98555 9.89082 9.80449 9.75706 9.67138 12.3032 9.66995 9.65415 9.4849 6.95403
threshold=0 71.500000000000014 1 -414.49999999999994 2 3 4 5 176.50000000000003 6 7 8 9 10 11 -0.59815875725621348 2.5000000000000004 12 3.4094764238230826 -612.49999999999989 2.5486058191284973 3.2708044627122548 3.8434990519504937 16.500000000000004 13 2.4729209501363756 -194.49999999999997 14 0.7025209685794126 15
decision_type=9 8 9 10 9 9 9 9 8 9 9 9 9 9 9 2 2 9 10 8 10 8 8 10 9 10 10 9 2 9
left_child=1 2 5 19 -4 -1 20 15 13 -7 -11 27 24 -5 -14 -2 -15 -18 -16 -3 -6 28 23 -13 -8 -26 -10 -12 -19 -24
right_child=7 3 4 8 6 9 12 -9 26 10 11 22 14 16 18 -17 17 21 -20 -21 -22 -23 29 -25 25 -27 -28 -29 -30 -31
leaf_value=0.015285219569511508 -0.016735962355905673 0.010827659666308853 0.010700865672705331 0.0065376290051860709 0.0088419289402217952 0.015735717545976836 0.0019378034455650984 -0.016735962355905673 -0.016735962355905673 0.012652275501729459 0.0034530368200905649 0.0018748609029580865 0.00011880690115010473 -0.016735962355905673 -0.0068916780862125207 -0.016735962355905673 -0.016735962355905673 -0.01691376471609194 0.012333546818841013 0.00057021972194770459 0.003577430054409172 0.0060415410900599197 -0.00035065609755343232 -0.018119857260554425 0.0099164239707356192 -0.00021824182829482508 -0.016735962355905673 0.015759289334115745 0.0071923599961681208 0.010018684038985606
leaf_weight=1186 275 460 577 486 540 983 675 1446 254 1074 338 222 1434 349 1603 638 270 163 185 400 426 288 424 323 354 184 673 562 68 432
leaf_count=1186 275 460 577 486 540 983 675 1446 254 1074 338 222 1434 349 1603 638 270 163 185 400 426 288 424 323 354 184 673 562 68 432
internal_value=0.000156142 0.000796694 0.00131227 -0.000942539 0.000470942 0.00221462 0.00017834 -0.00388561 -0.00173461 0.00180403 0.00137814 0.000781047 -0.000154106 -0.000966749 -0.000575495 -0.00246479 -0.0016899 -0.0010076 -0.00118465 0.00140698 0.00169057 -0.000122873 -2.48051e-05 -0.00107339 0.000960752 0.00195255 -0.00307983 0.00202198 -0.00166667 0.000642523
internal_weight=17292 14933 11522 3411 5978 5544 5401 2359 2551 4358 3375 2301 4435 1624 3222 913 1138 789 1788 860 966 519 1401 545 1213 538 927 900 231 856
internal_count=17292 14933 11522 3411 5978 5544 5401 2359 2551 4358 3375 2301 4435 1624 3222 913 1138 789 1788 860 966 519 1401 545 1213 538 927 900 231 856
cat_boundaries=0 3 8 45 82 119 122 159 196 231 268 271 297 300 303 306 308
cat_threshold=1599194128 503844360 796 69744717 14412 1113587712 1331699713 1 0 0 786432 0 0 7168 0 65536 7 2 11392 0 0 0 537133312 0 0 201326592 11264 0 0 160 45056 0 2048 0 0 0 0 0 0 0 0 0 0 0 6 2048 0 0 25165824 0 0 524288 0 0 0 0 8192 2147483852 3073 1073741839 0 0 0 0 0 2101248 64 33554432 0 0 0 1 0 0 0 0 0 0 0 5243904 32 65536 0 1342308356 587202560 12 1536 8192 0 131072 0 0 0 6 0 0 2147484672 0 0 570425344 2097152 0 2048 0 0 0 1216 525826 0 0 0 0 0 0 0 0 0 0 262144 262144 1073741824 769 0 0 0 0 7421952 0 33816704 44 0 0 1048576 2048 0 514 0 2049 2048 0 4096 384 35127296 268435456 65536 0 0 0 0 0 0 0 0 0 0 0 2097408 16 9 8 2048 1074790400 4194304 0 0 26226688 16 0 0 528384 268435456 1073741824 4104 36864 0 0 268435456 64 1536 4194304 0 67125248 0 4096 1048576 0 0 0 0 0 0 0 0 512 192 524288 1 536870912 67108864 33555408 32768 0 133136 0 0 0 256 0 0 52 512 0 1536 5242880 32 4194304 536870912 0 16778176 0 256 0 0 0 0 0 0 0 0 0 2048 8192 0 2415919104 8192 167776256 0 0 262144 201326592 0 64 9 0 0 133248 0 25165960 0 1048576 0 0 0 0 0 512 2149853440 0 0 0 0 0 0 0 0 0 0 1179648 4210688 101189632 284 0 134217728 134217728 0 0 0 0 939524096 50331648 0 512 0 0 0 268435456 6 2 0 58720512 0 1476395008 0 0 0 0 12587017 20497 2147483650 1 272670720 1075020902 129 272642176 1091076096 128 1426063360 67110408
is_linear=0
shrinkage=0.01


Tree=16
num_leaves=31
num_cat=16
split_feature=2 27 6 26 3 3 3 2 0 27 3 2 3 13 3 3 3 9 2 26 9 26 20 20 12 24 0 23 24 0
split_gain=448.301 136.073 88.9136 64.273 47.4532 30.8104 28.828 28.0982 26.7291 25.5881 21.8831 21.0956 19.5066 14.6307 14.6012 14.3324 11.8181 11.8162 10.4627 10.0104 9.97193 9.66995 9.52753 9.14294 9.81018 8.83145 13.4164 8.78837 7.90182 8.21746
threshold=0 71.500000000000014 1 -414.49999999999994 2 3 4 5 6 176.50000000000003 7 8 9 -0.59815875725621348 10 11 12 2.5000000000000004 13 -612.49999999999989 5.5000000000000009 -194.49999999999997 3.6282784736812146 3.2708044627122548 0.7025209685794126 2.4491878745062805 14 1.1825746316734691 2.5486058191284973 15
decision_type=9 8 9 10 9 9 9 9 9 8 9 9 9 2 9 9 9 2 9 8 2 10 8 8 2 10 9 8 10 9
left_child=1 2 5 19 -4 -1 28 20 13 11 25 -5 -9 -2 -14 -16 -12 -13 23 -3 -7 -11 -17 24 -19 26 -8 -22 29 -6
right_child=8 3 4 9 6 7 10 12 -10 21 16 17 14 -15 15 22 -18 18 -20 -21 27 -23 -24 -25 -26 -27 -28 -29 -30 -31
leaf_value=0.015132367373816394 -0.016568602732346616 0.010719383069645762 0.010593857015978276 0.0064722527151342092 0.0033635306249935803 0.0099065382517559385 0.010585813169484138 0.018838901262868982 -0.016568602732346616 -0.016568602732346616 2.9724373876516276e-05 -0.016568602732346616 0.012765822839081413 -0.016568602732346616 0.0086264460227120938 -2.5420105372324643e-05 -0.0048024079668147236 -0.016744627068931022 -0.016568602732346616 0.00056451752472822751 -0.018462498546466477 -0.016568602732346616 0.01351239951702957 0.0062704530535832494 0.0081917884642436975 -0.00020684806690641767 0.002087190731417009 0.0049700939551710933 0.0035055637876678513 0.0098314985300478729
leaf_weight=1162 275 460 577 486 222 238 333 686 1446 254 1102 349 792 638 1021 582 1693 145 307 400 220 673 680 273 64 488 612 308 429 377
leaf_count=1162 275 460 577 486 222 238 333 686 1446 254 1102 349 792 638 1021 582 1693 145 307 400 220 673 680 273 64 488 612 308 429 377
internal_value=0.000156142 0.000796694 0.00131661 -0.000957197 0.000445833 0.00220477 0.000144322 0.00182169 -0.00388561 -0.00175421 -0.000221803 -0.000997537 0.00217847 -0.00246479 0.00182334 0.00140209 -0.000736185 -0.00173345 -0.00107098 0.00140698 6.4433e-05 -0.00307983 0.000676101 -0.000121951 -0.00169856 0.000779626 0.00134921 -0.000700758 0.00163776 0.00239566
internal_weight=17292 14933 11522 3411 5833 5689 5256 4527 2359 2551 4228 1624 3761 913 3075 2283 2795 1138 789 860 766 927 1262 482 209 1433 945 528 1028 599
internal_count=17292 14933 11522 3411 5833 5689 5256 4527 2359 2551 4228 1624 3761 913 3075 2283 2795 1138 789 860 766 927 1262 482 209 1433 945 528 1028 599
cat_boundaries=0 3 8 45 82 119 122 125 162 165 202 238 264 290 293 296 298
cat_threshold=1599194128 503844360 796 69740621 14444 3277848576 1331699713 1 0 0 786432 0 0 7168 0 65536 7 2 11392 0 0 0 537133312 0 0 201326592 11264 0 0 160 45056 0 2048 0 0 0 0 0 0 0 0 0 0 0 12 2048 0 0 25165824 0 0 524288 0 0 0 1048576 8192 204 3073 1073741831 0 0 0 0 0 2101248 64 33554432 0 0 0 1 0 0 0 0 0 0 0 7341056 32 65536 0 1342308356 805306368 0 134219264 8192 0 131072 0 0 64 6 0 0 2147484672 0 0 570425344 2097152 0 2048 0 0 0 1728 525826 0 0 0 0 0 0 0 0 0 0 262144 352354304 524296 512 262144 1073741824 769 8192 0 2147483648 8192 33558528 0 0 262144 234881024 0 0 9 0 0 268568704 0 25165960 0 9437184 0 0 0 0 0 0 2158242057 0 0 0 0 0 0 0 0 0 0 1179648 4210688 101189632 284 0 0 1140850688 0 7421952 0 1310720 44 0 0 0 0 0 514 0 0 3584 0 4160 1408 1048576 0 65536 0 0 0 0 0 0 0 0 0 0 0 2304 16 3 0 0 1048576 4194304 0 0 58728448 16 0 0 0 2048 3221225472 4096 8 2049 0 268435456 32 4194304 38273024 268435456 16384 0 4096 0 0 0 0 0 0 0 0 0 512 192 9 536870912 33554432 33555016 32768 0 4096 0 393216 0 528640 0 0 28 37376 0 4096 0 0 512 536870912 0 83886080 0 256 1048576 0 134217728 134217728 0 0 0 0 1006632960 16777216 0 512 0 0 0 0 16 2 0 50331904 6144 1476395008 0 0 0 0 4198400 1442873344 1032 512 537051392 2151696512 68 4333568 1078559746
is_linear=0
shrinkage=0.01


Tree=17
num_leaves=31
num_cat=16
split_feature=2 27 6 26 3 0 3 3 0 27 3 2 3 3 13 9 3 20 3 2 26 26 22 9 20 12 24 0 24 2
split_gain=447.788 136.112 87.4377 64.4325 48.4809 31.275 38.5662 30.0911 26.7291 25.437 21.4591 21.2431 17.5552 15.3531 14.6307 11.681 11.0465 12.5041 10.7617 10.2737 10.0104 9.66995 9.63415 11.5967 8.90352 9.81018 8.83145 13.4164 8.06131 9.58115
threshold=0 71.500000000000014 1 -414.49999999999994 2 3 4 5 6 176.50000000000003 7 8 9 10 -0.59815875725621348 2.5000000000000004 11 3.3892192924673163 12 13 -612.49999999999989 -194.49999999999997 3.8855752424938301 8.5000000000000018 3.2708044627122548 0.7025209685794126 2.4491878745062805 14 2.5486058191284973 15
decision_type=9 8 9 10 9 9 9 9 9 8 9 9 9 9 2 2 9 10 9 9 8 10 8 2 8 2 10 9 10 9
left_child=1 2 5 20 -4 12 -7 28 14 11 26 -5 -1 -8 -2 -13 -12 -18 -14 24 -3 -11 23 -15 25 -17 27 -9 29 -6
right_child=8 3 4 9 7 6 13 10 -10 21 16 15 18 22 -16 19 17 -19 -20 -21 -22 -23 -24 -25 -26 -27 -28 -29 -30 -31
leaf_value=0.018782851005740734 -0.016402916705023151 0.010612189238949306 0.010487918445818494 0.0064075301879828669 -0.00094293084704451865 0.012385554840730258 0.007668892254538877 0.010479955037789297 -0.016402916705023151 -0.016402916705023151 3.6195615702008246e-05 -0.016402916705023151 0.014282919625001592 4.865212571191213e-06 -0.016402916705023151 -0.016577180798241713 -0.0050746296064222117 0.012029365045610514 0.011417602704567128 -0.016402916705023151 0.00055887234948094556 -0.016402916705023151 0.0056319893690792797 -0.018412089248818021 0.0062077485230474161 0.0081098705796012593 -0.0002047795862373536 0.0020663188241028386 0.0035793630343231909 0.009430430596521551
leaf_weight=872 275 460 595 486 101 1008 484 333 1446 254 1022 349 848 262 638 145 1628 191 1249 307 400 673 681 185 273 64 488 612 440 523
leaf_count=872 275 460 595 486 101 1008 484 333 1446 254 1022 349 848 262 638 145 1628 191 1249 307 400 673 681 185 273 64 488 612 440 523
internal_value=0.000153828 0.000794017 0.00131401 -0.000960129 0.000465253 0.00221022 0.00139924 0.000160808 -0.00388561 -0.00175813 -0.000214753 -0.00100369 0.00291876 0.000431566 -0.00246479 -0.00174216 -0.000717292 -0.00118371 0.00238965 -0.00108365 0.00140698 -0.00307983 -0.000210896 -0.00135347 -0.000142276 -0.00169856 0.000779626 0.00134921 0.00165736 0.00240385
internal_weight=17292 14933 11522 3411 5933 5589 2620 5338 2359 2551 4274 1624 2969 1612 913 1138 2841 1819 2097 789 860 927 1128 447 482 209 1433 945 1064 624
internal_count=17292 14933 11522 3411 5933 5589 2620 5338 2359 2551 4274 1624 2969 1612 913 1138 2841 1819 2097 789 860 927 1128 447 482 209 1433 945 1064 624
cat_boundaries=0 3 8 45 48 85 122 125 162 165 201 238 264 301 304 307 309
cat_threshold=1599194128 503844360 796 69740621 14444 1113587712 1331699713 1 0 0 786432 0 0 7168 0 65536 7 2 11392 0 0 0 537133312 0 0 201326592 11264 0 0 160 45056 0 2048 0 0 0 0 0 0 0 0 0 0 0 14 2415919105 2161755328 2132 2048 0 0 25165824 81920 0 58732672 60 0 0 4096 0 0 0 0 2048 0 0 64 1920 536875008 268435456 0 0 0 0 0 0 0 0 0 0 0 0 7341312 0 589824 0 1342308356 838860800 8 134219264 8192 0 131072 0 0 64 6 0 0 2147484672 0 0 570425344 2097152 0 2048 0 0 0 1728 525826 0 0 0 0 0 0 0 0 0 0 262144 262144 1073741824 769 8192 0 2147483648 8192 33558528 0 0 262144 234881024 0 0 9 0 0 268568704 0 25165960 0 9437184 0 0 0 0 0 0 2158242057 0 0 0 0 0 0 0 0 0 0 1179648 4210688 101189632 284 2048 0 1073741824 512 0 0 1835008 0 0 0 1048576 8192 2147483852 3075 1073741831 0 2048 0 0 0 2101248 64 33554432 0 0 0 1 0 0 0 0 0 0 0 2816 32 0 536870912 0 4194324 32768 0 2128 0 0 0 256 0 0 3 0 0 0 5242880 32 0 0 0 0 0 0 1048576 1 0 0 0 0 0 0 0 512 0 4096 0 134217728 134217728 0 0 0 0 1006632960 16777216 0 0 0 0 0 0 4 2 0 50331904 0 1476395008 0 0 0 0 4198400 1 0 68157440 54526016 7340032 0 0 32 0 0 0 2048 1073741824 512 0 2049 1536 268435456 4096 4194304 35127296 0 65536 0 4096 1048576 0 0 0 0 0 0 0 0 1024 80 1 1442873344 1032 512 537051392 2151696512 68 1140850688 33554440
is_linear=0
shrinkage=0.01


Tree=18
num_leaves=31
num_cat=16
split_feature=2 27 6 26 3 3 0 3 0 27 3 2 3 13 25 13 9 2 3 26 0 20 26 22 3 20 12 2 16 3
split_gain=447.02 135.489 85.4351 64.4325 44.3071 38.0584 33.1602 36.3029 26.7291 25.437 22.7013 21.2431 18.4595 16.6437 18.7853 14.6307 11.681 10.2737 10.1994 10.0104 9.85453 10.1787 9.66995 9.48745 9.32459 8.90352 9.81018 8.10914 7.21659 7.04051
threshold=0 71.500000000000014 1 -414.49999999999994 2 3 4 5 6 176.50000000000003 7 8 9 0.4749334794596099 0.8289916834171781 -0.59815875725621348 2.5000000000000004 10 11 -612.49999999999989 12 3.3892192924673163 -194.49999999999997 3.8855752424938301 13 3.2708044627122548 0.7025209685794126 14 2.524928003624769 15
decision_type=9 8 9 10 9 9 9 9 9 8 9 9 9 2 8 2 2 9 9 8 9 10 10 8 9 8 2 9 2 9
left_child=1 2 5 19 -4 -1 13 -8 15 11 -6 -5 -12 24 27 -2 -13 25 -9 -3 21 -14 -11 29 -7 26 -18 -15 -25 -20
right_child=8 3 4 9 10 6 7 18 -10 22 12 16 20 14 -16 -17 17 -19 23 -21 -22 -23 -24 28 -26 -27 -28 -29 -30 -31
leaf_value=0.013843858247591495 -0.016238887537972917 0.010506067346559811 0.0098579490624097627 0.0063434548861030383 0.0041847813954839878 0.018441723035179155 0.010020250586174919 0.0069538507922952643 -0.016238887537972917 -0.016238887537972917 0.0021068448421803156 -0.016238887537972917 -0.0026993240184327982 0.0034053998181050905 0.012708175913889159 -0.016238887537972917 -0.016411408990259294 -0.016238887537972917 4.235177224398701e-06 0.0005532836259861362 -0.0075804581553523742 0.014776480572446099 -0.016238887537972917 -0.0076867580399681288 0.012100184135931835 0.0061456710378169424 0.0080287718738052457 -0.019299069452440955 0.0073594690742041988 -0.017955143755019397
leaf_weight=1214 275 460 589 486 1000 484 1025 469 1446 254 1547 349 846 228 696 638 145 307 186 400 822 142 673 144 1251 273 64 139 404 336
leaf_count=1214 275 460 589 486 1000 484 1025 469 1446 254 1547 349 846 228 696 638 145 307 186 400 822 142 673 144 1251 273 64 139 404 336
internal_value=0.000150359 0.000790002 0.0013088 -0.000960129 0.000312752 0.00205436 0.00168466 0.000854701 -0.00388561 -0.00175813 -3.77834e-05 -0.00100369 -0.000432135 0.00243946 0.00146284 -0.00246479 -0.00174216 -0.00108365 -0.000119432 0.00140698 -0.00111538 -0.000430862 -0.00307983 -0.000657407 0.00305187 -0.000142276 -0.00169856 -0.000367847 0.000255474 -0.00162835
internal_weight=17292 14933 11522 3411 4946 6576 5362 2564 2359 2551 4357 1624 3357 2798 1063 913 1138 789 1539 860 1810 988 927 1070 1735 482 209 367 548 522
internal_count=17292 14933 11522 3411 4946 6576 5362 2564 2359 2551 4357 1624 3357 2798 1063 913 1138 789 1539 860 1810 988 927 1070 1735 482 209 367 548 522
cat_boundaries=0 3 8 45 82 85 122 125 162 165 202 205 240 243 279 282 304
cat_threshold=1599194128 503844360 796 69740621 10348 1197998080 1331699713 1 0 1342177280 262144 0 0 15360 0 65536 7 2 9216 2 0 0 2147746816 16 0 637534208 9216 0 0 128 36864 0 1024 0 0 0 0 0 0 0 0 0 0 0 15 2048 0 0 25165824 0 0 524288 0 0 0 0 8192 2147483852 3073 1073741831 0 0 134217728 2048 0 2101248 64 33554432 0 0 0 1 0 0 0 0 0 0 0 5243904 32 65536 2147501057 3237037184 2261 0 536870912 0 4194304 0 0 58734800 8 0 0 256 0 0 2 0 2048 0 5242880 2097152 1920 536870912 268435456 0 0 0 1049602 0 0 0 0 0 0 0 0 2097920 0 528384 262144 1073741824 769 8192 131076 2415919104 0 134218240 0 0 393216 67108864 0 64 4 0 0 131072 0 25165960 0 1048576 0 2048 0 0 0 576 2149581568 0 0 0 0 0 0 0 0 0 0 1310720 4210688 101189632 284 0 0 0 0 4096 0 0 402653184 167772160 0 0 9 0 0 268437632 0 0 0 41943040 0 1207959552 0 0 0 0 12859401 0 0 0 0 0 0 0 0 0 0 131072 1442873344 1032 512 0 0 0 33554432 0 0 32 4 0 0 20971520 0 0 0 0 0 0 8388608 4194368 2097152 0 0 960 0 0 524292 0 0 0 0 0 0 0 0 2048 268574848 3233972352 4164 1 0 1073741824 0 7340032 0 1048576 60 0 0 128 2048 1073741824 2 0 0 2048 0 4096 4195712 542638080 0 65536 0 0 1048576 0 0 0 0 0 0 0 0 0 80 16 33554944 8 0 0 0 0 0 0 0 0 0 0 0 0 1073741824 0 0 0 0 0 16 0 268435456 4
is_linear=0
shrinkage=0.01


Tree=19
num_leaves=31
num_cat=14
split_feature=2 27 6 26 2 3 3 0 2 3 13 25 3 27 13 27 26 27 0 6 20 2 26 27 9 5 26 20 0 22
split_gain=436.959 128.047 82.4773 48.7747 36.0838 36.0435 33.9778 29.6696 27.5044 30.9708 21.4744 24.1652 20.4036 14.9027 14.624 13.4967 11.5892 10.8247 10.0468 15.4627 9.1607 8.4163 8.38734 12.7697 9.79623 8.27254 9.27952 7.99618 7.91371 7.60589
threshold=0 55.500000000000007 1 -595.49999999999989 2 3 4 5 6 7 0.41326329957804331 1.1720334525583376 8 101.50000000000001 -0.59815875725621348 76.500000000000014 -229.49999999999997 207.50000000000003 9 10 3.3748288370470489 11 -295.99999999999994 180.00000000000003 2.5000000000000004 12 56.500000000000007 2.6916534530386351 13 3.0020487302555003
decision_type=9 8 9 8 9 9 9 9 9 9 2 8 9 8 2 8 10 8 9 9 8 9 10 8 2 9 10 10 9 10
left_child=1 2 6 21 13 -4 -1 14 10 -10 29 -12 -7 25 -2 20 -15 -18 -14 -20 -6 -3 -17 24 -24 26 -5 -13 -26 -8
right_child=7 3 5 4 15 12 8 -9 9 -11 11 27 18 16 -16 22 17 -19 19 -21 -22 -23 23 -25 28 -27 -28 -29 -30 -31
leaf_value=0.014654776607544906 -0.01607649866259319 -0.00095707268541157743 0.0094691544674515883 -0.019127991337370344 -0.016986428574928263 0.0040273666889515123 0.010184687584006617 -0.01607649866259319 0.0068983276001486132 -9.4994119701421469e-05 -0.018770774012304658 0.0049795991762050093 0.00091951296149516142 0.0090318385956295894 -0.01607649866259319 -0.0033874079447807071 -0.016070279240615777 -0.01607649866259319 -0.00010685141566110002 -0.0075534649151680466 0.0081564521594117683 0.011885205243345678 -0.01607649866259319 -0.01607649866259319 -0.00022594393240865429 -0.016757405939558018 0.013294724790351778 0.018401214982150194 -0.01607649866259319 0.019314828635163803
leaf_weight=1180 275 108 508 28 331 1368 649 1446 1365 1089 304 152 1090 189 638 331 284 187 1255 415 277 405 311 522 357 252 451 407 319 799
leaf_count=1180 275 108 508 28 331 1368 649 1446 1365 1089 304 152 1090 189 638 331 284 187 1255 415 277 405 311 522 357 252 451 407 319 799
internal_value=0.000146889 0.000779295 0.00137369 -0.000664063 -0.00105105 0.000370211 0.00215197 -0.00384339 0.00176649 0.00101867 0.00255278 0.00131518 5.7999e-05 0.000239115 -0.00235645 -0.00177787 -0.000848485 -0.0016879 -0.000436823 -0.000922619 -0.000493421 0.00223197 -0.00221196 -0.00252816 -0.00185917 0.00122435 0.00197342 0.00254919 -0.00118343 0.00330801
internal_weight=17292 14933 10581 4352 3839 4636 5945 2359 4765 2454 2311 863 4128 1391 913 2448 660 471 2760 1670 608 513 1840 1509 987 731 479 559 676 1448
internal_count=17292 14933 10581 4352 3839 4636 5945 2359 4765 2454 2311 863 4128 1391 913 2448 660 471 2760 1670 608 513 1840 1509 987 731 479 559 676 1448
cat_boundaries=0 3 8 11 48 85 88 91 128 165 168 173 175 177 180
cat_threshold=1599194128 503844360 796 69740613 10348 1197473792 1331699713 1 4308992 100666368 284 0 4 268697600 0 0 15360 0 65536 2 2 9216 6 0 0 2147745792 0 0 637534208 9216 0 0 128 36864 0 1024 0 0 0 0 0 0 0 0 0 2048 0 4 2048 0 0 25165824 0 0 524288 8 0 0 1048576 8192 196 3072 1073741831 0 2048 134217728 2048 0 2101248 64 33554432 0 0 0 1 0 0 0 0 0 0 0 5243136 48 65536 262144 1073741824 769 33570832 503317504 284 0 0 0 4194304 0 0 144 4 0 0 6144 0 0 1 0 2048 0 0 2097152 0 536870912 268435456 960 0 0 1572866 0 0 0 0 0 0 0 0 2098688 0 528384 8192 0 2281701376 0 512 0 0 131072 67108868 0 64 0 0 0 132224 0 8388736 0 42991616 0 2048 0 0 0 576 2149851136 0 0 0 0 0 0 0 0 0 0 1441803 268575104 11552960 4164 32928 295040 20544 65536 4 100663296 512 12714016 4096 4333568 536870912 4096
is_linear=0
shrinkage=0.01


Tree=20
num_leaves=31
num_cat=16
split_feature=2 27 6 26 3 3 0 3 0 3 2 3 13 3 27 3 13 25 12 12 20 12 0 2 0 16 21 24 27 3
split_gain=436.832 128.377 87.744 63.3771 40.9939 39.3043 32.4899 36.0459 29.6696 23.3876 19.2691 17.4142 14.624 13.2202 12.753 12.4203 11.0683 11.3554 10.6105 10.738 10.0637 9.71665 10.721 9.39256 7.44818 8.6055 7.17216 6.81606 6.7649 6.75893
threshold=0 71.500000000000014 1 -526.99999999999989 2 3 4 5 6 7 8 9 -0.59815875725621348 10 150.50000000000003 11 0.51972456038539816 0.8289916834171781 0.85206963063867758 0.81900730237416519 3.3892192924673163 -0.12447811117596669 12 13 14 2.602003343538398 0.12419461292757931 2.1290591721593173 105.50000000000001 15
decision_type=9 8 9 10 9 9 9 9 9 9 9 9 2 9 8 9 2 8 2 2 10 2 9 9 9 2 10 10 8 9
left_child=1 2 5 23 -4 29 13 -8 12 27 14 -11 -2 -7 -5 -9 -15 -18 19 24 -13 22 -17 -3 -12 -26 -24 -6 -20 -1
right_child=8 3 4 10 9 6 7 15 -10 11 18 20 -14 16 -16 21 17 -19 28 -21 -22 -23 26 -25 25 -27 -28 -29 -30 -31
leaf_value=-0.0034115318028748497 -0.015915733675967256 -1.6503655641462167e-05 0.009923081669477498 0.0058154304827809367 0.0063366773142442727 0.018481245580361058 0.012227902463947036 0.0046603234657106142 -0.015915733675967256 0.0020711501130308684 -0.015915733675967256 -0.0031099768930078543 -0.015915733675967256 0.014802745250659229 -0.015915733675967256 -0.017992390182895345 -0.0016248157051624945 0.012744062910568678 0.0084872773193891988 -0.015915733675967256 0.011003969343196822 0.0078916357046863277 0.012173152317002903 0.01168588971650923 -0.015915733675967256 -0.00043830992450453413 -0.00084360403333966444 0.0021469796235213923 -0.015915733675967256 0.00023720680941386574
leaf_weight=113 275 220 575 500 417 734 1159 679 1446 1567 717 1622 638 1305 315 341 236 499 85 165 182 528 115 476 509 269 262 583 155 605
leaf_count=113 275 220 575 500 417 734 1159 679 1446 1567 717 1622 638 1305 315 341 236 499 85 165 182 528 115 476 509 269 262 583 155 605
internal_value=0.00014631 0.000778625 0.00128363 -0.000924949 0.000274415 0.00203917 0.00231084 0.00159017 -0.00384339 -5.82059e-05 -0.0016151 -0.000456965 -0.00235645 0.00310345 -0.000309091 0.000741602 0.00264878 0.00168027 -0.0021623 -0.00245783 -0.00112459 0.000143312 -0.000612813 0.00176724 -0.00219064 -0.0014467 0.000555556 0.00127723 -0.000208333 -0.000178571
internal_weight=17292 14933 11522 3411 4946 6576 5858 3084 2359 4371 2715 3371 913 2774 815 1925 2040 735 1900 1660 1804 1246 718 696 1495 778 377 1000 240 718
internal_count=17292 14933 11522 3411 4946 6576 5858 3084 2359 4371 2715 3371 913 2774 815 1925 2040 735 1900 1660 1804 1246 718 696 1495 778 377 1000 240 718
cat_boundaries=0 3 8 45 73 76 113 116 153 156 193 228 265 268 270 273 301
cat_threshold=1599194128 503844360 796 69740621 10348 1197998080 1331699713 1 0 1342177280 262144 0 0 15360 0 65536 7 2 9216 2 0 0 2147746816 0 0 637534208 9216 0 0 128 36864 0 1024 0 0 0 0 0 0 0 0 0 0 0 15 528 134217728 0 0 67108864 0 0 0 524288 0 8388608 0 0 1572864 134217728 10 1073741830 0 4194448 2097152 335544320 8388612 0 262168 0 0 3145728 2 3758096385 2152841408 2132 2048 0 0 25165824 81920 0 58732672 60 0 0 4096 0 0 0 0 2048 0 0 64 1920 4096 268435456 0 0 0 0 1 0 0 0 0 0 0 0 7341312 0 589824 262144 1073741824 769 8192 131076 2415919104 0 134218240 0 0 393216 67108864 0 64 4 0 0 131072 0 25165960 0 1048576 0 2048 0 0 0 576 2149581568 0 0 0 0 0 0 0 0 0 0 1310720 4276224 100666368 268 0 0 0 0 4096 0 0 469762048 167772160 0 0 9 0 0 268437632 0 0 0 41943040 0 1207959552 0 0 0 0 12859401 0 0 0 0 0 0 0 0 0 0 131072 2048 0 1610612736 0 0 0 1048576 0 0 0 0 8192 2147483852 3075 1073741831 0 2048 134217728 2048 0 2101248 64 33554432 0 0 0 1 0 0 0 0 0 0 0 2816 0 536870912 0 4194312 32768 0 2064 0 0 0 2432 0 0 1 0 0 0 5242880 2097184 0 536870912 0 0 0 0 1049602 0 0 0 0 0 0 0 0 0 0 4096 4235264 0 1 251658240 268435968 53265 2147483680 4097 16 0 0 0 0 0 0 0 0 0 0 0 0 1048576 0 0 0 0 0 0 0 0 0 262144 0 0 3145728 2
is_linear=0
shrinkage=0.01


Tree=21
num_leaves=31
num_cat=15
split_feature=2 27 6 26 3 3 0 3 0 27 3 2 3 13 3 9 3 13 26 25 20 12 0 2 20 12 26 0 24 10
split_gain=436.959 124.097 90.6429 65.3557 41.7973 39.4656 31.7565 35.366 29.6696 24.7978 24.0013 20.0779 16.3618 14.624 13.3135 12.3284 11.943 11.2003 10.647 9.96468 9.56709 9.12027 10.4061 8.8442 8.59556 9.52442 8.06318 7.67428 7.53693 7.24236
threshold=0 71.500000000000014 1 -414.49999999999994 2 3 4 5 6 176.50000000000003 7 8 9 -0.59815875725621348 10 2.5000000000000004 11 0.45971571054515326 -194.49999999999997 0.8289916834171781 3.3892192924673163 -0.12447811117596669 12 13 3.2708044627122548 0.7025209685794126 -612.49999999999989 14 2.5073340101707138 -0.56174490092936658
decision_type=9 8 9 10 9 9 9 9 9 8 9 9 9 2 9 2 9 2 10 8 10 2 9 9 8 2 8 9 10 2
left_child=1 2 5 26 -4 -1 14 -8 13 11 -6 -5 27 -2 -7 -13 -9 -16 -11 29 -14 22 -18 24 25 -17 -3 -12 -29 -19
right_child=8 3 4 9 10 6 7 16 -10 18 12 15 20 -15 17 23 21 19 -20 -21 -22 -23 -24 -25 -26 -27 -28 28 -30 -31
leaf_value=-6.1818717985588907e-05 -0.015756576339207583 0.010165295723495662 0.0098238508527827232 0.0061997980516482658 0.0040811901184044184 0.018296433124557449 0.012105623439307567 0.0046137202310535088 -0.015756576339207583 -0.015756576339207583 -0.00014363210403023908 -0.015756576339207583 -0.0028932389653865353 -0.015756576339207583 0.014841503772144261 -0.016239678621347856 -0.017821416427614176 -0.019312885558089566 -0.015756576339207583 0.012608508890593999 0.010893929649764853 0.0078127193476394633 0.0053412919458281569 -0.015756576339207583 0.0062561714860793986 0.0078875689335214192 0.00054133358505507271 0.0043196457135994569 -0.00035956456386786461 0.0095345923214687385
leaf_weight=718 275 460 575 486 1000 734 1159 679 1446 254 426 349 1777 638 1241 145 351 136 673 541 182 528 367 307 273 64 400 774 212 122
leaf_count=718 275 460 575 486 1000 734 1159 679 1446 254 426 349 1777 638 1241 145 351 136 673 541 182 528 367 307 273 64 400 774 212 122
internal_value=0.000146889 0.000779295 0.00127582 -0.000895632 0.000250202 0.00204373 0.00231595 0.0016031 -0.00384339 -0.00169933 -8.55969e-05 -0.000954433 -0.0004895 -0.00235645 0.00309986 -0.00167247 0.000762274 0.0026439 -0.00300431 0.00173342 -0.00107923 0.000175159 -0.000557103 -0.00099493 -0.000121951 -0.00165072 0.00148837 0.00033052 0.000813253 0.000116279
internal_weight=17292 14933 11522 3411 4946 6576 5858 3084 2359 2551 4371 1624 3371 913 2774 1138 1925 2040 927 799 1959 1246 718 789 482 209 860 1412 986 258
internal_count=17292 14933 11522 3411 4946 6576 5858 3084 2359 2551 4371 1624 3371 913 2774 1138 1925 2040 927 799 1959 1246 718 789 482 209 860 1412 986 258
cat_boundaries=0 3 8 45 73 76 113 116 153 156 193 228 265 268 271 274
cat_threshold=1599194128 503844360 796 69740621 10348 1197998080 1331699713 1 0 1342177280 262144 0 0 15360 0 65536 7 2 9216 2 0 0 2147746816 0 0 637534208 9216 0 0 128 36864 0 1024 0 0 0 0 0 0 0 0 0 0 0 15 528 134217728 0 0 67108864 0 0 0 524288 0 8388608 0 0 1572864 134217728 10 1073741830 0 4194448 2097152 335544320 8388612 0 262168 0 0 3145728 2 3758096385 2152841408 2132 2048 0 0 25165824 81920 0 58732672 60 0 0 4096 0 0 0 0 2048 0 0 64 1920 4096 268435456 0 0 0 0 1 0 0 0 0 0 0 0 7341312 0 589824 262144 1073741824 769 8192 131076 2415919104 0 134218240 0 0 393216 67108864 0 64 4 0 0 131072 0 25165960 0 1048576 0 2048 0 0 0 576 2149581568 0 0 0 0 0 0 0 0 0 0 1310720 4210688 101189632 284 0 0 0 0 4096 0 0 469762048 167772160 0 0 9 0 0 268437632 0 0 0 41943040 0 1073741824 0 0 0 0 12859401 0 0 0 0 0 0 0 0 0 0 131072 2048 0 1610612736 0 0 0 1048576 0 0 0 0 8192 2147483852 3075 1073741831 0 2048 134217728 2048 0 2101248 64 33554432 0 0 0 1 0 0 0 0 0 0 0 2816 0 536870912 0 4194312 32768 0 2064 0 0 0 2432 0 0 1 0 0 0 5242880 2097184 0 536870912 0 0 0 0 1049602 0 0 0 0 0 0 0 0 0 0 4096 4235264 536870912 1 1442873344 1032 512 2151677952 10159108 129
is_linear=0
shrinkage=0.01


Tree=22
num_leaves=31
num_cat=15
split_feature=2 27 6 26 27 3 3 0 2 3 20 13 25 3 13 2 0 6 12 6 25 16 13 12 26 20 16 3 0 5
split_gain=438.858 126.978 82.5389 48.3857 45.2754 36.1657 33.8858 29.6696 27.4054 29.3559 27.1413 23.2429 24.3001 20.2598 14.624 14.1776 10.5866 12.9743 10.3642 10.1788 9.3891 9.33922 9.01322 8.01489 7.88361 7.63875 7.75393 7.33404 7.25845 7.17631
threshold=0 55.500000000000007 1 -414.49999999999994 119.50000000000001 2 3 4 5 6 3.4001091597462305 0.41326329957804331 1.1720334525583376 7 -0.59815875725621348 8 9 10 0.84753307444029569 11 1.685955402575916 2.524928003624769 0.53435276464917691 0.81900730237416519 -612.49999999999989 2.6916534530386351 3.6762205501217919 12 13 14
decision_type=9 8 9 10 8 9 9 9 9 9 8 2 8 9 2 9 9 9 2 9 8 2 2 2 8 10 2 9 9 9
left_child=1 2 6 24 10 -4 -1 14 9 -8 18 27 29 28 -2 -12 -15 -18 23 -6 22 -22 -17 -5 -3 26 -14 -10 -7 -13
right_child=7 3 5 4 19 13 8 -9 11 -11 15 12 25 16 -16 20 17 -19 -20 -21 21 -23 -24 -25 -26 -27 -28 -29 -30 -31
leaf_value=0.014241561839189825 -0.015599010575815508 0.010063642766260705 0.0091769935975544708 -0.015755548961042552 -0.015599010575815508 0.0016276128295859404 0.0066439775866958548 -0.015599010575815508 0.019539668357928332 -0.00010121253479610015 0.014132003104311862 0.0034819778202578844 -0.0016214436117746045 0.00093495263304960499 -0.015599010575815508 0.011810104704808942 -0.00026189341714336403 -0.0073690867660632245 0.0057176039472721278 -0.015599010575815508 -0.016002114009649512 0.0086372078476401448 -0.016770175896488066 -0.015595618884859129 0.00053592024920452231 0.017800370762354693 0.019198295422593371 0.013098352968773321 0.0067152649973777701 -0.018938878084129127
leaf_weight=1180 275 460 508 742 435 646 1365 1446 426 1081 428 160 112 1128 638 45 1125 480 108 959 119 488 92 76 400 420 45 1055 699 151
leaf_count=1180 275 460 508 742 435 646 1365 1446 426 1081 428 160 112 1128 638 45 1125 480 108 959 119 488 92 76 400 420 45 1055 699 151
internal_value=0.000155563 0.000789333 0.00138125 -0.000647978 -0.00117125 0.000367711 0.00215237 -0.00384339 0.00177098 0.00101792 -0.000243089 0.00254098 0.00127252 5.13699e-05 -0.00235645 0.000767918 -0.000442946 -0.000962848 -0.00152268 -0.00256815 -7.95756e-05 0.000453048 -0.00244526 -0.00190709 0.00147674 0.002487 0.000605096 0.0033187 0.00105166 -0.000980707
internal_weight=17292 14933 10581 4352 3492 4586 5995 2359 4815 2446 2098 2369 888 4078 913 1172 2733 1605 926 1394 744 607 137 818 860 577 157 1481 1345 311
internal_count=17292 14933 10581 4352 3492 4586 5995 2359 4815 2446 2098 2369 888 4078 913 1172 2733 1605 926 1394 744 607 137 818 860 577 157 1481 1345 311
cat_boundaries=0 3 8 45 82 85 88 125 162 165 168 173 178 214 217 219
cat_threshold=1599194128 503844360 796 69740645 10348 1197473792 1331699713 1 0 4 268697600 0 0 15360 0 65536 2 2 9216 6 0 0 2147745792 0 0 637534208 9216 0 0 128 36864 0 1024 0 0 0 0 0 0 0 0 0 2048 0 4 2048 0 0 25165824 0 0 524288 8 0 0 1048576 8192 196 3072 1073741831 0 2048 134217728 2048 0 2101248 64 33554432 0 0 0 1 0 0 0 0 0 0 0 5243136 48 65536 262144 1073741824 769 1561427968 526856 512 0 0 0 4194304 0 0 144 4 0 0 6144 0 0 1 0 2048 0 0 2097152 0 536870912 268435456 960 0 0 1572866 0 0 0 0 0 0 0 0 2098688 0 528384 8192 0 2147483648 0 512 0 0 131072 67108868 0 576 0 0 0 132224 0 8388736 0 42991616 0 2048 0 0 0 576 2149842945 0 0 0 0 0 0 0 0 0 0 1441803 1064960 67109888 264 268575104 10635456 68 32896 8421504 20544 65536 4 3145856 43182 84934656 83951616 1 1 0 1610612736 0 7340032 0 1048576 52 0 0 128 0 3221225480 3 0 16 0 0 64 1920 5767168 0 65536 0 0 0 0 0 0 0 0 0 0 0 0 64 268443648 230598 129 0 4100
is_linear=0
shrinkage=0.01


Tree=23
num_leaves=31
num_cat=15
split_feature=2 27 6 26 27 3 3 0 2 2 3 13 25 3 13 20 6 3 2 6 20 24 0 12 21 26 26 12 16 0
