tree
version=v4
num_class=1
num_tree_per_iteration=1
label_index=0
max_feature_idx=27
objective=quantile
feature_names=cust_code price cust_id item currency region category day_sin day_cos month dayofweek_cos dayofweek_sin dayofyear_sin dayofyear_cos quarter_sin quarter_cos qty_lag1 qty_lag5 qty_lag10 qty_lag20 rolling_mean_3 rolling_std_3 rolling_mean_5 rolling_std_5 rolling_mean_10 rolling_std_10 days_since_client_purchase days_since_client_item_purchase
feature_infos=-1:70:13:22:63:0:28:64:17:66:15:71:47:33:72:37:51:75:29:14:42:7:56:62:12:49:54:34:39:76:48:8:46:18:60:68:9:61:4:38:55:43:74:65:20:58:31:59:23:69:52:73:16:41:10:11:53:6:57:2:24:26:19:27:3:5:50:1:30:21:45:77:44:36:35:25 none -1:41:67:35:58:25:4:42:30:60:28:68:69:72:27:43:26:24:73:61:31:15:66:14:56:49:57:16:71:20:62:33:48:47:9:36:65:59:70:51:29:17:50:52:22:23:63:13:18:21:6:37:39:32:40:7:10:12:5:8:34:44:55:74:19:45:46:3:0:54:2:38 -1:820:819:818:821:823:652:491:822:11:669:651:668:670:667:672:671:830:9:0:1096:119:326:1097:327:120:328:1098:824:812:673:329:832:118:831:813:1099:121:94:569:227:226:229:582:674:93:228:92:95:615:618:7:616:617:581:523:580:629:524:1164:583:5:197:522:700:754:630:251:521:252:419:420:90:196:198:414:418:662:659:660:661:665:88:89:250:415:416:421:43:199:283:417:740:853:102:282:540:739:741:91:272:854:170:273:274:598:104:212:281:542:729:171:172:253:280:386:599:851:1169:103:105:173:209:211:387:391:738:4:210:390:572:596:838:1170:342:605:728:839:248:343:344:597:666:718:727:837:852:1172:8:49:99:100:247:380:381:570:573:840:876:1125:1171:98:240:246:275:426:477:483:601:678:716:730:1124:241:345:456:457:571:717:843:1168:59:478:482:586:587:600:675:744:874:13:239:242:332:514:519:584:604:619:679:875:1152:101:160:330:331:333:382:427:458:585:588:589:620:873:1153:1155:161:162:174:379:449:475:476:501:513:515:603:677:719:720:865:123:175:176:249:450:455:480:500:606:710:711:712:713:1110:1126:1154:148:149:150:177:200:363:428:459:481:484:512:800:801:802:1108:1127:3:137:142:201:205:217:257:258:365:466:479:499:775:778:803:983:122:143:144:163:203:215:289:364:448:451:452:460:465:498:535:564:566:567:676:776:779:780:889:1109:60:61:62:84:108:139:204:216:231:284:285:340:353:425:435:463:474:532:536:695:808:809:810:856:868:952:982:34:109:138:206:218:230:256:287:288:290:339:354:357:362:436:464:541:565:774:777:786:787:811:844:855:953:954:18:25:27:82:83:110:140:151:154:155:184:286:338:341:352:355:384:517:640:784:857:859:860:941:955:973:1068:1114:1115:1116:1161:14:17:28:29:111:117:146:153:261:356:383:434:461:516:534:538:539:644:691:692:693:694:721:722:723:724:781:785:805:806:858:863:864:866:934:1148:1149:10:30:31:85:114:116:152:234:262:276:279:313:370:462:531:537:663:685:725:759:867:933:935:976:977:978:979:1120:1160:1165:1:15:96:183:219:220:236:260:278:296:297:298:299:312:314:315:358:527:528:533:558:633:656:664:726:753:807:846:932:1117:1144:1150:26:97:115:207:208:221:232:235:277:359:371:437:520:743:770:782:783:798:845:899:962:1121:1138:1159:1162:21:53:57:113:187:222:369:439:467:493:494:495:496:526:530:549:632:634:645:654:655:714:737:771:772:773:847:861:862:895:896:960:961:963:971:972:974:1145:1174:1175:24:47:50:55:106:112:133:135:141:185:254:334:335:336:337:346:376:438:440:441:511:525:529:559:560:561:562:563:602:612:635:646:657:701:733:742:746:747:748:749:804:869:870:893:894:900:936:947:948:949:950:964:1081:1083:1122:1123:1146:1151:6:19:36:56:69:70:71:107:134:136:166:167:182:238:259:305:319:320:347:348:349:350:351:366:368:385:388:406:492:497:508:509:510:548:550:551:552:556:591:609:610:641:647:650:681:683:745:755:756:757:758:769:790:794:814:815:816:817:827:849:898:916:930:931:937:942:995:1084:1100:1107:1139:1167:1176:23:35:45:65:66:67:68:72:78:147:168:186:244:263:264:265:266:268:269:270:301:360:361:377:442:443:444:503:546:553:554:555:557:568:576:590:611:631:642:643:648:649:658:680:699:715:732:752:760:761:762:763:791:792:793:795:848:871:884:890:906:915:917:940:958:959:992:993:994:1064:1065:1066:1067:1082:1102:1104:1105:1106:1111:1112:1119:1129:1130:1131:1147:1158:1166:1173:22:39:44:46:58:73:74:75:76:77:157:169:190:223:243:255:267:271:293:300:302:303:304:318:367:372:373:374:375:378:389:400:401:404:407:410:411:413:422:423:424:430:431:433:445:453:468:488:502:506:543:544:545:547:574:593:594:607:608:682:696:697:698:702:703:704:731:734:765:768:797:828:872:881:882:883:897:901:902:903:904:905:908:918:951:975:1008:1009:1010:1011:1048:1049:1050:1088:1101:1163 -1:0:2:1 -1:34:44:36:22:4:5:30:17:10:40:11:35:6:20:7:43:16:12:28:32:3:39:26:24:25:41:42:2:19:37:1:31:23:21:33:29:14:27:18:13:15:8:45:38 -1:122:90:39:7:19:109:117:85:34:2:78:70:112:96:128:45:13:23:94:102:126:62:43:11:35:76:130:98:86:68:118:120:47:88:3:37:5:15:50:20:33:84:116:55:1:21:71:132:17:79:49:100:22:89:38:26:0:91:121:8:40:107:123:6:31:18:95:127:44:12:119:87:36:83:80:63:46:72:93:111:4:97:14:69:77:125:74:82:10:42:66:129:114:24:25:61:73:108:64:103:81:29:105:9:56:60:65:67:75:92:106:124:41:52:113 [-0.99452189536827329:0.9945218953682734] [-1:1] [1:12] [-0.90096886790241903:1] [-0.43388373911755801:0.97492791218182362] [-0.99999073973619013:0.99954628068735729] [-0.99907411510222999:0.99985183920911624] [-1:1] [-1:1] [0:7.8939451382359591] [0:7.8939451382359591] [0:7.7836405962212529] [0:6.5806391372849493] [0.69314718055994529:7.1653002110482875] [0:3.2940417966049629] [1.0986122886681098:6.9971807869699223] [0:2.9815439008988269] [1.1496948510447089:6.9242151338238198] [0:2.7957610625370255] [-726:583] [0:583]
tree_sizes=3158 3156 3158 3157 3158 3158 3158 3158 3158 3158 3161 3158 3163 3161 3155 3163 3163 3163 3163 3163 3162 3162 3163 3163 3163 3163 3163 3163 3163 3163 3163 3163 2969 2969 2969 2969 2965 2967 2969 2969 2969 2969 2967 2967 2969 2969 2969 2969 2971 2971 2971 2971 2971 2971 2971 2971 2971 3143 3143 3143 3140 3140 3143 3142 3143 3143 3143 3137 3142 3137 3143 3143 3141 3142 3143 3143 3143 3143 3141 3144 3144 2946 2949 2948 2949 2947 2949 2949 2949 2949 2949 2949 2949 2949 2949 2949 2927 2927 2927 2926 2838 2838 2837 2836 2838 2838 2838 2837 2838 2838 2838 2838 2838 2838 2838 2838 2838 2838 2838 2838 2838 2838 2837 2838 2836 2838 2838 2838 2836 2837 2838 2838 2837 2836 2838 2836 2836 2836 2836 2835 2836 2836 2837 2836 2837 2836 2836 2837 2837 2837 2837 2837 2837 2837 2837 2837 2837 2837 2836 2837 2837 2837 2837 2837 2836 2837 2837 2837 2836 2837 2837 2836 2837 2837 2833 2839 2839 2839 2840 2840 2839 2838 2840 2840 2840 2840 2840 2840 2839 2836 2840 2838 2840 2840 2836 2840 2840 2840 2840 2839 2838 2840 2840 2840 2839 2839 2839 2840 2840 2840 2839 2840 2838 2840 2840 2840 2838 2838 2840 2840 2840 2840 2840 2839 2840 2840 2840 2840 2840 2839 2838 2840 2840 2838 2840 2840 2840 2840 2840 2842 2842 2842 2841 2842 2841 2842 2840 2842 2842 2833 2833 2834 2834 2834 2834 2834 2834 2832 2834 2834 2834 2834 2834 2833 2834 2834 2834 2834 2834 2834 2833 2834 2834 2834 2834 2834 2834 2834 2832 2834 2834 2834 2834 2834 2834 2833 2833 2832 2834 2834 2830 2833 2834 2834 2834 2834 2834 2834 2834 2832 2834 2834 2834 2834 2834 2834 2832 2834 2834 2834 2834 2832 2834 2834 2833 2833 2834 2834 2834 2833 2834 2834 2834 2834 2834 2834 2834 2834 2833 2834 2834 2834 2833 2833 2834 2834 2834 2832 2834 2850 2850 2850 2850 2846 2849 2850 2850 2847 2850 2850 2850 2849 2850 2850 2850 2850 2850 2850 2850 2849 2850 2849 2848 2850 2850 2849 2848 2848 2850 2792 2794 2794 2794 2794 2794 2794 2794 2794 2794 2794 2794 2794 2794 2794 2794 2794 2794 2792 2794 2794 2794 2794 2794 2794 2794 2794 2792 2794 2794 2794 2794 2794 2794 2794 2794 2794 2794 2794 2794 2794 2794 2794 2794 2794 2794 2792 2794 2794 2794 2794 2794 2794 2794 2792 2794 2794 2794 2794 2794 2794 2794 2794 2794 2794 2794 2794 2794 2794 2794 2794 2794 2794 2794 2794 2794 2794 2794 2794 2792 2792 2794 2794 2794 2794 2794 2794 2794 2794 2794 2794 2792 2794 2792 2794 2794 2794 2794 2794 2794 2794 2794 2794 2794 2794 2792 2794 2792 2794 2794 2794 2794 2794 2794 2794 2794 2794 2794 2794 2794 2794 2794 2794 2794 2794 2794 2794 2794 2794 2794 2794 2792 2794 2794 2794 2794 2794 2788 2794 2794 2794 2794 2794 2794 2794 2794 2794 2794 2794 2794 2794 2794 2794 2794 2794 2794 2794 2794 2794 2794 2794 2794 2794 2794 2794 2794 2794 2788 2794 2794 2794 2794 2794 2794 2794 2794 2794 2794 2794 2794 2794 2794 2794 2792 2792 2794 2794 2794 2794 2794 2794 2794 2794 2794 2794 2794 2794 2794 2794 2794 2794 2794 2794 2794 2794 2794 2792 2792 2794 2794 2792 2794 2794 2794 2794 2794 2792 2794 2794 2794 2794 2794 2794 2794 2794 2794 2794 2794 2794 2794 2794 2794 2794 2794 2794 2794 2794 2794 2794 2794 2794 2794 2794 2794 2794 2794 2794 2794 2794 2794 2794 2794 2794 2794 2794 2794 2794 2790 2794 2794 2794 2794 2794 2794 2794 2794 2794 2794 2794 2794 2794 2794 2794 2794 2794 2794 2794 2794 2794 2794 2794 2794 2794 2792 2792 2794 2794 2794 2794 2794 2794 2788 2792 2794 2794 2794 2792 2794 2794 2794 2794 2794 2794 2794 2794 2794 2794 2794 2794 2794 2794 2794 2794 2794 2794 2794 2794 2794 2794 2794 2794 2792 2794 2794 2794 2794 2794 2794 2794 2794 2794 2792 2794 2794 2794 2794 2792 2794 2794 2794 2794 2792 2794 2794 2794 2794 2794 2794 2794 2792 2794 2794 2794 2794 2794 2794 2794 2794 2794 2794 2794 2794 2792 2794 2794 2794 2790 2794 2794 2794 2794 2794 2794 2794 2794 2794 2794 2794 2794 2794 2792 2792 2794 2794 2794 2794 2794 2794 2794 2794 2794 2794 2794 2794 2794 2794 2794 2794 2794 2794 2792 2794 2794 2794 2794 2794 2794 2794 2794 2794 2794 2794 2794 2794 2794 2794 2794 2792 2794 2794 2794 2794 2794 2794 2792 2794 2794 2794 2794 2794 2794 2794 2794 2794 2794 2794 2794 2794 2794 2794 2794 2794 2794 2792 2794 2794 2794 2794 2792 2794 2794 2794 2794 2794 2794 2794 2794 2794 2794 2794 2794 2794 2794 2794 2794 2794 2794 2794 2794 2794 2794 2794 2794 2794 2794 2794 2794 2794 2794 2794 2794 2794 2794 2794 2794 2794 2794 2794 2794 2792 2794 2794 2794 2794 2794 2790 2794 2794 2794 2794 2794 2794 2794 2794 2794 2792 2794 2794 2794 2794 2794 2794 2792 2794 2794 2794 2794 2794 2794 2794 2794 2794 2794 2794 2794 2794 2794 2794 2794 2794 2794 2794 2794 2794 2794 2794 2794 2794 2794 2794 2794 2792 2794 2794 2794 2794 2794 2792 2794 2794 2794 2794 2794 2794 2794 2794 2794 2792 2794 2794 2794 2794 2792 2794 2794 2794 2794 2794 2794 2794 2794 2794 2794 2794 2792 2794 2794 2794 2794 2792 2794 2794 2794 2794 2794 2794 2794 2794 2794 2794 2794 2794 2794 2794 2794 2792 2794 2794 2794 2794 2794 2794 2794 2794 2794 2794 2794 2794 2794 2794 2794 2794 2794 2794 2794 2794 2794 2794 2794 2794 2794 2794 2794 2794 2794 2794 2794 2794 2794 2794 2792

Tree=0
num_leaves=31
num_cat=13
split_feature=2 27 0 26 27 3 3 13 24 20 3 3 20 12 0 13 26 27 16 24 12 3 26 2 6 2 12 6 3 20
split_gain=817.265 358.587 128.691 79.0443 57.3313 40.7202 34.9451 30.7555 29.9063 29.3598 25.8142 20.1417 17.7001 15.7183 11.9399 14.1383 11.8632 11.8897 11.7761 11.5869 11.3551 10.936 10.3845 9.9267 9.64654 8.70195 7.92988 7.84681 7.54421 9.17801
threshold=0 49.500000000000007 1 -459.49999999999994 120.50000000000001 2 3 0.51972456038539816 2.3363966516081702 3.4001091597462305 4 5 2.7833188578129175 0.84753307444029569 6 -0.52705818521824699 -264.49999999999994 184.50000000000003 2.740319461670996 4.5528159160490373 0.81900730237416519 7 -595.49999999999989 8 9 10 0.81900730237416519 11 12 1.7472490050198912
decision_type=9 8 9 8 8 9 9 2 10 8 9 9 8 2 9 2 10 8 2 8 2 9 8 9 9 9 2 9 9 8
left_child=1 2 6 27 9 14 -1 10 18 13 -8 -12 -13 20 -2 -16 -6 -18 -9 26 -5 -4 -7 -21 -14 -20 -11 -3 -23 -30
right_child=5 3 21 4 16 22 7 8 -10 19 11 12 24 -15 15 -17 17 -19 25 23 -22 28 -24 -25 -26 -27 -28 -29 29 -31
leaf_value=0.016094379425048828 0 0.010986123085021973 0.010986123085021973 0 0 0 0.025649492740631104 0 0 0 0.010986123085021973 0 0 0 0 0 0 0 0.016094379425048828 0 0 0.010986123085021973 0 0 0 0 0 0 0 0
leaf_weight=535 181 315 4191 814 232 70 442 380 424 164 566 371 720 115 74 175 436 633 261 408 75 361 2321 666 950 404 36 429 87 456
leaf_count=535 181 315 4191 814 232 70 442 380 424 164 566 371 720 115 74 175 436 633 261 408 75 361 2321 666 950 404 36 429 87 456
internal_value=-0.00243916 -0.00147497 -0.000448561 -0.00388781 -0.00450433 -0.00735394 -0.00157752 -0.0018644 -0.00305718 -0.00354785 -0.00129583 -0.001671 -0.00213506 -0.00482669 -0.00418182 -0.00567954 -0.00617909 -0.00662395 -0.00214833 -0.00254003 -0.00527672 0.00067287 -0.00790462 -0.00212849 -0.00170659 -0.00134586 -0.00475 -0.000922043 -0.000323851 -0.00106148
internal_weight=17292 14471 10148 4323 3579 2821 5053 4518 1469 2278 3049 2607 2041 1004 430 249 1301 1069 1045 1274 889 5095 2391 1074 1670 665 200 744 904 543
internal_count=17292 14471 10148 4323 3579 2821 5053 4518 1469 2278 3049 2607 2041 1004 430 249 1301 1069 1045 1274 889 5095 2391 1074 1670 665 200 744 904 543
cat_boundaries=0 3 6 41 78 115 150 153 180 183 188 191 196 223
cat_threshold=1582415888 503844360 284 4384641 2701131776 2241 0 0 0 11796480 0 245761 240 0 0 33554432 20971520 0 0 0 0 0 524288 0 0 1920 0 0 0 0 0 0 0 33562112 0 0 0 0 0 0 402653184 0 0 524288 0 16384 0 0 0 0 0 1063936 8192 204 0 536871680 8 0 1006632960 0 0 0 224 0 0 4096 4 0 0 0 0 0 0 0 0 7340032 0 983040 8192 0 0 8388632 7340032 2048 0 4 0 0 0 0 0 0 1073742848 20 0 0 15360 1408 6815744 0 33628160 0 0 0 0 0 0 0 0 0 0 0 0 240 1048576 0 2048 1073741824 16777280 0 13312 524288 56 6 0 448 0 0 0 128 2 2176 0 64 512 101711872 0 20480 0 0 0 0 0 0 0 0 0 0 0 1280 4096 0 4609 2048 0 0 0 0 0 0 0 0 0 0 0 0 24 0 2048 0 33554432 1048576 2097152 4160755712 7 0 0 0 1107046400 1 1547698192 402655232 20 133164 139424 88100864 1092616209 17 33570816 201328640 260 132 128 69206016 69279745 1 0 0 0 0 0 0 0 0 0 0 384 0 0 7172 15 0 0 0 10485760 0 0 8 0 0 0 2147483648 7340032
is_linear=0
shrinkage=0.01


Tree=1
num_leaves=31
num_cat=13
split_feature=2 27 0 26 27 3 3 13 24 20 3 3 20 12 0 13 26 27 16 24 12 3 26 2 6 2 12 6 3 20
split_gain=817.265 358.587 128.691 79.0443 57.3313 40.7202 34.9451 30.7555 29.9063 29.3598 25.8142 20.1417 17.7001 15.7183 11.9399 14.1383 11.8632 11.8897 11.7761 11.5869 11.3551 10.936 10.3845 9.9267 9.64654 8.70195 7.92988 7.84681 7.54421 9.17801
threshold=0 49.500000000000007 1 -459.49999999999994 120.50000000000001 2 3 0.51972456038539816 2.3363966516081702 3.4001091597462305 4 5 2.7833188578129175 0.84753307444029569 6 -0.52705818521824699 -264.49999999999994 184.50000000000003 2.740319461670996 4.5528159160490373 0.81900730237416519 7 -595.49999999999989 8 9 10 0.81900730237416519 11 12 1.7472490050198912
decision_type=9 8 9 8 8 9 9 2 10 8 9 9 8 2 9 2 10 8 2 8 2 9 8 9 9 9 2 9 9 8
left_child=1 2 6 27 9 14 -1 10 18 13 -8 -12 -13 20 -2 -16 -6 -18 -9 26 -5 -4 -7 -21 -14 -20 -11 -3 -23 -30
right_child=5 3 21 4 16 22 7 8 -10 19 11 12 24 -15 15 -17 17 -19 25 23 -22 28 -24 -25 -26 -27 -28 -29 29 -31
leaf_value=0.01593343563079834 0 0.010876261854171754 0.010876261854171754 0 0 0 0.025392997813224794 0 0 0 0.010876261854171754 0 0 0 0 0 0 0 0.01593343563079834 0 0 0.010876261854171754 0 0 0 0 0 0 0 0
leaf_weight=535 181 315 4191 814 232 70 442 380 424 164 566 371 720 115 74 175 436 633 261 408 75 361 2321 666 950 404 36 429 87 456
leaf_count=535 181 315 4191 814 232 70 442 380 424 164 566 371 720 115 74 175 436 633 261 408 75 361 2321 666 950 404 36 429 87 456
internal_value=-0.00243916 -0.00147497 -0.000448561 -0.00388781 -0.00450433 -0.00735394 -0.00157752 -0.0018644 -0.00305718 -0.00354785 -0.00129583 -0.001671 -0.00213506 -0.00482669 -0.00418182 -0.00567954 -0.00617909 -0.00662395 -0.00214833 -0.00254003 -0.00527672 0.00067287 -0.00790462 -0.00212849 -0.00170659 -0.00134586 -0.00475 -0.000922043 -0.000323851 -0.00106148
internal_weight=17292 14471 10148 4323 3579 2821 5053 4518 1469 2278 3049 2607 2041 1004 430 249 1301 1069 1045 1274 889 5095 2391 1074 1670 665 200 744 904 543
internal_count=17292 14471 10148 4323 3579 2821 5053 4518 1469 2278 3049 2607 2041 1004 430 249 1301 1069 1045 1274 889 5095 2391 1074 1670 665 200 744 904 543
cat_boundaries=0 3 6 41 78 115 150 153 180 183 188 191 196 223
cat_threshold=1582415888 503844360 284 4384641 2701131776 2241 0 0 0 11796480 0 245761 240 0 0 33554432 20971520 0 0 0 0 0 524288 0 0 1920 0 0 0 0 0 0 0 33562112 0 0 0 0 0 0 402653184 0 0 524288 0 16384 0 0 0 0 0 1063936 8192 204 0 536871680 8 0 1006632960 0 0 0 224 0 0 4096 4 0 0 0 0 0 0 0 0 7340032 0 983040 8192 0 0 8388632 7340032 2048 0 4 0 0 0 0 0 0 1073742848 20 0 0 15360 1408 6815744 0 33628160 0 0 0 0 0 0 0 0 0 0 0 0 240 1048576 0 2048 1073741824 16777280 0 13312 524288 56 6 0 448 0 0 0 128 2 2176 0 64 512 101711872 0 20480 0 0 0 0 0 0 0 0 0 0 0 1280 4096 0 4609 2048 0 0 0 0 0 0 0 0 0 0 0 0 24 0 2048 0 33554432 1048576 2097152 4160755712 7 0 0 0 1107046400 1 1547698192 402655232 20 133164 139424 88100864 1092616209 17 33570816 201328640 260 132 128 69206016 69279745 1 0 0 0 0 0 0 0 0 0 0 384 0 0 7172 15 0 0 0 10485760 0 0 8 0 0 0 2147483648 7340032
is_linear=0
shrinkage=0.01


Tree=2
num_leaves=31
num_cat=13
split_feature=2 27 0 26 27 3 3 13 24 20 3 3 20 12 0 13 26 27 16 24 12 3 26 2 6 2 12 6 3 20
split_gain=817.265 358.587 128.691 79.0443 57.3313 40.7202 34.9451 30.7555 29.9063 29.3598 25.8142 20.1417 17.7001 15.7183 11.9399 14.1383 11.8632 11.8897 11.7761 11.5869 11.3551 10.936 10.3845 9.9267 9.64654 8.70195 7.92988 7.84681 7.54421 9.17801
threshold=0 49.500000000000007 1 -459.49999999999994 120.50000000000001 2 3 0.51972456038539816 2.3363966516081702 3.4001091597462305 4 5 2.7833188578129175 0.84753307444029569 6 -0.52705818521824699 -264.49999999999994 184.50000000000003 2.740319461670996 4.5528159160490373 0.81900730237416519 7 -595.49999999999989 8 9 10 0.81900730237416519 11 12 1.7472490050198912
decision_type=9 8 9 8 8 9 9 2 10 8 9 9 8 2 9 2 10 8 2 8 2 9 8 9 9 9 2 9 9 8
left_child=1 2 6 27 9 14 -1 10 18 13 -8 -12 -13 20 -2 -16 -6 -18 -9 26 -5 -4 -7 -21 -14 -20 -11 -3 -23 -30
right_child=5 3 21 4 16 22 7 8 -10 19 11 12 24 -15 15 -17 17 -19 25 23 -22 28 -24 -25 -26 -27 -28 -29 29 -31
leaf_value=0.015774101274490356 0 0.010767499235630036 0.010767499235630036 0 0 0 0.025139067835092545 0 0 0 0.010767499235630036 0 0 0 0 0 0 0 0.015774101274490356 0 0 0.010767499235630036 0 0 0 0 0 0 0 0
leaf_weight=535 181 315 4191 814 232 70 442 380 424 164 566 371 720 115 74 175 436 633 261 408 75 361 2321 666 950 404 36 429 87 456
leaf_count=535 181 315 4191 814 232 70 442 380 424 164 566 371 720 115 74 175 436 633 261 408 75 361 2321 666 950 404 36 429 87 456
internal_value=-0.00243916 -0.00147497 -0.000448561 -0.00388781 -0.00450433 -0.00735394 -0.00157752 -0.0018644 -0.00305718 -0.00354785 -0.00129583 -0.001671 -0.00213506 -0.00482669 -0.00418182 -0.00567954 -0.00617909 -0.00662395 -0.00214833 -0.00254003 -0.00527672 0.00067287 -0.00790462 -0.00212849 -0.00170659 -0.00134586 -0.00475 -0.000922043 -0.000323851 -0.00106148
internal_weight=17292 14471 10148 4323 3579 2821 5053 4518 1469 2278 3049 2607 2041 1004 430 249 1301 1069 1045 1274 889 5095 2391 1074 1670 665 200 744 904 543
internal_count=17292 14471 10148 4323 3579 2821 5053 4518 1469 2278 3049 2607 2041 1004 430 249 1301 1069 1045 1274 889 5095 2391 1074 1670 665 200 744 904 543
cat_boundaries=0 3 6 41 78 115 150 153 180 183 188 191 196 223
cat_threshold=1582415888 503844360 284 4384641 2701131776 2241 0 0 0 11796480 0 245761 240 0 0 33554432 20971520 0 0 0 0 0 524288 0 0 1920 0 0 0 0 0 0 0 33562112 0 0 0 0 0 0 402653184 0 0 524288 0 16384 0 0 0 0 0 1063936 8192 204 0 536871680 8 0 1006632960 0 0 0 224 0 0 4096 4 0 0 0 0 0 0 0 0 7340032 0 983040 8192 0 0 8388632 7340032 2048 0 4 0 0 0 0 0 0 1073742848 20 0 0 15360 1408 6815744 0 33628160 0 0 0 0 0 0 0 0 0 0 0 0 240 1048576 0 2048 1073741824 16777280 0 13312 524288 56 6 0 448 0 0 0 128 2 2176 0 64 512 101711872 0 20480 0 0 0 0 0 0 0 0 0 0 0 1280 4096 0 4609 2048 0 0 0 0 0 0 0 0 0 0 0 0 24 0 2048 0 33554432 1048576 2097152 4160755712 7 0 0 0 1107046400 1 1547698192 402655232 20 133164 139424 88100864 1092616209 17 33570816 201328640 260 132 128 69206016 69279745 1 0 0 0 0 0 0 0 0 0 0 384 0 0 7172 15 0 0 0 10485760 0 0 8 0 0 0 2147483648 7340032
is_linear=0
shrinkage=0.01


Tree=3
num_leaves=31
num_cat=13
split_feature=2 27 0 26 27 3 3 13 24 20 3 3 20 12 0 13 26 27 16 24 12 3 26 2 6 2 12 6 3 20
split_gain=817.265 358.587 128.691 79.0443 57.3313 40.7202 34.9451 30.7555 29.9063 29.3598 25.8142 20.1417 17.7001 15.7183 11.9399 14.1383 11.8632 11.8897 11.7761 11.5869 11.3551 10.936 10.3845 9.9267 9.64654 8.70195 7.92988 7.84681 7.54421 9.17801
threshold=0 49.500000000000007 1 -459.49999999999994 120.50000000000001 2 3 0.51972456038539816 2.3363966516081702 3.4001091597462305 4 5 2.7833188578129175 0.84753307444029569 6 -0.52705818521824699 -264.49999999999994 184.50000000000003 2.740319461670996 4.5528159160490373 0.81900730237416519 7 -595.49999999999989 8 9 10 0.81900730237416519 11 12 1.7472490050198912
decision_type=9 8 9 8 8 9 9 2 10 8 9 9 8 2 9 2 10 8 2 8 2 9 8 9 9 9 2 9 9 8
left_child=1 2 6 27 9 14 -1 10 18 13 -8 -12 -13 20 -2 -16 -6 -18 -9 26 -5 -4 -7 -21 -14 -20 -11 -3 -23 -30
right_child=5 3 21 4 16 22 7 8 -10 19 11 12 24 -15 15 -17 17 -19 25 23 -22 28 -24 -25 -26 -27 -28 -29 29 -31
leaf_value=0.015616360261745453 0 0.010659824243273735 0.010659824243273735 0 0 0 0.02488767715674162 0 0 0 0.010659824243273735 0 0 0 0 0 0 0 0.015616360261745453 0 0 0.010659824243273735 0 0 0 0 0 0 0 0
leaf_weight=535 181 315 4191 814 232 70 442 380 424 164 566 371 720 115 74 175 436 633 261 408 75 361 2321 666 950 404 36 429 87 456
leaf_count=535 181 315 4191 814 232 70 442 380 424 164 566 371 720 115 74 175 436 633 261 408 75 361 2321 666 950 404 36 429 87 456
internal_value=-0.00243916 -0.00147497 -0.000448561 -0.00388781 -0.00450433 -0.00735394 -0.00157752 -0.0018644 -0.00305718 -0.00354785 -0.00129583 -0.001671 -0.00213506 -0.00482669 -0.00418182 -0.00567954 -0.00617909 -0.00662395 -0.00214833 -0.00254003 -0.00527672 0.00067287 -0.00790462 -0.00212849 -0.00170659 -0.00134586 -0.00475 -0.000922043 -0.000323851 -0.00106148
internal_weight=17292 14471 10148 4323 3579 2821 5053 4518 1469 2278 3049 2607 2041 1004 430 249 1301 1069 1045 1274 889 5095 2391 1074 1670 665 200 744 904 543
internal_count=17292 14471 10148 4323 3579 2821 5053 4518 1469 2278 3049 2607 2041 1004 430 249 1301 1069 1045 1274 889 5095 2391 1074 1670 665 200 744 904 543
cat_boundaries=0 3 6 41 78 115 150 153 180 183 188 191 196 223
cat_threshold=1582415888 503844360 284 4384641 2701131776 2241 0 0 0 11796480 0 245761 240 0 0 33554432 20971520 0 0 0 0 0 524288 0 0 1920 0 0 0 0 0 0 0 33562112 0 0 0 0 0 0 402653184 0 0 524288 0 16384 0 0 0 0 0 1063936 8192 204 0 536871680 8 0 1006632960 0 0 0 224 0 0 4096 4 0 0 0 0 0 0 0 0 7340032 0 983040 8192 0 0 8388632 7340032 2048 0 4 0 0 0 0 0 0 1073742848 20 0 0 15360 1408 6815744 0 33628160 0 0 0 0 0 0 0 0 0 0 0 0 240 1048576 0 2048 1073741824 16777280 0 13312 524288 56 6 0 448 0 0 0 128 2 2176 0 64 512 101711872 0 20480 0 0 0 0 0 0 0 0 0 0 0 1280 4096 0 4609 2048 0 0 0 0 0 0 0 0 0 0 0 0 24 0 2048 0 33554432 1048576 2097152 4160755712 7 0 0 0 1107046400 1 1547698192 402655232 20 133164 139424 88100864 1092616209 17 33570816 201328640 260 132 128 69206016 69279745 1 0 0 0 0 0 0 0 0 0 0 384 0 0 7172 15 0 0 0 10485760 0 0 8 0 0 0 2147483648 7340032
is_linear=0
shrinkage=0.01


Tree=4
num_leaves=31
num_cat=13
split_feature=2 27 0 26 27 3 3 13 24 20 3 3 20 12 0 13 26 27 16 24 12 3 26 2 6 2 12 6 3 20
split_gain=817.265 358.587 128.691 79.0443 57.3313 40.7202 34.9451 30.7555 29.9063 29.3598 25.8142 20.1417 17.7001 15.7183 11.9399 14.1383 11.8632 11.8897 11.7761 11.5869 11.3551 10.936 10.3845 9.9267 9.64654 8.70195 7.92988 7.84681 7.54421 9.17801
threshold=0 49.500000000000007 1 -459.49999999999994 120.50000000000001 2 3 0.51972456038539816 2.3363966516081702 3.4001091597462305 4 5 2.7833188578129175 0.84753307444029569 6 -0.52705818521824699 -264.49999999999994 184.50000000000003 2.740319461670996 4.5528159160490373 0.81900730237416519 7 -595.49999999999989 8 9 10 0.81900730237416519 11 12 1.7472490050198912
decision_type=9 8 9 8 8 9 9 2 10 8 9 9 8 2 9 2 10 8 2 8 2 9 8 9 9 9 2 9 9 8
left_child=1 2 6 27 9 14 -1 10 18 13 -8 -12 -13 20 -2 -16 -6 -18 -9 26 -5 -4 -7 -21 -14 -20 -11 -3 -23 -30
right_child=5 3 21 4 16 22 7 8 -10 19 11 12 24 -15 15 -17 17 -19 25 23 -22 28 -24 -25 -26 -27 -28 -29 29 -31
leaf_value=0.015460196659127999 0 0.010553226000840998 0.010553226000840998 0 0 0 0.024638800385174204 0 0 0 0.010553226000840998 0 0 0 0 0 0 0 0.015460196659127999 0 0 0.010553226000840998 0 0 0 0 0 0 0 0
leaf_weight=535 181 315 4191 814 232 70 442 380 424 164 566 371 720 115 74 175 436 633 261 408 75 361 2321 666 950 404 36 429 87 456
leaf_count=535 181 315 4191 814 232 70 442 380 424 164 566 371 720 115 74 175 436 633 261 408 75 361 2321 666 950 404 36 429 87 456
internal_value=-0.00243916 -0.00147497 -0.000448561 -0.00388781 -0.00450433 -0.00735394 -0.00157752 -0.0018644 -0.00305718 -0.00354785 -0.00129583 -0.001671 -0.00213506 -0.00482669 -0.00418182 -0.00567954 -0.00617909 -0.00662395 -0.00214833 -0.00254003 -0.00527672 0.00067287 -0.00790462 -0.00212849 -0.00170659 -0.00134586 -0.00475 -0.000922043 -0.000323851 -0.00106148
internal_weight=17292 14471 10148 4323 3579 2821 5053 4518 1469 2278 3049 2607 2041 1004 430 249 1301 1069 1045 1274 889 5095 2391 1074 1670 665 200 744 904 543
internal_count=17292 14471 10148 4323 3579 2821 5053 4518 1469 2278 3049 2607 2041 1004 430 249 1301 1069 1045 1274 889 5095 2391 1074 1670 665 200 744 904 543
cat_boundaries=0 3 6 41 78 115 150 153 180 183 188 191 196 223
cat_threshold=1582415888 503844360 284 4384641 2701131776 2241 0 0 0 11796480 0 245761 240 0 0 33554432 20971520 0 0 0 0 0 524288 0 0 1920 0 0 0 0 0 0 0 33562112 0 0 0 0 0 0 402653184 0 0 524288 0 16384 0 0 0 0 0 1063936 8192 204 0 536871680 8 0 1006632960 0 0 0 224 0 0 4096 4 0 0 0 0 0 0 0 0 7340032 0 983040 8192 0 0 8388632 7340032 2048 0 4 0 0 0 0 0 0 1073742848 20 0 0 15360 1408 6815744 0 33628160 0 0 0 0 0 0 0 0 0 0 0 0 240 1048576 0 2048 1073741824 16777280 0 13312 524288 56 6 0 448 0 0 0 128 2 2176 0 64 512 101711872 0 20480 0 0 0 0 0 0 0 0 0 0 0 1280 4096 0 4609 2048 0 0 0 0 0 0 0 0 0 0 0 0 24 0 2048 0 33554432 1048576 2097152 4160755712 7 0 0 0 1107046400 1 1547698192 402655232 20 133164 139424 88100864 1092616209 17 33570816 201328640 260 132 128 69206016 69279745 1 0 0 0 0 0 0 0 0 0 0 384 0 0 7172 15 0 0 0 10485760 0 0 8 0 0 0 2147483648 7340032
is_linear=0
shrinkage=0.01


Tree=5
num_leaves=31
num_cat=13
split_feature=2 27 0 26 27 3 3 13 24 20 3 3 20 12 0 13 26 27 16 24 12 3 26 2 6 2 12 6 3 20
split_gain=817.265 358.587 128.691 79.0443 57.3313 40.7202 34.9451 30.7555 29.9063 29.3598 25.8142 20.1417 17.7001 15.7183 11.9399 14.1383 11.8632 11.8897 11.7761 11.5869 11.3551 10.936 10.3845 9.9267 9.64654 8.70195 7.92988 7.84681 7.54421 9.17801
threshold=0 49.500000000000007 1 -459.49999999999994 120.50000000000001 2 3 0.51972456038539816 2.3363966516081702 3.4001091597462305 4 5 2.7833188578129175 0.84753307444029569 6 -0.52705818521824699 -264.49999999999994 184.50000000000003 2.740319461670996 4.5528159160490373 0.81900730237416519 7 -595.49999999999989 8 9 10 0.81900730237416519 11 12 1.7472490050198912
decision_type=9 8 9 8 8 9 9 2 10 8 9 9 8 2 9 2 10 8 2 8 2 9 8 9 9 9 2 9 9 8
left_child=1 2 6 27 9 14 -1 10 18 13 -8 -12 -13 20 -2 -16 -6 -18 -9 26 -5 -4 -7 -21 -14 -20 -11 -3 -23 -30
right_child=5 3 21 4 16 22 7 8 -10 19 11 12 24 -15 15 -17 17 -19 25 23 -22 28 -24 -25 -26 -27 -28 -29 29 -31
leaf_value=0.015305594692536719 0 0.010447693740832589 0.010447693740832589 0 0 0 0.024392412381322458 0 0 0 0.010447693740832589 0 0 0 0 0 0 0 0.015305594692536719 0 0 0.010447693740832589 0 0 0 0 0 0 0 0
leaf_weight=535 181 315 4191 814 232 70 442 380 424 164 566 371 720 115 74 175 436 633 261 408 75 361 2321 666 950 404 36 429 87 456
leaf_count=535 181 315 4191 814 232 70 442 380 424 164 566 371 720 115 74 175 436 633 261 408 75 361 2321 666 950 404 36 429 87 456
internal_value=-0.00243916 -0.00147497 -0.000448561 -0.00388781 -0.00450433 -0.00735394 -0.00157752 -0.0018644 -0.00305718 -0.00354785 -0.00129583 -0.001671 -0.00213506 -0.00482669 -0.00418182 -0.00567954 -0.00617909 -0.00662395 -0.00214833 -0.00254003 -0.00527672 0.00067287 -0.00790462 -0.00212849 -0.00170659 -0.00134586 -0.00475 -0.000922043 -0.000323851 -0.00106148
internal_weight=17292 14471 10148 4323 3579 2821 5053 4518 1469 2278 3049 2607 2041 1004 430 249 1301 1069 1045 1274 889 5095 2391 1074 1670 665 200 744 904 543
internal_count=17292 14471 10148 4323 3579 2821 5053 4518 1469 2278 3049 2607 2041 1004 430 249 1301 1069 1045 1274 889 5095 2391 1074 1670 665 200 744 904 543
cat_boundaries=0 3 6 41 78 115 150 153 180 183 188 191 196 223
cat_threshold=1582415888 503844360 284 4384641 2701131776 2241 0 0 0 11796480 0 245761 240 0 0 33554432 20971520 0 0 0 0 0 524288 0 0 1920 0 0 0 0 0 0 0 33562112 0 0 0 0 0 0 402653184 0 0 524288 0 16384 0 0 0 0 0 1063936 8192 204 0 536871680 8 0 1006632960 0 0 0 224 0 0 4096 4 0 0 0 0 0 0 0 0 7340032 0 983040 8192 0 0 8388632 7340032 2048 0 4 0 0 0 0 0 0 1073742848 20 0 0 15360 1408 6815744 0 33628160 0 0 0 0 0 0 0 0 0 0 0 0 240 1048576 0 2048 1073741824 16777280 0 13312 524288 56 6 0 448 0 0 0 128 2 2176 0 64 512 101711872 0 20480 0 0 0 0 0 0 0 0 0 0 0 1280 4096 0 4609 2048 0 0 0 0 0 0 0 0 0 0 0 0 24 0 2048 0 33554432 1048576 2097152 4160755712 7 0 0 0 1107046400 1 1547698192 402655232 20 133164 139424 88100864 1092616209 17 33570816 201328640 260 132 128 69206016 69279745 1 0 0 0 0 0 0 0 0 0 0 384 0 0 7172 15 0 0 0 10485760 0 0 8 0 0 0 2147483648 7340032
is_linear=0
shrinkage=0.01


Tree=6
num_leaves=31
num_cat=13
split_feature=2 27 0 26 27 3 3 13 24 20 3 3 20 12 0 13 26 27 16 24 12 3 26 2 6 2 12 6 3 20
split_gain=817.265 358.587 128.691 79.0443 57.3313 40.7202 34.9451 30.7555 29.9063 29.3598 25.8142 20.1417 17.7001 15.7183 11.9399 14.1383 11.8632 11.8897 11.7761 11.5869 11.3551 10.936 10.3845 9.9267 9.64654 8.70195 7.92988 7.84681 7.54421 9.17801
threshold=0 49.500000000000007 1 -459.49999999999994 120.50000000000001 2 3 0.51972456038539816 2.3363966516081702 3.4001091597462305 4 5 2.7833188578129175 0.84753307444029569 6 -0.52705818521824699 -264.49999999999994 184.50000000000003 2.740319461670996 4.5528159160490373 0.81900730237416519 7 -595.49999999999989 8 9 10 0.81900730237416519 11 12 1.7472490050198912
decision_type=9 8 9 8 8 9 9 2 10 8 9 9 8 2 9 2 10 8 2 8 2 9 8 9 9 9 2 9 9 8
left_child=1 2 6 27 9 14 -1 10 18 13 -8 -12 -13 20 -2 -16 -6 -18 -9 26 -5 -4 -7 -21 -14 -20 -11 -3 -23 -30
right_child=5 3 21 4 16 22 7 8 -10 19 11 12 24 -15 15 -17 17 -19 25 23 -22 28 -24 -25 -26 -27 -28 -29 29 -31
leaf_value=0.015152538745611351 0 0.010343216803424262 0.010343216803424262 0 0 0 0.024148488257509239 0 0 0 0.010343216803424262 0 0 0 0 0 0 0 0.015152538745611351 0 0 0.010343216803424262 0 0 0 0 0 0 0 0
leaf_weight=535 181 315 4191 814 232 70 442 380 424 164 566 371 720 115 74 175 436 633 261 408 75 361 2321 666 950 404 36 429 87 456
leaf_count=535 181 315 4191 814 232 70 442 380 424 164 566 371 720 115 74 175 436 633 261 408 75 361 2321 666 950 404 36 429 87 456
internal_value=-0.00243916 -0.00147497 -0.000448561 -0.00388781 -0.00450433 -0.00735394 -0.00157752 -0.0018644 -0.00305718 -0.00354785 -0.00129583 -0.001671 -0.00213506 -0.00482669 -0.00418182 -0.00567954 -0.00617909 -0.00662395 -0.00214833 -0.00254003 -0.00527672 0.00067287 -0.00790462 -0.00212849 -0.00170659 -0.00134586 -0.00475 -0.000922043 -0.000323851 -0.00106148
internal_weight=17292 14471 10148 4323 3579 2821 5053 4518 1469 2278 3049 2607 2041 1004 430 249 1301 1069 1045 1274 889 5095 2391 1074 1670 665 200 744 904 543
internal_count=17292 14471 10148 4323 3579 2821 5053 4518 1469 2278 3049 2607 2041 1004 430 249 1301 1069 1045 1274 889 5095 2391 1074 1670 665 200 744 904 543
cat_boundaries=0 3 6 41 78 115 150 153 180 183 188 191 196 223
cat_threshold=1582415888 503844360 284 4384641 2701131776 2241 0 0 0 11796480 0 245761 240 0 0 33554432 20971520 0 0 0 0 0 524288 0 0 1920 0 0 0 0 0 0 0 33562112 0 0 0 0 0 0 402653184 0 0 524288 0 16384 0 0 0 0 0 1063936 8192 204 0 536871680 8 0 1006632960 0 0 0 224 0 0 4096 4 0 0 0 0 0 0 0 0 7340032 0 983040 8192 0 0 8388632 7340032 2048 0 4 0 0 0 0 0 0 1073742848 20 0 0 15360 1408 6815744 0 33628160 0 0 0 0 0 0 0 0 0 0 0 0 240 1048576 0 2048 1073741824 16777280 0 13312 524288 56 6 0 448 0 0 0 128 2 2176 0 64 512 101711872 0 20480 0 0 0 0 0 0 0 0 0 0 0 1280 4096 0 4609 2048 0 0 0 0 0 0 0 0 0 0 0 0 24 0 2048 0 33554432 1048576 2097152 4160755712 7 0 0 0 1107046400 1 1547698192 402655232 20 133164 139424 88100864 1092616209 17 33570816 201328640 260 132 128 69206016 69279745 1 0 0 0 0 0 0 0 0 0 0 384 0 0 7172 15 0 0 0 10485760 0 0 8 0 0 0 2147483648 7340032
is_linear=0
shrinkage=0.01


Tree=7
num_leaves=31
num_cat=13
split_feature=2 27 0 26 27 3 3 13 24 20 3 3 20 12 0 13 26 27 16 24 12 3 26 2 6 2 12 6 3 20
split_gain=817.265 358.587 128.691 79.0443 57.3313 40.7202 34.9451 30.7555 29.9063 29.3598 25.8142 20.1417 17.7001 15.7183 11.9399 14.1383 11.8632 11.8897 11.7761 11.5869 11.3551 10.936 10.3845 9.9267 9.64654 8.70195 7.92988 7.84681 7.54421 9.17801
threshold=0 49.500000000000007 1 -459.49999999999994 120.50000000000001 2 3 0.51972456038539816 2.3363966516081702 3.4001091597462305 4 5 2.7833188578129175 0.84753307444029569 6 -0.52705818521824699 -264.49999999999994 184.50000000000003 2.740319461670996 4.5528159160490373 0.81900730237416519 7 -595.49999999999989 8 9 10 0.81900730237416519 11 12 1.7472490050198912
decision_type=9 8 9 8 8 9 9 2 10 8 9 9 8 2 9 2 10 8 2 8 2 9 8 9 9 9 2 9 9 8
left_child=1 2 6 27 9 14 -1 10 18 13 -8 -12 -13 20 -2 -16 -6 -18 -9 26 -5 -4 -7 -21 -14 -20 -11 -3 -23 -30
right_child=5 3 21 4 16 22 7 8 -10 19 11 12 24 -15 15 -17 17 -19 25 23 -22 28 -24 -25 -26 -27 -28 -29 29 -31
leaf_value=0.015001013358155237 0 0.010239784635390018 0.010239784635390018 0 0 0 0.023907003374934146 0 0 0 0.010239784635390018 0 0 0 0 0 0 0 0.015001013358155237 0 0 0.010239784635390018 0 0 0 0 0 0 0 0
leaf_weight=535 181 315 4191 814 232 70 442 380 424 164 566 371 720 115 74 175 436 633 261 408 75 361 2321 666 950 404 36 429 87 456
leaf_count=535 181 315 4191 814 232 70 442 380 424 164 566 371 720 115 74 175 436 633 261 408 75 361 2321 666 950 404 36 429 87 456
internal_value=-0.00243916 -0.00147497 -0.000448561 -0.00388781 -0.00450433 -0.00735394 -0.00157752 -0.0018644 -0.00305718 -0.00354785 -0.00129583 -0.001671 -0.00213506 -0.00482669 -0.00418182 -0.00567954 -0.00617909 -0.00662395 -0.00214833 -0.00254003 -0.00527672 0.00067287 -0.00790462 -0.00212849 -0.00170659 -0.00134586 -0.00475 -0.000922043 -0.000323851 -0.00106148
internal_weight=17292 14471 10148 4323 3579 2821 5053 4518 1469 2278 3049 2607 2041 1004 430 249 1301 1069 1045 1274 889 5095 2391 1074 1670 665 200 744 904 543
internal_count=17292 14471 10148 4323 3579 2821 5053 4518 1469 2278 3049 2607 2041 1004 430 249 1301 1069 1045 1274 889 5095 2391 1074 1670 665 200 744 904 543
cat_boundaries=0 3 6 41 78 115 150 153 180 183 188 191 196 223
cat_threshold=1582415888 503844360 284 4384641 2701131776 2241 0 0 0 11796480 0 245761 240 0 0 33554432 20971520 0 0 0 0 0 524288 0 0 1920 0 0 0 0 0 0 0 33562112 0 0 0 0 0 0 402653184 0 0 524288 0 16384 0 0 0 0 0 1063936 8192 204 0 536871680 8 0 1006632960 0 0 0 224 0 0 4096 4 0 0 0 0 0 0 0 0 7340032 0 983040 8192 0 0 8388632 7340032 2048 0 4 0 0 0 0 0 0 1073742848 20 0 0 15360 1408 6815744 0 33628160 0 0 0 0 0 0 0 0 0 0 0 0 240 1048576 0 2048 1073741824 16777280 0 13312 524288 56 6 0 448 0 0 0 128 2 2176 0 64 512 101711872 0 20480 0 0 0 0 0 0 0 0 0 0 0 1280 4096 0 4609 2048 0 0 0 0 0 0 0 0 0 0 0 0 24 0 2048 0 33554432 1048576 2097152 4160755712 7 0 0 0 1107046400 1 1547698192 402655232 20 133164 139424 88100864 1092616209 17 33570816 201328640 260 132 128 69206016 69279745 1 0 0 0 0 0 0 0 0 0 0 384 0 0 7172 15 0 0 0 10485760 0 0 8 0 0 0 2147483648 7340032
is_linear=0
shrinkage=0.01


Tree=8
num_leaves=31
num_cat=13
split_feature=2 27 0 26 27 3 3 13 24 20 3 3 20 12 0 13 26 27 16 24 12 3 26 2 6 2 12 6 3 20
split_gain=817.265 358.587 128.691 79.0443 57.3313 40.7202 34.9451 30.7555 29.9063 29.3598 25.8142 20.1417 17.7001 15.7183 11.9399 14.1383 11.8632 11.8897 11.7761 11.5869 11.3551 10.936 10.3845 9.9267 9.64654 8.70195 7.92988 7.84681 7.54421 9.17801
threshold=0 49.500000000000007 1 -459.49999999999994 120.50000000000001 2 3 0.51972456038539816 2.3363966516081702 3.4001091597462305 4 5 2.7833188578129175 0.84753307444029569 6 -0.52705818521824699 -264.49999999999994 184.50000000000003 2.740319461670996 4.5528159160490373 0.81900730237416519 7 -595.49999999999989 8 9 10 0.81900730237416519 11 12 1.7472490050198912
decision_type=9 8 9 8 8 9 9 2 10 8 9 9 8 2 9 2 10 8 2 8 2 9 8 9 9 9 2 9 9 8
left_child=1 2 6 27 9 14 -1 10 18 13 -8 -12 -13 20 -2 -16 -6 -18 -9 26 -5 -4 -7 -21 -14 -20 -11 -3 -23 -30
right_child=5 3 21 4 16 22 7 8 -10 19 11 12 24 -15 15 -17 17 -19 25 23 -22 28 -24 -25 -26 -27 -28 -29 29 -31
leaf_value=0.014851003224573684 0 0.010137386789036118 0.010137386789036118 0 0 0 0.023667933341184805 0 0 0 0.010137386789036118 0 0 0 0 0 0 0 0.014851003224573684 0 0 0.010137386789036118 0 0 0 0 0 0 0 0
leaf_weight=535 181 315 4191 814 232 70 442 380 424 164 566 371 720 115 74 175 436 633 261 408 75 361 2321 666 950 404 36 429 87 456
leaf_count=535 181 315 4191 814 232 70 442 380 424 164 566 371 720 115 74 175 436 633 261 408 75 361 2321 666 950 404 36 429 87 456
internal_value=-0.00243916 -0.00147497 -0.000448561 -0.00388781 -0.00450433 -0.00735394 -0.00157752 -0.0018644 -0.00305718 -0.00354785 -0.00129583 -0.001671 -0.00213506 -0.00482669 -0.00418182 -0.00567954 -0.00617909 -0.00662395 -0.00214833 -0.00254003 -0.00527672 0.00067287 -0.00790462 -0.00212849 -0.00170659 -0.00134586 -0.00475 -0.000922043 -0.000323851 -0.00106148
internal_weight=17292 14471 10148 4323 3579 2821 5053 4518 1469 2278 3049 2607 2041 1004 430 249 1301 1069 1045 1274 889 5095 2391 1074 1670 665 200 744 904 543
internal_count=17292 14471 10148 4323 3579 2821 5053 4518 1469 2278 3049 2607 2041 1004 430 249 1301 1069 1045 1274 889 5095 2391 1074 1670 665 200 744 904 543
cat_boundaries=0 3 6 41 78 115 150 153 180 183 188 191 196 223
cat_threshold=1582415888 503844360 284 4384641 2701131776 2241 0 0 0 11796480 0 245761 240 0 0 33554432 20971520 0 0 0 0 0 524288 0 0 1920 0 0 0 0 0 0 0 33562112 0 0 0 0 0 0 402653184 0 0 524288 0 16384 0 0 0 0 0 1063936 8192 204 0 536871680 8 0 1006632960 0 0 0 224 0 0 4096 4 0 0 0 0 0 0 0 0 7340032 0 983040 8192 0 0 8388632 7340032 2048 0 4 0 0 0 0 0 0 1073742848 20 0 0 15360 1408 6815744 0 33628160 0 0 0 0 0 0 0 0 0 0 0 0 240 1048576 0 2048 1073741824 16777280 0 13312 524288 56 6 0 448 0 0 0 128 2 2176 0 64 512 101711872 0 20480 0 0 0 0 0 0 0 0 0 0 0 1280 4096 0 4609 2048 0 0 0 0 0 0 0 0 0 0 0 0 24 0 2048 0 33554432 1048576 2097152 4160755712 7 0 0 0 1107046400 1 1547698192 402655232 20 133164 139424 88100864 1092616209 17 33570816 201328640 260 132 128 69206016 69279745 1 0 0 0 0 0 0 0 0 0 0 384 0 0 7172 15 0 0 0 10485760 0 0 8 0 0 0 2147483648 7340032
is_linear=0
shrinkage=0.01


Tree=9
num_leaves=31
num_cat=13
split_feature=2 27 0 26 27 3 3 13 24 20 3 3 20 12 0 13 26 27 16 24 12 3 26 2 6 2 12 6 3 20
split_gain=817.265 358.587 128.691 79.0443 57.3313 40.7202 34.9451 30.7555 29.9063 29.3598 25.8142 20.1417 17.7001 15.7183 11.9399 14.1383 11.8632 11.8897 11.7761 11.5869 11.3551 10.936 10.3845 9.9267 9.64654 8.70195 7.92988 7.84681 7.54421 9.17801
threshold=0 49.500000000000007 1 -459.49999999999994 120.50000000000001 2 3 0.51972456038539816 2.3363966516081702 3.4001091597462305 4 5 2.7833188578129175 0.84753307444029569 6 -0.52705818521824699 -264.49999999999994 184.50000000000003 2.740319461670996 4.5528159160490373 0.81900730237416519 7 -595.49999999999989 8 9 10 0.81900730237416519 11 12 1.7472490050198912
decision_type=9 8 9 8 8 9 9 2 10 8 9 9 8 2 9 2 10 8 2 8 2 9 8 9 9 9 2 9 9 8
left_child=1 2 6 27 9 14 -1 10 18 13 -8 -12 -13 20 -2 -16 -6 -18 -9 26 -5 -4 -7 -21 -14 -20 -11 -3 -23 -30
right_child=5 3 21 4 16 22 7 8 -10 19 11 12 24 -15 15 -17 17 -19 25 23 -22 28 -24 -25 -26 -27 -28 -29 29 -31
leaf_value=0.014702493192327947 0 0.010036012921145759 0.010036012921145759 0 0 0 0.023431254007772954 0 0 0 0.010036012921145759 0 0 0 0 0 0 0 0.014702493192327947 0 0 0.010036012921145759 0 0 0 0 0 0 0 0
leaf_weight=535 181 315 4191 814 232 70 442 380 424 164 566 371 720 115 74 175 436 633 261 408 75 361 2321 666 950 404 36 429 87 456
leaf_count=535 181 315 4191 814 232 70 442 380 424 164 566 371 720 115 74 175 436 633 261 408 75 361 2321 666 950 404 36 429 87 456
internal_value=-0.00243916 -0.00147497 -0.000448561 -0.00388781 -0.00450433 -0.00735394 -0.00157752 -0.0018644 -0.00305718 -0.00354785 -0.00129583 -0.001671 -0.00213506 -0.00482669 -0.00418182 -0.00567954 -0.00617909 -0.00662395 -0.00214833 -0.00254003 -0.00527672 0.00067287 -0.00790462 -0.00212849 -0.00170659 -0.00134586 -0.00475 -0.000922043 -0.000323851 -0.00106148
internal_weight=17292 14471 10148 4323 3579 2821 5053 4518 1469 2278 3049 2607 2041 1004 430 249 1301 1069 1045 1274 889 5095 2391 1074 1670 665 200 744 904 543
internal_count=17292 14471 10148 4323 3579 2821 5053 4518 1469 2278 3049 2607 2041 1004 430 249 1301 1069 1045 1274 889 5095 2391 1074 1670 665 200 744 904 543
cat_boundaries=0 3 6 41 78 115 150 153 180 183 188 191 196 223
cat_threshold=1582415888 503844360 284 4384641 2701131776 2241 0 0 0 11796480 0 245761 240 0 0 33554432 20971520 0 0 0 0 0 524288 0 0 1920 0 0 0 0 0 0 0 33562112 0 0 0 0 0 0 402653184 0 0 524288 0 16384 0 0 0 0 0 1063936 8192 204 0 536871680 8 0 1006632960 0 0 0 224 0 0 4096 4 0 0 0 0 0 0 0 0 7340032 0 983040 8192 0 0 8388632 7340032 2048 0 4 0 0 0 0 0 0 1073742848 20 0 0 15360 1408 6815744 0 33628160 0 0 0 0 0 0 0 0 0 0 0 0 240 1048576 0 2048 1073741824 16777280 0 13312 524288 56 6 0 448 0 0 0 128 2 2176 0 64 512 101711872 0 20480 0 0 0 0 0 0 0 0 0 0 0 1280 4096 0 4609 2048 0 0 0 0 0 0 0 0 0 0 0 0 24 0 2048 0 33554432 1048576 2097152 4160755712 7 0 0 0 1107046400 1 1547698192 402655232 20 133164 139424 88100864 1092616209 17 33570816 201328640 260 132 128 69206016 69279745 1 0 0 0 0 0 0 0 0 0 0 384 0 0 7172 15 0 0 0 10485760 0 0 8 0 0 0 2147483648 7340032
is_linear=0
shrinkage=0.01


Tree=10
num_leaves=31
num_cat=13
split_feature=2 27 0 26 27 3 3 13 24 20 3 3 20 12 0 13 26 27 16 24 12 3 26 2 6 2 12 6 3 20
split_gain=817.265 358.587 128.691 79.0443 57.3313 40.7202 34.9451 30.7555 29.9063 29.3598 25.8142 20.1417 17.7001 15.7183 11.9399 14.1383 11.8632 11.8897 11.7761 11.5869 11.3551 10.936 10.3845 9.9267 9.64654 8.70195 7.92988 7.84681 7.54421 9.17801
threshold=0 49.500000000000007 1 -459.49999999999994 120.50000000000001 2 3 0.51972456038539816 2.3363966516081702 3.4001091597462305 4 5 2.7833188578129175 0.84753307444029569 6 -0.52705818521824699 -264.49999999999994 184.50000000000003 2.740319461670996 4.5528159160490373 0.81900730237416519 7 -595.49999999999989 8 9 10 0.81900730237416519 11 12 1.7472490050198912
decision_type=9 8 9 8 8 9 9 2 10 8 9 9 8 2 9 2 10 8 2 8 2 9 8 9 9 9 2 9 9 8
left_child=1 2 6 27 9 14 -1 10 18 13 -8 -12 -13 20 -2 -16 -6 -18 -9 26 -5 -4 -7 -21 -14 -20 -11 -3 -23 -30
right_child=5 3 21 4 16 22 7 8 -10 19 11 12 24 -15 15 -17 17 -19 25 23 -22 28 -24 -25 -26 -27 -28 -29 29 -31
leaf_value=0.01455546826040467 0 0.0099356527919343008 0.0099356527919343008 0 0 0 0.023196941467695225 0 0 0 0.0099356527919343008 0 0 0 0 0 0 0 0.01455546826040467 0 0 0.0099356527919343008 0 0 0 0 0 0 0 0
leaf_weight=535 181 315 4191 814 232 70 442 380 424 164 566 371 720 115 74 175 436 633 261 408 75 361 2321 666 950 404 36 429 87 456
leaf_count=535 181 315 4191 814 232 70 442 380 424 164 566 371 720 115 74 175 436 633 261 408 75 361 2321 666 950 404 36 429 87 456
internal_value=-0.00243916 -0.00147497 -0.000448561 -0.00388781 -0.00450433 -0.00735394 -0.00157752 -0.0018644 -0.00305718 -0.00354785 -0.00129583 -0.001671 -0.00213506 -0.00482669 -0.00418182 -0.00567954 -0.00617909 -0.00662395 -0.00214833 -0.00254003 -0.00527672 0.00067287 -0.00790462 -0.00212849 -0.00170659 -0.00134586 -0.00475 -0.000922043 -0.000323851 -0.00106148
internal_weight=17292 14471 10148 4323 3579 2821 5053 4518 1469 2278 3049 2607 2041 1004 430 249 1301 1069 1045 1274 889 5095 2391 1074 1670 665 200 744 904 543
internal_count=17292 14471 10148 4323 3579 2821 5053 4518 1469 2278 3049 2607 2041 1004 430 249 1301 1069 1045 1274 889 5095 2391 1074 1670 665 200 744 904 543
cat_boundaries=0 3 6 41 78 115 150 153 180 183 188 191 196 223
cat_threshold=1582415888 503844360 284 4384641 2701131776 2241 0 0 0 11796480 0 245761 240 0 0 33554432 20971520 0 0 0 0 0 524288 0 0 1920 0 0 0 0 0 0 0 33562112 0 0 0 0 0 0 402653184 0 0 524288 0 16384 0 0 0 0 0 1063936 8192 204 0 536871680 8 0 1006632960 0 0 0 224 0 0 4096 4 0 0 0 0 0 0 0 0 7340032 0 983040 8192 0 0 8388632 7340032 2048 0 4 0 0 0 0 0 0 1073742848 20 0 0 15360 1408 6815744 0 33628160 0 0 0 0 0 0 0 0 0 0 0 0 240 1048576 0 2048 1073741824 16777280 0 13312 524288 56 6 0 448 0 0 0 128 2 2176 0 64 512 101711872 0 20480 0 0 0 0 0 0 0 0 0 0 0 1280 4096 0 4609 2048 0 0 0 0 0 0 0 0 0 0 0 0 24 0 2048 0 33554432 1048576 2097152 4160755712 7 0 0 0 1107046400 1 1547698192 402655232 20 133164 139424 88100864 1092616209 17 33570816 201328640 260 132 128 69206016 69279745 1 0 0 0 0 0 0 0 0 0 0 384 0 0 7172 15 0 0 0 10485760 0 0 8 0 0 0 2147483648 7340032
is_linear=0
shrinkage=0.01


Tree=11
num_leaves=31
num_cat=13
split_feature=2 27 0 26 27 3 3 13 24 20 3 3 20 12 0 13 26 27 16 24 12 3 26 2 6 2 12 6 3 20
split_gain=817.265 358.587 128.691 79.0443 57.3313 40.7202 34.9451 30.7555 29.9063 29.3598 25.8142 20.1417 17.7001 15.7183 11.9399 14.1383 11.8632 11.8897 11.7761 11.5869 11.3551 10.936 10.3845 9.9267 9.64654 8.70195 7.92988 7.84681 7.54421 9.17801
threshold=0 49.500000000000007 1 -459.49999999999994 120.50000000000001 2 3 0.51972456038539816 2.3363966516081702 3.4001091597462305 4 5 2.7833188578129175 0.84753307444029569 6 -0.52705818521824699 -264.49999999999994 184.50000000000003 2.740319461670996 4.5528159160490373 0.81900730237416519 7 -595.49999999999989 8 9 10 0.81900730237416519 11 12 1.7472490050198912
decision_type=9 8 9 8 8 9 9 2 10 8 9 9 8 2 9 2 10 8 2 8 2 9 8 9 9 9 2 9 9 8
left_child=1 2 6 27 9 14 -1 10 18 13 -8 -12 -13 20 -2 -16 -6 -18 -9 26 -5 -4 -7 -21 -14 -20 -11 -3 -23 -30
right_child=5 3 21 4 16 22 7 8 -10 19 11 12 24 -15 15 -17 17 -19 25 23 -22 28 -24 -25 -26 -27 -28 -29 29 -31
leaf_value=0.014409913577800621 0 0.009836296264014957 0.009836296264014957 0 0 0 0.02296497205301827 0 0 0 0.009836296264014957 0 0 0 0 0 0 0 0.014409913577800621 0 0 0.009836296264014957 0 0 0 0 0 0 0 0
leaf_weight=535 181 315 4191 814 232 70 442 380 424 164 566 371 720 115 74 175 436 633 261 408 75 361 2321 666 950 404 36 429 87 456
leaf_count=535 181 315 4191 814 232 70 442 380 424 164 566 371 720 115 74 175 436 633 261 408 75 361 2321 666 950 404 36 429 87 456
internal_value=-0.00243916 -0.00147497 -0.000448561 -0.00388781 -0.00450433 -0.00735394 -0.00157752 -0.0018644 -0.00305718 -0.00354785 -0.00129583 -0.001671 -0.00213506 -0.00482669 -0.00418182 -0.00567954 -0.00617909 -0.00662395 -0.00214833 -0.00254003 -0.00527672 0.00067287 -0.00790462 -0.00212849 -0.00170659 -0.00134586 -0.00475 -0.000922043 -0.000323851 -0.00106148
internal_weight=17292 14471 10148 4323 3579 2821 5053 4518 1469 2278 3049 2607 2041 1004 430 249 1301 1069 1045 1274 889 5095 2391 1074 1670 665 200 744 904 543
internal_count=17292 14471 10148 4323 3579 2821 5053 4518 1469 2278 3049 2607 2041 1004 430 249 1301 1069 1045 1274 889 5095 2391 1074 1670 665 200 744 904 543
cat_boundaries=0 3 6 41 78 115 150 153 180 183 188 191 196 223
cat_threshold=1582415888 503844360 284 4384641 2701131776 2241 0 0 0 11796480 0 245761 240 0 0 33554432 20971520 0 0 0 0 0 524288 0 0 1920 0 0 0 0 0 0 0 33562112 0 0 0 0 0 0 402653184 0 0 524288 0 16384 0 0 0 0 0 1063936 8192 204 0 536871680 8 0 1006632960 0 0 0 224 0 0 4096 4 0 0 0 0 0 0 0 0 7340032 0 983040 8192 0 0 8388632 7340032 2048 0 4 0 0 0 0 0 0 1073742848 20 0 0 15360 1408 6815744 0 33628160 0 0 0 0 0 0 0 0 0 0 0 0 240 1048576 0 2048 1073741824 16777280 0 13312 524288 56 6 0 448 0 0 0 128 2 2176 0 64 512 101711872 0 20480 0 0 0 0 0 0 0 0 0 0 0 1280 4096 0 4609 2048 0 0 0 0 0 0 0 0 0 0 0 0 24 0 2048 0 33554432 1048576 2097152 4160755712 7 0 0 0 1107046400 1 1547698192 402655232 20 133164 139424 88100864 1092616209 17 33570816 201328640 260 132 128 69206016 69279745 1 0 0 0 0 0 0 0 0 0 0 384 0 0 7172 15 0 0 0 10485760 0 0 8 0 0 0 2147483648 7340032
is_linear=0
shrinkage=0.01


Tree=12
num_leaves=31
num_cat=13
split_feature=2 27 0 26 27 3 3 13 24 20 3 3 20 12 0 13 26 27 16 24 12 3 26 2 6 2 12 6 3 20
split_gain=817.265 358.587 128.691 79.0443 57.3313 40.7202 34.9451 30.7555 29.9063 29.3598 25.8142 20.1417 17.7001 15.7183 11.9399 14.1383 11.8632 11.8897 11.7761 11.5869 11.3551 10.936 10.3845 9.9267 9.64654 8.70195 7.92988 7.84681 7.54421 9.17801
threshold=0 49.500000000000007 1 -459.49999999999994 120.50000000000001 2 3 0.51972456038539816 2.3363966516081702 3.4001091597462305 4 5 2.7833188578129175 0.84753307444029569 6 -0.52705818521824699 -264.49999999999994 184.50000000000003 2.740319461670996 4.5528159160490373 0.81900730237416519 7 -595.49999999999989 8 9 10 0.81900730237416519 11 12 1.7472490050198912
decision_type=9 8 9 8 8 9 9 2 10 8 9 9 8 2 9 2 10 8 2 8 2 9 8 9 9 9 2 9 9 8
left_child=1 2 6 27 9 14 -1 10 18 13 -8 -12 -13 20 -2 -16 -6 -18 -9 26 -5 -4 -7 -21 -14 -20 -11 -3 -23 -30
right_child=5 3 21 4 16 22 7 8 -10 19 11 12 24 -15 15 -17 17 -19 25 23 -22 28 -24 -25 -26 -27 -28 -29 29 -31
leaf_value=0.014265814442022618 0 0.0097379333013748078 0.0097379333013748078 0 0 0 0.022735322332488091 0 0 0 0.0097379333013748078 0 0 0 0 0 0 0 0.014265814442022618 0 0 0.0097379333013748078 0 0 0 0 0 0 0 0
leaf_weight=535 181 315 4191 814 232 70 442 380 424 164 566 371 720 115 74 175 436 633 261 408 75 361 2321 666 950 404 36 429 87 456
leaf_count=535 181 315 4191 814 232 70 442 380 424 164 566 371 720 115 74 175 436 633 261 408 75 361 2321 666 950 404 36 429 87 456
internal_value=-0.00243916 -0.00147497 -0.000448561 -0.00388781 -0.00450433 -0.00735394 -0.00157752 -0.0018644 -0.00305718 -0.00354785 -0.00129583 -0.001671 -0.00213506 -0.00482669 -0.00418182 -0.00567954 -0.00617909 -0.00662395 -0.00214833 -0.00254003 -0.00527672 0.00067287 -0.00790462 -0.00212849 -0.00170659 -0.00134586 -0.00475 -0.000922043 -0.000323851 -0.00106148
internal_weight=17292 14471 10148 4323 3579 2821 5053 4518 1469 2278 3049 2607 2041 1004 430 249 1301 1069 1045 1274 889 5095 2391 1074 1670 665 200 744 904 543
internal_count=17292 14471 10148 4323 3579 2821 5053 4518 1469 2278 3049 2607 2041 1004 430 249 1301 1069 1045 1274 889 5095 2391 1074 1670 665 200 744 904 543
cat_boundaries=0 3 6 41 78 115 150 153 180 183 188 191 196 223
cat_threshold=1582415888 503844360 284 4384641 2701131776 2241 0 0 0 11796480 0 245761 240 0 0 33554432 20971520 0 0 0 0 0 524288 0 0 1920 0 0 0 0 0 0 0 33562112 0 0 0 0 0 0 402653184 0 0 524288 0 16384 0 0 0 0 0 1063936 8192 204 0 536871680 8 0 1006632960 0 0 0 224 0 0 4096 4 0 0 0 0 0 0 0 0 7340032 0 983040 8192 0 0 8388632 7340032 2048 0 4 0 0 0 0 0 0 1073742848 20 0 0 15360 1408 6815744 0 33628160 0 0 0 0 0 0 0 0 0 0 0 0 240 1048576 0 2048 1073741824 16777280 0 13312 524288 56 6 0 448 0 0 0 128 2 2176 0 64 512 101711872 0 20480 0 0 0 0 0 0 0 0 0 0 0 1280 4096 0 4609 2048 0 0 0 0 0 0 0 0 0 0 0 0 24 0 2048 0 33554432 1048576 2097152 4160755712 7 0 0 0 1107046400 1 1547698192 402655232 20 133164 139424 88100864 1092616209 17 33570816 201328640 260 132 128 69206016 69279745 1 0 0 0 0 0 0 0 0 0 0 384 0 0 7172 15 0 0 0 10485760 0 0 8 0 0 0 2147483648 7340032
is_linear=0
shrinkage=0.01


Tree=13
num_leaves=31
num_cat=13
split_feature=2 27 0 26 27 3 3 13 24 20 3 3 20 12 0 13 26 27 16 24 12 3 26 2 6 2 12 6 3 20
split_gain=817.265 358.587 128.691 79.0443 57.3313 40.7202 34.9451 30.7555 29.9063 29.3598 25.8142 20.1417 17.7001 15.7183 11.9399 14.1383 11.8632 11.8897 11.7761 11.5869 11.3551 10.936 10.3845 9.9267 9.64654 8.70195 7.92988 7.84681 7.54421 9.17801
threshold=0 49.500000000000007 1 -459.49999999999994 120.50000000000001 2 3 0.51972456038539816 2.3363966516081702 3.4001091597462305 4 5 2.7833188578129175 0.84753307444029569 6 -0.52705818521824699 -264.49999999999994 184.50000000000003 2.740319461670996 4.5528159160490373 0.81900730237416519 7 -595.49999999999989 8 9 10 0.81900730237416519 11 12 1.7472490050198912
decision_type=9 8 9 8 8 9 9 2 10 8 9 9 8 2 9 2 10 8 2 8 2 9 8 9 9 9 2 9 9 8
left_child=1 2 6 27 9 14 -1 10 18 13 -8 -12 -13 20 -2 -16 -6 -18 -9 26 -5 -4 -7 -21 -14 -20 -11 -3 -23 -30
right_child=5 3 21 4 16 22 7 8 -10 19 11 12 24 -15 15 -17 17 -19 25 23 -22 28 -24 -25 -26 -27 -28 -29 29 -31
leaf_value=0.01412315629760239 0 0.0096405539683610594 0.0096405539683610594 0 0 0 0.022507969109163209 0 0 0 0.0096405539683610594 0 0 0 0 0 0 0 0.01412315629760239 0 0 0.0096405539683610594 0 0 0 0 0 0 0 0
leaf_weight=535 181 315 4191 814 232 70 442 380 424 164 566 371 720 115 74 175 436 633 261 408 75 361 2321 666 950 404 36 429 87 456
leaf_count=535 181 315 4191 814 232 70 442 380 424 164 566 371 720 115 74 175 436 633 261 408 75 361 2321 666 950 404 36 429 87 456
internal_value=-0.00243916 -0.00147497 -0.000448561 -0.00388781 -0.00450433 -0.00735394 -0.00157752 -0.0018644 -0.00305718 -0.00354785 -0.00129583 -0.001671 -0.00213506 -0.00482669 -0.00418182 -0.00567954 -0.00617909 -0.00662395 -0.00214833 -0.00254003 -0.00527672 0.00067287 -0.00790462 -0.00212849 -0.00170659 -0.00134586 -0.00475 -0.000922043 -0.000323851 -0.00106148
internal_weight=17292 14471 10148 4323 3579 2821 5053 4518 1469 2278 3049 2607 2041 1004 430 249 1301 1069 1045 1274 889 5095 2391 1074 1670 665 200 744 904 543
internal_count=17292 14471 10148 4323 3579 2821 5053 4518 1469 2278 3049 2607 2041 1004 430 249 1301 1069 1045 1274 889 5095 2391 1074 1670 665 200 744 904 543
cat_boundaries=0 3 6 41 78 115 150 153 180 183 188 191 196 223
cat_threshold=1582415888 503844360 284 4384641 2701131776 2241 0 0 0 11796480 0 245761 240 0 0 33554432 20971520 0 0 0 0 0 524288 0 0 1920 0 0 0 0 0 0 0 33562112 0 0 0 0 0 0 402653184 0 0 524288 0 16384 0 0 0 0 0 1063936 8192 204 0 536871680 8 0 1006632960 0 0 0 224 0 0 4096 4 0 0 0 0 0 0 0 0 7340032 0 983040 8192 0 0 8388632 7340032 2048 0 4 0 0 0 0 0 0 1073742848 20 0 0 15360 1408 6815744 0 33628160 0 0 0 0 0 0 0 0 0 0 0 0 240 1048576 0 2048 1073741824 16777280 0 13312 524288 56 6 0 448 0 0 0 128 2 2176 0 64 512 101711872 0 20480 0 0 0 0 0 0 0 0 0 0 0 1280 4096 0 4609 2048 0 0 0 0 0 0 0 0 0 0 0 0 24 0 2048 0 33554432 1048576 2097152 4160755712 7 0 0 0 1107046400 1 1547698192 402655232 20 133164 139424 88100864 1092616209 17 33570816 201328640 260 132 128 69206016 69279745 1 0 0 0 0 0 0 0 0 0 0 384 0 0 7172 15 0 0 0 10485760 0 0 8 0 0 0 2147483648 7340032
is_linear=0
shrinkage=0.01


Tree=14
num_leaves=31
num_cat=13
split_feature=2 27 0 26 27 3 3 13 24 20 3 3 20 12 0 13 26 27 16 24 12 3 26 2 6 2 12 6 3 20
split_gain=817.265 358.587 128.691 79.0443 57.3313 40.7202 34.9451 30.7555 29.9063 29.3598 25.8142 20.1417 17.7001 15.7183 11.9399 14.1383 11.8632 11.8897 11.7761 11.5869 11.3551 10.936 10.3845 9.9267 9.64654 8.70195 7.92988 7.84681 7.54421 9.17801
threshold=0 49.500000000000007 1 -459.49999999999994 120.50000000000001 2 3 0.51972456038539816 2.3363966516081702 3.4001091597462305 4 5 2.7833188578129175 0.84753307444029569 6 -0.52705818521824699 -264.49999999999994 184.50000000000003 2.740319461670996 4.5528159160490373 0.81900730237416519 7 -595.49999999999989 8 9 10 0.81900730237416519 11 12 1.7472490050198912
decision_type=9 8 9 8 8 9 9 2 10 8 9 9 8 2 9 2 10 8 2 8 2 9 8 9 9 9 2 9 9 8
left_child=1 2 6 27 9 14 -1 10 18 13 -8 -12 -13 20 -2 -16 -6 -18 -9 26 -5 -4 -7 -21 -14 -20 -11 -3 -23 -30
right_child=5 3 21 4 16 22 7 8 -10 19 11 12 24 -15 15 -17 17 -19 25 23 -22 28 -24 -25 -26 -27 -28 -29 29 -31
leaf_value=0.013981924734626366 0 0.00954414842867745 0.00954414842867745 0 0 0 0.022282889418071578 0 0 0 0.00954414842867745 0 0 0 0 0 0 0 0.013981924734626366 0 0 0.00954414842867745 0 0 0 0 0 0 0 0
leaf_weight=535 181 315 4191 814 232 70 442 380 424 164 566 371 720 115 74 175 436 633 261 408 75 361 2321 666 950 404 36 429 87 456
leaf_count=535 181 315 4191 814 232 70 442 380 424 164 566 371 720 115 74 175 436 633 261 408 75 361 2321 666 950 404 36 429 87 456
internal_value=-0.00243916 -0.00147497 -0.000448561 -0.00388781 -0.00450433 -0.00735394 -0.00157752 -0.0018644 -0.00305718 -0.00354785 -0.00129583 -0.001671 -0.00213506 -0.00482669 -0.00418182 -0.00567954 -0.00617909 -0.00662395 -0.00214833 -0.00254003 -0.00527672 0.00067287 -0.00790462 -0.00212849 -0.00170659 -0.00134586 -0.00475 -0.000922043 -0.000323851 -0.00106148
internal_weight=17292 14471 10148 4323 3579 2821 5053 4518 1469 2278 3049 2607 2041 1004 430 249 1301 1069 1045 1274 889 5095 2391 1074 1670 665 200 744 904 543
internal_count=17292 14471 10148 4323 3579 2821 5053 4518 1469 2278 3049 2607 2041 1004 430 249 1301 1069 1045 1274 889 5095 2391 1074 1670 665 200 744 904 543
cat_boundaries=0 3 6 41 78 115 150 153 180 183 188 191 196 223
cat_threshold=1582415888 503844360 284 4384641 2701131776 2241 0 0 0 11796480 0 245761 240 0 0 33554432 20971520 0 0 0 0 0 524288 0 0 1920 0 0 0 0 0 0 0 33562112 0 0 0 0 0 0 402653184 0 0 524288 0 16384 0 0 0 0 0 1063936 8192 204 0 536871680 8 0 1006632960 0 0 0 224 0 0 4096 4 0 0 0 0 0 0 0 0 7340032 0 983040 8192 0 0 8388632 7340032 2048 0 4 0 0 0 0 0 0 1073742848 20 0 0 15360 1408 6815744 0 33628160 0 0 0 0 0 0 0 0 0 0 0 0 240 1048576 0 2048 1073741824 16777280 0 13312 524288 56 6 0 448 0 0 0 128 2 2176 0 64 512 101711872 0 20480 0 0 0 0 0 0 0 0 0 0 0 1280 4096 0 4609 2048 0 0 0 0 0 0 0 0 0 0 0 0 24 0 2048 0 33554432 1048576 2097152 4160755712 7 0 0 0 1107046400 1 1547698192 402655232 20 133164 139424 88100864 1092616209 17 33570816 201328640 260 132 128 69206016 69279745 1 0 0 0 0 0 0 0 0 0 0 384 0 0 7172 15 0 0 0 10485760 0 0 8 0 0 0 2147483648 7340032
is_linear=0
shrinkage=0.01


Tree=15
num_leaves=31
num_cat=13
split_feature=2 27 0 26 27 3 3 13 24 20 3 3 20 12 0 13 26 27 16 24 12 3 26 2 6 2 12 6 3 20
split_gain=817.265 358.587 128.691 79.0443 57.3313 40.7202 34.9451 30.7555 29.9063 29.3598 25.8142 20.1417 17.7001 15.7183 11.9399 14.1383 11.8632 11.8897 11.7761 11.5869 11.3551 10.936 10.3845 9.9267 9.64654 8.70195 7.92988 7.84681 7.54421 9.17801
threshold=0 49.500000000000007 1 -459.49999999999994 120.50000000000001 2 3 0.51972456038539816 2.3363966516081702 3.4001091597462305 4 5 2.7833188578129175 0.84753307444029569 6 -0.52705818521824699 -264.49999999999994 184.50000000000003 2.740319461670996 4.5528159160490373 0.81900730237416519 7 -595.49999999999989 8 9 10 0.81900730237416519 11 12 1.7472490050198912
decision_type=9 8 9 8 8 9 9 2 10 8 9 9 8 2 9 2 10 8 2 8 2 9 8 9 9 9 2 9 9 8
left_child=1 2 6 27 9 14 -1 10 18 13 -8 -12 -13 20 -2 -16 -6 -18 -9 26 -5 -4 -7 -21 -14 -20 -11 -3 -23 -30
right_child=5 3 21 4 16 22 7 8 -10 19 11 12 24 -15 15 -17 17 -19 25 23 -22 28 -24 -25 -26 -27 -28 -29 29 -31
leaf_value=0.013842105487280104 0 0.0094487069443906745 0.0094487069443906745 0 0 0 0.022060060523890864 0 0 0 0.0094487069443906745 0 0 0 0 0 0 0 0.013842105487280104 0 0 0.0094487069443906745 0 0 0 0 0 0 0 0
leaf_weight=535 181 315 4191 814 232 70 442 380 424 164 566 371 720 115 74 175 436 633 261 408 75 361 2321 666 950 404 36 429 87 456
leaf_count=535 181 315 4191 814 232 70 442 380 424 164 566 371 720 115 74 175 436 633 261 408 75 361 2321 666 950 404 36 429 87 456
internal_value=-0.00243916 -0.00147497 -0.000448561 -0.00388781 -0.00450433 -0.00735394 -0.00157752 -0.0018644 -0.00305718 -0.00354785 -0.00129583 -0.001671 -0.00213506 -0.00482669 -0.00418182 -0.00567954 -0.00617909 -0.00662395 -0.00214833 -0.00254003 -0.00527672 0.00067287 -0.00790462 -0.00212849 -0.00170659 -0.00134586 -0.00475 -0.000922043 -0.000323851 -0.00106148
internal_weight=17292 14471 10148 4323 3579 2821 5053 4518 1469 2278 3049 2607 2041 1004 430 249 1301 1069 1045 1274 889 5095 2391 1074 1670 665 200 744 904 543
internal_count=17292 14471 10148 4323 3579 2821 5053 4518 1469 2278 3049 2607 2041 1004 430 249 1301 1069 1045 1274 889 5095 2391 1074 1670 665 200 744 904 543
cat_boundaries=0 3 6 41 78 115 150 153 180 183 188 191 196 223
cat_threshold=1582415888 503844360 284 4384641 2701131776 2241 0 0 0 11796480 0 245761 240 0 0 33554432 20971520 0 0 0 0 0 524288 0 0 1920 0 0 0 0 0 0 0 33562112 0 0 0 0 0 0 402653184 0 0 524288 0 16384 0 0 0 0 0 1063936 8192 204 0 536871680 8 0 1006632960 0 0 0 224 0 0 4096 4 0 0 0 0 0 0 0 0 7340032 0 983040 8192 0 0 8388632 7340032 2048 0 4 0 0 0 0 0 0 1073742848 20 0 0 15360 1408 6815744 0 33628160 0 0 0 0 0 0 0 0 0 0 0 0 240 1048576 0 2048 1073741824 16777280 0 13312 524288 56 6 0 448 0 0 0 128 2 2176 0 64 512 101711872 0 20480 0 0 0 0 0 0 0 0 0 0 0 1280 4096 0 4609 2048 0 0 0 0 0 0 0 0 0 0 0 0 24 0 2048 0 33554432 1048576 2097152 4160755712 7 0 0 0 1107046400 1 1547698192 402655232 20 133164 139424 88100864 1092616209 17 33570816 201328640 260 132 128 69206016 69279745 1 0 0 0 0 0 0 0 0 0 0 384 0 0 7172 15 0 0 0 10485760 0 0 8 0 0 0 2147483648 7340032
is_linear=0
shrinkage=0.01


Tree=16
num_leaves=31
num_cat=13
split_feature=2 27 0 26 27 3 3 13 24 20 3 3 20 12 0 13 26 27 16 24 12 3 26 2 6 2 12 6 3 20
split_gain=817.265 358.587 128.691 79.0443 57.3313 40.7202 34.9451 30.7555 29.9063 29.3598 25.8142 20.1417 17.7001 15.7183 11.9399 14.1383 11.8632 11.8897 11.7761 11.5869 11.3551 10.936 10.3845 9.9267 9.64654 8.70195 7.92988 7.84681 7.54421 9.17801
threshold=0 49.500000000000007 1 -459.49999999999994 120.50000000000001 2 3 0.51972456038539816 2.3363966516081702 3.4001091597462305 4 5 2.7833188578129175 0.84753307444029569 6 -0.52705818521824699 -264.49999999999994 184.50000000000003 2.740319461670996 4.5528159160490373 0.81900730237416519 7 -595.49999999999989 8 9 10 0.81900730237416519 11 12 1.7472490050198912
decision_type=9 8 9 8 8 9 9 2 10 8 9 9 8 2 9 2 10 8 2 8 2 9 8 9 9 9 2 9 9 8
left_child=1 2 6 27 9 14 -1 10 18 13 -8 -12 -13 20 -2 -16 -6 -18 -9 26 -5 -4 -7 -21 -14 -20 -11 -3 -23 -30
right_child=5 3 21 4 16 22 7 8 -10 19 11 12 24 -15 15 -17 17 -19 25 23 -22 28 -24 -25 -26 -27 -28 -29 29 -31
leaf_value=0.013703684432407302 0 0.0093542198749467682 0.0093542198749467682 0 0 0 0.021839459918651955 0 0 0 0.0093542198749467682 0 0 0 0 0 0 0 0.013703684432407302 0 0 0.0093542198749467682 0 0 0 0 0 0 0 0
leaf_weight=535 181 315 4191 814 232 70 442 380 424 164 566 371 720 115 74 175 436 633 261 408 75 361 2321 666 950 404 36 429 87 456
leaf_count=535 181 315 4191 814 232 70 442 380 424 164 566 371 720 115 74 175 436 633 261 408 75 361 2321 666 950 404 36 429 87 456
internal_value=-0.00243916 -0.00147497 -0.000448561 -0.00388781 -0.00450433 -0.00735394 -0.00157752 -0.0018644 -0.00305718 -0.00354785 -0.00129583 -0.001671 -0.00213506 -0.00482669 -0.00418182 -0.00567954 -0.00617909 -0.00662395 -0.00214833 -0.00254003 -0.00527672 0.00067287 -0.00790462 -0.00212849 -0.00170659 -0.00134586 -0.00475 -0.000922043 -0.000323851 -0.00106148
internal_weight=17292 14471 10148 4323 3579 2821 5053 4518 1469 2278 3049 2607 2041 1004 430 249 1301 1069 1045 1274 889 5095 2391 1074 1670 665 200 744 904 543
internal_count=17292 14471 10148 4323 3579 2821 5053 4518 1469 2278 3049 2607 2041 1004 430 249 1301 1069 1045 1274 889 5095 2391 1074 1670 665 200 744 904 543
cat_boundaries=0 3 6 41 78 115 150 153 180 183 188 191 196 223
cat_threshold=1582415888 503844360 284 4384641 2701131776 2241 0 0 0 11796480 0 245761 240 0 0 33554432 20971520 0 0 0 0 0 524288 0 0 1920 0 0 0 0 0 0 0 33562112 0 0 0 0 0 0 402653184 0 0 524288 0 16384 0 0 0 0 0 1063936 8192 204 0 536871680 8 0 1006632960 0 0 0 224 0 0 4096 4 0 0 0 0 0 0 0 0 7340032 0 983040 8192 0 0 8388632 7340032 2048 0 4 0 0 0 0 0 0 1073742848 20 0 0 15360 1408 6815744 0 33628160 0 0 0 0 0 0 0 0 0 0 0 0 240 1048576 0 2048 1073741824 16777280 0 13312 524288 56 6 0 448 0 0 0 128 2 2176 0 64 512 101711872 0 20480 0 0 0 0 0 0 0 0 0 0 0 1280 4096 0 4609 2048 0 0 0 0 0 0 0 0 0 0 0 0 24 0 2048 0 33554432 1048576 2097152 4160755712 7 0 0 0 1107046400 1 1547698192 402655232 20 133164 139424 88100864 1092616209 17 33570816 201328640 260 132 128 69206016 69279745 1 0 0 0 0 0 0 0 0 0 0 384 0 0 7172 15 0 0 0 10485760 0 0 8 0 0 0 2147483648 7340032
is_linear=0
shrinkage=0.01


Tree=17
num_leaves=31
num_cat=13
split_feature=2 27 0 26 27 3 3 13 24 20 3 3 20 12 0 13 26 27 16 24 12 3 26 2 6 2 12 6 3 20
split_gain=817.265 358.587 128.691 79.0443 57.3313 40.7202 34.9451 30.7555 29.9063 29.3598 25.8142 20.1417 17.7001 15.7183 11.9399 14.1383 11.8632 11.8897 11.7761 11.5869 11.3551 10.936 10.3845 9.9267 9.64654 8.70195 7.92988 7.84681 7.54421 9.17801
threshold=0 49.500000000000007 1 -459.49999999999994 120.50000000000001 2 3 0.51972456038539816 2.3363966516081702 3.4001091597462305 4 5 2.7833188578129175 0.84753307444029569 6 -0.52705818521824699 -264.49999999999994 184.50000000000003 2.740319461670996 4.5528159160490373 0.81900730237416519 7 -595.49999999999989 8 9 10 0.81900730237416519 11 12 1.7472490050198912
decision_type=9 8 9 8 8 9 9 2 10 8 9 9 8 2 9 2 10 8 2 8 2 9 8 9 9 9 2 9 9 8
left_child=1 2 6 27 9 14 -1 10 18 13 -8 -12 -13 20 -2 -16 -6 -18 -9 26 -5 -4 -7 -21 -14 -20 -11 -3 -23 -30
right_child=5 3 21 4 16 22 7 8 -10 19 11 12 24 -15 15 -17 17 -19 25 23 -22 28 -24 -25 -26 -27 -28 -29 29 -31
leaf_value=0.013566647588083227 0 0.0092606776761972997 0.0092606776761972997 0 0 0 0.021621065319465435 0 0 0 0.0092606776761972997 0 0 0 0 0 0 0 0.013566647588083227 0 0 0.0092606776761972997 0 0 0 0 0 0 0 0
leaf_weight=535 181 315 4191 814 232 70 442 380 424 164 566 371 720 115 74 175 436 633 261 408 75 361 2321 666 950 404 36 429 87 456
leaf_count=535 181 315 4191 814 232 70 442 380 424 164 566 371 720 115 74 175 436 633 261 408 75 361 2321 666 950 404 36 429 87 456
internal_value=-0.00243916 -0.00147497 -0.000448561 -0.00388781 -0.00450433 -0.00735394 -0.00157752 -0.0018644 -0.00305718 -0.00354785 -0.00129583 -0.001671 -0.00213506 -0.00482669 -0.00418182 -0.00567954 -0.00617909 -0.00662395 -0.00214833 -0.00254003 -0.00527672 0.00067287 -0.00790462 -0.00212849 -0.00170659 -0.00134586 -0.00475 -0.000922043 -0.000323851 -0.00106148
internal_weight=17292 14471 10148 4323 3579 2821 5053 4518 1469 2278 3049 2607 2041 1004 430 249 1301 1069 1045 1274 889 5095 2391 1074 1670 665 200 744 904 543
internal_count=17292 14471 10148 4323 3579 2821 5053 4518 1469 2278 3049 2607 2041 1004 430 249 1301 1069 1045 1274 889 5095 2391 1074 1670 665 200 744 904 543
cat_boundaries=0 3 6 41 78 115 150 153 180 183 188 191 196 223
cat_threshold=1582415888 503844360 284 4384641 2701131776 2241 0 0 0 11796480 0 245761 240 0 0 33554432 20971520 0 0 0 0 0 524288 0 0 1920 0 0 0 0 0 0 0 33562112 0 0 0 0 0 0 402653184 0 0 524288 0 16384 0 0 0 0 0 1063936 8192 204 0 536871680 8 0 1006632960 0 0 0 224 0 0 4096 4 0 0 0 0 0 0 0 0 7340032 0 983040 8192 0 0 8388632 7340032 2048 0 4 0 0 0 0 0 0 1073742848 20 0 0 15360 1408 6815744 0 33628160 0 0 0 0 0 0 0 0 0 0 0 0 240 1048576 0 2048 1073741824 16777280 0 13312 524288 56 6 0 448 0 0 0 128 2 2176 0 64 512 101711872 0 20480 0 0 0 0 0 0 0 0 0 0 0 1280 4096 0 4609 2048 0 0 0 0 0 0 0 0 0 0 0 0 24 0 2048 0 33554432 1048576 2097152 4160755712 7 0 0 0 1107046400 1 1547698192 402655232 20 133164 139424 88100864 1092616209 17 33570816 201328640 260 132 128 69206016 69279745 1 0 0 0 0 0 0 0 0 0 0 384 0 0 7172 15 0 0 0 10485760 0 0 8 0 0 0 2147483648 7340032
is_linear=0
shrinkage=0.01


Tree=18
num_leaves=31
num_cat=13
split_feature=2 27 0 26 27 3 3 13 24 20 3 3 20 12 0 13 26 27 16 24 12 3 26 2 6 2 12 6 3 20
split_gain=817.265 358.587 128.691 79.0443 57.3313 40.7202 34.9451 30.7555 29.9063 29.3598 25.8142 20.1417 17.7001 15.7183 11.9399 14.1383 11.8632 11.8897 11.7761 11.5869 11.3551 10.936 10.3845 9.9267 9.64654 8.70195 7.92988 7.84681 7.54421 9.17801
threshold=0 49.500000000000007 1 -459.49999999999994 120.50000000000001 2 3 0.51972456038539816 2.3363966516081702 3.4001091597462305 4 5 2.7833188578129175 0.84753307444029569 6 -0.52705818521824699 -264.49999999999994 184.50000000000003 2.740319461670996 4.5528159160490373 0.81900730237416519 7 -595.49999999999989 8 9 10 0.81900730237416519 11 12 1.7472490050198912
decision_type=9 8 9 8 8 9 9 2 10 8 9 9 8 2 9 2 10 8 2 8 2 9 8 9 9 9 2 9 9 8
left_child=1 2 6 27 9 14 -1 10 18 13 -8 -12 -13 20 -2 -16 -6 -18 -9 26 -5 -4 -7 -21 -14 -20 -11 -3 -23 -30
right_child=5 3 21 4 16 22 7 8 -10 19 11 12 24 -15 15 -17 17 -19 25 23 -22 28 -24 -25 -26 -27 -28 -29 29 -31
leaf_value=0.013430981112202397 0 0.0091680708994353287 0.0091680708994353287 0 0 0 0.021404854666270779 0 0 0 0.0091680708994353287 0 0 0 0 0 0 0 0.013430981112202397 0 0 0.0091680708994353287 0 0 0 0 0 0 0 0
leaf_weight=535 181 315 4191 814 232 70 442 380 424 164 566 371 720 115 74 175 436 633 261 408 75 361 2321 666 950 404 36 429 87 456
leaf_count=535 181 315 4191 814 232 70 442 380 424 164 566 371 720 115 74 175 436 633 261 408 75 361 2321 666 950 404 36 429 87 456
internal_value=-0.00243916 -0.00147497 -0.000448561 -0.00388781 -0.00450433 -0.00735394 -0.00157752 -0.0018644 -0.00305718 -0.00354785 -0.00129583 -0.001671 -0.00213506 -0.00482669 -0.00418182 -0.00567954 -0.00617909 -0.00662395 -0.00214833 -0.00254003 -0.00527672 0.00067287 -0.00790462 -0.00212849 -0.00170659 -0.00134586 -0.00475 -0.000922043 -0.000323851 -0.00106148
internal_weight=17292 14471 10148 4323 3579 2821 5053 4518 1469 2278 3049 2607 2041 1004 430 249 1301 1069 1045 1274 889 5095 2391 1074 1670 665 200 744 904 543
internal_count=17292 14471 10148 4323 3579 2821 5053 4518 1469 2278 3049 2607 2041 1004 430 249 1301 1069 1045 1274 889 5095 2391 1074 1670 665 200 744 904 543
cat_boundaries=0 3 6 41 78 115 150 153 180 183 188 191 196 223
cat_threshold=1582415888 503844360 284 4384641 2701131776 2241 0 0 0 11796480 0 245761 240 0 0 33554432 20971520 0 0 0 0 0 524288 0 0 1920 0 0 0 0 0 0 0 33562112 0 0 0 0 0 0 402653184 0 0 524288 0 16384 0 0 0 0 0 1063936 8192 204 0 536871680 8 0 1006632960 0 0 0 224 0 0 4096 4 0 0 0 0 0 0 0 0 7340032 0 983040 8192 0 0 8388632 7340032 2048 0 4 0 0 0 0 0 0 1073742848 20 0 0 15360 1408 6815744 0 33628160 0 0 0 0 0 0 0 0 0 0 0 0 240 1048576 0 2048 1073741824 16777280 0 13312 524288 56 6 0 448 0 0 0 128 2 2176 0 64 512 101711872 0 20480 0 0 0 0 0 0 0 0 0 0 0 1280 4096 0 4609 2048 0 0 0 0 0 0 0 0 0 0 0 0 24 0 2048 0 33554432 1048576 2097152 4160755712 7 0 0 0 1107046400 1 1547698192 402655232 20 133164 139424 88100864 1092616209 17 33570816 201328640 260 132 128 69206016 69279745 1 0 0 0 0 0 0 0 0 0 0 384 0 0 7172 15 0 0 0 10485760 0 0 8 0 0 0 2147483648 7340032
is_linear=0
shrinkage=0.01


Tree=19
num_leaves=31
num_cat=13
split_feature=2 27 0 26 27 3 3 13 24 20 3 3 20 12 0 13 26 27 16 24 12 3 26 2 6 2 12 6 3 20
split_gain=817.265 358.587 128.691 79.0443 57.3313 40.7202 34.9451 30.7555 29.9063 29.3598 25.8142 20.1417 17.7001 15.7183 11.9399 14.1383 11.8632 11.8897 11.7761 11.5869 11.3551 10.936 10.3845 9.9267 9.64654 8.70195 7.92988 7.84681 7.54421 9.17801
threshold=0 49.500000000000007 1 -459.49999999999994 120.50000000000001 2 3 0.51972456038539816 2.3363966516081702 3.4001091597462305 4 5 2.7833188578129175 0.84753307444029569 6 -0.52705818521824699 -264.49999999999994 184.50000000000003 2.740319461670996 4.5528159160490373 0.81900730237416519 7 -595.49999999999989 8 9 10 0.81900730237416519 11 12 1.7472490050198912
decision_type=9 8 9 8 8 9 9 2 10 8 9 9 8 2 9 2 10 8 2 8 2 9 8 9 9 9 2 9 9 8
left_child=1 2 6 27 9 14 -1 10 18 13 -8 -12 -13 20 -2 -16 -6 -18 -9 26 -5 -4 -7 -21 -14 -20 -11 -3 -23 -30
right_child=5 3 21 4 16 22 7 8 -10 19 11 12 24 -15 15 -17 17 -19 25 23 -22 28 -24 -25 -26 -27 -28 -29 29 -31
leaf_value=0.013296671301080372 0 0.0090763901904409739 0.0090763901904409739 0 0 0 0.021190806119608073 0 0 0 0.0090763901904409739 0 0 0 0 0 0 0 0.013296671301080372 0 0 0.0090763901904409739 0 0 0 0 0 0 0 0
leaf_weight=535 181 315 4191 814 232 70 442 380 424 164 566 371 720 115 74 175 436 633 261 408 75 361 2321 666 950 404 36 429 87 456
leaf_count=535 181 315 4191 814 232 70 442 380 424 164 566 371 720 115 74 175 436 633 261 408 75 361 2321 666 950 404 36 429 87 456
internal_value=-0.00243916 -0.00147497 -0.000448561 -0.00388781 -0.00450433 -0.00735394 -0.00157752 -0.0018644 -0.00305718 -0.00354785 -0.00129583 -0.001671 -0.00213506 -0.00482669 -0.00418182 -0.00567954 -0.00617909 -0.00662395 -0.00214833 -0.00254003 -0.00527672 0.00067287 -0.00790462 -0.00212849 -0.00170659 -0.00134586 -0.00475 -0.000922043 -0.000323851 -0.00106148
internal_weight=17292 14471 10148 4323 3579 2821 5053 4518 1469 2278 3049 2607 2041 1004 430 249 1301 1069 1045 1274 889 5095 2391 1074 1670 665 200 744 904 543
internal_count=17292 14471 10148 4323 3579 2821 5053 4518 1469 2278 3049 2607 2041 1004 430 249 1301 1069 1045 1274 889 5095 2391 1074 1670 665 200 744 904 543
cat_boundaries=0 3 6 41 78 115 150 153 180 183 188 191 196 223
cat_threshold=1582415888 503844360 284 4384641 2701131776 2241 0 0 0 11796480 0 245761 240 0 0 33554432 20971520 0 0 0 0 0 524288 0 0 1920 0 0 0 0 0 0 0 33562112 0 0 0 0 0 0 402653184 0 0 524288 0 16384 0 0 0 0 0 1063936 8192 204 0 536871680 8 0 1006632960 0 0 0 224 0 0 4096 4 0 0 0 0 0 0 0 0 7340032 0 983040 8192 0 0 8388632 7340032 2048 0 4 0 0 0 0 0 0 1073742848 20 0 0 15360 1408 6815744 0 33628160 0 0 0 0 0 0 0 0 0 0 0 0 240 1048576 0 2048 1073741824 16777280 0 13312 524288 56 6 0 448 0 0 0 128 2 2176 0 64 512 101711872 0 20480 0 0 0 0 0 0 0 0 0 0 0 1280 4096 0 4609 2048 0 0 0 0 0 0 0 0 0 0 0 0 24 0 2048 0 33554432 1048576 2097152 4160755712 7 0 0 0 1107046400 1 1547698192 402655232 20 133164 139424 88100864 1092616209 17 33570816 201328640 260 132 128 69206016 69279745 1 0 0 0 0 0 0 0 0 0 0 384 0 0 7172 15 0 0 0 10485760 0 0 8 0 0 0 2147483648 7340032
is_linear=0
shrinkage=0.01


Tree=20
num_leaves=31
num_cat=13
split_feature=2 27 0 26 27 3 3 13 24 20 3 3 20 12 0 13 26 27 16 24 12 3 26 2 6 2 12 6 3 20
split_gain=817.265 358.587 128.691 79.0443 57.3313 40.7202 34.9451 30.7555 29.9063 29.3598 25.8142 20.1417 17.7001 15.7183 11.9399 14.1383 11.8632 11.8897 11.7761 11.5869 11.3551 10.936 10.3845 9.9267 9.64654 8.70195 7.92988 7.84681 7.54421 9.17801
threshold=0 49.500000000000007 1 -459.49999999999994 120.50000000000001 2 3 0.51972456038539816 2.3363966516081702 3.4001091597462305 4 5 2.7833188578129175 0.84753307444029569 6 -0.52705818521824699 -264.49999999999994 184.50000000000003 2.740319461670996 4.5528159160490373 0.81900730237416519 7 -595.49999999999989 8 9 10 0.81900730237416519 11 12 1.7472490050198912
decision_type=9 8 9 8 8 9 9 2 10 8 9 9 8 2 9 2 10 8 2 8 2 9 8 9 9 9 2 9 9 8
left_child=1 2 6 27 9 14 -1 10 18 13 -8 -12 -13 20 -2 -16 -6 -18 -9 26 -5 -4 -7 -21 -14 -20 -11 -3 -23 -30
right_child=5 3 21 4 16 22 7 8 -10 19 11 12 24 -15 15 -17 17 -19 25 23 -22 28 -24 -25 -26 -27 -28 -29 29 -31
leaf_value=0.013163704588069569 0 0.0089856262885365645 0.0089856262885365645 0 0 0 0.02097889805841199 0 0 0 0.0089856262885365645 0 0 0 0 0 0 0 0.013163704588069569 0 0 0.0089856262885365645 0 0 0 0 0 0 0 0
leaf_weight=535 181 315 4191 814 232 70 442 380 424 164 566 371 720 115 74 175 436 633 261 408 75 361 2321 666 950 404 36 429 87 456
leaf_count=535 181 315 4191 814 232 70 442 380 424 164 566 371 720 115 74 175 436 633 261 408 75 361 2321 666 950 404 36 429 87 456
internal_value=-0.00243916 -0.00147497 -0.000448561 -0.00388781 -0.00450433 -0.00735394 -0.00157752 -0.0018644 -0.00305718 -0.00354785 -0.00129583 -0.001671 -0.00213506 -0.00482669 -0.00418182 -0.00567954 -0.00617909 -0.00662395 -0.00214833 -0.00254003 -0.00527672 0.00067287 -0.00790462 -0.00212849 -0.00170659 -0.00134586 -0.00475 -0.000922043 -0.000323851 -0.00106148
internal_weight=17292 14471 10148 4323 3579 2821 5053 4518 1469 2278 3049 2607 2041 1004 430 249 1301 1069 1045 1274 889 5095 2391 1074 1670 665 200 744 904 543
internal_count=17292 14471 10148 4323 3579 2821 5053 4518 1469 2278 3049 2607 2041 1004 430 249 1301 1069 1045 1274 889 5095 2391 1074 1670 665 200 744 904 543
cat_boundaries=0 3 6 41 78 115 150 153 180 183 188 191 196 223
cat_threshold=1582415888 503844360 284 4384641 2701131776 2241 0 0 0 11796480 0 245761 240 0 0 33554432 20971520 0 0 0 0 0 524288 0 0 1920 0 0 0 0 0 0 0 33562112 0 0 0 0 0 0 402653184 0 0 524288 0 16384 0 0 0 0 0 1063936 8192 204 0 536871680 8 0 1006632960 0 0 0 224 0 0 4096 4 0 0 0 0 0 0 0 0 7340032 0 983040 8192 0 0 8388632 7340032 2048 0 4 0 0 0 0 0 0 1073742848 20 0 0 15360 1408 6815744 0 33628160 0 0 0 0 0 0 0 0 0 0 0 0 240 1048576 0 2048 1073741824 16777280 0 13312 524288 56 6 0 448 0 0 0 128 2 2176 0 64 512 101711872 0 20480 0 0 0 0 0 0 0 0 0 0 0 1280 4096 0 4609 2048 0 0 0 0 0 0 0 0 0 0 0 0 24 0 2048 0 33554432 1048576 2097152 4160755712 7 0 0 0 1107046400 1 1547698192 402655232 20 133164 139424 88100864 1092616209 17 33570816 201328640 260 132 128 69206016 69279745 1 0 0 0 0 0 0 0 0 0 0 384 0 0 7172 15 0 0 0 10485760 0 0 8 0 0 0 2147483648 7340032
is_linear=0
shrinkage=0.01


Tree=21
num_leaves=31
num_cat=13
split_feature=2 27 0 26 27 3 3 13 24 20 3 3 20 12 0 13 26 27 16 24 12 3 26 2 6 2 12 6 3 20
split_gain=817.265 358.587 128.691 79.0443 57.3313 40.7202 34.9451 30.7555 29.9063 29.3598 25.8142 20.1417 17.7001 15.7183 11.9399 14.1383 11.8632 11.8897 11.7761 11.5869 11.3551 10.936 10.3845 9.9267 9.64654 8.70195 7.92988 7.84681 7.54421 9.17801
threshold=0 49.500000000000007 1 -459.49999999999994 120.50000000000001 2 3 0.51972456038539816 2.3363966516081702 3.4001091597462305 4 5 2.7833188578129175 0.84753307444029569 6 -0.52705818521824699 -264.49999999999994 184.50000000000003 2.740319461670996 4.5528159160490373 0.81900730237416519 7 -595.49999999999989 8 9 10 0.81900730237416519 11 12 1.7472490050198912
decision_type=9 8 9 8 8 9 9 2 10 8 9 9 8 2 9 2 10 8 2 8 2 9 8 9 9 9 2 9 9 8
left_child=1 2 6 27 9 14 -1 10 18 13 -8 -12 -13 20 -2 -16 -6 -18 -9 26 -5 -4 -7 -21 -14 -20 -11 -3 -23 -30
right_child=5 3 21 4 16 22 7 8 -10 19 11 12 24 -15 15 -17 17 -19 25 23 -22 28 -24 -25 -26 -27 -28 -29 29 -31
leaf_value=0.013032067542188872 0 0.0088957700256511989 0.0088957700256511989 0 0 0 0.02076910907782787 0 0 0 0.0088957700256511989 0 0 0 0 0 0 0 0.013032067542188872 0 0 0.0088957700256511989 0 0 0 0 0 0 0 0
leaf_weight=535 181 315 4191 814 232 70 442 380 424 164 566 371 720 115 74 175 436 633 261 408 75 361 2321 666 950 404 36 429 87 456
leaf_count=535 181 315 4191 814 232 70 442 380 424 164 566 371 720 115 74 175 436 633 261 408 75 361 2321 666 950 404 36 429 87 456
internal_value=-0.00243916 -0.00147497 -0.000448561 -0.00388781 -0.00450433 -0.00735394 -0.00157752 -0.0018644 -0.00305718 -0.00354785 -0.00129583 -0.001671 -0.00213506 -0.00482669 -0.00418182 -0.00567954 -0.00617909 -0.00662395 -0.00214833 -0.00254003 -0.00527672 0.00067287 -0.00790462 -0.00212849 -0.00170659 -0.00134586 -0.00475 -0.000922043 -0.000323851 -0.00106148
internal_weight=17292 14471 10148 4323 3579 2821 5053 4518 1469 2278 3049 2607 2041 1004 430 249 1301 1069 1045 1274 889 5095 2391 1074 1670 665 200 744 904 543
internal_count=17292 14471 10148 4323 3579 2821 5053 4518 1469 2278 3049 2607 2041 1004 430 249 1301 1069 1045 1274 889 5095 2391 1074 1670 665 200 744 904 543
cat_boundaries=0 3 6 41 78 115 150 153 180 183 188 191 196 223
cat_threshold=1582415888 503844360 284 4384641 2701131776 2241 0 0 0 11796480 0 245761 240 0 0 33554432 20971520 0 0 0 0 0 524288 0 0 1920 0 0 0 0 0 0 0 33562112 0 0 0 0 0 0 402653184 0 0 524288 0 16384 0 0 0 0 0 1063936 8192 204 0 536871680 8 0 1006632960 0 0 0 224 0 0 4096 4 0 0 0 0 0 0 0 0 7340032 0 983040 8192 0 0 8388632 7340032 2048 0 4 0 0 0 0 0 0 1073742848 20 0 0 15360 1408 6815744 0 33628160 0 0 0 0 0 0 0 0 0 0 0 0 240 1048576 0 2048 1073741824 16777280 0 13312 524288 56 6 0 448 0 0 0 128 2 2176 0 64 512 101711872 0 20480 0 0 0 0 0 0 0 0 0 0 0 1280 4096 0 4609 2048 0 0 0 0 0 0 0 0 0 0 0 0 24 0 2048 0 33554432 1048576 2097152 4160755712 7 0 0 0 1107046400 1 1547698192 402655232 20 133164 139424 88100864 1092616209 17 33570816 201328640 260 132 128 69206016 69279745 1 0 0 0 0 0 0 0 0 0 0 384 0 0 7172 15 0 0 0 10485760 0 0 8 0 0 0 2147483648 7340032
is_linear=0
shrinkage=0.01


Tree=22
num_leaves=31
num_cat=13
split_feature=2 27 0 26 27 3 3 13 24 20 3 3 20 12 0 13 26 27 16 24 12 3 26 2 6 2 12 6 3 20
split_gain=817.265 358.587 128.691 79.0443 57.3313 40.7202 34.9451 30.7555 29.9063 29.3598 25.8142 20.1417 17.7001 15.7183 11.9399 14.1383 11.8632 11.8897 11.7761 11.5869 11.3551 10.936 10.3845 9.9267 9.64654 8.70195 7.92988 7.84681 7.54421 9.17801
threshold=0 49.500000000000007 1 -459.49999999999994 120.50000000000001 2 3 0.51972456038539816 2.3363966516081702 3.4001091597462305 4 5 2.7833188578129175 0.84753307444029569 6 -0.52705818521824699 -264.49999999999994 184.50000000000003 2.740319461670996 4.5528159160490373 0.81900730237416519 7 -595.49999999999989 8 9 10 0.81900730237416519 11 12 1.7472490050198912
decision_type=9 8 9 8 8 9 9 2 10 8 9 9 8 2 9 2 10 8 2 8 2 9 8 9 9 9 2 9 9 8
left_child=1 2 6 27 9 14 -1 10 18 13 -8 -12 -13 20 -2 -16 -6 -18 -9 26 -5 -4 -7 -21 -14 -20 -11 -3 -23 -30
right_child=5 3 21 4 16 22 7 8 -10 19 11 12 24 -15 15 -17 17 -19 25 23 -22 28 -24 -25 -26 -27 -28 -29 29 -31
leaf_value=0.012901746866766983 0 0.0088068123253946858 0.0088068123253946858 0 0 0 0.020561417987049593 0 0 0 0.0088068123253946858 0 0 0 0 0 0 0 0.012901746866766983 0 0 0.0088068123253946858 0 0 0 0 0 0 0 0
leaf_weight=535 181 315 4191 814 232 70 442 380 424 164 566 371 720 115 74 175 436 633 261 408 75 361 2321 666 950 404 36 429 87 456
leaf_count=535 181 315 4191 814 232 70 442 380 424 164 566 371 720 115 74 175 436 633 261 408 75 361 2321 666 950 404 36 429 87 456
internal_value=-0.00243916 -0.00147497 -0.000448561 -0.00388781 -0.00450433 -0.00735394 -0.00157752 -0.0018644 -0.00305718 -0.00354785 -0.00129583 -0.001671 -0.00213506 -0.00482669 -0.00418182 -0.00567954 -0.00617909 -0.00662395 -0.00214833 -0.00254003 -0.00527672 0.00067287 -0.00790462 -0.00212849 -0.00170659 -0.00134586 -0.00475 -0.000922043 -0.000323851 -0.00106148
internal_weight=17292 14471 10148 4323 3579 2821 5053 4518 1469 2278 3049 2607 2041 1004 430 249 1301 1069 1045 1274 889 5095 2391 1074 1670 665 200 744 904 543
internal_count=17292 14471 10148 4323 3579 2821 5053 4518 1469 2278 3049 2607 2041 1004 430 249 1301 1069 1045 1274 889 5095 2391 1074 1670 665 200 744 904 543
cat_boundaries=0 3 6 41 78 115 150 153 180 183 188 191 196 223
cat_threshold=1582415888 503844360 284 4384641 2701131776 2241 0 0 0 11796480 0 245761 240 0 0 33554432 20971520 0 0 0 0 0 524288 0 0 1920 0 0 0 0 0 0 0 33562112 0 0 0 0 0 0 402653184 0 0 524288 0 16384 0 0 0 0 0 1063936 8192 204 0 536871680 8 0 1006632960 0 0 0 224 0 0 4096 4 0 0 0 0 0 0 0 0 7340032 0 983040 8192 0 0 8388632 7340032 2048 0 4 0 0 0 0 0 0 1073742848 20 0 0 15360 1408 6815744 0 33628160 0 0 0 0 0 0 0 0 0 0 0 0 240 1048576 0 2048 1073741824 16777280 0 13312 524288 56 6 0 448 0 0 0 128 2 2176 0 64 512 101711872 0 20480 0 0 0 0 0 0 0 0 0 0 0 1280 4096 0 4609 2048 0 0 0 0 0 0 0 0 0 0 0 0 24 0 2048 0 33554432 1048576 2097152 4160755712 7 0 0 0 1107046400 1 1547698192 402655232 20 133164 139424 88100864 1092616209 17 33570816 201328640 260 132 128 69206016 69279745 1 0 0 0 0 0 0 0 0 0 0 384 0 0 7172 15 0 0 0 10485760 0 0 8 0 0 0 2147483648 7340032
is_linear=0
shrinkage=0.01


Tree=23
num_leaves=31
num_cat=13
split_feature=2 27 0 26 27 3 3 13 24 20 3 3 20 12 0 13 26 27 16 24 12 3 26 2 6 2 12 6 3 20
split_gain=817.265 358.587 128.691 79.0443 57.3313 40.7202 34.9451 30.7555 29.9063 29.3598 25.8142 20.1417 17.7001 15.7183 11.9399 14.1383 11.8632 11.8897 11.7761 11.5869 11.3551 10.936 10.3845 9.9267 9.64654 8.70195 7.92988 7.84681 7.54421 9.17801
threshold=0 49.500000000000007 1 -459.49999999999994 120.50000000000001 2 3 0.51972456038539816 2.3363966516081702 3.4001091597462305 4 5 2.7833188578129175 0.84753307444029569 6 -0.52705818521824699 -264.49999999999994 184.50000000000003 2.740319461670996 4.5528159160490373 0.81900730237416519 7 -595.49999999999989 8 9 10 0.81900730237416519 11 12 1.7472490050198912
decision_type=9 8 9 8 8 9 9 2 10 8 9 9 8 2 9 2 10 8 2 8 2 9 8 9 9 9 2 9 9 8
left_child=1 2 6 27 9 14 -1 10 18 13 -8 -12 -13 20 -2 -16 -6 -18 -9 26 -5 -4 -7 -21 -14 -20 -11 -3 -23 -30
right_child=5 3 21 4 16 22 7 8 -10 19 11 12 24 -15 15 -17 17 -19 25 23 -22 28 -24 -25 -26 -27 -28 -29 29 -31
leaf_value=0.012772729398099314 0 0.0087187442021407404 0.0087187442021407404 0 0 0 0.020355803807179097 0 0 0 0.0087187442021407404 0 0 0 0 0 0 0 0.012772729398099314 0 0 0.0087187442021407404 0 0 0 0 0 0 0 0
leaf_weight=535 181 315 4191 814 232 70 442 380 424 164 566 371 720 115 74 175 436 633 261 408 75 361 2321 666 950 404 36 429 87 456
leaf_count=535 181 315 4191 814 232 70 442 380 424 164 566 371 720 115 74 175 436 633 261 408 75 361 2321 666 950 404 36 429 87 456
internal_value=-0.00243916 -0.00147497 -0.000448561 -0.00388781 -0.00450433 -0.00735394 -0.00157752 -0.0018644 -0.00305718 -0.00354785 -0.00129583 -0.001671 -0.00213506 -0.00482669 -0.00418182 -0.00567954 -0.00617909 -0.00662395 -0.00214833 -0.00254003 -0.00527672 0.00067287 -0.00790462 -0.00212849 -0.00170659 -0.00134586 -0.00475 -0.000922043 -0.000323851 -0.00106148
internal_weight=17292 14471 10148 4323 3579 2821 5053 4518 1469 2278 3049 2607 2041 1004 430 249 1301 1069 1045 1274 889 5095 2391 1074 1670 665 200 744 904 543
internal_count=17292 14471 10148 4323 3579 2821 5053 4518 1469 2278 3049 2607 2041 1004 430 249 1301 1069 1045 1274 889 5095 2391 1074 1670 665 200 744 904 543
cat_boundaries=0 3 6 41 78 115 150 153 180 183 188 191 196 223
cat_threshold=1582415888 503844360 284 4384641 2701131776 2241 0 0 0 11796480 0 245761 240 0 0 33554432 20971520 0 0 0 0 0 524288 0 0 1920 0 0 0 0 0 0 0 33562112 0 0 0 0 0 0 402653184 0 0 524288 0 16384 0 0 0 0 0 1063936 8192 204 0 536871680 8 0 1006632960 0 0 0 224 0 0 4096 4 0 0 0 0 0 0 0 0 7340032 0 983040 8192 0 0 8388632 7340032 2048 0 4 0 0 0 0 0 0 1073742848 20 0 0 15360 1408 6815744 0 33628160 0 0 0 0 0 0 0 0 0 0 0 0 240 1048576 0 2048 1073741824 16777280 0 13312 524288 56 6 0 448 0 0 0 128 2 2176 0 64 512 101711872 0 20480 0 0 0 0 0 0 0 0 0 0 0 1280 4096 0 4609 2048 0 0 0 0 0 0 0 0 0 0 0 0 24 0 2048 0 33554432 1048576 2097152 4160755712 7 0 0 0 1107046400 1 1547698192 402655232 20 133164 139424 88100864 1092616209 17 33570816 201328640 260 132 128 69206016 69279745 1 0 0 0 0 0 0 0 0 0 0 384 0 0 7172 15 0 0 0 10485760 0 0 8 0 0 0 2147483648 7340032
is_linear=0
shrinkage=0.01


Tree=24
num_leaves=31
num_cat=13
split_feature=2 27 0 26 27 3 3 13 24 20 3 3 20 12 0 13 26 27 16 24 12 3 26 2 6 2 12 6 3 20
split_gain=817.265 358.587 128.691 79.0443 57.3313 40.7202 34.9451 30.7555 29.9063 29.3598 25.8142 20.1417 17.7001 15.7183 11.9399 14.1383 11.8632 11.8897 11.7761 11.5869 11.3551 10.936 10.3845 9.9267 9.64654 8.70195 7.92988 7.84681 7.54421 9.17801
threshold=0 49.500000000000007 1 -459.49999999999994 120.50000000000001 2 3 0.51972456038539816 2.3363966516081702 3.4001091597462305 4 5 2.7833188578129175 0.84753307444029569 6 -0.52705818521824699 -264.49999999999994 184.50000000000003 2.740319461670996 4.5528159160490373 0.81900730237416519 7 -595.49999999999989 8 9 10 0.81900730237416519 11 12 1.7472490050198912
decision_type=9 8 9 8 8 9 9 2 10 8 9 9 8 2 9 2 10 8 2 8 2 9 8 9 9 9 2 9 9 8
left_child=1 2 6 27 9 14 -1 10 18 13 -8 -12 -13 20 -2 -16 -6 -18 -9 26 -5 -4 -7 -21 -14 -20 -11 -3 -23 -30
right_child=5 3 21 4 16 22 7 8 -10 19 11 12 24 -15 15 -17 17 -19 25 23 -22 28 -24 -25 -26 -27 -28 -29 29 -31
leaf_value=0.012645002104118319 0 0.0086315567601193324 0.0086315567601193324 0 0 0 0.020152245769107308 0 0 0 0.0086315567601193324 0 0 0 0 0 0 0 0.012645002104118319 0 0 0.0086315567601193324 0 0 0 0 0 0 0 0
leaf_weight=535 181 315 4191 814 232 70 442 380 424 164 566 371 720 115 74 175 436 633 261 408 75 361 2321 666 950 404 36 429 87 456
leaf_count=535 181 315 4191 814 232 70 442 380 424 164 566 371 720 115 74 175 436 633 261 408 75 361 2321 666 950 404 36 429 87 456
internal_value=-0.00243916 -0.00147497 -0.000448561 -0.00388781 -0.00450433 -0.00735394 -0.00157752 -0.0018644 -0.00305718 -0.00354785 -0.00129583 -0.001671 -0.00213506 -0.00482669 -0.00418182 -0.00567954 -0.00617909 -0.00662395 -0.00214833 -0.00254003 -0.00527672 0.00067287 -0.00790462 -0.00212849 -0.00170659 -0.00134586 -0.00475 -0.000922043 -0.000323851 -0.00106148
internal_weight=17292 14471 10148 4323 3579 2821 5053 4518 1469 2278 3049 2607 2041 1004 430 249 1301 1069 1045 1274 889 5095 2391 1074 1670 665 200 744 904 543
internal_count=17292 14471 10148 4323 3579 2821 5053 4518 1469 2278 3049 2607 2041 1004 430 249 1301 1069 1045 1274 889 5095 2391 1074 1670 665 200 744 904 543
cat_boundaries=0 3 6 41 78 115 150 153 180 183 188 191 196 223
cat_threshold=1582415888 503844360 284 4384641 2701131776 2241 0 0 0 11796480 0 245761 240 0 0 33554432 20971520 0 0 0 0 0 524288 0 0 1920 0 0 0 0 0 0 0 33562112 0 0 0 0 0 0 402653184 0 0 524288 0 16384 0 0 0 0 0 1063936 8192 204 0 536871680 8 0 1006632960 0 0 0 224 0 0 4096 4 0 0 0 0 0 0 0 0 7340032 0 983040 8192 0 0 8388632 7340032 2048 0 4 0 0 0 0 0 0 1073742848 20 0 0 15360 1408 6815744 0 33628160 0 0 0 0 0 0 0 0 0 0 0 0 240 1048576 0 2048 1073741824 16777280 0 13312 524288 56 6 0 448 0 0 0 128 2 2176 0 64 512 101711872 0 20480 0 0 0 0 0 0 0 0 0 0 0 1280 4096 0 4609 2048 0 0 0 0 0 0 0 0 0 0 0 0 24 0 2048 0 33554432 1048576 2097152 4160755712 7 0 0 0 1107046400 1 1547698192 402655232 20 133164 139424 88100864 1092616209 17 33570816 201328640 260 132 128 69206016 69279745 1 0 0 0 0 0 0 0 0 0 0 384 0 0 7172 15 0 0 0 10485760 0 0 8 0 0 0 2147483648 7340032
is_linear=0
shrinkage=0.01


Tree=25
num_leaves=31
num_cat=13
split_feature=2 27 0 26 27 3 3 13 24 20 3 3 20 12 0 13 26 27 16 24 12 3 26 2 6 2 12 6 3 20
split_gain=817.265 358.587 128.691 79.0443 57.3313 40.7202 34.9451 30.7555 29.9063 29.3598 25.8142 20.1417 17.7001 15.7183 11.9399 14.1383 11.8632 11.8897 11.7761 11.5869 11.3551 10.936 10.3845 9.9267 9.64654 8.70195 7.92988 7.84681 7.54421 9.17801
threshold=0 49.500000000000007 1 -459.49999999999994 120.50000000000001 2 3 0.51972456038539816 2.3363966516081702 3.4001091597462305 4 5 2.7833188578129175 0.84753307444029569 6 -0.52705818521824699 -264.49999999999994 184.50000000000003 2.740319461670996 4.5528159160490373 0.81900730237416519 7 -595.49999999999989 8 9 10 0.81900730237416519 11 12 1.7472490050198912
decision_type=9 8 9 8 8 9 9 2 10 8 9 9 8 2 9 2 10 8 2 8 2 9 8 9 9 9 2 9 9 8
left_child=1 2 6 27 9 14 -1 10 18 13 -8 -12 -13 20 -2 -16 -6 -18 -9 26 -5 -4 -7 -21 -14 -20 -11 -3 -23 -30
right_child=5 3 21 4 16 22 7 8 -10 19 11 12 24 -15 15 -17 17 -19 25 23 -22 28 -24 -25 -26 -27 -28 -29 29 -31
leaf_value=0.012518552083077138 0 0.0085452411925181389 0.0085452411925181389 0 0 0 0.019950723311416233 0 0 0 0.0085452411925181389 0 0 0 0 0 0 0 0.012518552083077138 0 0 0.0085452411925181389 0 0 0 0 0 0 0 0
leaf_weight=535 181 315 4191 814 232 70 442 380 424 164 566 371 720 115 74 175 436 633 261 408 75 361 2321 666 950 404 36 429 87 456
leaf_count=535 181 315 4191 814 232 70 442 380 424 164 566 371 720 115 74 175 436 633 261 408 75 361 2321 666 950 404 36 429 87 456
internal_value=-0.00243916 -0.00147497 -0.000448561 -0.00388781 -0.00450433 -0.00735394 -0.00157752 -0.0018644 -0.00305718 -0.00354785 -0.00129583 -0.001671 -0.00213506 -0.00482669 -0.00418182 -0.00567954 -0.00617909 -0.00662395 -0.00214833 -0.00254003 -0.00527672 0.00067287 -0.00790462 -0.00212849 -0.00170659 -0.00134586 -0.00475 -0.000922043 -0.000323851 -0.00106148
internal_weight=17292 14471 10148 4323 3579 2821 5053 4518 1469 2278 3049 2607 2041 1004 430 249 1301 1069 1045 1274 889 5095 2391 1074 1670 665 200 744 904 543
internal_count=17292 14471 10148 4323 3579 2821 5053 4518 1469 2278 3049 2607 2041 1004 430 249 1301 1069 1045 1274 889 5095 2391 1074 1670 665 200 744 904 543
cat_boundaries=0 3 6 41 78 115 150 153 180 183 188 191 196 223
cat_threshold=1582415888 503844360 284 4384641 2701131776 2241 0 0 0 11796480 0 245761 240 0 0 33554432 20971520 0 0 0 0 0 524288 0 0 1920 0 0 0 0 0 0 0 33562112 0 0 0 0 0 0 402653184 0 0 524288 0 16384 0 0 0 0 0 1063936 8192 204 0 536871680 8 0 1006632960 0 0 0 224 0 0 4096 4 0 0 0 0 0 0 0 0 7340032 0 983040 8192 0 0 8388632 7340032 2048 0 4 0 0 0 0 0 0 1073742848 20 0 0 15360 1408 6815744 0 33628160 0 0 0 0 0 0 0 0 0 0 0 0 240 1048576 0 2048 1073741824 16777280 0 13312 524288 56 6 0 448 0 0 0 128 2 2176 0 64 512 101711872 0 20480 0 0 0 0 0 0 0 0 0 0 0 1280 4096 0 4609 2048 0 0 0 0 0 0 0 0 0 0 0 0 24 0 2048 0 33554432 1048576 2097152 4160755712 7 0 0 0 1107046400 1 1547698192 402655232 20 133164 139424 88100864 1092616209 17 33570816 201328640 260 132 128 69206016 69279745 1 0 0 0 0 0 0 0 0 0 0 384 0 0 7172 15 0 0 0 10485760 0 0 8 0 0 0 2147483648 7340032
is_linear=0
shrinkage=0.01


Tree=26
num_leaves=31
num_cat=13
split_feature=2 27 0 26 27 3 3 13 24 20 3 3 20 12 0 13 26 27 16 24 12 3 26 2 6 2 12 6 3 20
split_gain=817.265 358.587 128.691 79.0443 57.3313 40.7202 34.9451 30.7555 29.9063 29.3598 25.8142 20.1417 17.7001 15.7183 11.9399 14.1383 11.8632 11.8897 11.7761 11.5869 11.3551 10.936 10.3845 9.9267 9.64654 8.70195 7.92988 7.84681 7.54421 9.17801
threshold=0 49.500000000000007 1 -459.49999999999994 120.50000000000001 2 3 0.51972456038539816 2.3363966516081702 3.4001091597462305 4 5 2.7833188578129175 0.84753307444029569 6 -0.52705818521824699 -264.49999999999994 184.50000000000003 2.740319461670996 4.5528159160490373 0.81900730237416519 7 -595.49999999999989 8 9 10 0.81900730237416519 11 12 1.7472490050198912
decision_type=9 8 9 8 8 9 9 2 10 8 9 9 8 2 9 2 10 8 2 8 2 9 8 9 9 9 2 9 9 8
left_child=1 2 6 27 9 14 -1 10 18 13 -8 -12 -13 20 -2 -16 -6 -18 -9 26 -5 -4 -7 -21 -14 -20 -11 -3 -23 -30
right_child=5 3 21 4 16 22 7 8 -10 19 11 12 24 -15 15 -17 17 -19 25 23 -22 28 -24 -25 -26 -27 -28 -29 29 -31
leaf_value=0.012393366562246367 0 0.0084597887805929577 0.0084597887805929577 0 0 0 0.019751216078302072 0 0 0 0.0084597887805929577 0 0 0 0 0 0 0 0.012393366562246367 0 0 0.0084597887805929577 0 0 0 0 0 0 0 0
leaf_weight=535 181 315 4191 814 232 70 442 380 424 164 566 371 720 115 74 175 436 633 261 408 75 361 2321 666 950 404 36 429 87 456
leaf_count=535 181 315 4191 814 232 70 442 380 424 164 566 371 720 115 74 175 436 633 261 408 75 361 2321 666 950 404 36 429 87 456
internal_value=-0.00243916 -0.00147497 -0.000448561 -0.00388781 -0.00450433 -0.00735394 -0.00157752 -0.0018644 -0.00305718 -0.00354785 -0.00129583 -0.001671 -0.00213506 -0.00482669 -0.00418182 -0.00567954 -0.00617909 -0.00662395 -0.00214833 -0.00254003 -0.00527672 0.00067287 -0.00790462 -0.00212849 -0.00170659 -0.00134586 -0.00475 -0.000922043 -0.000323851 -0.00106148
internal_weight=17292 14471 10148 4323 3579 2821 5053 4518 1469 2278 3049 2607 2041 1004 430 249 1301 1069 1045 1274 889 5095 2391 1074 1670 665 200 744 904 543
internal_count=17292 14471 10148 4323 3579 2821 5053 4518 1469 2278 3049 2607 2041 1004 430 249 1301 1069 1045 1274 889 5095 2391 1074 1670 665 200 744 904 543
cat_boundaries=0 3 6 41 78 115 150 153 180 183 188 191 196 223
cat_threshold=1582415888 503844360 284 4384641 2701131776 2241 0 0 0 11796480 0 245761 240 0 0 33554432 20971520 0 0 0 0 0 524288 0 0 1920 0 0 0 0 0 0 0 33562112 0 0 0 0 0 0 402653184 0 0 524288 0 16384 0 0 0 0 0 1063936 8192 204 0 536871680 8 0 1006632960 0 0 0 224 0 0 4096 4 0 0 0 0 0 0 0 0 7340032 0 983040 8192 0 0 8388632 7340032 2048 0 4 0 0 0 0 0 0 1073742848 20 0 0 15360 1408 6815744 0 33628160 0 0 0 0 0 0 0 0 0 0 0 0 240 1048576 0 2048 1073741824 16777280 0 13312 524288 56 6 0 448 0 0 0 128 2 2176 0 64 512 101711872 0 20480 0 0 0 0 0 0 0 0 0 0 0 1280 4096 0 4609 2048 0 0 0 0 0 0 0 0 0 0 0 0 24 0 2048 0 33554432 1048576 2097152 4160755712 7 0 0 0 1107046400 1 1547698192 402655232 20 133164 139424 88100864 1092616209 17 33570816 201328640 260 132 128 69206016 69279745 1 0 0 0 0 0 0 0 0 0 0 384 0 0 7172 15 0 0 0 10485760 0 0 8 0 0 0 2147483648 7340032
is_linear=0
shrinkage=0.01


Tree=27
num_leaves=31
num_cat=13
split_feature=2 27 0 26 27 3 3 13 24 20 3 3 20 12 0 13 26 27 16 24 12 3 26 2 6 2 12 6 3 20
split_gain=817.265 358.587 128.691 79.0443 57.3313 40.7202 34.9451 30.7555 29.9063 29.3598 25.8142 20.1417 17.7001 15.7183 11.9399 14.1383 11.8632 11.8897 11.7761 11.5869 11.3551 10.936 10.3845 9.9267 9.64654 8.70195 7.92988 7.84681 7.54421 9.17801
threshold=0 49.500000000000007 1 -459.49999999999994 120.50000000000001 2 3 0.51972456038539816 2.3363966516081702 3.4001091597462305 4 5 2.7833188578129175 0.84753307444029569 6 -0.52705818521824699 -264.49999999999994 184.50000000000003 2.740319461670996 4.5528159160490373 0.81900730237416519 7 -595.49999999999989 8 9 10 0.81900730237416519 11 12 1.7472490050198912
decision_type=9 8 9 8 8 9 9 2 10 8 9 9 8 2 9 2 10 8 2 8 2 9 8 9 9 9 2 9 9 8
left_child=1 2 6 27 9 14 -1 10 18 13 -8 -12 -13 20 -2 -16 -6 -18 -9 26 -5 -4 -7 -21 -14 -20 -11 -3 -23 -30
right_child=5 3 21 4 16 22 7 8 -10 19 11 12 24 -15 15 -17 17 -19 25 23 -22 28 -24 -25 -26 -27 -28 -29 29 -31
leaf_value=0.012269432896623902 0 0.0083751908927870277 0.0083751908927870277 0 0 0 0.019553703917519049 0 0 0 0.0083751908927870277 0 0 0 0 0 0 0 0.012269432896623902 0 0 0.0083751908927870277 0 0 0 0 0 0 0 0
leaf_weight=535 181 315 4191 814 232 70 442 380 424 164 566 371 720 115 74 175 436 633 261 408 75 361 2321 666 950 404 36 429 87 456
leaf_count=535 181 315 4191 814 232 70 442 380 424 164 566 371 720 115 74 175 436 633 261 408 75 361 2321 666 950 404 36 429 87 456
internal_value=-0.00243916 -0.00147497 -0.000448561 -0.00388781 -0.00450433 -0.00735394 -0.00157752 -0.0018644 -0.00305718 -0.00354785 -0.00129583 -0.001671 -0.00213506 -0.00482669 -0.00418182 -0.00567954 -0.00617909 -0.00662395 -0.00214833 -0.00254003 -0.00527672 0.00067287 -0.00790462 -0.00212849 -0.00170659 -0.00134586 -0.00475 -0.000922043 -0.000323851 -0.00106148
internal_weight=17292 14471 10148 4323 3579 2821 5053 4518 1469 2278 3049 2607 2041 1004 430 249 1301 1069 1045 1274 889 5095 2391 1074 1670 665 200 744 904 543
internal_count=17292 14471 10148 4323 3579 2821 5053 4518 1469 2278 3049 2607 2041 1004 430 249 1301 1069 1045 1274 889 5095 2391 1074 1670 665 200 744 904 543
cat_boundaries=0 3 6 41 78 115 150 153 180 183 188 191 196 223
cat_threshold=1582415888 503844360 284 4384641 2701131776 2241 0 0 0 11796480 0 245761 240 0 0 33554432 20971520 0 0 0 0 0 524288 0 0 1920 0 0 0 0 0 0 0 33562112 0 0 0 0 0 0 402653184 0 0 524288 0 16384 0 0 0 0 0 1063936 8192 204 0 536871680 8 0 1006632960 0 0 0 224 0 0 4096 4 0 0 0 0 0 0 0 0 7340032 0 983040 8192 0 0 8388632 7340032 2048 0 4 0 0 0 0 0 0 1073742848 20 0 0 15360 1408 6815744 0 33628160 0 0 0 0 0 0 0 0 0 0 0 0 240 1048576 0 2048 1073741824 16777280 0 13312 524288 56 6 0 448 0 0 0 128 2 2176 0 64 512 101711872 0 20480 0 0 0 0 0 0 0 0 0 0 0 1280 4096 0 4609 2048 0 0 0 0 0 0 0 0 0 0 0 0 24 0 2048 0 33554432 1048576 2097152 4160755712 7 0 0 0 1107046400 1 1547698192 402655232 20 133164 139424 88100864 1092616209 17 33570816 201328640 260 132 128 69206016 69279745 1 0 0 0 0 0 0 0 0 0 0 384 0 0 7172 15 0 0 0 10485760 0 0 8 0 0 0 2147483648 7340032
is_linear=0
shrinkage=0.01


Tree=28
num_leaves=31
num_cat=13
split_feature=2 27 0 26 27 3 3 13 24 20 3 3 20 12 0 13 26 27 16 24 12 3 26 2 6 2 12 6 3 20
split_gain=817.265 358.587 128.691 79.0443 57.3313 40.7202 34.9451 30.7555 29.9063 29.3598 25.8142 20.1417 17.7001 15.7183 11.9399 14.1383 11.8632 11.8897 11.7761 11.5869 11.3551 10.936 10.3845 9.9267 9.64654 8.70195 7.92988 7.84681 7.54421 9.17801
threshold=0 49.500000000000007 1 -459.49999999999994 120.50000000000001 2 3 0.51972456038539816 2.3363966516081702 3.4001091597462305 4 5 2.7833188578129175 0.84753307444029569 6 -0.52705818521824699 -264.49999999999994 184.50000000000003 2.740319461670996 4.5528159160490373 0.81900730237416519 7 -595.49999999999989 8 9 10 0.81900730237416519 11 12 1.7472490050198912
decision_type=9 8 9 8 8 9 9 2 10 8 9 9 8 2 9 2 10 8 2 8 2 9 8 9 9 9 2 9 9 8
left_child=1 2 6 27 9 14 -1 10 18 13 -8 -12 -13 20 -2 -16 -6 -18 -9 26 -5 -4 -7 -21 -14 -20 -11 -3 -23 -30
right_child=5 3 21 4 16 22 7 8 -10 19 11 12 24 -15 15 -17 17 -19 25 23 -22 28 -24 -25 -26 -27 -28 -29 29 -31
