tree
version=v4
num_class=1
num_tree_per_iteration=1
label_index=0
max_feature_idx=27
objective=quantile
feature_names=cust_code price cust_id item currency region category day_sin day_cos month dayofweek_cos dayofweek_sin dayofyear_sin dayofyear_cos quarter_sin quarter_cos qty_lag1 qty_lag5 qty_lag10 qty_lag20 rolling_mean_3 rolling_std_3 rolling_mean_5 rolling_std_5 rolling_mean_10 rolling_std_10 days_since_client_purchase days_since_client_item_purchase
feature_infos=-1:70:13:22:63:0:28:64:17:66:15:71:47:33:72:37:51:75:29:14:42:7:56:62:12:49:54:34:39:76:48:8:46:18:60:68:9:61:4:38:55:43:74:65:20:58:31:59:23:69:52:73:16:41:10:11:53:6:57:2:24:26:19:27:3:5:50:1:30:21:45:77:44:36:35:25 none -1:41:67:35:58:25:4:42:30:60:28:68:69:72:27:43:26:24:73:61:31:15:66:14:56:49:57:16:71:20:62:33:48:47:9:36:65:59:70:51:29:17:50:52:22:23:63:13:18:21:6:37:39:32:40:7:10:12:5:8:34:44:55:74:19:45:46:3:0:54:2:38 -1:820:819:818:821:823:652:491:822:11:669:651:668:670:667:672:671:830:9:0:1096:119:326:1097:327:120:328:1098:824:812:673:329:832:118:831:813:1099:121:94:569:227:226:229:582:674:93:228:92:95:615:618:7:616:617:581:523:580:629:524:1164:583:5:197:522:700:754:630:251:521:252:419:420:90:196:198:414:418:662:659:660:661:665:88:89:250:415:416:421:43:199:283:417:740:853:102:282:540:739:741:91:272:854:170:273:274:598:104:212:281:542:729:171:172:253:280:386:599:851:1169:103:105:173:209:211:387:391:738:4:210:390:572:596:838:1170:342:605:728:839:248:343:344:597:666:718:727:837:852:1172:8:49:99:100:247:380:381:570:573:840:876:1125:1171:98:240:246:275:426:477:483:601:678:716:730:1124:241:345:456:457:571:717:843:1168:59:478:482:586:587:600:675:744:874:13:239:242:332:514:519:584:604:619:679:875:1152:101:160:330:331:333:382:427:458:585:588:589:620:873:1153:1155:161:162:174:379:449:475:476:501:513:515:603:677:719:720:865:123:175:176:249:450:455:480:500:606:710:711:712:713:1110:1126:1154:148:149:150:177:200:363:428:459:481:484:512:800:801:802:1108:1127:3:137:142:201:205:217:257:258:365:466:479:499:775:778:803:983:122:143:144:163:203:215:289:364:448:451:452:460:465:498:535:564:566:567:676:776:779:780:889:1109:60:61:62:84:108:139:204:216:231:284:285:340:353:425:435:463:474:532:536:695:808:809:810:856:868:952:982:34:109:138:206:218:230:256:287:288:290:339:354:357:362:436:464:541:565:774:777:786:787:811:844:855:953:954:18:25:27:82:83:110:140:151:154:155:184:286:338:341:352:355:384:517:640:784:857:859:860:941:955:973:1068:1114:1115:1116:1161:14:17:28:29:111:117:146:153:261:356:383:434:461:516:534:538:539:644:691:692:693:694:721:722:723:724:781:785:805:806:858:863:864:866:934:1148:1149:10:30:31:85:114:116:152:234:262:276:279:313:370:462:531:537:663:685:725:759:867:933:935:976:977:978:979:1120:1160:1165:1:15:96:183:219:220:236:260:278:296:297:298:299:312:314:315:358:527:528:533:558:633:656:664:726:753:807:846:932:1117:1144:1150:26:97:115:207:208:221:232:235:277:359:371:437:520:743:770:782:783:798:845:899:962:1121:1138:1159:1162:21:53:57:113:187:222:369:439:467:493:494:495:496:526:530:549:632:634:645:654:655:714:737:771:772:773:847:861:862:895:896:960:961:963:971:972:974:1145:1174:1175:24:47:50:55:106:112:133:135:141:185:254:334:335:336:337:346:376:438:440:441:511:525:529:559:560:561:562:563:602:612:635:646:657:701:733:742:746:747:748:749:804:869:870:893:894:900:936:947:948:949:950:964:1081:1083:1122:1123:1146:1151:6:19:36:56:69:70:71:107:134:136:166:167:182:238:259:305:319:320:347:348:349:350:351:366:368:385:388:406:492:497:508:509:510:548:550:551:552:556:591:609:610:641:647:650:681:683:745:755:756:757:758:769:790:794:814:815:816:817:827:849:898:916:930:931:937:942:995:1084:1100:1107:1139:1167:1176:23:35:45:65:66:67:68:72:78:147:168:186:244:263:264:265:266:268:269:270:301:360:361:377:442:443:444:503:546:553:554:555:557:568:576:590:611:631:642:643:648:649:658:680:699:715:732:752:760:761:762:763:791:792:793:795:848:871:884:890:906:915:917:940:958:959:992:993:994:1064:1065:1066:1067:1082:1102:1104:1105:1106:1111:1112:1119:1129:1130:1131:1147:1158:1166:1173:22:39:44:46:58:73:74:75:76:77:157:169:190:223:243:255:267:271:293:300:302:303:304:318:367:372:373:374:375:378:389:400:401:404:407:410:411:413:422:423:424:430:431:433:445:453:468:488:502:506:543:544:545:547:574:593:594:607:608:682:696:697:698:702:703:704:731:734:765:768:797:828:872:881:882:883:897:901:902:903:904:905:908:918:951:975:1008:1009:1010:1011:1048:1049:1050:1088:1101:1163 -1:0:2:1 -1:34:44:36:22:4:5:30:17:10:40:11:35:6:20:7:43:16:12:28:32:3:39:26:24:25:41:42:2:19:37:1:31:23:21:33:29:14:27:18:13:15:8:45:38 -1:122:90:39:7:19:109:117:85:34:2:78:70:112:96:128:45:13:23:94:102:126:62:43:11:35:76:130:98:86:68:118:120:47:88:3:37:5:15:50:20:33:84:116:55:1:21:71:132:17:79:49:100:22:89:38:26:0:91:121:8:40:107:123:6:31:18:95:127:44:12:119:87:36:83:80:63:46:72:93:111:4:97:14:69:77:125:74:82:10:42:66:129:114:24:25:61:73:108:64:103:81:29:105:9:56:60:65:67:75:92:106:124:41:52:113 [-0.99452189536827329:0.9945218953682734] [-1:1] [1:12] [-0.90096886790241903:1] [-0.43388373911755801:0.97492791218182362] [-0.99999073973619013:0.99954628068735729] [-0.99907411510222999:0.99985183920911624] [-1:1] [-1:1] [0:7.8939451382359591] [0:7.8939451382359591] [0:7.7836405962212529] [0:6.5806391372849493] [0.69314718055994529:7.1653002110482875] [0:3.2940417966049629] [1.0986122886681098:6.9971807869699223] [0:2.9815439008988269] [1.1496948510447089:6.9242151338238198] [0:2.7957610625370255] [-726:583] [0:583]
tree_sizes=3774 3770 3772 3770 3774 3774 3773 3774 3772 3774 3774 3773 3774 3769 3769 3770 3775 3774 3774 3772 3780 3777 3778 3905 3904 3903 3903 3902 3903 3902 3900 3900 3899 3901 3794 3793 3902 3905 3887 3909 3899 3883 3883 3909 3910 3928 3959 3933 3934 3935 3935 3935 3934 3936 3943 3944 3943 3946 3947 3931 3945 4034 4057 4054 4025 3932 3957 3951 3952 3987 4129 4137 4136 4136 4134 4046 4108 4088 4183 4222 4143 4119 4111 4137 4136 4165 4063 4010 4029 4047 4045 4093 4094 4097 4049 3936 4085 4142 4099 4093 4099 4015 4117 4130 4144 4126 4137 4160 4140 4140 4095 4033 4219 4202 4116 4091 4094 4113 4112 4157 4211 4011 4232 4318 4265 4232 4246 3984 3981 4099 3823 3809 4177 3912 4327 4100 4340 4293 4287 4184 4385 4406 4288 4292 4228 4041 4278 4297 4044 4420 4473 4306 4370 4419 4419 4388 4269 4462 4619 4322 4285 4558 4321 4245 4253 4279 4310 4322 4322 4292 4294 4309 4200 4436 4429 4313 4308 4318 4516 4504 4181 4183 4161 4187 4375 4480 4521 4536 4528 4630 4509 4489 4462 4428 4446 4447 4295 4270 4094 4181 4198 4142 4294 4144 3966 4267 3919 4074 4140 4170 4253 4386 4307 4098 4009 4202 3998 4237 3908 4221 4154 3927 4073 4045 3963 3938 4142 4175 4112 4032 3851 4002 4083 4099 4023 4068 3999 3982 4107 3689 3840 3792 3967 3931 3849 3976 3749 3860 3837 3858 3829 3999 4078 3595 3731 3850 3820 3705 3795 3776 3858 3758 3798 3934 3779 3776 3782 3774 3736 3712 3722 3788 3788 3795 3797 3813 3714 3728 3747 3798 3893 4040 3798 3756 3684 3644 3677 3658 3664 3782 3773 3834 3780 3803 3884 3832 3918 3883 3784 3782 3774 3791 3946 3799 3732 3964 3829 3960 3675 3746 3963 3985 3726 3955 4085 3968 3827 3959 3919 3798 3992 3775 3746 3898 3885 3972 3811 3724 3838 3826 3941 3955 3848 3950 3897 3886 3932 3873 3878 3863 3879 3888 3888 3794 3850 3959 3771 3819 3932 3760 3736 3794 3888 3888 4021 3942 3942 3938 3894 3898 3878 3917 4100 3829 3871 3844 3816 3727 3844 3799 3632 3983 3865 3619 3619 3957 3693 3864 3987 3985 4032 3824 3892 3896 3856 3762 3675 3895 3805 3922 4055 3662 3937 3946 3894 3770 3862 3862 3960 4002 4057 3980 4018 3894 3959 4051 4010 4078 3840 4018 3986 4051 3960 4003 4089 3983 3929 3798 3784 3892 3989 3879 3889 3943 3891 3862 3812 3874 3903 3852 3885 3818 3897 3843 3724 3682 3718 3619 3765 3631 3700 4054 3812 3839 3810 3883 3731 3725 3866 3752 3782 3821 3839 3868 3871 3617 4045 3872 3855 3895 3896 4037 4018 4123 3926 3939 3760 3943 4068 3851 3856 3915 3826 4064 4097 3986 3989 3819 3997 3910 3862 3866 3937 3933 3751 3924 3891 3848 3796 3774 3884 4022 3888 3862 3774 3693 3745 3961 4010 3711 3822 3871 3913 3942 4036 3905 3904 3995 4003 3859 3955 3909 4250 4086 4033 4016 4079 4019 3976 4158 3987 4190 4254 3998 4086 4038 4133 3987 4225 3967 4002 3918 4067 4134 4219 4275 4135 3965 4055 3903 4077 3786 4060 3911 3955 3972 4196 4013 3994 3905 3873 3920 4016 4052 4217 3886 3870 4068 4054 3906 4001 3975 3946 3934 4080 3958 3918 4035 4071 3973 3878 3911 3968 3962 3981 4010 3909 3892 4251 3936 4082 4157 4313 4273 4336 4163 4422 4051 4280 4140 3925 4297 4418 4268 4128 4176 4101 4116 4254 4343 4035 4120 3978 4007 4002 4185 4215 3989 4033 4115 4133 4204 4039 4286 3778 4184 3909 3921 3964 4085 4020 4062 4233 3723 3943 3776 3737 3774 3805 4171 4199 4088 3887 3959 4176 3956 3991 3979 4000 3927 4099 3795 3881 3655 3742 3913 3700 3953 3839 3948 4133 4049 4040 3911 3875 3833 3769 3820 3987 4062 3895 3676 3976 4038 3959 4109 3940 3864 3889 3887 4019 4193 4058 4063 4073 4002 4020 3989 3791 4155 4132 3876 3913 3924 4147 4127 4158 4076 3994 4028 4158 4169 4005 4069 4069 3933 3904 4087 4041 4034 4154 4065 3955 3950 3924 3837 3842 4134 4112 4138 3878 3992 3997 3888 4131 3938 3970 3854 3742 4061 3699 3920 3866 4043 3874 3930 3965 4001 3829 4060 3840 3997 3821 3754 4154 3741 3812 4034 3914 3896 4159 3927 3937 3826 4038 3932 3766 4062 4201 3881 3841 3880 4074 4324 4171 4175 3942 3959 3929 4104 4154 4136 4298 3919 4284 3814 3920 3776 3860 4191 3910 3924 4130 3616 3844 3928 4106 3909 3965 3570 3740 4022 3702 3669 3533 3561 3433 4000 3669 3714 3770 3727 3846 3556 3721 3646 3715 3722 3818 3598 3606 3594 3656 3723 3691 3810 3963 3650 3635 3720 3892 3854 3792 3756 3999 4050 3638 3707 3587 4083 4166 4200 3832 3657 3636 4088 3572 3681 3691 3854 3612 3737 3869 4118 3877 4216 3846 3989 4017 4201 3886 3925 4139 3810 4226 4291 3900 3752 3759 3762 3711 3888 3824 3752 3717 3840 3638 4026 4159 4033 3678 3639 3570 3637 3785 4029 3676 3746 3656 3873 3733 3498 3734 3725 3667 3494 3528 3790 3860 3436 3472 3732 3777 3623 3734 4131 3575 3678 3540 3474 3418 3592 3527 3598 3664 3533 3464 3387 3634 3522 3493 3571 3512 3687 3757 3460 3877 3728 3605 3534 3576 3943 3979 4037 4077 4091 4194 4135 4064 4008 3706 3738 3918 4065 3542 3910 3755 3712 3485 3639 3823 3777 3928 3974 3658 4009 4157 3887 4109 3895 3764 3616 3987 3818 3857 3636 4089 3940 3529 3736 4189 3709 3688 3557 3514 3715 3514 4044 3544 3704 3817 3883 3880 3598 3588 3627 3574 3757 3604 3517 3537 3812 3441 3549 3716 3525 3547 3693 3569 3603 3508 3832 3810 3669 3761 3507 3595 3817 3896 3818 3926 3900 3815 3738 3632 3721 3717 3606 3962 3539

Tree=0
num_leaves=31
num_cat=14
split_feature=0 2 3 27 3 3 3 3 25 25 3 24 3 23 25 19 3 17 13 0 3 22 24 2 3 22 25 13 7 12
split_gain=1445.66 246.459 118.724 109.448 99.403 64.8406 61.4665 72.3079 65.5768 63.0393 51.7592 50.5225 43.9492 45.0625 40.2245 39.5148 32.2116 42.7617 32.0914 22.346 20.4612 18.9764 18.282 18.0799 16.0956 15.6851 14.0933 21.9684 11.3149 9.76877
threshold=0 1 2 26.500000000000004 3 4 5 6 1.9030006661872683 1.9030006661872683 7 5.6265155094659951 8 1.4054248472324589 2.262544324477215 1.0000000180025095e-35 9 0.89587973461402759 1.0000000180025095e-35 10 11 1.7915320159617443 2.3213800973440146 12 13 4.8879984819926792 1.392552655644095 0.39752808894539271 -0.10395584540888005 0.91236630913977512
decision_type=9 9 9 8 9 9 9 9 8 8 9 8 9 8 8 2 9 2 2 9 9 10 10 9 9 8 8 2 2 2
left_child=3 2 15 -1 14 22 9 8 -8 -6 11 -9 13 29 18 26 17 -14 -4 -5 21 -18 23 -3 28 -13 27 -2 -7 -12
right_child=1 5 4 19 6 24 7 10 -10 -11 12 25 16 -15 -16 -17 20 -19 -20 -21 -22 -23 -24 -25 -26 -27 -28 -29 -30 -31
leaf_value=0.023978953361511231 0.030445225238800049 0.029444389343261719 0.030900083780288697 0 0 0 0 0 0.034339871406555179 0.038602308034896851 0 0 0.032188758850097657 0.032958369255065921 0.032188758850097657 0 0.020715673565864564 0 0 0.016094379425048828 0 0 0 0 0 0.036109178066253661 0.034339871406555179 0 0 0.030445225238800049
leaf_weight=4428 223 273 186 219 230 237 293 177 483 374 278 162 219 205 484 99 198 305 253 195 2681 224 125 178 3533 212 391 69 312 46
leaf_count=4428 223 273 186 219 230 237 293 177 483 374 278 162 219 205 484 99 198 305 253 195 2681 224 125 178 3533 212 391 69 312 46
internal_value=-0.000375318 -0.00217817 -0.0010869 0.00425598 -0.0015 -0.00399743 -0.00196408 -0.00229838 0.000534351 0.00105863 -0.00276553 0.00013369 -0.0031493 -0.00041744 0.00154877 0.00258838 -0.0035455 -0.00117978 -0.000626424 -0.000652174 -0.00393993 -0.00175926 -0.000802048 0.000121951 -0.00444526 0.00221925 0.00347731 0.00181507 -0.00267442 -0.00274691
internal_weight=17292 12450 7792 4842 7010 4658 6087 5483 776 604 4707 551 4156 529 923 782 3627 524 439 414 3103 422 576 451 4082 374 683 292 549 324
internal_count=17292 12450 7792 4842 7010 4658 6087 5483 776 604 4707 551 4156 529 923 782 3627 524 439 414 3103 422 576 451 4082 374 683 292 549 324
cat_boundaries=0 3 6 43 80 106 141 176 201 227 261 263 289 292 329
cat_threshold=4026531840 16772838 16 1578156048 234884608 280 0 0 0 0 0 0 0 0 0 0 15744 0 204 0 536870912 12 2048 872415232 0 0 0 224 0 0 0 0 0 0 0 0 0 0 0 0 5242880 48 2031617 8192 0 0 0 0 0 1048576 32 0 0 576 8192 2147483648 26 1073775360 0 0 134217728 11264 0 0 268435456 33648640 0 0 0 0 0 0 0 0 0 0 0 768 192 14 2147483648 0 0 0 376832 0 1966320 196608 0 33554432 3932160 536870912 0 0 0 0 524288 0 112 0 1 0 33554432 0 0 1792 0 0 100663296 0 11534336 1024 786432 12 0 0 0 3072 1073741824 5 268436480 0 1024 0 4096 0 33554432 16 1048576 0 4096 3407876 1 0 0 0 0 0 0 0 2097152 0 0 1225785344 0 4194304 14336 33554432 16 0 0 0 0 0 32 2147483776 17 640 0 0 1152 2621440 0 33728 0 1024 2148007938 0 0 0 0 0 0 0 0 3072 8 1879048192 0 8388608 0 0 25309184 0 268697606 0 0 4096 0 0 331792 2 0 0 0 4195072 5242880 0 67633152 0 2048 0 4 808189952 4608 512 0 67110912 0 33685504 2 0 2 0 1572864 131072 0 25169920 4194304 0 0 0 8388608 27525120 0 384 4194313 134217728 134217728 2147483648 16777560 134219776 0 16384 0 2818637825 5 0 268435460 0 262144 0 0 4194308 11534336 0 0 603979776 0 0 0 64 8388608 0 0 0 0 0 0 0 4096 0 524514 1 0 0 4202628 50332672 0 0 872415232 68157536 0 4194304 0 0 0 2048 2048 67108874 0 0 0 268435456 0 0 0 8704 12288 0 268435464 4 0 0 0 28573696 0 16859136 0 294916 65536 0 0 402653184 0 0 0 0 0 0 128 0 0 7864320 8388608 0 0 2048 0 7680 0 0 0 0 0 0 256 1 4096
is_linear=0
shrinkage=0.01


Tree=1
num_leaves=31
num_cat=14
split_feature=0 2 3 27 3 3 3 3 25 25 3 24 3 23 25 19 3 17 13 0 3 22 24 2 3 22 25 13 7 12
split_gain=1445.66 246.459 118.724 109.448 99.403 64.8406 61.4665 72.3079 65.5768 63.0393 51.7592 50.5225 43.9492 45.0625 40.2245 39.5148 32.2116 42.7617 32.0914 22.346 20.4612 18.9764 18.282 18.0799 16.0956 15.6851 14.0933 21.9684 11.3149 9.76877
threshold=0 1 2 26.500000000000004 3 4 5 6 1.9030006661872683 1.9030006661872683 7 5.6265155094659951 8 1.4054248472324589 2.262544324477215 1.0000000180025095e-35 9 0.89587973461402759 1.0000000180025095e-35 10 11 1.7915320159617443 2.3213800973440146 12 13 4.8879984819926792 1.392552655644095 0.39752808894539271 -0.10395584540888005 0.91236630913977512
decision_type=9 9 9 8 9 9 9 9 8 8 9 8 9 8 8 2 9 2 2 9 9 10 10 9 9 8 8 2 2 2
left_child=3 2 15 -1 14 22 9 8 -8 -6 11 -9 13 29 18 26 17 -14 -4 -5 21 -18 23 -3 28 -13 27 -2 -7 -12
right_child=1 5 4 19 6 24 7 10 -10 -11 12 25 16 -15 -16 -17 20 -19 -20 -21 -22 -23 -24 -25 -26 -27 -28 -29 -30 -31
leaf_value=0.02373916382789612 0.030140772986412049 0.029149945449829101 0.030591082942485807 0 0 0 0 0 0.033996472692489628 0.038216284954547881 0 0 0.03186687126159668 0.032628785562515257 0.03186687126159668 0 0.020508516830205919 0 0 0.01593343563079834 0 0 0 0 0 0.035748086285591125 0.033996472692489628 0 0 0.030140772986412049
leaf_weight=4428 223 273 186 219 230 237 293 177 483 374 278 162 219 205 484 99 198 305 253 195 2681 224 125 178 3533 212 391 69 312 46
leaf_count=4428 223 273 186 219 230 237 293 177 483 374 278 162 219 205 484 99 198 305 253 195 2681 224 125 178 3533 212 391 69 312 46
internal_value=-0.000375318 -0.00217817 -0.0010869 0.00425598 -0.0015 -0.00399743 -0.00196408 -0.00229838 0.000534351 0.00105863 -0.00276553 0.00013369 -0.0031493 -0.00041744 0.00154877 0.00258838 -0.0035455 -0.00117978 -0.000626424 -0.000652174 -0.00393993 -0.00175926 -0.000802048 0.000121951 -0.00444526 0.00221925 0.00347731 0.00181507 -0.00267442 -0.00274691
internal_weight=17292 12450 7792 4842 7010 4658 6087 5483 776 604 4707 551 4156 529 923 782 3627 524 439 414 3103 422 576 451 4082 374 683 292 549 324
internal_count=17292 12450 7792 4842 7010 4658 6087 5483 776 604 4707 551 4156 529 923 782 3627 524 439 414 3103 422 576 451 4082 374 683 292 549 324
cat_boundaries=0 3 6 43 80 106 141 176 201 227 261 263 289 292 329
cat_threshold=4026531840 16772838 16 1578156048 234884608 280 0 0 0 0 0 0 0 0 0 0 15744 0 204 0 536870912 12 2048 872415232 0 0 0 224 0 0 0 0 0 0 0 0 0 0 0 0 5242880 48 2031617 8192 0 0 0 0 0 1048576 32 0 0 576 8192 2147483648 26 1073775360 0 0 134217728 11264 0 0 268435456 33648640 0 0 0 0 0 0 0 0 0 0 0 768 192 14 2147483648 0 0 0 376832 0 1966320 196608 0 33554432 3932160 536870912 0 0 0 0 524288 0 112 0 1 0 33554432 0 0 1792 0 0 100663296 0 11534336 1024 786432 12 0 0 0 3072 1073741824 5 268436480 0 1024 0 4096 0 33554432 16 1048576 0 4096 3407876 1 0 0 0 0 0 0 0 2097152 0 0 1225785344 0 4194304 14336 33554432 16 0 0 0 0 0 32 2147483776 17 640 0 0 1152 2621440 0 33728 0 1024 2148007938 0 0 0 0 0 0 0 0 3072 8 1879048192 0 8388608 0 0 25309184 0 268697606 0 0 4096 0 0 331792 2 0 0 0 4195072 5242880 0 67633152 0 2048 0 4 808189952 4608 512 0 67110912 0 33685504 2 0 2 0 1572864 131072 0 25169920 4194304 0 0 0 8388608 27525120 0 384 4194313 134217728 134217728 2147483648 16777560 134219776 0 16384 0 2818637825 5 0 268435460 0 262144 0 0 4194308 11534336 0 0 603979776 0 0 0 64 8388608 0 0 0 0 0 0 0 4096 0 524514 1 0 0 4202628 50332672 0 0 872415232 68157536 0 4194304 0 0 0 2048 2048 67108874 0 0 0 268435456 0 0 0 8704 12288 0 268435464 4 0 0 0 28573696 0 16859136 0 294916 65536 0 0 402653184 0 0 0 0 0 0 128 0 0 7864320 8388608 0 0 2048 0 7680 0 0 0 0 0 0 256 1 4096
is_linear=0
shrinkage=0.01


Tree=2
num_leaves=31
num_cat=14
split_feature=0 2 3 27 3 3 3 3 25 25 3 24 3 23 25 19 3 17 13 0 3 22 24 2 3 22 25 13 7 12
split_gain=1445.66 246.459 118.724 109.448 99.403 64.8406 61.4665 72.3079 65.5768 63.0393 51.7592 50.5225 43.9492 45.0625 40.2245 39.5148 32.2116 42.7617 32.0914 22.346 20.4612 18.9764 18.282 18.0799 16.0956 15.6851 14.0933 21.9684 11.3149 9.76877
threshold=0 1 2 26.500000000000004 3 4 5 6 1.9030006661872683 1.9030006661872683 7 5.6265155094659951 8 1.4054248472324589 2.262544324477215 1.0000000180025095e-35 9 0.89587973461402759 1.0000000180025095e-35 10 11 1.7915320159617443 2.3213800973440146 12 13 4.8879984819926792 1.392552655644095 0.39752808894539271 -0.10395584540888005 0.91236630913977512
decision_type=9 9 9 8 9 9 9 9 8 8 9 8 9 8 8 2 9 2 2 9 9 10 10 9 9 8 8 2 2 2
left_child=3 2 15 -1 14 22 9 8 -8 -6 11 -9 13 29 18 26 17 -14 -4 -5 21 -18 23 -3 28 -13 27 -2 -7 -12
right_child=1 5 4 19 6 24 7 10 -10 -11 12 25 16 -15 -16 -17 20 -19 -20 -21 -22 -23 -24 -25 -26 -27 -28 -29 -30 -31
leaf_value=0.023501772189617159 0.029839365256547928 0.028858445995330811 0.030285172113060952 0 0 0 0 0 0.033656507965564728 0.0378341221050024 0 0 0.031548202548980712 0.032302497706890108 0.031548202548980712 0 0.020303431661903858 0 0 0.015774101274490356 0 0 0 0 0 0.035390605422735213 0.033656507965564728 0 0 0.029839365256547928
leaf_weight=4428 223 273 186 219 230 237 293 177 483 374 278 162 219 205 484 99 198 305 253 195 2681 224 125 178 3533 212 391 69 312 46
leaf_count=4428 223 273 186 219 230 237 293 177 483 374 278 162 219 205 484 99 198 305 253 195 2681 224 125 178 3533 212 391 69 312 46
internal_value=-0.000375318 -0.00217817 -0.0010869 0.00425598 -0.0015 -0.00399743 -0.00196408 -0.00229838 0.000534351 0.00105863 -0.00276553 0.00013369 -0.0031493 -0.00041744 0.00154877 0.00258838 -0.0035455 -0.00117978 -0.000626424 -0.000652174 -0.00393993 -0.00175926 -0.000802048 0.000121951 -0.00444526 0.00221925 0.00347731 0.00181507 -0.00267442 -0.00274691
internal_weight=17292 12450 7792 4842 7010 4658 6087 5483 776 604 4707 551 4156 529 923 782 3627 524 439 414 3103 422 576 451 4082 374 683 292 549 324
internal_count=17292 12450 7792 4842 7010 4658 6087 5483 776 604 4707 551 4156 529 923 782 3627 524 439 414 3103 422 576 451 4082 374 683 292 549 324
cat_boundaries=0 3 6 43 80 106 141 176 201 227 261 263 289 292 329
cat_threshold=4026531840 16772838 16 1578156048 234884608 280 0 0 0 0 0 0 0 0 0 0 15744 0 204 0 536870912 12 2048 872415232 0 0 0 224 0 0 0 0 0 0 0 0 0 0 0 0 5242880 48 2031617 8192 0 0 0 0 0 1048576 32 0 0 576 8192 2147483648 26 1073775360 0 0 134217728 11264 0 0 268435456 33648640 0 0 0 0 0 0 0 0 0 0 0 768 192 14 2147483648 0 0 0 376832 0 1966320 196608 0 33554432 3932160 536870912 0 0 0 0 524288 0 112 0 1 0 33554432 0 0 1792 0 0 100663296 0 11534336 1024 786432 12 0 0 0 3072 1073741824 5 268436480 0 1024 0 4096 0 33554432 16 1048576 0 4096 3407876 1 0 0 0 0 0 0 0 2097152 0 0 1225785344 0 4194304 14336 33554432 16 0 0 0 0 0 32 2147483776 17 640 0 0 1152 2621440 0 33728 0 1024 2148007938 0 0 0 0 0 0 0 0 3072 8 1879048192 0 8388608 0 0 25309184 0 268697606 0 0 4096 0 0 331792 2 0 0 0 4195072 5242880 0 67633152 0 2048 0 4 808189952 4608 512 0 67110912 0 33685504 2 0 2 0 1572864 131072 0 25169920 4194304 0 0 0 8388608 27525120 0 384 4194313 134217728 134217728 2147483648 16777560 134219776 0 16384 0 2818637825 5 0 268435460 0 262144 0 0 4194308 11534336 0 0 603979776 0 0 0 64 8388608 0 0 0 0 0 0 0 4096 0 524514 1 0 0 4202628 50332672 0 0 872415232 68157536 0 4194304 0 0 0 2048 2048 67108874 0 0 0 268435456 0 0 0 8704 12288 0 268435464 4 0 0 0 28573696 0 16859136 0 294916 65536 0 0 402653184 0 0 0 0 0 0 128 0 0 7864320 8388608 0 0 2048 0 7680 0 0 0 0 0 0 256 1 4096
is_linear=0
shrinkage=0.01


Tree=3
num_leaves=31
num_cat=14
split_feature=0 2 3 27 3 3 3 3 25 25 3 24 3 23 25 19 3 17 13 0 3 22 24 2 3 22 25 13 7 12
split_gain=1445.66 246.459 118.724 109.448 99.403 64.8406 61.4665 72.3079 65.5768 63.0393 51.7592 50.5225 43.9492 45.0625 40.2245 39.5148 32.2116 42.7617 32.0914 22.346 20.4612 18.9764 18.282 18.0799 16.0956 15.6851 14.0933 21.9684 11.3149 9.76877
threshold=0 1 2 26.500000000000004 3 4 5 6 1.9030006661872683 1.9030006661872683 7 5.6265155094659951 8 1.4054248472324589 2.262544324477215 1.0000000180025095e-35 9 0.89587973461402759 1.0000000180025095e-35 10 11 1.7915320159617443 2.3213800973440146 12 13 4.8879984819926792 1.392552655644095 0.39752808894539271 -0.10395584540888005 0.91236630913977512
decision_type=9 9 9 8 9 9 9 9 8 8 9 8 9 8 8 2 9 2 2 9 9 10 10 9 9 8 8 2 2 2
left_child=3 2 15 -1 14 22 9 8 -8 -6 11 -9 13 29 18 26 17 -14 -4 -5 21 -18 23 -3 28 -13 27 -2 -7 -12
right_child=1 5 4 19 6 24 7 10 -10 -11 12 25 16 -15 -16 -17 20 -19 -20 -21 -22 -23 -24 -25 -26 -27 -28 -29 -30 -31
leaf_value=0.023266754467720988 0.02954097160398245 0.028569861535377501 0.029982320391930346 0 0 0 0 0 0.03331994288590908 0.037455780883952378 0 0 0.031232720523490905 0.031979472729821205 0.031232720523490905 0 0.020100397345284821 0 0 0.015616360261745453 0 0 0 0 0 0.035036699368507861 0.03331994288590908 0 0 0.02954097160398245
leaf_weight=4428 223 273 186 219 230 237 293 177 483 374 278 162 219 205 484 99 198 305 253 195 2681 224 125 178 3533 212 391 69 312 46
leaf_count=4428 223 273 186 219 230 237 293 177 483 374 278 162 219 205 484 99 198 305 253 195 2681 224 125 178 3533 212 391 69 312 46
internal_value=-0.000375318 -0.00217817 -0.0010869 0.00425598 -0.0015 -0.00399743 -0.00196408 -0.00229838 0.000534351 0.00105863 -0.00276553 0.00013369 -0.0031493 -0.00041744 0.00154877 0.00258838 -0.0035455 -0.00117978 -0.000626424 -0.000652174 -0.00393993 -0.00175926 -0.000802048 0.000121951 -0.00444526 0.00221925 0.00347731 0.00181507 -0.00267442 -0.00274691
internal_weight=17292 12450 7792 4842 7010 4658 6087 5483 776 604 4707 551 4156 529 923 782 3627 524 439 414 3103 422 576 451 4082 374 683 292 549 324
internal_count=17292 12450 7792 4842 7010 4658 6087 5483 776 604 4707 551 4156 529 923 782 3627 524 439 414 3103 422 576 451 4082 374 683 292 549 324
cat_boundaries=0 3 6 43 80 106 141 176 201 227 261 263 289 292 329
cat_threshold=4026531840 16772838 16 1578156048 234884608 280 0 0 0 0 0 0 0 0 0 0 15744 0 204 0 536870912 12 2048 872415232 0 0 0 224 0 0 0 0 0 0 0 0 0 0 0 0 5242880 48 2031617 8192 0 0 0 0 0 1048576 32 0 0 576 8192 2147483648 26 1073775360 0 0 134217728 11264 0 0 268435456 33648640 0 0 0 0 0 0 0 0 0 0 0 768 192 14 2147483648 0 0 0 376832 0 1966320 196608 0 33554432 3932160 536870912 0 0 0 0 524288 0 112 0 1 0 33554432 0 0 1792 0 0 100663296 0 11534336 1024 786432 12 0 0 0 3072 1073741824 5 268436480 0 1024 0 4096 0 33554432 16 1048576 0 4096 3407876 1 0 0 0 0 0 0 0 2097152 0 0 1225785344 0 4194304 14336 33554432 16 0 0 0 0 0 32 2147483776 17 640 0 0 1152 2621440 0 33728 0 1024 2148007938 0 0 0 0 0 0 0 0 3072 8 1879048192 0 8388608 0 0 25309184 0 268697606 0 0 4096 0 0 331792 2 0 0 0 4195072 5242880 0 67633152 0 2048 0 4 808189952 4608 512 0 67110912 0 33685504 2 0 2 0 1572864 131072 0 25169920 4194304 0 0 0 8388608 27525120 0 384 4194313 134217728 134217728 2147483648 16777560 134219776 0 16384 0 2818637825 5 0 268435460 0 262144 0 0 4194308 11534336 0 0 603979776 0 0 0 64 8388608 0 0 0 0 0 0 0 4096 0 524514 1 0 0 4202628 50332672 0 0 872415232 68157536 0 4194304 0 0 0 2048 2048 67108874 0 0 0 268435456 0 0 0 8704 12288 0 268435464 4 0 0 0 28573696 0 16859136 0 294916 65536 0 0 402653184 0 0 0 0 0 0 128 0 0 7864320 8388608 0 0 2048 0 7680 0 0 0 0 0 0 256 1 4096
is_linear=0
shrinkage=0.01


Tree=4
num_leaves=31
num_cat=14
split_feature=0 2 3 27 3 3 3 3 25 25 3 24 3 23 25 19 3 17 13 0 3 22 24 2 3 22 25 13 7 12
split_gain=1445.66 246.459 118.724 109.448 99.403 64.8406 61.4665 72.3079 65.5768 63.0393 51.7592 50.5225 43.9492 45.0625 40.2245 39.5148 32.2116 42.7617 32.0914 22.346 20.4612 18.9764 18.282 18.0799 16.0956 15.6851 14.0933 21.9684 11.3149 9.76877
threshold=0 1 2 26.500000000000004 3 4 5 6 1.9030006661872683 1.9030006661872683 7 5.6265155094659951 8 1.4054248472324589 2.262544324477215 1.0000000180025095e-35 9 0.89587973461402759 1.0000000180025095e-35 10 11 1.7915320159617443 2.3213800973440146 12 13 4.8879984819926792 1.392552655644095 0.39752808894539271 -0.10395584540888005 0.91236630913977512
decision_type=9 9 9 8 9 9 9 9 8 8 9 8 9 8 8 2 9 2 2 9 9 10 10 9 9 8 8 2 2 2
left_child=3 2 15 -1 14 22 9 8 -8 -6 11 -9 13 29 18 26 17 -14 -4 -5 21 -18 23 -3 28 -13 27 -2 -7 -12
right_child=1 5 4 19 6 24 7 10 -10 -11 12 25 16 -15 -16 -17 20 -19 -20 -21 -22 -23 -24 -25 -26 -27 -28 -29 -30 -31
leaf_value=0.023034086923043776 0.029245561887942625 0.028284162920023729 0.029682497188011036 0 0 0 0 0 0.032986743457049987 0.037081223075112857 0 0 0.030920393318255999 0.031659678002522992 0.030920393318255999 0 0.019899393371831969 0 0 0.015460196659127999 0 0 0 0 0 0.034686332374822784 0.032986743457049987 0 0 0.029245561887942625
leaf_weight=4428 223 273 186 219 230 237 293 177 483 374 278 162 219 205 484 99 198 305 253 195 2681 224 125 178 3533 212 391 69 312 46
leaf_count=4428 223 273 186 219 230 237 293 177 483 374 278 162 219 205 484 99 198 305 253 195 2681 224 125 178 3533 212 391 69 312 46
internal_value=-0.000375318 -0.00217817 -0.0010869 0.00425598 -0.0015 -0.00399743 -0.00196408 -0.00229838 0.000534351 0.00105863 -0.00276553 0.00013369 -0.0031493 -0.00041744 0.00154877 0.00258838 -0.0035455 -0.00117978 -0.000626424 -0.000652174 -0.00393993 -0.00175926 -0.000802048 0.000121951 -0.00444526 0.00221925 0.00347731 0.00181507 -0.00267442 -0.00274691
internal_weight=17292 12450 7792 4842 7010 4658 6087 5483 776 604 4707 551 4156 529 923 782 3627 524 439 414 3103 422 576 451 4082 374 683 292 549 324
internal_count=17292 12450 7792 4842 7010 4658 6087 5483 776 604 4707 551 4156 529 923 782 3627 524 439 414 3103 422 576 451 4082 374 683 292 549 324
cat_boundaries=0 3 6 43 80 106 141 176 201 227 261 263 289 292 329
cat_threshold=4026531840 16772838 16 1578156048 234884608 280 0 0 0 0 0 0 0 0 0 0 15744 0 204 0 536870912 12 2048 872415232 0 0 0 224 0 0 0 0 0 0 0 0 0 0 0 0 5242880 48 2031617 8192 0 0 0 0 0 1048576 32 0 0 576 8192 2147483648 26 1073775360 0 0 134217728 11264 0 0 268435456 33648640 0 0 0 0 0 0 0 0 0 0 0 768 192 14 2147483648 0 0 0 376832 0 1966320 196608 0 33554432 3932160 536870912 0 0 0 0 524288 0 112 0 1 0 33554432 0 0 1792 0 0 100663296 0 11534336 1024 786432 12 0 0 0 3072 1073741824 5 268436480 0 1024 0 4096 0 33554432 16 1048576 0 4096 3407876 1 0 0 0 0 0 0 0 2097152 0 0 1225785344 0 4194304 14336 33554432 16 0 0 0 0 0 32 2147483776 17 640 0 0 1152 2621440 0 33728 0 1024 2148007938 0 0 0 0 0 0 0 0 3072 8 1879048192 0 8388608 0 0 25309184 0 268697606 0 0 4096 0 0 331792 2 0 0 0 4195072 5242880 0 67633152 0 2048 0 4 808189952 4608 512 0 67110912 0 33685504 2 0 2 0 1572864 131072 0 25169920 4194304 0 0 0 8388608 27525120 0 384 4194313 134217728 134217728 2147483648 16777560 134219776 0 16384 0 2818637825 5 0 268435460 0 262144 0 0 4194308 11534336 0 0 603979776 0 0 0 64 8388608 0 0 0 0 0 0 0 4096 0 524514 1 0 0 4202628 50332672 0 0 872415232 68157536 0 4194304 0 0 0 2048 2048 67108874 0 0 0 268435456 0 0 0 8704 12288 0 268435464 4 0 0 0 28573696 0 16859136 0 294916 65536 0 0 402653184 0 0 0 0 0 0 128 0 0 7864320 8388608 0 0 2048 0 7680 0 0 0 0 0 0 256 1 4096
is_linear=0
shrinkage=0.01


Tree=5
num_leaves=31
num_cat=14
split_feature=0 2 3 27 3 3 3 3 25 25 3 24 3 23 25 19 3 17 13 0 3 22 24 2 3 22 25 13 7 12
split_gain=1445.66 246.459 118.724 109.448 99.403 64.8406 61.4665 72.3079 65.5768 63.0393 51.7592 50.5225 43.9492 45.0625 40.2245 39.5148 32.2116 42.7617 32.0914 22.346 20.4612 18.9764 18.282 18.0799 16.0956 15.6851 14.0933 21.9684 11.3149 9.76877
threshold=0 1 2 26.500000000000004 3 4 5 6 1.9030006661872683 1.9030006661872683 7 5.6265155094659951 8 1.4054248472324589 2.262544324477215 1.0000000180025095e-35 9 0.89587973461402759 1.0000000180025095e-35 10 11 1.7915320159617443 2.3213800973440146 12 13 4.8879984819926792 1.392552655644095 0.39752808894539271 -0.10395584540888005 0.91236630913977512
decision_type=9 9 9 8 9 9 9 9 8 8 9 8 9 8 8 2 9 2 2 9 9 10 10 9 9 8 8 2 2 2
left_child=3 2 15 -1 14 22 9 8 -8 -6 11 -9 13 29 18 26 17 -14 -4 -5 21 -18 23 -3 28 -13 27 -2 -7 -12
right_child=1 5 4 19 6 24 7 10 -10 -11 12 25 16 -15 -16 -17 20 -19 -20 -21 -22 -23 -24 -25 -26 -27 -28 -29 -30 -31
leaf_value=0.022803746053813335 0.028953106269063202 0.028001321290823489 0.029385672216130927 0 0 0 0 0 0.032656876022479492 0.036710410844361725 0 0 0.030611189385073439 0.031343081222497765 0.030611189385073439 0 0.019700399438113653 0 0 0.015305594692536719 0 0 0 0 0 0.034339469051074552 0.032656876022479492 0 0 0.028953106269063202
leaf_weight=4428 223 273 186 219 230 237 293 177 483 374 278 162 219 205 484 99 198 305 253 195 2681 224 125 178 3533 212 391 69 312 46
leaf_count=4428 223 273 186 219 230 237 293 177 483 374 278 162 219 205 484 99 198 305 253 195 2681 224 125 178 3533 212 391 69 312 46
internal_value=-0.000375318 -0.00217817 -0.0010869 0.00425598 -0.0015 -0.00399743 -0.00196408 -0.00229838 0.000534351 0.00105863 -0.00276553 0.00013369 -0.0031493 -0.00041744 0.00154877 0.00258838 -0.0035455 -0.00117978 -0.000626424 -0.000652174 -0.00393993 -0.00175926 -0.000802048 0.000121951 -0.00444526 0.00221925 0.00347731 0.00181507 -0.00267442 -0.00274691
internal_weight=17292 12450 7792 4842 7010 4658 6087 5483 776 604 4707 551 4156 529 923 782 3627 524 439 414 3103 422 576 451 4082 374 683 292 549 324
internal_count=17292 12450 7792 4842 7010 4658 6087 5483 776 604 4707 551 4156 529 923 782 3627 524 439 414 3103 422 576 451 4082 374 683 292 549 324
cat_boundaries=0 3 6 43 80 106 141 176 201 227 261 263 289 292 329
cat_threshold=4026531840 16772838 16 1578156048 234884608 280 0 0 0 0 0 0 0 0 0 0 15744 0 204 0 536870912 12 2048 872415232 0 0 0 224 0 0 0 0 0 0 0 0 0 0 0 0 5242880 48 2031617 8192 0 0 0 0 0 1048576 32 0 0 576 8192 2147483648 26 1073775360 0 0 134217728 11264 0 0 268435456 33648640 0 0 0 0 0 0 0 0 0 0 0 768 192 14 2147483648 0 0 0 376832 0 1966320 196608 0 33554432 3932160 536870912 0 0 0 0 524288 0 112 0 1 0 33554432 0 0 1792 0 0 100663296 0 11534336 1024 786432 12 0 0 0 3072 1073741824 5 268436480 0 1024 0 4096 0 33554432 16 1048576 0 4096 3407876 1 0 0 0 0 0 0 0 2097152 0 0 1225785344 0 4194304 14336 33554432 16 0 0 0 0 0 32 2147483776 17 640 0 0 1152 2621440 0 33728 0 1024 2148007938 0 0 0 0 0 0 0 0 3072 8 1879048192 0 8388608 0 0 25309184 0 268697606 0 0 4096 0 0 331792 2 0 0 0 4195072 5242880 0 67633152 0 2048 0 4 808189952 4608 512 0 67110912 0 33685504 2 0 2 0 1572864 131072 0 25169920 4194304 0 0 0 8388608 27525120 0 384 4194313 134217728 134217728 2147483648 16777560 134219776 0 16384 0 2818637825 5 0 268435460 0 262144 0 0 4194308 11534336 0 0 603979776 0 0 0 64 8388608 0 0 0 0 0 0 0 4096 0 524514 1 0 0 4202628 50332672 0 0 872415232 68157536 0 4194304 0 0 0 2048 2048 67108874 0 0 0 268435456 0 0 0 8704 12288 0 268435464 4 0 0 0 28573696 0 16859136 0 294916 65536 0 0 402653184 0 0 0 0 0 0 128 0 0 7864320 8388608 0 0 2048 0 7680 0 0 0 0 0 0 256 1 4096
is_linear=0
shrinkage=0.01


Tree=6
num_leaves=31
num_cat=14
split_feature=0 2 3 27 3 3 3 3 25 25 3 24 3 23 25 19 3 17 13 0 3 22 24 2 3 22 25 13 7 12
split_gain=1445.66 246.459 118.724 109.448 99.403 64.8406 61.4665 72.3079 65.5768 63.0393 51.7592 50.5225 43.9492 45.0625 40.2245 39.5148 32.2116 42.7617 32.0914 22.346 20.4612 18.9764 18.282 18.0799 16.0956 15.6851 14.0933 21.9684 11.3149 9.76877
threshold=0 1 2 26.500000000000004 3 4 5 6 1.9030006661872683 1.9030006661872683 7 5.6265155094659951 8 1.4054248472324589 2.262544324477215 1.0000000180025095e-35 9 0.89587973461402759 1.0000000180025095e-35 10 11 1.7915320159617443 2.3213800973440146 12 13 4.8879984819926792 1.392552655644095 0.39752808894539271 -0.10395584540888005 0.91236630913977512
decision_type=9 9 9 8 9 9 9 9 8 8 9 8 9 8 8 2 9 2 2 9 9 10 10 9 9 8 8 2 2 2
left_child=3 2 15 -1 14 22 9 8 -8 -6 11 -9 13 29 18 26 17 -14 -4 -5 21 -18 23 -3 28 -13 27 -2 -7 -12
right_child=1 5 4 19 6 24 7 10 -10 -11 12 25 16 -15 -16 -17 20 -19 -20 -21 -22 -23 -24 -25 -26 -27 -28 -29 -30 -31
leaf_value=0.022575708593275207 0.028663575206372569 0.027721308077915254 0.029091815493969619 0 0 0 0 0 0.032330307262254693 0.03634330673591811 0 0 0.030305077491222701 0.031029650410272787 0.030305077491222701 0 0.019503395443732516 0 0 0.015152538745611351 0 0 0 0 0 0.033996074360563809 0.032330307262254693 0 0 0.028663575206372569
leaf_weight=4428 223 273 186 219 230 237 293 177 483 374 278 162 219 205 484 99 198 305 253 195 2681 224 125 178 3533 212 391 69 312 46
leaf_count=4428 223 273 186 219 230 237 293 177 483 374 278 162 219 205 484 99 198 305 253 195 2681 224 125 178 3533 212 391 69 312 46
internal_value=-0.000375318 -0.00217817 -0.0010869 0.00425598 -0.0015 -0.00399743 -0.00196408 -0.00229838 0.000534351 0.00105863 -0.00276553 0.00013369 -0.0031493 -0.00041744 0.00154877 0.00258838 -0.0035455 -0.00117978 -0.000626424 -0.000652174 -0.00393993 -0.00175926 -0.000802048 0.000121951 -0.00444526 0.00221925 0.00347731 0.00181507 -0.00267442 -0.00274691
internal_weight=17292 12450 7792 4842 7010 4658 6087 5483 776 604 4707 551 4156 529 923 782 3627 524 439 414 3103 422 576 451 4082 374 683 292 549 324
internal_count=17292 12450 7792 4842 7010 4658 6087 5483 776 604 4707 551 4156 529 923 782 3627 524 439 414 3103 422 576 451 4082 374 683 292 549 324
cat_boundaries=0 3 6 43 80 106 141 176 201 227 261 263 289 292 329
cat_threshold=4026531840 16772838 16 1578156048 234884608 280 0 0 0 0 0 0 0 0 0 0 15744 0 204 0 536870912 12 2048 872415232 0 0 0 224 0 0 0 0 0 0 0 0 0 0 0 0 5242880 48 2031617 8192 0 0 0 0 0 1048576 32 0 0 576 8192 2147483648 26 1073775360 0 0 134217728 11264 0 0 268435456 33648640 0 0 0 0 0 0 0 0 0 0 0 768 192 14 2147483648 0 0 0 376832 0 1966320 196608 0 33554432 3932160 536870912 0 0 0 0 524288 0 112 0 1 0 33554432 0 0 1792 0 0 100663296 0 11534336 1024 786432 12 0 0 0 3072 1073741824 5 268436480 0 1024 0 4096 0 33554432 16 1048576 0 4096 3407876 1 0 0 0 0 0 0 0 2097152 0 0 1225785344 0 4194304 14336 33554432 16 0 0 0 0 0 32 2147483776 17 640 0 0 1152 2621440 0 33728 0 1024 2148007938 0 0 0 0 0 0 0 0 3072 8 1879048192 0 8388608 0 0 25309184 0 268697606 0 0 4096 0 0 331792 2 0 0 0 4195072 5242880 0 67633152 0 2048 0 4 808189952 4608 512 0 67110912 0 33685504 2 0 2 0 1572864 131072 0 25169920 4194304 0 0 0 8388608 27525120 0 384 4194313 134217728 134217728 2147483648 16777560 134219776 0 16384 0 2818637825 5 0 268435460 0 262144 0 0 4194308 11534336 0 0 603979776 0 0 0 64 8388608 0 0 0 0 0 0 0 4096 0 524514 1 0 0 4202628 50332672 0 0 872415232 68157536 0 4194304 0 0 0 2048 2048 67108874 0 0 0 268435456 0 0 0 8704 12288 0 268435464 4 0 0 0 28573696 0 16859136 0 294916 65536 0 0 402653184 0 0 0 0 0 0 128 0 0 7864320 8388608 0 0 2048 0 7680 0 0 0 0 0 0 256 1 4096
is_linear=0
shrinkage=0.01


Tree=7
num_leaves=31
num_cat=14
split_feature=0 2 3 27 3 3 3 3 25 25 3 24 3 23 25 19 3 17 13 0 3 22 24 2 3 22 25 13 7 12
split_gain=1445.66 246.459 118.724 109.448 99.403 64.8406 61.4665 72.3079 65.5768 63.0393 51.7592 50.5225 43.9492 45.0625 40.2245 39.5148 32.2116 42.7617 32.0914 22.346 20.4612 18.9764 18.282 18.0799 16.0956 15.6851 14.0933 21.9684 11.3149 9.76877
threshold=0 1 2 26.500000000000004 3 4 5 6 1.9030006661872683 1.9030006661872683 7 5.6265155094659951 8 1.4054248472324589 2.262544324477215 1.0000000180025095e-35 9 0.89587973461402759 1.0000000180025095e-35 10 11 1.7915320159617443 2.3213800973440146 12 13 4.8879984819926792 1.392552655644095 0.39752808894539271 -0.10395584540888005 0.91236630913977512
decision_type=9 9 9 8 9 9 9 9 8 8 9 8 9 8 8 2 9 2 2 9 9 10 10 9 9 8 8 2 2 2
left_child=3 2 15 -1 14 22 9 8 -8 -6 11 -9 13 29 18 26 17 -14 -4 -5 21 -18 23 -3 28 -13 27 -2 -7 -12
right_child=1 5 4 19 6 24 7 10 -10 -11 12 25 16 -15 -16 -17 20 -19 -20 -21 -22 -23 -24 -25 -26 -27 -28 -29 -30 -31
leaf_value=0.022349951507342453 0.028376939454308841 0.027444094997136102 0.028800897339029925 0 0 0 0 0 0.032007004189632149 0.035979873668558933 0 0 0.030002026716310474 0.030719353906170057 0.030002026716310474 0 0.019308361489295191 0 0 0.015001013358155237 0 0 0 0 0 0.033656113616958173 0.032007004189632149 0 0 0.028376939454308841
leaf_weight=4428 223 273 186 219 230 237 293 177 483 374 278 162 219 205 484 99 198 305 253 195 2681 224 125 178 3533 212 391 69 312 46
leaf_count=4428 223 273 186 219 230 237 293 177 483 374 278 162 219 205 484 99 198 305 253 195 2681 224 125 178 3533 212 391 69 312 46
internal_value=-0.000375318 -0.00217817 -0.0010869 0.00425598 -0.0015 -0.00399743 -0.00196408 -0.00229838 0.000534351 0.00105863 -0.00276553 0.00013369 -0.0031493 -0.00041744 0.00154877 0.00258838 -0.0035455 -0.00117978 -0.000626424 -0.000652174 -0.00393993 -0.00175926 -0.000802048 0.000121951 -0.00444526 0.00221925 0.00347731 0.00181507 -0.00267442 -0.00274691
internal_weight=17292 12450 7792 4842 7010 4658 6087 5483 776 604 4707 551 4156 529 923 782 3627 524 439 414 3103 422 576 451 4082 374 683 292 549 324
internal_count=17292 12450 7792 4842 7010 4658 6087 5483 776 604 4707 551 4156 529 923 782 3627 524 439 414 3103 422 576 451 4082 374 683 292 549 324
cat_boundaries=0 3 6 43 80 106 141 176 201 227 261 263 289 292 329
cat_threshold=4026531840 16772838 16 1578156048 234884608 280 0 0 0 0 0 0 0 0 0 0 15744 0 204 0 536870912 12 2048 872415232 0 0 0 224 0 0 0 0 0 0 0 0 0 0 0 0 5242880 48 2031617 8192 0 0 0 0 0 1048576 32 0 0 576 8192 2147483648 26 1073775360 0 0 134217728 11264 0 0 268435456 33648640 0 0 0 0 0 0 0 0 0 0 0 768 192 14 2147483648 0 0 0 376832 0 1966320 196608 0 33554432 3932160 536870912 0 0 0 0 524288 0 112 0 1 0 33554432 0 0 1792 0 0 100663296 0 11534336 1024 786432 12 0 0 0 3072 1073741824 5 268436480 0 1024 0 4096 0 33554432 16 1048576 0 4096 3407876 1 0 0 0 0 0 0 0 2097152 0 0 1225785344 0 4194304 14336 33554432 16 0 0 0 0 0 32 2147483776 17 640 0 0 1152 2621440 0 33728 0 1024 2148007938 0 0 0 0 0 0 0 0 3072 8 1879048192 0 8388608 0 0 25309184 0 268697606 0 0 4096 0 0 331792 2 0 0 0 4195072 5242880 0 67633152 0 2048 0 4 808189952 4608 512 0 67110912 0 33685504 2 0 2 0 1572864 131072 0 25169920 4194304 0 0 0 8388608 27525120 0 384 4194313 134217728 134217728 2147483648 16777560 134219776 0 16384 0 2818637825 5 0 268435460 0 262144 0 0 4194308 11534336 0 0 603979776 0 0 0 64 8388608 0 0 0 0 0 0 0 4096 0 524514 1 0 0 4202628 50332672 0 0 872415232 68157536 0 4194304 0 0 0 2048 2048 67108874 0 0 0 268435456 0 0 0 8704 12288 0 268435464 4 0 0 0 28573696 0 16859136 0 294916 65536 0 0 402653184 0 0 0 0 0 0 128 0 0 7864320 8388608 0 0 2048 0 7680 0 0 0 0 0 0 256 1 4096
is_linear=0
shrinkage=0.01


Tree=8
num_leaves=31
num_cat=14
split_feature=0 2 3 27 3 3 3 3 25 25 3 24 3 23 25 19 3 17 13 0 3 22 24 2 3 22 25 13 7 12
split_gain=1445.66 246.459 118.724 109.448 99.403 64.8406 61.4665 72.3079 65.5768 63.0393 51.7592 50.5225 43.9492 45.0625 40.2245 39.5148 32.2116 42.7617 32.0914 22.346 20.4612 18.9764 18.282 18.0799 16.0956 15.6851 14.0933 21.9684 11.3149 9.76877
threshold=0 1 2 26.500000000000004 3 4 5 6 1.9030006661872683 1.9030006661872683 7 5.6265155094659951 8 1.4054248472324589 2.262544324477215 1.0000000180025095e-35 9 0.89587973461402759 1.0000000180025095e-35 10 11 1.7915320159617443 2.3213800973440146 12 13 4.8879984819926792 1.392552655644095 0.39752808894539271 -0.10395584540888005 0.91236630913977512
decision_type=9 9 9 8 9 9 9 9 8 8 9 8 9 8 8 2 9 2 2 9 9 10 10 9 9 8 8 2 2 2
left_child=3 2 15 -1 14 22 9 8 -8 -6 11 -9 13 29 18 26 17 -14 -4 -5 21 -18 23 -3 28 -13 27 -2 -7 -12
right_child=1 5 4 19 6 24 7 10 -10 -11 12 25 16 -15 -16 -17 20 -19 -20 -21 -22 -23 -24 -25 -26 -27 -28 -29 -30 -31
leaf_value=0.022126451992269029 0.028093170059765752 0.027169654047164742 0.028512888365639623 0 0 0 0 0 0.03168693414773583 0.035620074931873344 0 0 0.029702006449147368 0.030412160367108358 0.029702006449147368 0 0.019115277874402238 0 0 0.014851003224573684 0 0 0 0 0 0.033319552480788592 0.03168693414773583 0 0 0.028093170059765752
leaf_weight=4428 223 273 186 219 230 237 293 177 483 374 278 162 219 205 484 99 198 305 253 195 2681 224 125 178 3533 212 391 69 312 46
leaf_count=4428 223 273 186 219 230 237 293 177 483 374 278 162 219 205 484 99 198 305 253 195 2681 224 125 178 3533 212 391 69 312 46
internal_value=-0.000375318 -0.00217817 -0.0010869 0.00425598 -0.0015 -0.00399743 -0.00196408 -0.00229838 0.000534351 0.00105863 -0.00276553 0.00013369 -0.0031493 -0.00041744 0.00154877 0.00258838 -0.0035455 -0.00117978 -0.000626424 -0.000652174 -0.00393993 -0.00175926 -0.000802048 0.000121951 -0.00444526 0.00221925 0.00347731 0.00181507 -0.00267442 -0.00274691
internal_weight=17292 12450 7792 4842 7010 4658 6087 5483 776 604 4707 551 4156 529 923 782 3627 524 439 414 3103 422 576 451 4082 374 683 292 549 324
internal_count=17292 12450 7792 4842 7010 4658 6087 5483 776 604 4707 551 4156 529 923 782 3627 524 439 414 3103 422 576 451 4082 374 683 292 549 324
cat_boundaries=0 3 6 43 80 106 141 176 201 227 261 263 289 292 329
cat_threshold=4026531840 16772838 16 1578156048 234884608 280 0 0 0 0 0 0 0 0 0 0 15744 0 204 0 536870912 12 2048 872415232 0 0 0 224 0 0 0 0 0 0 0 0 0 0 0 0 5242880 48 2031617 8192 0 0 0 0 0 1048576 32 0 0 576 8192 2147483648 26 1073775360 0 0 134217728 11264 0 0 268435456 33648640 0 0 0 0 0 0 0 0 0 0 0 768 192 14 2147483648 0 0 0 376832 0 1966320 196608 0 33554432 3932160 536870912 0 0 0 0 524288 0 112 0 1 0 33554432 0 0 1792 0 0 100663296 0 11534336 1024 786432 12 0 0 0 3072 1073741824 5 268436480 0 1024 0 4096 0 33554432 16 1048576 0 4096 3407876 1 0 0 0 0 0 0 0 2097152 0 0 1225785344 0 4194304 14336 33554432 16 0 0 0 0 0 32 2147483776 17 640 0 0 1152 2621440 0 33728 0 1024 2148007938 0 0 0 0 0 0 0 0 3072 8 1879048192 0 8388608 0 0 25309184 0 268697606 0 0 4096 0 0 331792 2 0 0 0 4195072 5242880 0 67633152 0 2048 0 4 808189952 4608 512 0 67110912 0 33685504 2 0 2 0 1572864 131072 0 25169920 4194304 0 0 0 8388608 27525120 0 384 4194313 134217728 134217728 2147483648 16777560 134219776 0 16384 0 2818637825 5 0 268435460 0 262144 0 0 4194308 11534336 0 0 603979776 0 0 0 64 8388608 0 0 0 0 0 0 0 4096 0 524514 1 0 0 4202628 50332672 0 0 872415232 68157536 0 4194304 0 0 0 2048 2048 67108874 0 0 0 268435456 0 0 0 8704 12288 0 268435464 4 0 0 0 28573696 0 16859136 0 294916 65536 0 0 402653184 0 0 0 0 0 0 128 0 0 7864320 8388608 0 0 2048 0 7680 0 0 0 0 0 0 256 1 4096
is_linear=0
shrinkage=0.01


Tree=9
num_leaves=31
num_cat=14
split_feature=0 2 3 27 3 3 3 3 25 25 3 24 3 23 25 19 3 17 13 0 3 22 24 2 3 22 25 13 7 12
split_gain=1445.66 246.459 118.724 109.448 99.403 64.8406 61.4665 72.3079 65.5768 63.0393 51.7592 50.5225 43.9492 45.0625 40.2245 39.5148 32.2116 42.7617 32.0914 22.346 20.4612 18.9764 18.282 18.0799 16.0956 15.6851 14.0933 21.9684 11.3149 9.76877
threshold=0 1 2 26.500000000000004 3 4 5 6 1.9030006661872683 1.9030006661872683 7 5.6265155094659951 8 1.4054248472324589 2.262544324477215 1.0000000180025095e-35 9 0.89587973461402759 1.0000000180025095e-35 10 11 1.7915320159617443 2.3213800973440146 12 13 4.8879984819926792 1.392552655644095 0.39752808894539271 -0.10395584540888005 0.91236630913977512
decision_type=9 9 9 8 9 9 9 9 8 8 9 8 9 8 8 2 9 2 2 9 9 10 10 9 9 8 8 2 2 2
left_child=3 2 15 -1 14 22 9 8 -8 -6 11 -9 13 29 18 26 17 -14 -4 -5 21 -18 23 -3 28 -13 27 -2 -7 -12
right_child=1 5 4 19 6 24 7 10 -10 -11 12 25 16 -15 -16 -17 20 -19 -20 -21 -22 -23 -24 -25 -26 -27 -28 -29 -30 -31
leaf_value=0.021905187472346339 0.027812238359168094 0.026897957506693097 0.028227759481983226 0 0 0 0 0 0.031370064806258466 0.035263874182554604 0 0 0.029404986384655895 0.030108038763437275 0.029404986384655895 0 0.018924125095658217 0 0 0.014702493192327947 0 0 0 0 0 0.032986356955980706 0.031370064806258466 0 0 0.027812238359168094
leaf_weight=4428 223 273 186 219 230 237 293 177 483 374 278 162 219 205 484 99 198 305 253 195 2681 224 125 178 3533 212 391 69 312 46
leaf_count=4428 223 273 186 219 230 237 293 177 483 374 278 162 219 205 484 99 198 305 253 195 2681 224 125 178 3533 212 391 69 312 46
internal_value=-0.000375318 -0.00217817 -0.0010869 0.00425598 -0.0015 -0.00399743 -0.00196408 -0.00229838 0.000534351 0.00105863 -0.00276553 0.00013369 -0.0031493 -0.00041744 0.00154877 0.00258838 -0.0035455 -0.00117978 -0.000626424 -0.000652174 -0.00393993 -0.00175926 -0.000802048 0.000121951 -0.00444526 0.00221925 0.00347731 0.00181507 -0.00267442 -0.00274691
internal_weight=17292 12450 7792 4842 7010 4658 6087 5483 776 604 4707 551 4156 529 923 782 3627 524 439 414 3103 422 576 451 4082 374 683 292 549 324
internal_count=17292 12450 7792 4842 7010 4658 6087 5483 776 604 4707 551 4156 529 923 782 3627 524 439 414 3103 422 576 451 4082 374 683 292 549 324
cat_boundaries=0 3 6 43 80 106 141 176 201 227 261 263 289 292 329
cat_threshold=4026531840 16772838 16 1578156048 234884608 280 0 0 0 0 0 0 0 0 0 0 15744 0 204 0 536870912 12 2048 872415232 0 0 0 224 0 0 0 0 0 0 0 0 0 0 0 0 5242880 48 2031617 8192 0 0 0 0 0 1048576 32 0 0 576 8192 2147483648 26 1073775360 0 0 134217728 11264 0 0 268435456 33648640 0 0 0 0 0 0 0 0 0 0 0 768 192 14 2147483648 0 0 0 376832 0 1966320 196608 0 33554432 3932160 536870912 0 0 0 0 524288 0 112 0 1 0 33554432 0 0 1792 0 0 100663296 0 11534336 1024 786432 12 0 0 0 3072 1073741824 5 268436480 0 1024 0 4096 0 33554432 16 1048576 0 4096 3407876 1 0 0 0 0 0 0 0 2097152 0 0 1225785344 0 4194304 14336 33554432 16 0 0 0 0 0 32 2147483776 17 640 0 0 1152 2621440 0 33728 0 1024 2148007938 0 0 0 0 0 0 0 0 3072 8 1879048192 0 8388608 0 0 25309184 0 268697606 0 0 4096 0 0 331792 2 0 0 0 4195072 5242880 0 67633152 0 2048 0 4 808189952 4608 512 0 67110912 0 33685504 2 0 2 0 1572864 131072 0 25169920 4194304 0 0 0 8388608 27525120 0 384 4194313 134217728 134217728 2147483648 16777560 134219776 0 16384 0 2818637825 5 0 268435460 0 262144 0 0 4194308 11534336 0 0 603979776 0 0 0 64 8388608 0 0 0 0 0 0 0 4096 0 524514 1 0 0 4202628 50332672 0 0 872415232 68157536 0 4194304 0 0 0 2048 2048 67108874 0 0 0 268435456 0 0 0 8704 12288 0 268435464 4 0 0 0 28573696 0 16859136 0 294916 65536 0 0 402653184 0 0 0 0 0 0 128 0 0 7864320 8388608 0 0 2048 0 7680 0 0 0 0 0 0 256 1 4096
is_linear=0
shrinkage=0.01


Tree=10
num_leaves=31
num_cat=14
split_feature=0 2 3 27 3 3 3 3 25 25 3 24 3 23 25 19 3 17 13 0 3 22 24 2 3 22 25 13 7 12
split_gain=1445.66 246.459 118.724 109.448 99.403 64.8406 61.4665 72.3079 65.5768 63.0393 51.7592 50.5225 43.9492 45.0625 40.2245 39.5148 32.2116 42.7617 32.0914 22.346 20.4612 18.9764 18.282 18.0799 16.0956 15.6851 14.0933 21.9684 11.3149 9.76877
threshold=0 1 2 26.500000000000004 3 4 5 6 1.9030006661872683 1.9030006661872683 7 5.6265155094659951 8 1.4054248472324589 2.262544324477215 1.0000000180025095e-35 9 0.89587973461402759 1.0000000180025095e-35 10 11 1.7915320159617443 2.3213800973440146 12 13 4.8879984819926792 1.392552655644095 0.39752808894539271 -0.10395584540888005 0.91236630913977512
decision_type=9 9 9 8 9 9 9 9 8 8 9 8 9 8 8 2 9 2 2 9 9 10 10 9 9 8 8 2 2 2
left_child=3 2 15 -1 14 22 9 8 -8 -6 11 -9 13 29 18 26 17 -14 -4 -5 21 -18 23 -3 28 -13 27 -2 -7 -12
right_child=1 5 4 19 6 24 7 10 -10 -11 12 25 16 -15 -16 -17 20 -19 -20 -21 -22 -23 -24 -25 -26 -27 -28 -29 -30 -31
leaf_value=0.021686135597622874 0.027534115975576416 0.026628977931626167 0.027945481887163393 0 0 0 0 0 0.031056364158195883 0.034911235440729056 0 0 0.029110936520809341 0.029806958375802901 0.029110936520809341 0 0.018734883844701632 0 0 0.01455546826040467 0 0 0 0 0 0.032656493386420897 0.031056364158195883 0 0 0.027534115975576416
leaf_weight=4428 223 273 186 219 230 237 293 177 483 374 278 162 219 205 484 99 198 305 253 195 2681 224 125 178 3533 212 391 69 312 46
leaf_count=4428 223 273 186 219 230 237 293 177 483 374 278 162 219 205 484 99 198 305 253 195 2681 224 125 178 3533 212 391 69 312 46
internal_value=-0.000375318 -0.00217817 -0.0010869 0.00425598 -0.0015 -0.00399743 -0.00196408 -0.00229838 0.000534351 0.00105863 -0.00276553 0.00013369 -0.0031493 -0.00041744 0.00154877 0.00258838 -0.0035455 -0.00117978 -0.000626424 -0.000652174 -0.00393993 -0.00175926 -0.000802048 0.000121951 -0.00444526 0.00221925 0.00347731 0.00181507 -0.00267442 -0.00274691
internal_weight=17292 12450 7792 4842 7010 4658 6087 5483 776 604 4707 551 4156 529 923 782 3627 524 439 414 3103 422 576 451 4082 374 683 292 549 324
internal_count=17292 12450 7792 4842 7010 4658 6087 5483 776 604 4707 551 4156 529 923 782 3627 524 439 414 3103 422 576 451 4082 374 683 292 549 324
cat_boundaries=0 3 6 43 80 106 141 176 201 227 261 263 289 292 329
cat_threshold=4026531840 16772838 16 1578156048 234884608 280 0 0 0 0 0 0 0 0 0 0 15744 0 204 0 536870912 12 2048 872415232 0 0 0 224 0 0 0 0 0 0 0 0 0 0 0 0 5242880 48 2031617 8192 0 0 0 0 0 1048576 32 0 0 576 8192 2147483648 26 1073775360 0 0 134217728 11264 0 0 268435456 33648640 0 0 0 0 0 0 0 0 0 0 0 768 192 14 2147483648 0 0 0 376832 0 1966320 196608 0 33554432 3932160 536870912 0 0 0 0 524288 0 112 0 1 0 33554432 0 0 1792 0 0 100663296 0 11534336 1024 786432 12 0 0 0 3072 1073741824 5 268436480 0 1024 0 4096 0 33554432 16 1048576 0 4096 3407876 1 0 0 0 0 0 0 0 2097152 0 0 1225785344 0 4194304 14336 33554432 16 0 0 0 0 0 32 2147483776 17 640 0 0 1152 2621440 0 33728 0 1024 2148007938 0 0 0 0 0 0 0 0 3072 8 1879048192 0 8388608 0 0 25309184 0 268697606 0 0 4096 0 0 331792 2 0 0 0 4195072 5242880 0 67633152 0 2048 0 4 808189952 4608 512 0 67110912 0 33685504 2 0 2 0 1572864 131072 0 25169920 4194304 0 0 0 8388608 27525120 0 384 4194313 134217728 134217728 2147483648 16777560 134219776 0 16384 0 2818637825 5 0 268435460 0 262144 0 0 4194308 11534336 0 0 603979776 0 0 0 64 8388608 0 0 0 0 0 0 0 4096 0 524514 1 0 0 4202628 50332672 0 0 872415232 68157536 0 4194304 0 0 0 2048 2048 67108874 0 0 0 268435456 0 0 0 8704 12288 0 268435464 4 0 0 0 28573696 0 16859136 0 294916 65536 0 0 402653184 0 0 0 0 0 0 128 0 0 7864320 8388608 0 0 2048 0 7680 0 0 0 0 0 0 256 1 4096
is_linear=0
shrinkage=0.01


Tree=11
num_leaves=31
num_cat=14
split_feature=0 2 3 27 3 3 3 3 25 25 3 24 3 23 25 19 3 17 13 0 3 22 24 2 3 22 25 13 7 12
split_gain=1445.66 246.459 118.724 109.448 99.403 64.8406 61.4665 72.3079 65.5768 63.0393 51.7592 50.5225 43.9492 45.0625 40.2245 39.5148 32.2116 42.7617 32.0914 22.346 20.4612 18.9764 18.282 18.0799 16.0956 15.6851 14.0933 21.9684 11.3149 9.76877
threshold=0 1 2 26.500000000000004 3 4 5 6 1.9030006661872683 1.9030006661872683 7 5.6265155094659951 8 1.4054248472324589 2.262544324477215 1.0000000180025095e-35 9 0.89587973461402759 1.0000000180025095e-35 10 11 1.7915320159617443 2.3213800973440146 12 13 4.8879984819926792 1.392552655644095 0.39752808894539271 -0.10395584540888005 0.91236630913977512
decision_type=9 9 9 8 9 9 9 9 8 8 9 8 9 8 8 2 9 2 2 9 9 10 10 9 9 8 8 2 2 2
left_child=3 2 15 -1 14 22 9 8 -8 -6 11 -9 13 29 18 26 17 -14 -4 -5 21 -18 23 -3 28 -13 27 -2 -7 -12
right_child=1 5 4 19 6 24 7 10 -10 -11 12 25 16 -15 -16 -17 20 -19 -20 -21 -22 -23 -24 -25 -26 -27 -28 -29 -30 -31
leaf_value=0.021469274241646647 0.02725877481582065 0.026362688152309903 0.027666027068291764 0 0 0 0 0 0.030745800516613925 0.034562123086321769 0 0 0.028819827155601243 0.029508888792044871 0.028819827155601243 0 0.018547535006254615 0 0 0.014409913577800621 0 0 0 0 0 0.032329928452556687 0.030745800516613925 0 0 0.02725877481582065
leaf_weight=4428 223 273 186 219 230 237 293 177 483 374 278 162 219 205 484 99 198 305 253 195 2681 224 125 178 3533 212 391 69 312 46
leaf_count=4428 223 273 186 219 230 237 293 177 483 374 278 162 219 205 484 99 198 305 253 195 2681 224 125 178 3533 212 391 69 312 46
internal_value=-0.000375318 -0.00217817 -0.0010869 0.00425598 -0.0015 -0.00399743 -0.00196408 -0.00229838 0.000534351 0.00105863 -0.00276553 0.00013369 -0.0031493 -0.00041744 0.00154877 0.00258838 -0.0035455 -0.00117978 -0.000626424 -0.000652174 -0.00393993 -0.00175926 -0.000802048 0.000121951 -0.00444526 0.00221925 0.00347731 0.00181507 -0.00267442 -0.00274691
internal_weight=17292 12450 7792 4842 7010 4658 6087 5483 776 604 4707 551 4156 529 923 782 3627 524 439 414 3103 422 576 451 4082 374 683 292 549 324
internal_count=17292 12450 7792 4842 7010 4658 6087 5483 776 604 4707 551 4156 529 923 782 3627 524 439 414 3103 422 576 451 4082 374 683 292 549 324
cat_boundaries=0 3 6 43 80 106 141 176 201 227 261 263 289 292 329
cat_threshold=4026531840 16772838 16 1578156048 234884608 280 0 0 0 0 0 0 0 0 0 0 15744 0 204 0 536870912 12 2048 872415232 0 0 0 224 0 0 0 0 0 0 0 0 0 0 0 0 5242880 48 2031617 8192 0 0 0 0 0 1048576 32 0 0 576 8192 2147483648 26 1073775360 0 0 134217728 11264 0 0 268435456 33648640 0 0 0 0 0 0 0 0 0 0 0 768 192 14 2147483648 0 0 0 376832 0 1966320 196608 0 33554432 3932160 536870912 0 0 0 0 524288 0 112 0 1 0 33554432 0 0 1792 0 0 100663296 0 11534336 1024 786432 12 0 0 0 3072 1073741824 5 268436480 0 1024 0 4096 0 33554432 16 1048576 0 4096 3407876 1 0 0 0 0 0 0 0 2097152 0 0 1225785344 0 4194304 14336 33554432 16 0 0 0 0 0 32 2147483776 17 640 0 0 1152 2621440 0 33728 0 1024 2148007938 0 0 0 0 0 0 0 0 3072 8 1879048192 0 8388608 0 0 25309184 0 268697606 0 0 4096 0 0 331792 2 0 0 0 4195072 5242880 0 67633152 0 2048 0 4 808189952 4608 512 0 67110912 0 33685504 2 0 2 0 1572864 131072 0 25169920 4194304 0 0 0 8388608 27525120 0 384 4194313 134217728 134217728 2147483648 16777560 134219776 0 16384 0 2818637825 5 0 268435460 0 262144 0 0 4194308 11534336 0 0 603979776 0 0 0 64 8388608 0 0 0 0 0 0 0 4096 0 524514 1 0 0 4202628 50332672 0 0 872415232 68157536 0 4194304 0 0 0 2048 2048 67108874 0 0 0 268435456 0 0 0 8704 12288 0 268435464 4 0 0 0 28573696 0 16859136 0 294916 65536 0 0 402653184 0 0 0 0 0 0 128 0 0 7864320 8388608 0 0 2048 0 7680 0 0 0 0 0 0 256 1 4096
is_linear=0
shrinkage=0.01


Tree=12
num_leaves=31
num_cat=14
split_feature=0 2 3 27 3 3 3 3 25 25 3 24 3 23 25 19 3 17 13 0 3 22 24 2 3 22 25 13 7 12
split_gain=1445.66 246.459 118.724 109.448 99.403 64.8406 61.4665 72.3079 65.5768 63.0393 51.7592 50.5225 43.9492 45.0625 40.2245 39.5148 32.2116 42.7617 32.0914 22.346 20.4612 18.9764 18.282 18.0799 16.0956 15.6851 14.0933 21.9684 11.3149 9.76877
threshold=0 1 2 26.500000000000004 3 4 5 6 1.9030006661872683 1.9030006661872683 7 5.6265155094659951 8 1.4054248472324589 2.262544324477215 1.0000000180025095e-35 9 0.89587973461402759 1.0000000180025095e-35 10 11 1.7915320159617443 2.3213800973440146 12 13 4.8879984819926792 1.392552655644095 0.39752808894539271 -0.10395584540888005 0.91236630913977512
decision_type=9 9 9 8 9 9 9 9 8 8 9 8 9 8 8 2 9 2 2 9 9 10 10 9 9 8 8 2 2 2
left_child=3 2 15 -1 14 22 9 8 -8 -6 11 -9 13 29 18 26 17 -14 -4 -5 21 -18 23 -3 28 -13 27 -2 -7 -12
right_child=1 5 4 19 6 24 7 10 -10 -11 12 25 16 -15 -16 -17 20 -19 -20 -21 -22 -23 -24 -25 -26 -27 -28 -29 -30 -31
leaf_value=0.02125458149923018 0.026986187067662443 0.026099061270786802 0.027389366797608842 0 0 0 0 0 0.030438342511447787 0.034216501855458555 0 0 0.028531628884045236 0.029213799904124423 0.028531628884045236 0 0.018362059656192073 0 0 0.014265814442022618 0 0 0 0 0 0.032006629168031119 0.030438342511447787 0 0 0.026986187067662443
leaf_weight=4428 223 273 186 219 230 237 293 177 483 374 278 162 219 205 484 99 198 305 253 195 2681 224 125 178 3533 212 391 69 312 46
leaf_count=4428 223 273 186 219 230 237 293 177 483 374 278 162 219 205 484 99 198 305 253 195 2681 224 125 178 3533 212 391 69 312 46
internal_value=-0.000375318 -0.00217817 -0.0010869 0.00425598 -0.0015 -0.00399743 -0.00196408 -0.00229838 0.000534351 0.00105863 -0.00276553 0.00013369 -0.0031493 -0.00041744 0.00154877 0.00258838 -0.0035455 -0.00117978 -0.000626424 -0.000652174 -0.00393993 -0.00175926 -0.000802048 0.000121951 -0.00444526 0.00221925 0.00347731 0.00181507 -0.00267442 -0.00274691
internal_weight=17292 12450 7792 4842 7010 4658 6087 5483 776 604 4707 551 4156 529 923 782 3627 524 439 414 3103 422 576 451 4082 374 683 292 549 324
internal_count=17292 12450 7792 4842 7010 4658 6087 5483 776 604 4707 551 4156 529 923 782 3627 524 439 414 3103 422 576 451 4082 374 683 292 549 324
cat_boundaries=0 3 6 43 80 106 141 176 201 227 261 263 289 292 329
cat_threshold=4026531840 16772838 16 1578156048 234884608 280 0 0 0 0 0 0 0 0 0 0 15744 0 204 0 536870912 12 2048 872415232 0 0 0 224 0 0 0 0 0 0 0 0 0 0 0 0 5242880 48 2031617 8192 0 0 0 0 0 1048576 32 0 0 576 8192 2147483648 26 1073775360 0 0 134217728 11264 0 0 268435456 33648640 0 0 0 0 0 0 0 0 0 0 0 768 192 14 2147483648 0 0 0 376832 0 1966320 196608 0 33554432 3932160 536870912 0 0 0 0 524288 0 112 0 1 0 33554432 0 0 1792 0 0 100663296 0 11534336 1024 786432 12 0 0 0 3072 1073741824 5 268436480 0 1024 0 4096 0 33554432 16 1048576 0 4096 3407876 1 0 0 0 0 0 0 0 2097152 0 0 1225785344 0 4194304 14336 33554432 16 0 0 0 0 0 32 2147483776 17 640 0 0 1152 2621440 0 33728 0 1024 2148007938 0 0 0 0 0 0 0 0 3072 8 1879048192 0 8388608 0 0 25309184 0 268697606 0 0 4096 0 0 331792 2 0 0 0 4195072 5242880 0 67633152 0 2048 0 4 808189952 4608 512 0 67110912 0 33685504 2 0 2 0 1572864 131072 0 25169920 4194304 0 0 0 8388608 27525120 0 384 4194313 134217728 134217728 2147483648 16777560 134219776 0 16384 0 2818637825 5 0 268435460 0 262144 0 0 4194308 11534336 0 0 603979776 0 0 0 64 8388608 0 0 0 0 0 0 0 4096 0 524514 1 0 0 4202628 50332672 0 0 872415232 68157536 0 4194304 0 0 0 2048 2048 67108874 0 0 0 268435456 0 0 0 8704 12288 0 268435464 4 0 0 0 28573696 0 16859136 0 294916 65536 0 0 402653184 0 0 0 0 0 0 128 0 0 7864320 8388608 0 0 2048 0 7680 0 0 0 0 0 0 256 1 4096
is_linear=0
shrinkage=0.01


Tree=13
num_leaves=31
num_cat=14
split_feature=0 2 3 27 3 3 3 3 25 25 3 24 3 23 25 19 3 17 13 0 3 22 24 2 3 22 25 13 7 12
split_gain=1445.66 246.459 118.724 109.448 99.403 64.8406 61.4665 72.3079 65.5768 63.0393 51.7592 50.5225 43.9492 45.0625 40.2245 39.5148 32.2116 42.7617 32.0914 22.346 20.4612 18.9764 18.282 18.0799 16.0956 15.6851 14.0933 21.9684 11.3149 9.76877
threshold=0 1 2 26.500000000000004 3 4 5 6 1.9030006661872683 1.9030006661872683 7 5.6265155094659951 8 1.4054248472324589 2.262544324477215 1.0000000180025095e-35 9 0.89587973461402759 1.0000000180025095e-35 10 11 1.7915320159617443 2.3213800973440146 12 13 4.8879984819926792 1.392552655644095 0.39752808894539271 -0.10395584540888005 0.91236630913977512
decision_type=9 9 9 8 9 9 9 9 8 8 9 8 9 8 8 2 9 2 2 9 9 10 10 9 9 8 8 2 2 2
left_child=3 2 15 -1 14 22 9 8 -8 -6 11 -9 13 29 18 26 17 -14 -4 -5 21 -18 23 -3 28 -13 27 -2 -7 -12
right_child=1 5 4 19 6 24 7 10 -10 -11 12 25 16 -15 -16 -17 20 -19 -20 -21 -22 -23 -24 -25 -26 -27 -28 -29 -30 -31
leaf_value=0.021042035684237875 0.026716325196985819 0.025838070658078936 0.027115473129632757 0 0 0 0 0 0.03013395908633331 0.033874336836903968 0 0 0.02824631259520478 0.02892166190508318 0.02824631259520478 0 0.018178439059630153 0 0 0.01412315629760239 0 0 0 0 0 0.031686562876350813 0.03013395908633331 0 0 0.026716325196985819
leaf_weight=4428 223 273 186 219 230 237 293 177 483 374 278 162 219 205 484 99 198 305 253 195 2681 224 125 178 3533 212 391 69 312 46
leaf_count=4428 223 273 186 219 230 237 293 177 483 374 278 162 219 205 484 99 198 305 253 195 2681 224 125 178 3533 212 391 69 312 46
internal_value=-0.000375318 -0.00217817 -0.0010869 0.00425598 -0.0015 -0.00399743 -0.00196408 -0.00229838 0.000534351 0.00105863 -0.00276553 0.00013369 -0.0031493 -0.00041744 0.00154877 0.00258838 -0.0035455 -0.00117978 -0.000626424 -0.000652174 -0.00393993 -0.00175926 -0.000802048 0.000121951 -0.00444526 0.00221925 0.00347731 0.00181507 -0.00267442 -0.00274691
internal_weight=17292 12450 7792 4842 7010 4658 6087 5483 776 604 4707 551 4156 529 923 782 3627 524 439 414 3103 422 576 451 4082 374 683 292 549 324
internal_count=17292 12450 7792 4842 7010 4658 6087 5483 776 604 4707 551 4156 529 923 782 3627 524 439 414 3103 422 576 451 4082 374 683 292 549 324
cat_boundaries=0 3 6 43 80 106 141 176 201 227 261 263 289 292 329
cat_threshold=4026531840 16772838 16 1578156048 234884608 280 0 0 0 0 0 0 0 0 0 0 15744 0 204 0 536870912 12 2048 872415232 0 0 0 224 0 0 0 0 0 0 0 0 0 0 0 0 5242880 48 2031617 8192 0 0 0 0 0 1048576 32 0 0 576 8192 2147483648 26 1073775360 0 0 134217728 11264 0 0 268435456 33648640 0 0 0 0 0 0 0 0 0 0 0 768 192 14 2147483648 0 0 0 376832 0 1966320 196608 0 33554432 3932160 536870912 0 0 0 0 524288 0 112 0 1 0 33554432 0 0 1792 0 0 100663296 0 11534336 1024 786432 12 0 0 0 3072 1073741824 5 268436480 0 1024 0 4096 0 33554432 16 1048576 0 4096 3407876 1 0 0 0 0 0 0 0 2097152 0 0 1225785344 0 4194304 14336 33554432 16 0 0 0 0 0 32 2147483776 17 640 0 0 1152 2621440 0 33728 0 1024 2148007938 0 0 0 0 0 0 0 0 3072 8 1879048192 0 8388608 0 0 25309184 0 268697606 0 0 4096 0 0 331792 2 0 0 0 4195072 5242880 0 67633152 0 2048 0 4 808189952 4608 512 0 67110912 0 33685504 2 0 2 0 1572864 131072 0 25169920 4194304 0 0 0 8388608 27525120 0 384 4194313 134217728 134217728 2147483648 16777560 134219776 0 16384 0 2818637825 5 0 268435460 0 262144 0 0 4194308 11534336 0 0 603979776 0 0 0 64 8388608 0 0 0 0 0 0 0 4096 0 524514 1 0 0 4202628 50332672 0 0 872415232 68157536 0 4194304 0 0 0 2048 2048 67108874 0 0 0 268435456 0 0 0 8704 12288 0 268435464 4 0 0 0 28573696 0 16859136 0 294916 65536 0 0 402653184 0 0 0 0 0 0 128 0 0 7864320 8388608 0 0 2048 0 7680 0 0 0 0 0 0 256 1 4096
is_linear=0
shrinkage=0.01


Tree=14
num_leaves=31
num_cat=14
split_feature=0 2 3 27 3 3 3 3 25 25 3 24 3 23 25 19 3 17 13 0 3 22 24 2 3 22 25 13 7 12
split_gain=1445.66 246.459 118.724 109.448 99.403 64.8406 61.4665 72.3079 65.5768 63.0393 51.7592 50.5225 43.9492 45.0625 40.2245 39.5148 32.2116 42.7617 32.0914 22.346 20.4612 18.9764 18.282 18.0799 16.0956 15.6851 14.0933 21.9684 11.3149 9.76877
threshold=0 1 2 26.500000000000004 3 4 5 6 1.9030006661872683 1.9030006661872683 7 5.6265155094659951 8 1.4054248472324589 2.262544324477215 1.0000000180025095e-35 9 0.89587973461402759 1.0000000180025095e-35 10 11 1.7915320159617443 2.3213800973440146 12 13 4.8879984819926792 1.392552655644095 0.39752808894539271 -0.10395584540888005 0.91236630913977512
decision_type=9 9 9 8 9 9 9 9 8 8 9 8 9 8 8 2 9 2 2 9 9 10 10 9 9 8 8 2 2 2
left_child=3 2 15 -1 14 22 9 8 -8 -6 11 -9 13 29 18 26 17 -14 -4 -5 21 -18 23 -3 28 -13 27 -2 -7 -12
right_child=1 5 4 19 6 24 7 10 -10 -11 12 25 16 -15 -16 -17 20 -19 -20 -21 -22 -23 -24 -25 -26 -27 -28 -29 -30 -31
leaf_value=0.020831615327395497 0.02644916194501596 0.025579689951498143 0.026844318398336425 0 0 0 0 0 0.029832619495469972 0.033535593468534929 0 0 0.027963849469252733 0.02863244528603235 0.027963849469252733 0 0.01799665466903385 0 0 0.013981924734626366 0 0 0 0 0 0.0313696972475873 0.029832619495469972 0 0 0.02644916194501596
leaf_weight=4428 223 273 186 219 230 237 293 177 483 374 278 162 219 205 484 99 198 305 253 195 2681 224 125 178 3533 212 391 69 312 46
leaf_count=4428 223 273 186 219 230 237 293 177 483 374 278 162 219 205 484 99 198 305 253 195 2681 224 125 178 3533 212 391 69 312 46
internal_value=-0.000375318 -0.00217817 -0.0010869 0.00425598 -0.0015 -0.00399743 -0.00196408 -0.00229838 0.000534351 0.00105863 -0.00276553 0.00013369 -0.0031493 -0.00041744 0.00154877 0.00258838 -0.0035455 -0.00117978 -0.000626424 -0.000652174 -0.00393993 -0.00175926 -0.000802048 0.000121951 -0.00444526 0.00221925 0.00347731 0.00181507 -0.00267442 -0.00274691
internal_weight=17292 12450 7792 4842 7010 4658 6087 5483 776 604 4707 551 4156 529 923 782 3627 524 439 414 3103 422 576 451 4082 374 683 292 549 324
internal_count=17292 12450 7792 4842 7010 4658 6087 5483 776 604 4707 551 4156 529 923 782 3627 524 439 414 3103 422 576 451 4082 374 683 292 549 324
cat_boundaries=0 3 6 43 80 106 141 176 201 227 261 263 289 292 329
cat_threshold=4026531840 16772838 16 1578156048 234884608 280 0 0 0 0 0 0 0 0 0 0 15744 0 204 0 536870912 12 2048 872415232 0 0 0 224 0 0 0 0 0 0 0 0 0 0 0 0 5242880 48 2031617 8192 0 0 0 0 0 1048576 32 0 0 576 8192 2147483648 26 1073775360 0 0 134217728 11264 0 0 268435456 33648640 0 0 0 0 0 0 0 0 0 0 0 768 192 14 2147483648 0 0 0 376832 0 1966320 196608 0 33554432 3932160 536870912 0 0 0 0 524288 0 112 0 1 0 33554432 0 0 1792 0 0 100663296 0 11534336 1024 786432 12 0 0 0 3072 1073741824 5 268436480 0 1024 0 4096 0 33554432 16 1048576 0 4096 3407876 1 0 0 0 0 0 0 0 2097152 0 0 1225785344 0 4194304 14336 33554432 16 0 0 0 0 0 32 2147483776 17 640 0 0 1152 2621440 0 33728 0 1024 2148007938 0 0 0 0 0 0 0 0 3072 8 1879048192 0 8388608 0 0 25309184 0 268697606 0 0 4096 0 0 331792 2 0 0 0 4195072 5242880 0 67633152 0 2048 0 4 808189952 4608 512 0 67110912 0 33685504 2 0 2 0 1572864 131072 0 25169920 4194304 0 0 0 8388608 27525120 0 384 4194313 134217728 134217728 2147483648 16777560 134219776 0 16384 0 2818637825 5 0 268435460 0 262144 0 0 4194308 11534336 0 0 603979776 0 0 0 64 8388608 0 0 0 0 0 0 0 4096 0 524514 1 0 0 4202628 50332672 0 0 872415232 68157536 0 4194304 0 0 0 2048 2048 67108874 0 0 0 268435456 0 0 0 8704 12288 0 268435464 4 0 0 0 28573696 0 16859136 0 294916 65536 0 0 402653184 0 0 0 0 0 0 128 0 0 7864320 8388608 0 0 2048 0 7680 0 0 0 0 0 0 256 1 4096
is_linear=0
shrinkage=0.01


Tree=15
num_leaves=31
num_cat=14
split_feature=0 2 3 27 3 3 3 3 25 25 3 24 3 23 25 19 3 17 13 0 3 22 24 2 3 22 25 13 7 12
split_gain=1445.66 246.459 118.724 109.448 99.403 64.8406 61.4665 72.3079 65.5768 63.0393 51.7592 50.5225 43.9492 45.0625 40.2245 39.5148 32.2116 42.7617 32.0914 22.346 20.4612 18.9764 18.282 18.0799 16.0956 15.6851 14.0933 21.9684 11.3149 9.76877
threshold=0 1 2 26.500000000000004 3 4 5 6 1.9030006661872683 1.9030006661872683 7 5.6265155094659951 8 1.4054248472324589 2.262544324477215 1.0000000180025095e-35 9 0.89587973461402759 1.0000000180025095e-35 10 11 1.7915320159617443 2.3213800973440146 12 13 4.8879984819926792 1.392552655644095 0.39752808894539271 -0.10395584540888005 0.91236630913977512
decision_type=9 9 9 8 9 9 9 9 8 8 9 8 9 8 8 2 9 2 2 9 9 10 10 9 9 8 8 2 2 2
left_child=3 2 15 -1 14 22 9 8 -8 -6 11 -9 13 29 18 26 17 -14 -4 -5 21 -18 23 -3 28 -13 27 -2 -7 -12
right_child=1 5 4 19 6 24 7 10 -10 -11 12 25 16 -15 -16 -17 20 -19 -20 -21 -22 -23 -24 -25 -26 -27 -28 -29 -30 -31
leaf_value=0.020623299174121545 0.0261846703255658 0.025323893051983168 0.026575875214353065 0 0 0 0 0 0.029534293300515272 0.033200237533849583 0 0 0.027684210974560208 0.028346120833172023 0.027684210974560208 0 0.017816688122343511 0 0 0.013842105487280104 0 0 0 0 0 0.03105600027511143 0.029534293300515272 0 0 0.0261846703255658
leaf_weight=4428 223 273 186 219 230 237 293 177 483 374 278 162 219 205 484 99 198 305 253 195 2681 224 125 178 3533 212 391 69 312 46
leaf_count=4428 223 273 186 219 230 237 293 177 483 374 278 162 219 205 484 99 198 305 253 195 2681 224 125 178 3533 212 391 69 312 46
internal_value=-0.000375318 -0.00217817 -0.0010869 0.00425598 -0.0015 -0.00399743 -0.00196408 -0.00229838 0.000534351 0.00105863 -0.00276553 0.00013369 -0.0031493 -0.00041744 0.00154877 0.00258838 -0.0035455 -0.00117978 -0.000626424 -0.000652174 -0.00393993 -0.00175926 -0.000802048 0.000121951 -0.00444526 0.00221925 0.00347731 0.00181507 -0.00267442 -0.00274691
internal_weight=17292 12450 7792 4842 7010 4658 6087 5483 776 604 4707 551 4156 529 923 782 3627 524 439 414 3103 422 576 451 4082 374 683 292 549 324
internal_count=17292 12450 7792 4842 7010 4658 6087 5483 776 604 4707 551 4156 529 923 782 3627 524 439 414 3103 422 576 451 4082 374 683 292 549 324
cat_boundaries=0 3 6 43 80 106 141 176 201 227 261 263 289 292 329
cat_threshold=4026531840 16772838 16 1578156048 234884608 280 0 0 0 0 0 0 0 0 0 0 15744 0 204 0 536870912 12 2048 872415232 0 0 0 224 0 0 0 0 0 0 0 0 0 0 0 0 5242880 48 2031617 8192 0 0 0 0 0 1048576 32 0 0 576 8192 2147483648 26 1073775360 0 0 134217728 11264 0 0 268435456 33648640 0 0 0 0 0 0 0 0 0 0 0 768 192 14 2147483648 0 0 0 376832 0 1966320 196608 0 33554432 3932160 536870912 0 0 0 0 524288 0 112 0 1 0 33554432 0 0 1792 0 0 100663296 0 11534336 1024 786432 12 0 0 0 3072 1073741824 5 268436480 0 1024 0 4096 0 33554432 16 1048576 0 4096 3407876 1 0 0 0 0 0 0 0 2097152 0 0 1225785344 0 4194304 14336 33554432 16 0 0 0 0 0 32 2147483776 17 640 0 0 1152 2621440 0 33728 0 1024 2148007938 0 0 0 0 0 0 0 0 3072 8 1879048192 0 8388608 0 0 25309184 0 268697606 0 0 4096 0 0 331792 2 0 0 0 4195072 5242880 0 67633152 0 2048 0 4 808189952 4608 512 0 67110912 0 33685504 2 0 2 0 1572864 131072 0 25169920 4194304 0 0 0 8388608 27525120 0 384 4194313 134217728 134217728 2147483648 16777560 134219776 0 16384 0 2818637825 5 0 268435460 0 262144 0 0 4194308 11534336 0 0 603979776 0 0 0 64 8388608 0 0 0 0 0 0 0 4096 0 524514 1 0 0 4202628 50332672 0 0 872415232 68157536 0 4194304 0 0 0 2048 2048 67108874 0 0 0 268435456 0 0 0 8704 12288 0 268435464 4 0 0 0 28573696 0 16859136 0 294916 65536 0 0 402653184 0 0 0 0 0 0 128 0 0 7864320 8388608 0 0 2048 0 7680 0 0 0 0 0 0 256 1 4096
is_linear=0
shrinkage=0.01


Tree=16
num_leaves=31
num_cat=14
split_feature=0 2 3 27 3 3 3 3 25 25 3 24 3 23 25 19 3 17 13 0 3 22 24 2 3 22 25 13 7 12
split_gain=1445.66 246.459 118.724 109.448 99.403 64.8406 61.4665 72.3079 65.5768 63.0393 51.7592 50.5225 43.9492 45.0625 40.2245 39.5148 32.2116 42.7617 32.0914 22.346 20.4612 18.9764 18.282 18.0799 16.0956 15.6851 14.0933 21.9684 11.3149 9.76877
threshold=0 1 2 26.500000000000004 3 4 5 6 1.9030006661872683 1.9030006661872683 7 5.6265155094659951 8 1.4054248472324589 2.262544324477215 1.0000000180025095e-35 9 0.89587973461402759 1.0000000180025095e-35 10 11 1.7915320159617443 2.3213800973440146 12 13 4.8879984819926792 1.392552655644095 0.39752808894539271 -0.10395584540888005 0.91236630913977512
decision_type=9 9 9 8 9 9 9 9 8 8 9 8 9 8 8 2 9 2 2 9 9 10 10 9 9 8 8 2 2 2
left_child=3 2 15 -1 14 22 9 8 -8 -6 11 -9 13 29 18 26 17 -14 -4 -5 21 -18 23 -3 28 -13 27 -2 -7 -12
right_child=1 5 4 19 6 24 7 10 -10 -11 12 25 16 -15 -16 -17 20 -19 -20 -21 -22 -23 -24 -25 -26 -27 -28 -29 -30 -31
leaf_value=0.020417066182380327 0.025922823622310142 0.025070654121463334 0.026310116462209533 0 0 0 0 0 0.029238950367510119 0.032868235158511082 0 0 0.027407368864814603 0.028062659624840305 0.027407368864814603 0 0.017638521241120076 0 0 0.013703684432407302 0 0 0 0 0 0.030745440272360317 0.029238950367510119 0 0 0.025922823622310142
leaf_weight=4428 223 273 186 219 230 237 293 177 483 374 278 162 219 205 484 99 198 305 253 195 2681 224 125 178 3533 212 391 69 312 46
leaf_count=4428 223 273 186 219 230 237 293 177 483 374 278 162 219 205 484 99 198 305 253 195 2681 224 125 178 3533 212 391 69 312 46
internal_value=-0.000375318 -0.00217817 -0.0010869 0.00425598 -0.0015 -0.00399743 -0.00196408 -0.00229838 0.000534351 0.00105863 -0.00276553 0.00013369 -0.0031493 -0.00041744 0.00154877 0.00258838 -0.0035455 -0.00117978 -0.000626424 -0.000652174 -0.00393993 -0.00175926 -0.000802048 0.000121951 -0.00444526 0.00221925 0.00347731 0.00181507 -0.00267442 -0.00274691
internal_weight=17292 12450 7792 4842 7010 4658 6087 5483 776 604 4707 551 4156 529 923 782 3627 524 439 414 3103 422 576 451 4082 374 683 292 549 324
internal_count=17292 12450 7792 4842 7010 4658 6087 5483 776 604 4707 551 4156 529 923 782 3627 524 439 414 3103 422 576 451 4082 374 683 292 549 324
cat_boundaries=0 3 6 43 80 106 141 176 201 227 261 263 289 292 329
cat_threshold=4026531840 16772838 16 1578156048 234884608 280 0 0 0 0 0 0 0 0 0 0 15744 0 204 0 536870912 12 2048 872415232 0 0 0 224 0 0 0 0 0 0 0 0 0 0 0 0 5242880 48 2031617 8192 0 0 0 0 0 1048576 32 0 0 576 8192 2147483648 26 1073775360 0 0 134217728 11264 0 0 268435456 33648640 0 0 0 0 0 0 0 0 0 0 0 768 192 14 2147483648 0 0 0 376832 0 1966320 196608 0 33554432 3932160 536870912 0 0 0 0 524288 0 112 0 1 0 33554432 0 0 1792 0 0 100663296 0 11534336 1024 786432 12 0 0 0 3072 1073741824 5 268436480 0 1024 0 4096 0 33554432 16 1048576 0 4096 3407876 1 0 0 0 0 0 0 0 2097152 0 0 1225785344 0 4194304 14336 33554432 16 0 0 0 0 0 32 2147483776 17 640 0 0 1152 2621440 0 33728 0 1024 2148007938 0 0 0 0 0 0 0 0 3072 8 1879048192 0 8388608 0 0 25309184 0 268697606 0 0 4096 0 0 331792 2 0 0 0 4195072 5242880 0 67633152 0 2048 0 4 808189952 4608 512 0 67110912 0 33685504 2 0 2 0 1572864 131072 0 25169920 4194304 0 0 0 8388608 27525120 0 384 4194313 134217728 134217728 2147483648 16777560 134219776 0 16384 0 2818637825 5 0 268435460 0 262144 0 0 4194308 11534336 0 0 603979776 0 0 0 64 8388608 0 0 0 0 0 0 0 4096 0 524514 1 0 0 4202628 50332672 0 0 872415232 68157536 0 4194304 0 0 0 2048 2048 67108874 0 0 0 268435456 0 0 0 8704 12288 0 268435464 4 0 0 0 28573696 0 16859136 0 294916 65536 0 0 402653184 0 0 0 0 0 0 128 0 0 7864320 8388608 0 0 2048 0 7680 0 0 0 0 0 0 256 1 4096
is_linear=0
shrinkage=0.01


Tree=17
num_leaves=31
num_cat=14
split_feature=0 2 3 27 3 3 3 3 25 25 3 24 3 23 25 19 3 17 13 0 3 22 24 2 3 22 25 13 7 12
split_gain=1445.66 246.459 118.724 109.448 99.403 64.8406 61.4665 72.3079 65.5768 63.0393 51.7592 50.5225 43.9492 45.0625 40.2245 39.5148 32.2116 42.7617 32.0914 22.346 20.4612 18.9764 18.282 18.0799 16.0956 15.6851 14.0933 21.9684 11.3149 9.76877
threshold=0 1 2 26.500000000000004 3 4 5 6 1.9030006661872683 1.9030006661872683 7 5.6265155094659951 8 1.4054248472324589 2.262544324477215 1.0000000180025095e-35 9 0.89587973461402759 1.0000000180025095e-35 10 11 1.7915320159617443 2.3213800973440146 12 13 4.8879984819926792 1.392552655644095 0.39752808894539271 -0.10395584540888005 0.91236630913977512
decision_type=9 9 9 8 9 9 9 9 8 8 9 8 9 8 8 2 9 2 2 9 9 10 10 9 9 8 8 2 2 2
left_child=3 2 15 -1 14 22 9 8 -8 -6 11 -9 13 29 18 26 17 -14 -4 -5 21 -18 23 -3 28 -13 27 -2 -7 -12
right_child=1 5 4 19 6 24 7 10 -10 -11 12 25 16 -15 -16 -17 20 -19 -20 -21 -22 -23 -24 -25 -26 -27 -28 -29 -30 -31
leaf_value=0.020212895520556527 0.025663595386087042 0.024819947580248698 0.026047015297587441 0 0 0 0 0 0.028946560863835021 0.03253955280692597 0 0 0.027133295176166455 0.027782033028591901 0.027133295176166455 0 0.017462136028708875 0 0 0.013566647588083227 0 0 0 0 0 0.030437985869636714 0.028946560863835021 0 0 0.025663595386087042
leaf_weight=4428 223 273 186 219 230 237 293 177 483 374 278 162 219 205 484 99 198 305 253 195 2681 224 125 178 3533 212 391 69 312 46
leaf_count=4428 223 273 186 219 230 237 293 177 483 374 278 162 219 205 484 99 198 305 253 195 2681 224 125 178 3533 212 391 69 312 46
internal_value=-0.000375318 -0.00217817 -0.0010869 0.00425598 -0.0015 -0.00399743 -0.00196408 -0.00229838 0.000534351 0.00105863 -0.00276553 0.00013369 -0.0031493 -0.00041744 0.00154877 0.00258838 -0.0035455 -0.00117978 -0.000626424 -0.000652174 -0.00393993 -0.00175926 -0.000802048 0.000121951 -0.00444526 0.00221925 0.00347731 0.00181507 -0.00267442 -0.00274691
internal_weight=17292 12450 7792 4842 7010 4658 6087 5483 776 604 4707 551 4156 529 923 782 3627 524 439 414 3103 422 576 451 4082 374 683 292 549 324
internal_count=17292 12450 7792 4842 7010 4658 6087 5483 776 604 4707 551 4156 529 923 782 3627 524 439 414 3103 422 576 451 4082 374 683 292 549 324
cat_boundaries=0 3 6 43 80 106 141 176 201 227 261 263 289 292 329
cat_threshold=4026531840 16772838 16 1578156048 234884608 280 0 0 0 0 0 0 0 0 0 0 15744 0 204 0 536870912 12 2048 872415232 0 0 0 224 0 0 0 0 0 0 0 0 0 0 0 0 5242880 48 2031617 8192 0 0 0 0 0 1048576 32 0 0 576 8192 2147483648 26 1073775360 0 0 134217728 11264 0 0 268435456 33648640 0 0 0 0 0 0 0 0 0 0 0 768 192 14 2147483648 0 0 0 376832 0 1966320 196608 0 33554432 3932160 536870912 0 0 0 0 524288 0 112 0 1 0 33554432 0 0 1792 0 0 100663296 0 11534336 1024 786432 12 0 0 0 3072 1073741824 5 268436480 0 1024 0 4096 0 33554432 16 1048576 0 4096 3407876 1 0 0 0 0 0 0 0 2097152 0 0 1225785344 0 4194304 14336 33554432 16 0 0 0 0 0 32 2147483776 17 640 0 0 1152 2621440 0 33728 0 1024 2148007938 0 0 0 0 0 0 0 0 3072 8 1879048192 0 8388608 0 0 25309184 0 268697606 0 0 4096 0 0 331792 2 0 0 0 4195072 5242880 0 67633152 0 2048 0 4 808189952 4608 512 0 67110912 0 33685504 2 0 2 0 1572864 131072 0 25169920 4194304 0 0 0 8388608 27525120 0 384 4194313 134217728 134217728 2147483648 16777560 134219776 0 16384 0 2818637825 5 0 268435460 0 262144 0 0 4194308 11534336 0 0 603979776 0 0 0 64 8388608 0 0 0 0 0 0 0 4096 0 524514 1 0 0 4202628 50332672 0 0 872415232 68157536 0 4194304 0 0 0 2048 2048 67108874 0 0 0 268435456 0 0 0 8704 12288 0 268435464 4 0 0 0 28573696 0 16859136 0 294916 65536 0 0 402653184 0 0 0 0 0 0 128 0 0 7864320 8388608 0 0 2048 0 7680 0 0 0 0 0 0 256 1 4096
is_linear=0
shrinkage=0.01


Tree=18
num_leaves=31
num_cat=14
split_feature=0 2 3 27 3 3 3 3 25 25 3 24 3 23 25 19 3 17 13 0 3 22 24 2 3 22 25 13 7 12
split_gain=1445.66 246.459 118.724 109.448 99.403 64.8406 61.4665 72.3079 65.5768 63.0393 51.7592 50.5225 43.9492 45.0625 40.2245 39.5148 32.2116 42.7617 32.0914 22.346 20.4612 18.9764 18.282 18.0799 16.0956 15.6851 14.0933 21.9684 11.3149 9.76877
threshold=0 1 2 26.500000000000004 3 4 5 6 1.9030006661872683 1.9030006661872683 7 5.6265155094659951 8 1.4054248472324589 2.262544324477215 1.0000000180025095e-35 9 0.89587973461402759 1.0000000180025095e-35 10 11 1.7915320159617443 2.3213800973440146 12 13 4.8879984819926792 1.392552655644095 0.39752808894539271 -0.10395584540888005 0.91236630913977512
decision_type=9 9 9 8 9 9 9 9 8 8 9 8 9 8 8 2 9 2 2 9 9 10 10 9 9 8 8 2 2 2
left_child=3 2 15 -1 14 22 9 8 -8 -6 11 -9 13 29 18 26 17 -14 -4 -5 21 -18 23 -3 28 -13 27 -2 -7 -12
right_child=1 5 4 19 6 24 7 10 -10 -11 12 25 16 -15 -16 -17 20 -19 -20 -21 -22 -23 -24 -25 -26 -27 -28 -29 -30 -31
leaf_value=0.02001076656535096 0.025406959432226168 0.024571748104446213 0.025786545144611563 0 0 0 0 0 0.028657095255196666 0.032214157278856716 0 0 0.026861962224404793 0.027504212698305983 0.026861962224404793 0 0.017287514668421787 0 0 0.013430981112202397 0 0 0 0 0 0.030133606010940346 0.028657095255196666 0 0 0.025406959432226168
leaf_weight=4428 223 273 186 219 230 237 293 177 483 374 278 162 219 205 484 99 198 305 253 195 2681 224 125 178 3533 212 391 69 312 46
leaf_count=4428 223 273 186 219 230 237 293 177 483 374 278 162 219 205 484 99 198 305 253 195 2681 224 125 178 3533 212 391 69 312 46
internal_value=-0.000375318 -0.00217817 -0.0010869 0.00425598 -0.0015 -0.00399743 -0.00196408 -0.00229838 0.000534351 0.00105863 -0.00276553 0.00013369 -0.0031493 -0.00041744 0.00154877 0.00258838 -0.0035455 -0.00117978 -0.000626424 -0.000652174 -0.00393993 -0.00175926 -0.000802048 0.000121951 -0.00444526 0.00221925 0.00347731 0.00181507 -0.00267442 -0.00274691
internal_weight=17292 12450 7792 4842 7010 4658 6087 5483 776 604 4707 551 4156 529 923 782 3627 524 439 414 3103 422 576 451 4082 374 683 292 549 324
internal_count=17292 12450 7792 4842 7010 4658 6087 5483 776 604 4707 551 4156 529 923 782 3627 524 439 414 3103 422 576 451 4082 374 683 292 549 324
cat_boundaries=0 3 6 43 80 106 141 176 201 227 261 263 289 292 329
cat_threshold=4026531840 16772838 16 1578156048 234884608 280 0 0 0 0 0 0 0 0 0 0 15744 0 204 0 536870912 12 2048 872415232 0 0 0 224 0 0 0 0 0 0 0 0 0 0 0 0 5242880 48 2031617 8192 0 0 0 0 0 1048576 32 0 0 576 8192 2147483648 26 1073775360 0 0 134217728 11264 0 0 268435456 33648640 0 0 0 0 0 0 0 0 0 0 0 768 192 14 2147483648 0 0 0 376832 0 1966320 196608 0 33554432 3932160 536870912 0 0 0 0 524288 0 112 0 1 0 33554432 0 0 1792 0 0 100663296 0 11534336 1024 786432 12 0 0 0 3072 1073741824 5 268436480 0 1024 0 4096 0 33554432 16 1048576 0 4096 3407876 1 0 0 0 0 0 0 0 2097152 0 0 1225785344 0 4194304 14336 33554432 16 0 0 0 0 0 32 2147483776 17 640 0 0 1152 2621440 0 33728 0 1024 2148007938 0 0 0 0 0 0 0 0 3072 8 1879048192 0 8388608 0 0 25309184 0 268697606 0 0 4096 0 0 331792 2 0 0 0 4195072 5242880 0 67633152 0 2048 0 4 808189952 4608 512 0 67110912 0 33685504 2 0 2 0 1572864 131072 0 25169920 4194304 0 0 0 8388608 27525120 0 384 4194313 134217728 134217728 2147483648 16777560 134219776 0 16384 0 2818637825 5 0 268435460 0 262144 0 0 4194308 11534336 0 0 603979776 0 0 0 64 8388608 0 0 0 0 0 0 0 4096 0 524514 1 0 0 4202628 50332672 0 0 872415232 68157536 0 4194304 0 0 0 2048 2048 67108874 0 0 0 268435456 0 0 0 8704 12288 0 268435464 4 0 0 0 28573696 0 16859136 0 294916 65536 0 0 402653184 0 0 0 0 0 0 128 0 0 7864320 8388608 0 0 2048 0 7680 0 0 0 0 0 0 256 1 4096
is_linear=0
shrinkage=0.01


Tree=19
num_leaves=31
num_cat=14
split_feature=0 2 3 27 3 3 3 3 25 25 3 24 3 23 25 19 3 17 13 0 3 22 24 2 3 22 25 13 7 12
split_gain=1445.66 246.459 118.724 109.448 99.403 64.8406 61.4665 72.3079 65.5768 63.0393 51.7592 50.5225 43.9492 45.0625 40.2245 39.5148 32.2116 42.7617 32.0914 22.346 20.4612 18.9764 18.282 18.0799 16.0956 15.6851 14.0933 21.9684 11.3149 9.76877
threshold=0 1 2 26.500000000000004 3 4 5 6 1.9030006661872683 1.9030006661872683 7 5.6265155094659951 8 1.4054248472324589 2.262544324477215 1.0000000180025095e-35 9 0.89587973461402759 1.0000000180025095e-35 10 11 1.7915320159617443 2.3213800973440146 12 13 4.8879984819926792 1.392552655644095 0.39752808894539271 -0.10395584540888005 0.91236630913977512
decision_type=9 9 9 8 9 9 9 9 8 8 9 8 9 8 8 2 9 2 2 9 9 10 10 9 9 8 8 2 2 2
left_child=3 2 15 -1 14 22 9 8 -8 -6 11 -9 13 29 18 26 17 -14 -4 -5 21 -18 23 -3 28 -13 27 -2 -7 -12
right_child=1 5 4 19 6 24 7 10 -10 -11 12 25 16 -15 -16 -17 20 -19 -20 -21 -22 -23 -24 -25 -26 -27 -28 -29 -30 -31
leaf_value=0.01981065889969745 0.025152889837903911 0.024326030623401752 0.025528679693165447 0 0 0 0 0 0.028370524302644702 0.031892015706068144 0 0 0.026593342602160744 0.02722917057132292 0.026593342602160744 0 0.017114639521737571 0 0 0.013296671301080372 0 0 0 0 0 0.02983226995083094 0.028370524302644702 0 0 0.025152889837903911
leaf_weight=4428 223 273 186 219 230 237 293 177 483 374 278 162 219 205 484 99 198 305 253 195 2681 224 125 178 3533 212 391 69 312 46
leaf_count=4428 223 273 186 219 230 237 293 177 483 374 278 162 219 205 484 99 198 305 253 195 2681 224 125 178 3533 212 391 69 312 46
internal_value=-0.000375318 -0.00217817 -0.0010869 0.00425598 -0.0015 -0.00399743 -0.00196408 -0.00229838 0.000534351 0.00105863 -0.00276553 0.00013369 -0.0031493 -0.00041744 0.00154877 0.00258838 -0.0035455 -0.00117978 -0.000626424 -0.000652174 -0.00393993 -0.00175926 -0.000802048 0.000121951 -0.00444526 0.00221925 0.00347731 0.00181507 -0.00267442 -0.00274691
internal_weight=17292 12450 7792 4842 7010 4658 6087 5483 776 604 4707 551 4156 529 923 782 3627 524 439 414 3103 422 576 451 4082 374 683 292 549 324
internal_count=17292 12450 7792 4842 7010 4658 6087 5483 776 604 4707 551 4156 529 923 782 3627 524 439 414 3103 422 576 451 4082 374 683 292 549 324
cat_boundaries=0 3 6 43 80 106 141 176 201 227 261 263 289 292 329
cat_threshold=4026531840 16772838 16 1578156048 234884608 280 0 0 0 0 0 0 0 0 0 0 15744 0 204 0 536870912 12 2048 872415232 0 0 0 224 0 0 0 0 0 0 0 0 0 0 0 0 5242880 48 2031617 8192 0 0 0 0 0 1048576 32 0 0 576 8192 2147483648 26 1073775360 0 0 134217728 11264 0 0 268435456 33648640 0 0 0 0 0 0 0 0 0 0 0 768 192 14 2147483648 0 0 0 376832 0 1966320 196608 0 33554432 3932160 536870912 0 0 0 0 524288 0 112 0 1 0 33554432 0 0 1792 0 0 100663296 0 11534336 1024 786432 12 0 0 0 3072 1073741824 5 268436480 0 1024 0 4096 0 33554432 16 1048576 0 4096 3407876 1 0 0 0 0 0 0 0 2097152 0 0 1225785344 0 4194304 14336 33554432 16 0 0 0 0 0 32 2147483776 17 640 0 0 1152 2621440 0 33728 0 1024 2148007938 0 0 0 0 0 0 0 0 3072 8 1879048192 0 8388608 0 0 25309184 0 268697606 0 0 4096 0 0 331792 2 0 0 0 4195072 5242880 0 67633152 0 2048 0 4 808189952 4608 512 0 67110912 0 33685504 2 0 2 0 1572864 131072 0 25169920 4194304 0 0 0 8388608 27525120 0 384 4194313 134217728 134217728 2147483648 16777560 134219776 0 16384 0 2818637825 5 0 268435460 0 262144 0 0 4194308 11534336 0 0 603979776 0 0 0 64 8388608 0 0 0 0 0 0 0 4096 0 524514 1 0 0 4202628 50332672 0 0 872415232 68157536 0 4194304 0 0 0 2048 2048 67108874 0 0 0 268435456 0 0 0 8704 12288 0 268435464 4 0 0 0 28573696 0 16859136 0 294916 65536 0 0 402653184 0 0 0 0 0 0 128 0 0 7864320 8388608 0 0 2048 0 7680 0 0 0 0 0 0 256 1 4096
is_linear=0
shrinkage=0.01


Tree=20
num_leaves=31
num_cat=14
split_feature=0 2 3 27 3 3 3 3 25 25 3 24 3 23 25 19 3 17 13 0 3 22 24 2 3 22 25 13 7 12
split_gain=1446.74 245.804 118.972 109.448 99.6804 64.8406 58.9889 71.5323 64.5632 62.4857 53.3468 50.9253 43.9492 45.0625 40.2245 39.5148 32.2116 42.7617 32.0914 22.346 20.4612 18.9764 18.282 18.0799 16.0956 15.6788 14.0933 21.9684 11.3149 9.76877
threshold=0 1 2 26.500000000000004 3 4 5 6 1.9030006661872683 1.9030006661872683 7 5.6265155094659951 8 1.4054248472324589 2.262544324477215 1.0000000180025095e-35 9 0.89587973461402759 1.0000000180025095e-35 10 11 1.7915320159617443 2.3213800973440146 12 13 4.8879984819926792 1.392552655644095 0.39752808894539271 -0.10395584540888005 0.91236630913977512
decision_type=9 9 9 8 9 9 9 9 8 8 9 8 9 8 8 2 9 2 2 9 9 10 10 9 9 8 8 2 2 2
left_child=3 2 15 -1 14 22 8 9 -6 -8 11 -9 13 29 18 26 17 -14 -4 -5 21 -18 23 -3 28 -13 27 -2 -7 -12
right_child=1 5 4 19 6 24 7 10 -10 -11 12 25 16 -15 -16 -17 20 -19 -20 -21 -22 -23 -24 -25 -26 -27 -28 -29 -30 -31
leaf_value=0.019612552310700474 0.024901360939524872 0.024082770317167733 0.025273392896233791 0 0 0 0 0 0.031888989437480975 0.028086819059618257 0 0 0.026327409176139138 0.026956878865609692 0.026327409176139138 0 0.016943493126520194 0 0 0.013163704588069569 0 0 0 0 0 0.029533947251322631 0.028086819059618257 0 0 0.024901360939524872
leaf_weight=4428 223 273 186 219 224 237 292 184 364 483 278 167 219 205 484 99 198 305 253 195 2681 224 125 178 3533 217 391 69 312 46
leaf_count=4428 223 273 186 219 224 237 292 184 364 483 278 167 219 205 484 99 198 305 253 195 2681 224 125 178 3533 217 391 69 312 46
internal_value=-0.000377053 -0.00218058 -0.00109075 0.00425598 -0.00150427 -0.00399743 -0.001969 -0.0022917 0.00103679 0.000528662 -0.00275454 0.000138408 -0.0031493 -0.00041744 0.00154877 0.00258838 -0.0035455 -0.00117978 -0.000626424 -0.000652174 -0.00393993 -0.00175926 -0.000802048 0.000121951 -0.00444526 0.00221354 0.00347731 0.00181507 -0.00267442 -0.00274691
internal_weight=17292 12450 7792 4842 7010 4658 6087 5499 588 775 4724 568 4156 529 923 782 3627 524 439 414 3103 422 576 451 4082 384 683 292 549 324
internal_count=17292 12450 7792 4842 7010 4658 6087 5499 588 775 4724 568 4156 529 923 782 3627 524 439 414 3103 422 576 451 4082 384 683 292 549 324
cat_boundaries=0 3 6 43 80 106 141 176 202 228 262 264 290 293 330
cat_threshold=4026531840 16772838 16 1578156048 234884608 280 0 0 0 0 0 0 0 0 0 0 15744 0 204 0 536870912 12 2048 872415232 0 0 0 224 0 0 0 0 0 0 0 0 0 0 0 0 5242880 48 2031617 8192 0 0 0 0 0 1048576 32 0 0 576 8192 2147483648 26 1073775360 0 0 134217728 11264 0 0 268435456 33648640 0 0 0 0 0 0 0 0 0 0 0 768 192 14 2147483648 0 0 0 376832 0 1966320 196608 0 33554432 3932160 536870912 0 0 0 0 524288 0 112 0 1 0 33554432 0 0 1792 0 0 100663296 0 15728640 1024 786432 12 0 0 0 3072 1073741824 5 268436480 0 1024 0 4096 0 33554432 16 1048576 0 4096 262148 1 0 0 0 0 0 0 0 2097152 0 0 1225785344 0 0 14336 33554432 16 0 0 0 0 0 32 2147483776 17 640 0 0 1152 2621440 0 33728 0 1024 2149056514 0 0 0 0 0 0 0 0 3072 8 1879048192 0 8388608 0 0 25309184 0 268697606 0 0 4096 0 0 331792 2 0 0 0 4195072 5242880 0 67633152 0 2048 2097152 0 4 808189952 4608 512 0 67110912 0 33685504 2 0 2 0 1572864 131072 0 25169920 4194304 0 0 0 8388608 27525120 0 384 4194313 134217728 134217728 2147483648 16777560 134219776 0 16384 0 2818637825 5 0 268435460 0 262144 0 0 4194308 11534336 0 0 603979776 0 0 0 64 8388608 0 0 0 0 0 0 0 4096 0 524514 1 0 0 4202628 50332672 0 0 872415232 68157536 0 4194304 0 0 0 2048 2048 67108874 0 0 0 268435456 0 0 0 8704 12288 0 268435464 4 0 0 0 28573696 0 16859136 0 294916 65536 0 0 402653184 0 0 0 0 0 0 128 0 0 7864320 8388608 0 0 2048 0 7680 0 0 0 0 0 0 256 1 4096
is_linear=0
shrinkage=0.01


Tree=21
num_leaves=31
num_cat=14
split_feature=0 2 3 27 3 3 3 3 25 25 3 24 3 23 25 19 3 17 13 0 3 22 24 2 3 22 25 13 7 12
split_gain=1446.74 245.804 118.972 109.448 99.6804 64.8406 58.9889 71.5323 64.5632 62.4857 53.3468 50.9253 43.9492 45.0625 40.2245 39.5148 32.2116 42.7617 32.0914 22.346 20.4612 18.9764 18.282 18.0799 16.0956 15.6788 14.0933 21.9684 11.3149 9.76877
threshold=0 1 2 26.500000000000004 3 4 5 6 1.9030006661872683 1.9030006661872683 7 5.6265155094659951 8 1.4054248472324589 2.262544324477215 1.0000000180025095e-35 9 0.89587973461402759 1.0000000180025095e-35 10 11 1.7915320159617443 2.3213800973440146 12 13 4.8879984819926792 1.392552655644095 0.39752808894539271 -0.10395584540888005 0.91236630913977512
decision_type=9 9 9 8 9 9 9 9 8 8 9 8 9 8 8 2 9 2 2 9 9 10 10 9 9 8 8 2 2 2
left_child=3 2 15 -1 14 22 8 9 -6 -8 11 -9 13 29 18 26 17 -14 -4 -5 21 -18 23 -3 28 -13 27 -2 -7 -12
right_child=1 5 4 19 6 24 7 10 -10 -11 12 25 16 -15 -16 -17 20 -19 -20 -21 -22 -23 -24 -25 -26 -27 -28 -29 -30 -31
leaf_value=0.01941642678759347 0.02465234733012962 0.023841942613996053 0.025020658967271455 0 0 0 0 0 0.031570099543106162 0.027805950869022072 0 0 0.026064135084377743 0.026687310076953599 0.026064135084377743 0 0.016774058195254991 0 0 0.013032067542188872 0 0 0 0 0 0.029238607778809406 0.027805950869022072 0 0 0.02465234733012962
leaf_weight=4428 223 273 186 219 224 237 292 184 364 483 278 167 219 205 484 99 198 305 253 195 2681 224 125 178 3533 217 391 69 312 46
leaf_count=4428 223 273 186 219 224 237 292 184 364 483 278 167 219 205 484 99 198 305 253 195 2681 224 125 178 3533 217 391 69 312 46
internal_value=-0.000377053 -0.00218058 -0.00109075 0.00425598 -0.00150427 -0.00399743 -0.001969 -0.0022917 0.00103679 0.000528662 -0.00275454 0.000138408 -0.0031493 -0.00041744 0.00154877 0.00258838 -0.0035455 -0.00117978 -0.000626424 -0.000652174 -0.00393993 -0.00175926 -0.000802048 0.000121951 -0.00444526 0.00221354 0.00347731 0.00181507 -0.00267442 -0.00274691
internal_weight=17292 12450 7792 4842 7010 4658 6087 5499 588 775 4724 568 4156 529 923 782 3627 524 439 414 3103 422 576 451 4082 384 683 292 549 324
internal_count=17292 12450 7792 4842 7010 4658 6087 5499 588 775 4724 568 4156 529 923 782 3627 524 439 414 3103 422 576 451 4082 384 683 292 549 324
cat_boundaries=0 3 6 43 80 106 141 176 202 228 262 264 290 293 330
cat_threshold=4026531840 16772838 16 1578156048 234884608 280 0 0 0 0 0 0 0 0 0 0 15744 0 204 0 536870912 12 2048 872415232 0 0 0 224 0 0 0 0 0 0 0 0 0 0 0 0 5242880 48 2031617 8192 0 0 0 0 0 1048576 32 0 0 576 8192 2147483648 26 1073775360 0 0 134217728 11264 0 0 268435456 33648640 0 0 0 0 0 0 0 0 0 0 0 768 192 14 2147483648 0 0 0 376832 0 1966320 196608 0 33554432 3932160 536870912 0 0 0 0 524288 0 112 0 1 0 33554432 0 0 1792 0 0 100663296 0 15728640 1024 786432 12 0 0 0 3072 1073741824 5 268436480 0 1024 0 4096 0 33554432 16 1048576 0 4096 262148 1 0 0 0 0 0 0 0 2097152 0 0 1225785344 0 0 14336 33554432 16 0 0 0 0 0 32 2147483776 17 640 0 0 1152 2621440 0 33728 0 1024 2149056514 0 0 0 0 0 0 0 0 3072 8 1879048192 0 8388608 0 0 25309184 0 268697606 0 0 4096 0 0 331792 2 0 0 0 4195072 5242880 0 67633152 0 2048 2097152 0 4 808189952 4608 512 0 67110912 0 33685504 2 0 2 0 1572864 131072 0 25169920 4194304 0 0 0 8388608 27525120 0 384 4194313 134217728 134217728 2147483648 16777560 134219776 0 16384 0 2818637825 5 0 268435460 0 262144 0 0 4194308 11534336 0 0 603979776 0 0 0 64 8388608 0 0 0 0 0 0 0 4096 0 524514 1 0 0 4202628 50332672 0 0 872415232 68157536 0 4194304 0 0 0 2048 2048 67108874 0 0 0 268435456 0 0 0 8704 12288 0 268435464 4 0 0 0 28573696 0 16859136 0 294916 65536 0 0 402653184 0 0 0 0 0 0 128 0 0 7864320 8388608 0 0 2048 0 7680 0 0 0 0 0 0 256 1 4096
is_linear=0
shrinkage=0.01


Tree=22
num_leaves=31
num_cat=14
split_feature=0 2 3 27 3 3 3 3 25 25 3 24 3 23 25 19 3 17 13 0 3 22 24 2 3 22 25 13 7 12
split_gain=1447.1 245.586 119.054 109.448 99.7729 64.8406 59.0528 71.6241 64.5632 62.4857 52.7686 50.5116 43.9492 45.0625 40.2245 39.5148 32.2116 42.7617 32.0914 22.346 20.4612 18.9764 18.282 18.0799 16.0956 15.3263 14.0933 21.9684 11.3149 9.76877
threshold=0 1 2 26.500000000000004 3 4 5 6 1.9030006661872683 1.9030006661872683 7 5.6265155094659951 8 1.4054248472324589 2.262544324477215 1.0000000180025095e-35 9 0.89587973461402759 1.0000000180025095e-35 10 11 1.7915320159617443 2.3213800973440146 12 13 4.8879984819926792 1.392552655644095 0.39752808894539271 -0.10395584540888005 0.91236630913977512
decision_type=9 9 9 8 9 9 9 9 8 8 9 8 9 8 8 2 9 2 2 9 9 10 10 9 9 8 8 2 2 2
left_child=3 2 15 -1 14 22 8 9 -6 -8 11 -9 13 29 18 26 17 -14 -4 -5 21 -18 23 -3 28 -13 27 -2 -7 -12
right_child=1 5 4 19 6 24 7 10 -10 -11 12 25 16 -15 -16 -17 20 -19 -20 -21 -22 -23 -24 -25 -26 -27 -28 -29 -30 -31
leaf_value=0.019222262519717533 0.024405823856828324 0.023603523187856093 0.024770452377598739 0 0 0 0 0 0.031254398547675102 0.02752789136033185 0 0 0.025803493733533966 0.026420436976184059 0.025803493733533966 0 0.016606317613302442 0 0 0.012901746866766983 0 0 0 0 0 0.028946221701021312 0.02752789136033185 0 0 0.024405823856828324
leaf_weight=4428 223 273 186 219 224 237 292 184 364 483 278 167 219 205 484 99 198 305 253 195 2681 224 125 178 3533 217 391 69 312 46
leaf_count=4428 223 273 186 219 224 237 292 184 364 483 278 167 219 205 484 99 198 305 253 195 2681 224 125 178 3533 217 391 69 312 46
internal_value=-0.000377631 -0.00218138 -0.00109203 0.00425598 -0.0015057 -0.00399743 -0.00197064 -0.00229352 0.00103679 0.000528662 -0.00275665 0.000121107 -0.0031493 -0.00041744 0.00154877 0.00258838 -0.0035455 -0.00117978 -0.000626424 -0.000652174 -0.00393993 -0.00175926 -0.000802048 0.000121951 -0.00444526 0.0021875 0.00347731 0.00181507 -0.00267442 -0.00274691
internal_weight=17292 12450 7792 4842 7010 4658 6087 5499 588 775 4724 568 4156 529 923 782 3627 524 439 414 3103 422 576 451 4082 384 683 292 549 324
internal_count=17292 12450 7792 4842 7010 4658 6087 5499 588 775 4724 568 4156 529 923 782 3627 524 439 414 3103 422 576 451 4082 384 683 292 549 324
cat_boundaries=0 3 6 43 80 106 141 176 202 228 262 264 290 293 330
cat_threshold=4026531840 16772838 16 1578156048 234884608 280 0 0 0 0 0 0 0 0 0 0 15744 0 204 0 536870912 12 2048 872415232 0 0 0 224 0 0 0 0 0 0 0 0 0 0 0 0 5242880 48 2031617 8192 0 0 0 0 0 1048576 32 0 0 576 8192 2147483648 26 1073775360 0 0 134217728 11264 0 0 268435456 33648640 0 0 0 0 0 0 0 0 0 0 0 768 192 14 2147483648 0 0 0 376832 0 1966320 196608 0 33554432 3932160 536870912 0 0 0 0 524288 0 112 0 1 0 33554432 0 0 1792 0 0 100663296 0 15728640 1024 786432 12 0 0 0 3072 1073741824 5 268436480 0 1024 0 4096 0 33554432 16 1048576 0 4096 262148 1 0 0 0 0 0 0 0 2097152 0 0 1225785344 0 0 14336 33554432 16 0 0 0 0 0 32 2147483776 17 640 0 0 1152 2621440 0 33728 0 1024 2149056514 0 0 0 0 0 0 0 0 3072 8 1879048192 0 8388608 0 0 25309184 0 268697606 0 0 4096 0 0 331792 2 0 0 0 4195072 5242880 0 67633152 0 2048 2097152 0 4 808189952 4608 512 0 67110912 0 33685504 2 0 2 0 1572864 131072 0 25169920 4194304 0 0 0 8388608 27525120 0 384 4194313 134217728 134217728 2147483648 16777560 134219776 0 16384 0 2818637825 5 0 268435460 0 262144 0 0 4194308 11534336 0 0 603979776 0 0 0 64 8388608 0 0 0 0 0 0 0 4096 0 524514 1 0 0 4202628 50332672 0 0 872415232 68157536 0 4194304 0 0 0 2048 2048 67108874 0 0 0 268435456 0 0 0 8704 12288 0 268435464 4 0 0 0 28573696 0 16859136 0 294916 65536 0 0 402653184 0 0 0 0 0 0 128 0 0 7864320 8388608 0 0 2048 0 7680 0 0 0 0 0 0 256 1 4096
is_linear=0
shrinkage=0.01


Tree=23
num_leaves=31
num_cat=15
split_feature=0 2 3 27 3 3 3 25 3 25 3 25 25 19 3 23 13 3 17 3 0 17 24 2 3 20 3 25 13 12
split_gain=1448.18 244.931 118.483 109.448 99.9581 64.8406 59.1807 64.5632 63.3024 56.6339 53.2294 49.7569 40.2245 39.3438 38.3703 35.1391 32.0914 28.289 46.476 25.4374 22.346 21.8308 18.282 18.0799 17.0964 25.9501 16.0956 13.8461 21.9684 11.8655
threshold=0 1 2 26.500000000000004 3 4 5 1.9030006661872683 6 1.2244176604807344 7 1.9030006661872683 2.262544324477215 1.0000000180025095e-35 8 1.4054248472324589 1.0000000180025095e-35 9 1.8688348091416842 10 11 0.89587973461402759 2.3213800973440146 12 13 5.2549718511255277 14 1.392552655644095 0.39752808894539271 0.91236630913977512
decision_type=9 9 9 8 9 9 9 8 9 8 9 8 8 2 9 8 2 9 2 9 9 2 10 9 9 8 9 8 2 2
left_child=3 2 13 -1 12 22 7 -6 9 -8 11 -10 16 27 15 29 -4 18 -16 21 -5 -19 23 -3 25 -21 -7 28 -2 -12
right_child=1 5 4 20 6 26 8 -9 10 -11 14 -13 -14 -15 17 -17 -18 19 -20 24 -22 -23 -24 -25 -26 -27 -28 -29 -30 -31
leaf_value=0.019030039894520363 0.024161765618260042 0.023367487955977533 0.024522747853822753 0 0 0 0 0.030941854562198348 0 0.027252612446728532 0 0.027512657864290638 0.025545458796198628 0 0.027696571352656147 0.025386622201453959 0 0.020905638034053861 0 0 0.012772729398099314 0 0 0 0 0.023392018371443443 0 0.027252612446728532 0 0.026980855507786408
leaf_weight=4428 223 273 186 219 224 549 270 364 187 423 226 393 484 99 166 168 253 210 253 293 195 237 125 178 2479 152 3533 391 69 42
leaf_count=4428 223 273 186 219 224 549 270 364 187 423 226 393 484 99 166 168 253 210 253 293 195 237 125 178 2479 152 3533 391 69 42
internal_value=-0.000379366 -0.00218379 -0.00109587 0.00425598 -0.00150855 -0.00399743 -0.00197392 0.00103679 -0.00229715 0.000533428 -0.00270556 0.000152542 0.00154877 0.00257576 -0.00309726 -0.000246637 -0.000626424 -0.00342368 -0.000897436 -0.0037341 -0.000652174 -0.00141138 -0.000802048 0.000121951 -0.00408316 -0.00212088 -0.00444526 0.00346266 0.00181507 -0.0025
internal_weight=17292 12450 7792 4842 7010 4658 6087 588 5499 693 4806 580 923 782 4226 436 439 3790 419 3371 414 447 576 451 2924 445 4082 683 292 268
internal_count=17292 12450 7792 4842 7010 4658 6087 588 5499 693 4806 580 923 782 4226 436 439 3790 419 3371 414 447 576 451 2924 445 4082 683 292 268
cat_boundaries=0 3 6 43 80 106 141 176 202 228 254 288 290 293 323 360
