tree
version=v4
num_class=1
num_tree_per_iteration=1
label_index=0
max_feature_idx=27
objective=quantile
feature_names=cust_code price cust_id item currency region category day_sin day_cos month dayofweek_cos dayofweek_sin dayofyear_sin dayofyear_cos quarter_sin quarter_cos qty_lag1 qty_lag5 qty_lag10 qty_lag20 rolling_mean_3 rolling_std_3 rolling_mean_5 rolling_std_5 rolling_mean_10 rolling_std_10 days_since_client_purchase days_since_client_item_purchase
feature_infos=-1:70:13:22:63:0:28:64:17:66:15:71:47:33:72:37:51:75:29:14:42:7:56:62:12:49:54:34:39:76:48:8:46:18:60:68:9:61:4:38:55:43:74:65:20:58:31:59:23:69:52:73:16:41:10:11:53:6:57:2:24:26:19:27:3:5:50:1:30:21:45:77:44:36:35:25 none -1:41:67:35:58:25:4:42:30:60:28:68:69:72:27:43:26:24:73:61:31:15:66:14:56:49:57:16:71:20:62:33:48:47:9:36:65:59:70:51:29:17:50:52:22:23:63:13:18:21:6:37:39:32:40:7:10:12:5:8:34:44:55:74:19:45:46:3:0:54:2:38 -1:820:819:818:821:823:652:491:822:11:669:651:668:670:667:672:671:830:9:0:1096:119:326:1097:327:120:328:1098:824:812:673:329:832:118:831:813:1099:121:94:569:227:226:229:582:674:93:228:92:95:615:618:7:616:617:581:523:580:629:524:1164:583:5:197:522:700:754:630:251:521:252:419:420:90:196:198:414:418:662:659:660:661:665:88:89:250:415:416:421:43:199:283:417:740:853:102:282:540:739:741:91:272:854:170:273:274:598:104:212:281:542:729:171:172:253:280:386:599:851:1169:103:105:173:209:211:387:391:738:4:210:390:572:596:838:1170:342:605:728:839:248:343:344:597:666:718:727:837:852:1172:8:49:99:100:247:380:381:570:573:840:876:1125:1171:98:240:246:275:426:477:483:601:678:716:730:1124:241:345:456:457:571:717:843:1168:59:478:482:586:587:600:675:744:874:13:239:242:332:514:519:584:604:619:679:875:1152:101:160:330:331:333:382:427:458:585:588:589:620:873:1153:1155:161:162:174:379:449:475:476:501:513:515:603:677:719:720:865:123:175:176:249:450:455:480:500:606:710:711:712:713:1110:1126:1154:148:149:150:177:200:363:428:459:481:484:512:800:801:802:1108:1127:3:137:142:201:205:217:257:258:365:466:479:499:775:778:803:983:122:143:144:163:203:215:289:364:448:451:452:460:465:498:535:564:566:567:676:776:779:780:889:1109:60:61:62:84:108:139:204:216:231:284:285:340:353:425:435:463:474:532:536:695:808:809:810:856:868:952:982:34:109:138:206:218:230:256:287:288:290:339:354:357:362:436:464:541:565:774:777:786:787:811:844:855:953:954:18:25:27:82:83:110:140:151:154:155:184:286:338:341:352:355:384:517:640:784:857:859:860:941:955:973:1068:1114:1115:1116:1161:14:17:28:29:111:117:146:153:261:356:383:434:461:516:534:538:539:644:691:692:693:694:721:722:723:724:781:785:805:806:858:863:864:866:934:1148:1149:10:30:31:85:114:116:152:234:262:276:279:313:370:462:531:537:663:685:725:759:867:933:935:976:977:978:979:1120:1160:1165:1:15:96:183:219:220:236:260:278:296:297:298:299:312:314:315:358:527:528:533:558:633:656:664:726:753:807:846:932:1117:1144:1150:26:97:115:207:208:221:232:235:277:359:371:437:520:743:770:782:783:798:845:899:962:1121:1138:1159:1162:21:53:57:113:187:222:369:439:467:493:494:495:496:526:530:549:632:634:645:654:655:714:737:771:772:773:847:861:862:895:896:960:961:963:971:972:974:1145:1174:1175:24:47:50:55:106:112:133:135:141:185:254:334:335:336:337:346:376:438:440:441:511:525:529:559:560:561:562:563:602:612:635:646:657:701:733:742:746:747:748:749:804:869:870:893:894:900:936:947:948:949:950:964:1081:1083:1122:1123:1146:1151:6:19:36:56:69:70:71:107:134:136:166:167:182:238:259:305:319:320:347:348:349:350:351:366:368:385:388:406:492:497:508:509:510:548:550:551:552:556:591:609:610:641:647:650:681:683:745:755:756:757:758:769:790:794:814:815:816:817:827:849:898:916:930:931:937:942:995:1084:1100:1107:1139:1167:1176:23:35:45:65:66:67:68:72:78:147:168:186:244:263:264:265:266:268:269:270:301:360:361:377:442:443:444:503:546:553:554:555:557:568:576:590:611:631:642:643:648:649:658:680:699:715:732:752:760:761:762:763:791:792:793:795:848:871:884:890:906:915:917:940:958:959:992:993:994:1064:1065:1066:1067:1082:1102:1104:1105:1106:1111:1112:1119:1129:1130:1131:1147:1158:1166:1173:22:39:44:46:58:73:74:75:76:77:157:169:190:223:243:255:267:271:293:300:302:303:304:318:367:372:373:374:375:378:389:400:401:404:407:410:411:413:422:423:424:430:431:433:445:453:468:488:502:506:543:544:545:547:574:593:594:607:608:682:696:697:698:702:703:704:731:734:765:768:797:828:872:881:882:883:897:901:902:903:904:905:908:918:951:975:1008:1009:1010:1011:1048:1049:1050:1088:1101:1163 -1:0:2:1 -1:34:44:36:22:4:5:30:17:10:40:11:35:6:20:7:43:16:12:28:32:3:39:26:24:25:41:42:2:19:37:1:31:23:21:33:29:14:27:18:13:15:8:45:38 -1:122:90:39:7:19:109:117:85:34:2:78:70:112:96:128:45:13:23:94:102:126:62:43:11:35:76:130:98:86:68:118:120:47:88:3:37:5:15:50:20:33:84:116:55:1:21:71:132:17:79:49:100:22:89:38:26:0:91:121:8:40:107:123:6:31:18:95:127:44:12:119:87:36:83:80:63:46:72:93:111:4:97:14:69:77:125:74:82:10:42:66:129:114:24:25:61:73:108:64:103:81:29:105:9:56:60:65:67:75:92:106:124:41:52:113 [-0.99452189536827329:0.9945218953682734] [-1:1] [1:12] [-0.90096886790241903:1] [-0.43388373911755801:0.97492791218182362] [-0.99999073973619013:0.99954628068735729] [-0.99907411510222999:0.99985183920911624] [-1:1] [-1:1] [0:7.8939451382359591] [0:7.8939451382359591] [0:7.7836405962212529] [0:6.5806391372849493] [0.69314718055994529:7.1653002110482875] [0:3.2940417966049629] [1.0986122886681098:6.9971807869699223] [0:2.9815439008988269] [1.1496948510447089:6.9242151338238198] [0:2.7957610625370255] [-726:583] [0:583]
tree_sizes=3225 3309 3188 3271 3126 3315 3220 3132 3350 3143 3175 3261 3168 3159 3168 3270 3121 3148 3145 3156 3161 3360 3302 3273 3309 3144 3255 3367 3282 3190 3168 3024 3027 3141 3147 3162 3152 3165 3162 3130 3163 3165 3155 3138 3163 3165 3333 3228 3148 3150 3172 3150 3135 3350 3355 3347 3350 3350 3346 3335 3351 3352 3340 3364 3366 3348 3335 3366 3336 3366 3367 3333 3233 3367 3350 3149 3235 3169 3147 3145 3155 3166 3153 3011 3269 3367 3360 3347 3255 3259 3365 3496 3381 3370 3358 3357 3147 3397 3475 3387 3473 3360 3464 3525 3385 3409 3153 3413 3233 3151 3372 3339 3290 3398 3403 3269 3245 3258 3418 3364 3326 3406 3273 3263 3405 3400 3291 3249 3375 3363 3363 3389 3394 3418 3342 3284 3363 3241 3235 3360 3366 3250 3355 3357 3362 3354 3348 3352 3356 3363 3359 3352 3338 3358 3367 3337 3227 3240 3364 3364 3245 3366 3374 3220 3679 3320 3371 3374 3369 3362 3645 3374 3359 3378 3450 3449 3275 3300 3395 3478 3384 3367 3265 3368 3346 3383 3351 3401 3262 3445 3438 3262 3275 3383 3198 3237 3234 3244 3368 3377 3370 3239 3457 3367 3293 3347 3359 3341 3418 3456 3364 3345 3247 3375 3541 3249 3187 3374 3372 3248 3350 3504 3371 3563 3409 3331 3363 3367 3245 3377 3227 3341 3358 3389 3336 3336 3367 3349 3351 3381 3346 3462 3873 3349 3467 3752 3390 3522 3531 3529 3744 3522 3546 3496 3615 3531 3544 3624 3349 3565 3493 3370 3557 3362 3566 3658 3382 3360 3400 3398 3234 3373 3369 3393 3396 3385 3378 3395 3519 3376 3386 3456 3497 3167 3537 3395 3400 3414 3379 3369 3371 3440 3364 3545 3537 3417 3384 3406 3416 3387 3393 3419 3424 3429 3422 3290 3287 3288 3287 3291 3279 3288 3583 3283 3448 3288 3309 3301 3380 3524 3364 3294 3277 3300 3294 3383 3366 3278 3395 3281 3259 3276 3312 3283 3291 3276 3286 3281 3381 3285 3260 3341 3518 3345 3483 3415 3273 3334 3331 3252 3260 3252 3262 3289 3273 3233 3229 3329 3247 3258 3251 3367 3232 3306 3451 3447 3486 3562 4056 4167 3607 3620 3471 4006 3804 3720 4162 3702 3532 3701 3837 3591 3610 3960 3617 3582 3849 3870 3446 3581 3572 3567 3700 3821 3968 3763 3562 3579 3458 3961 3638 3516 3376 3634 3639 3740 3511 3546 3596 3555 3628 3616 3468 3587 3487 3628 3615 3626 3878 3907 3671 3469 3881 3471 3721 3635 3692 3572 3563 3486 3525 3713 3457 3565 3471 3518 3592 3570 3471 3424 3503 3459 3569 3738 3416 3415 3591 3475 3463 3577 3620 3570 3719 3772 3623 3448 3614 3410 3487 3458 3426 3226 3431 3541 3338 3564 3295 3559 3304 3567 3660 3406 3369 3402 3483 3391 3454 3434 3452 3717 3425 3460 3448 3569 3691 3678 3674 3728 3511 3460 3438 3738 3573 3348 3302 3702 3587 3423 3420 3450 3522 3580 3290 3428 3461 3439 3717 3466 3320 3337 3555 3349 3612 3562 3382 3489 3691 3810 3450 3624 3436 3259 3650 3433 3566 3766 3448 3426 3478 3266 3264 3466 3498 3429 3344 3542 3558 3545 3608 3527 3719 3450 3418 3526 3596 3705 3618 3447 3423 3439 3345 3443 3487 3295 3566 3603 3433 3484 3432 3754 3268 3438 3304 3285 3279 3286 3400 3440 3435 3170 3554 3460 3406 3430 3442 3441 3401 3404 3410 3412 3425 3288 3419 3454 3268 3425 3368 3510 3315 3284 3273 3248 3278 3202 3358 3377 3364 3251 3436 3511 3254 3520 3558 3464 3275 3674 3332 3352 3754 3770 3821 3706 3561 3556 3321 3422 3339 3438 3342 3431 3481 3546 3481 3413 3465 3613 3475 3659 3702 3574 3560 3859 3418 3569 3482 3456 3522 3574 3392 3644 3408 3674 3514 3850 3728 3819 3603 3740 3897 3542 3669 3479 3620 3735 3634 3624 3756 3428 3793 3780 3611 3558 3640 3996 3639 3643 3736 3757 3660 3670 3685 3594 3732 3988 3556 3778 3684 4121 3480 3764 3981 3733 4047 3681 3856 3644 3824 3901 3812 3974 3529 3787 3924 3602 3619 3705 3639 3843 3652 3758 3609 3562 3813 3994 3718 3642 3641 3721 3994 3342 3383 3476 3660 3423 3395 3721 3707 3580 3553 3518 3624 3537 3485 3731 3483 3588 3406 3445 3583 3395 3438 3469 3811 3796 3570 3599 3825 3472 3593 3827 3802 3848 4191 3684 3757 3823 3910 3714 3805 4125 3771 3689 3799 3927 3771 3567 3806 3903 3728 3681 3747 3844 3764 4158 3767 3677 3821 3743 3743 3646 3597 3955 3836 3882 3597 3711 3890 3634 3667 3604 3826 3679 3882 3652 3618 3771 3500 3528 3985 3724 3711 3719 3753 3890 3737 3932 3884 3779 3894 3910 3822 3799 3713 3681 3764 3632 3686 3800 3684 3758 3728 3819 3702 4098 4014 3616 3698 3544 3881 3621 3770 3542 4063 3688 3956 3738 3768 3807 3708 3839 4156 4036 3814 3814 3897 3755 3898 4035 3807 3956 4034 4036 3949 3746 3737 3771 3930 4125 4109 3986 3767 4239 3944 3992 3746 3946 3958 4240 4046 4043 3792 3849 3850 3903 4040 3779 3785 3713 3674 3791 3776 3688 4112 3810 3847 3984 3879 3835 3831 3857 3886 3763 3785 3724 3598 3791 3865 4112 3983 3809 4091 4076 3783 4391 4067 3978 4209 4118 4191 4168 4176 4012 4193 4115 4252 4297 4202 4129 4583 4287 4099 3947 4354 3797 3965 3979 3952 3999 4123 3886 3921 3717 3811 3643 3976 3820 3988 4017 3991 3867 4203 3923 3995 4091 4040 4287 4116 4094 4132 4049 4234 3899 4129 4082 3856 4140 3722 4059 4059 4098 3790 4125 4259 4240 4148 4237 4087 4130 4233 4232 4138 4358 4095 4213 3954 3806 4070 4089 4064 4058 3949 4308 3933 4063 3972 4081 4036 4115 4207 4124 4051 4163 3935 4221 3925 4117 4125 3980 4064 4068 4081 4081 3905 3987 4131 4089 4122 3869 4389 4060

Tree=0
num_leaves=31
num_cat=12
split_feature=2 3 0 16 26 27 26 3 26 26 26 2 0 9 0 3 13 3 27 11 7 13 26 9 0 2 11 9 0 26
split_gain=160.093 59.2511 41.1118 33.3081 20.5029 30.0511 27.5294 18.3965 15.0416 31.2306 12.7285 11.0667 9.9687 9.52908 7.80945 7.70429 8.65287 7.05863 6.94879 8.42504 6.6225 6.26142 6.15292 5.7532 5.03812 4.92337 10.1092 6.36853 4.75007 4.29022
threshold=0 1 2 1.7005986908310777 -264.49999999999994 101.50000000000001 -31.499999999999996 3 -57.999999999999993 1.5000000000000002 14.500000000000002 4 5 11.500000000000002 6 7 0.51972456038539816 8 74.500000000000014 1.0000000180025095e-35 0.90854096003979634 0.59123954401714218 57.500000000000007 2.5000000000000004 9 10 0.6078576107927941 1.5000000000000002 11 -1.0000000180025095e-35
decision_type=9 9 9 2 10 8 10 9 8 8 10 9 9 2 9 9 2 9 8 2 2 2 10 2 9 9 2 2 9 10
left_child=1 12 18 4 13 24 21 28 -4 29 -8 20 -1 -3 -9 -16 -17 -14 -2 -20 -11 -7 -18 -13 -6 -24 27 -27 -5 -10
right_child=2 3 8 7 5 6 10 14 9 11 -12 23 17 -15 15 16 22 -19 19 -21 -22 -23 25 -25 -26 26 -28 -29 -30 -31
leaf_value=1.0986123085021973 1.0876261854171754 1.1037205648422241 1.0876261854171754 1.0986123085021973 1.1037205648422241 1.0986123085021973 1.0876261854171754 1.1070852863788605 1.0876261854171754 1.0876261854171754 1.0876261854171754 1.0876261854171754 1.0986123085021973 1.0876261854171754 1.1070852863788605 1.1037205648422241 1.0986123085021973 1.0986123085021973 1.0876261854171754 1.0876261854171754 1.0876261854171754 1.0876261854171754 1.0876261854171754 1.0876261854171754 1.0986123085021973 1.0876261854171754 1.0876261854171754 1.0876261854171754 1.0986123085021973 1.0876261854171754
leaf_weight=307 78 1068 372 650 248 171 170 4704 29 339 114 90 240 26 937 2560 1039 722 151 138 62 67 420 357 924 30 93 160 821 205
leaf_count=307 78 1068 372 650 248 171 170 4704 29 339 114 90 240 26 937 2560 1039 722 151 138 62 67 420 357 924 30 93 160 821 205
internal_value=1.09807 1.0984 1.09527 1.09858 1.0976 1.09691 1.09492 1.09882 1.09607 1.09545 1.09282 1.09635 1.09634 1.09867 1.09898 1.09871 1.09853 1.09583 1.09226 1.09138 1.09764 1.09743 1.09799 1.09528 1.0978 1.09727 1.09627 1.09751 1.09778 1.09222
internal_weight=17292 15471 1821 14202 2788 1694 522 11414 1454 1082 284 848 1269 1094 9943 5239 4302 962 367 289 401 238 1742 447 1172 703 283 190 1471 234
internal_count=17292 15471 1821 14202 2788 1694 522 11414 1454 1082 284 848 1269 1094 9943 5239 4302 962 367 289 401 238 1742 447 1172 703 283 190 1471 234
cat_boundaries=0 3 40 43 70 73 76 79 115 143 146 149 152
cat_threshold=1599325456 503844364 956 33833376 0 0 67108864 0 0 0 33554432 0 0 0 0 0 0 0 0 268435456 0 16777216 0 2281701376 11 0 0 0 1090519040 2178420736 31 0 0 0 0 0 0 0 0 131584 8456449 100663296 4 16 0 0 0 0 16384 131104 29360256 0 0 0 0 0 4664 0 2883584 0 0 47185920 4096 1342179328 0 0 0 0 2150367241 2048 2149580928 553910272 64 4325376 1077969408 65 2418017424 3229665890 6356 10240 0 0 16777216 16384 2 0 0 0 0 0 0 0 0 1610874880 2079 0 201326592 176 0 4096 4 32768 0 0 0 1 0 0 0 0 0 0 0 5242880 240 0 0 0 0 0 0 0 0 0 0 0 0 0 0 0 0 0 0 0 0 0 8 0 0 0 1073741824 2164785152 23 2684485632 3224371776 20 419430400 268437512 160 2147614720 26837094 64
is_linear=0
shrinkage=1


Tree=1
num_leaves=31
num_cat=12
split_feature=2 3 16 26 27 26 2 3 13 5 2 26 6 13 26 16 2 0 9 27 9 10 0 3 13 13 9 20 23 0
split_gain=156.052 60.06 34.7766 23.2175 42.1178 32.0296 20.517 18.4811 14.5618 12.295 11.6784 8.61794 7.46256 7.27031 7.02364 17.5063 6.85684 6.29697 5.89817 5.84158 5.81779 5.32377 5.24735 5.38294 4.91021 4.67032 4.63886 4.54227 5.35187 3.947
threshold=0 1 1.7005986908310777 -142.49999999999997 381.50000000000006 -1.0000000180025095e-35 2 3 -0.42108527284769387 4 5 14.500000000000002 6 -0.87792756428346708 -103.49999999999999 1.2424533248940004 7 8 9.5000000000000018 33.500000000000007 11.500000000000002 1.0000000180025095e-35 9 10 0.63207999751838673 0.53435276464917691 2.5000000000000004 1.2688874965901225 0.53051677821358012 11
decision_type=9 9 2 8 8 10 9 9 2 9 9 10 9 2 10 2 9 9 2 8 2 2 9 9 2 2 2 8 10 9
left_child=6 9 3 20 17 24 13 -4 16 19 26 -7 -12 -1 -10 -16 -8 -5 21 -2 -3 -17 -14 -24 -6 29 -9 28 -19 -25
right_child=1 2 7 4 5 11 8 10 14 -11 12 -13 22 -15 15 18 -18 27 -20 -21 -22 -23 23 25 -26 -27 -28 -29 -30 -31
leaf_value=-0.010876261854171754 0 0.0050571737766265867 0 0.0050571737766265867 -0.010876261854171754 -0.010876261854171754 0.01477323088645935 -0.010876261854171754 -0.010876261854171754 0 0.0083882480978965755 -0.010876261854171754 0.012908100497722626 -0.010876261854171754 -0.010876261854171754 -0.010876261854171754 -0.010876261854171754 -0.010876261854171754 -0.010876261854171754 -0.010986123085021973 -0.010876261854171754 -0.010876261854171754 0.010986123085021973 0.0083882480978965755 -0.010876261854171754 -0.010876261854171754 -0.010876261854171754 0 0 -5.1082563400268736e-05
leaf_weight=21 501 1266 1461 335 148 203 129 165 138 549 4857 48 1277 225 146 168 146 39 119 94 51 38 574 964 62 1141 778 968 31 650
leaf_count=21 501 1266 1461 335 148 203 129 165 138 549 4857 48 1277 225 146 168 146 39 119 94 51 38 574 964 62 1141 778 968 31 650
internal_value=-0.000503007 -0.000250309 -8.13148e-05 -0.00101523 -0.00174264 -0.00435792 -0.00407895 0.000166596 -0.00327293 -0.00244887 0.000314516 -0.00676892 0.000420458 -0.00673437 -0.00417241 -0.00475372 -0.0014 -0.00086453 -0.00346154 -0.00346281 -2.27787e-06 -0.00448544 0.000131283 -7.81671e-05 -0.00147619 -0.000262206 -0.000741868 -0.00124237 -0.00371429 8.30236e-05
internal_weight=17292 16162 15018 3151 1834 461 1130 11867 884 1144 10406 251 9463 246 609 471 275 1373 325 595 1317 206 4606 3329 210 2755 943 1038 70 1614
internal_count=17292 16162 15018 3151 1834 461 1130 11867 884 1144 10406 251 9463 246 609 471 275 1373 325 595 1317 206 4606 3329 210 2755 943 1038 70 1614
cat_boundaries=0 3 40 42 69 71 74 78 81 84 87 124 127
cat_threshold=548156000 3222728882 1090 33833120 0 0 201326592 0 0 0 37748736 0 0 0 0 0 0 0 0 805306368 0 16777216 0 2147483648 11 0 0 0 1090519040 2174228480 31 0 0 0 0 0 0 0 0 131584 537395200 61456 272 0 0 0 0 16384 131104 553648256 0 0 33554432 0 0 4656 0 2359296 0 0 42991872 4096 1476397056 0 0 0 0 2883592 4194304 285345880 4137 2483159040 554238209 128 69997796 8655972 1734868992 2737053696 8192 1179650 64 2684485632 3224373824 20 144 1073741824 6352 134225920 4 1343488000 20480 262144 0 0 0 786432 0 320 0 0 0 1141246464 0 0 67108864 0 0 0 268435536 0 0 4416 512 0 0 0 0 0 0 0 0 3072 0 2 2420252928 8470624 261
is_linear=0
shrinkage=0.01


Tree=2
num_leaves=31
num_cat=13
split_feature=2 3 16 26 27 2 13 26 3 2 0 13 13 26 16 2 26 2 9 10 0 3 0 6 0 12 25 14 7 8
split_gain=163.051 51.369 35.5622 21.6984 68.5103 20.517 14.5618 13.6196 12.9743 10.7415 8.72627 8.02079 7.27031 7.02364 17.5063 6.85684 6.40967 6.10419 5.89817 5.32377 5.24172 4.64807 4.28042 4.10224 4.07439 3.8171 3.8184 3.80672 3.6859 3.68382
threshold=0 1 1.7005986908310777 -31.499999999999996 381.50000000000006 2 -0.42108527284769387 9.5000000000000018 3 4 5 0.8977101403255705 -0.87792756428346708 -103.49999999999999 1.2424533248940004 6 131.50000000000003 7 9.5000000000000018 1.0000000180025095e-35 8 9 10 11 12 -0.63874350706337046 0.69445077370045249 -0.5 0.20791169081775893 0.40450849718747384
decision_type=9 9 2 8 8 9 2 8 9 9 9 2 2 10 2 9 10 9 2 2 9 9 9 9 9 2 8 2 2 2
left_child=5 10 3 11 20 12 15 -6 24 -10 -2 22 -1 -8 -15 -7 23 27 19 29 -5 -12 -3 -11 -4 -23 -27 -18 -29 -16
right_child=1 2 8 4 7 6 13 -9 9 16 21 -13 -14 14 18 -17 17 -19 -20 -21 -22 25 -24 -25 -26 26 -28 28 -30 -31
leaf_value=-0.010767499235630036 0.0050372515948645556 -0.011087777386188507 0.00028768411837621244 0 -0.010767499235630036 0.014625498577594756 -0.010767499235630036 -0.010767499235630036 -0.010767499235630036 0.0083043656169176101 0 -0.010767499235630036 -0.010767499235630036 -0.010767499235630036 -0.010767499235630036 -0.010767499235630036 0.005479779462318579 0.0049180993336648262 -0.010767499235630036 -0.010767499235630036 0 0 0.0050066020388603218 0.0050576846022605901 0 0 -0.010876261854171754 -0.011154735344767571 -0.010767499235630036 -0.010767499235630036
leaf_weight=21 237 124 482 590 223 129 138 84 468 4571 611 75 225 146 59 146 32 474 119 38 605 310 1272 4672 663 332 244 61 32 109
leaf_count=21 237 124 482 590 223 129 138 84 468 4571 611 75 225 146 59 146 32 474 119 38 605 310 1272 4672 663 332 244 61 32 109
internal_value=-0.00042378 -0.000165595 3.03366e-05 -0.000944164 -0.00178961 -0.00407895 -0.00327293 -0.00600326 0.000283282 0.000395349 -0.0017867 -8.08973e-05 -0.00673437 -0.00417241 -0.00475372 -0.0014 0.000466098 -0.000535893 -0.00346154 -0.00448544 -0.000707113 -0.00207233 9.02579e-05 0.000531537 -0.000722944 -0.00256027 -0.00210764 -0.00240741 -0.00362366 -0.00525
internal_weight=17292 16162 14428 2973 1502 1130 884 307 11455 10310 1734 1471 246 609 471 275 9842 599 325 206 1195 1497 1396 9243 1145 886 576 125 93 168
internal_count=17292 16162 14428 2973 1502 1130 884 307 11455 10310 1734 1471 246 609 471 275 9842 599 325 206 1195 1497 1396 9243 1145 886 576 125 93 168
cat_boundaries=0 3 40 42 68 71 73 76 78 80 108 110 114 117
cat_threshold=548156000 3222728882 1090 33833120 0 0 201326592 0 16384 0 37748736 0 0 0 0 0 0 0 0 805306368 0 16777216 0 3355443200 11 0 0 0 1090781184 29890560 19 0 0 0 0 0 0 0 0 131072 537395200 61456 272 0 0 0 0 0 131104 562036864 0 0 46137344 0 0 4656 0 3932160 4 0 42992384 4096 268437504 0 0 0 0 2621448 2147614720 554238209 128 4325376 2149581376 8192 1179650 64 353370128 67108864 4505601 4964390 278528 0 0 0 0 16384 0 0 0 0 0 0 0 0 0 0 0 0 0 0 1207959552 0 0 0 0 262144 2048 16 1 1090519040 70783012 8654948 2942828544 2871074816 2684497920 9537636 64
is_linear=0
shrinkage=0.01


Tree=3
num_leaves=31
num_cat=14
split_feature=2 16 2 3 13 27 26 13 26 0 2 0 13 26 16 2 3 9 13 10 3 0 13 12 5 25 21 2 6 0
split_gain=164.967 44.718 20.517 18.2425 15.9026 24.5868 26.1212 14.5618 13.9575 9.31445 8.27349 7.94702 7.27031 7.02364 17.5063 6.85684 5.99933 5.89817 5.50982 5.32377 5.30938 5.27026 6.56792 4.82093 8.90778 5.57708 4.55942 6.23558 4.55615 4.29037
threshold=0 2.249904835165133 1 2 0.34963450400049062 154.50000000000003 -31.499999999999996 -0.42108527284769387 16.500000000000004 3 4 5 -0.87792756428346708 -103.49999999999999 1.2424533248940004 6 7 9.5000000000000018 0.64532420896511999 1.0000000180025095e-35 8 9 0.51972456038539816 -0.6453421371357726 10 0.55937335043785763 1.7467243928373779 11 12 13
decision_type=9 2 9 9 2 8 10 2 10 9 9 9 2 10 2 9 9 2 2 2 9 9 2 2 9 10 8 9 9 9
left_child=2 4 12 29 9 20 11 15 -8 -2 -5 18 -1 -9 -15 -4 -11 19 -7 -16 -6 22 -12 24 -18 -26 -24 -28 -25 -3
right_child=1 3 7 10 5 6 8 13 -10 16 21 -13 -14 14 17 -17 23 -19 -20 -21 -22 -23 26 28 25 -27 27 -29 -30 -31
leaf_value=-0.010659824243273735 0.0049565360184717182 0 0.014479243591818809 -0.010659824243273735 0.0050252126838576782 -0.010804353372366094 -0.010659824243273735 -0.010659824243273735 -0.010876261854171754 0.0049565360527896426 0.0082549691761147972 -0.010659824243273735 -0.010659824243273735 -0.010659824243273735 -0.010659824243273735 -0.010659824243273735 -0.00010136313050597897 -0.010659824243273735 -0.010876261854171754 -0.010659824243273735 0 0.0082213219607484341 -0.010818076081652641 5.8494311575824006e-05 -0.010659824243273735 0 -0.011012332914488339 -0.0059445089422593038 -0.010659824243273735 0
leaf_weight=21 1372 499 129 321 223 32 141 138 120 461 1948 256 225 146 168 146 384 119 70 38 1525 5503 1050 497 168 145 102 124 494 727
leaf_count=21 1372 499 129 321 223 32 141 138 120 461 1948 256 225 146 168 146 384 119 70 38 1525 5503 1050 497 168 145 102 124 494 727
internal_value=-0.000402383 -0.000142716 -0.00407895 0.000255402 -0.000837636 -0.00147148 -0.00318417 -0.00327293 -0.00559004 -0.000411531 0.000410466 -0.00143017 -0.00673437 -0.00417241 -0.00475372 -0.0014 -0.000820287 -0.00346154 -0.00364286 -0.00448544 -0.000864989 0.000468925 0.000146568 -0.00109658 -0.00174032 -0.00296285 -0.000410658 -0.00169911 -0.000654894 -0.000885113
internal_weight=17292 16162 1130 10274 5888 2367 619 884 261 3521 9048 358 246 609 471 275 2149 325 102 206 1748 8727 3224 1688 697 313 1276 226 991 1226
internal_count=17292 16162 1130 10274 5888 2367 619 884 261 3521 9048 358 246 609 471 275 2149 325 102 206 1748 8727 3224 1688 697 313 1276 226 991 1226
cat_boundaries=0 3 5 42 45 48 51 54 91 118 121 123 126 130 133
cat_threshold=548156000 3222728882 1090 537395200 61456 176 0 0 0 0 16384 131104 0 0 0 0 0 0 4624 0 2097152 0 0 59768832 4096 3623880704 3 0 0 0 1076625416 2048 0 0 0 0 0 0 0 0 0 131072 418688 2283798592 2389 2147614720 553713664 128 8193 2147483648 1 8192 1179650 64 2048 0 0 0 0 0 0 0 0 0 256 0 0 0 0 2048 4096 33554432 8388608 0 536877056 4 0 0 0 5779456 0 0 0 0 0 0 0 0 256 0 131072 2048 0 0 0 0 0 0 0 0 0 384 0 0 0 0 2048 0 0 0 2097152 4096 4 0 0 0 1060864 5242880 272802560 17432576 257 4144 4117 33554432 512 32 8913056 1073741856 67125312 16850944 2147614720 25772132 69
is_linear=0
shrinkage=0.01


Tree=4
num_leaves=31
num_cat=12
split_feature=2 20 13 27 26 2 13 3 0 5 0 13 26 16 2 26 7 26 9 13 10 2 6 12 27 26 3 12 4 0
split_gain=170.148 30.992 27.5525 26.3149 36.1006 20.517 14.5618 13.3736 11.8 10.2587 8.79383 7.27031 7.02364 17.5063 6.85684 6.06834 8.08783 5.9158 5.89817 5.50982 5.32377 4.95968 4.80799 4.19435 3.9497 8.27984 3.92041 3.8299 4.75151 3.77497
threshold=0 2.3506185409853102 0.34963450400049062 287.50000000000006 -31.499999999999996 1 -0.42108527284769387 2 3 4 5 -0.87792756428346708 -103.49999999999999 1.2424533248940004 6 63.500000000000007 0.80458511463091675 16.500000000000004 9.5000000000000018 0.64532420896511999 1.0000000180025095e-35 7 8 -0.40542197401079733 115.50000000000001 -1.0000000180025095e-35 9 -0.17552986495351994 10 11
decision_type=9 10 2 8 10 9 2 9 9 9 9 2 10 2 9 10 2 10 2 2 2 9 9 2 8 10 9 2 1 9
left_child=5 2 9 8 10 11 14 -3 15 24 19 -1 -8 -14 -7 26 27 -6 20 -5 -15 -11 29 -18 -2 -26 -4 -17 -29 -9
right_child=1 7 3 4 17 6 12 22 -10 21 -12 -13 13 18 -16 16 23 -19 -20 -21 -22 -23 -24 -25 25 -27 -28 28 -30 -31
leaf_value=-0.010553226000840996 -4.0574374962884982e-05 0 0 -0.010696309838642433 -0.010553226000840996 0.01433445115590062 -0.010553226000840996 0.0050842288929384824 0 0.0051092699713319156 -0.010553226000840996 -0.010553226000840996 -0.010553226000840996 -0.010553226000840996 -0.010553226000840996 0.00010942178601849387 -0.010889923886469447 -0.01075723513954409 -0.010553226000840996 -0.010767499235630036 -0.010553226000840996 -5.8494311575785215e-07 0.0082238385199075812 -0.0107725569180467 -0.010709357575643395 -0.010818549226907823 0 -0.010842822064363556 -0.010933064662175012 -0.00015071394431676711
leaf_weight=21 53 1162 342 32 141 129 138 1345 1328 1734 256 225 146 168 146 57 29 65 119 70 38 2709 5202 30 37 48 570 48 40 864
leaf_count=21 53 1162 342 32 141 129 138 1345 1328 1734 256 225 146 168 146 57 29 65 119 70 38 2709 5202 30 37 48 570 48 40 864
internal_value=-0.000345131 -8.14988e-05 -0.000546976 -0.00129056 -0.00323759 -0.00407895 -0.00327293 0.000330456 -0.000841244 -5.87208e-05 -0.00131844 -0.00673437 -0.00417241 -0.00475372 -0.0014 -0.00159325 -0.00316667 -0.00657282 -0.00346154 -0.00364286 -0.00448544 2.76219e-05 0.000486592 -0.00628814 -0.00264865 -0.00417647 -0.00125877 -0.00189655 -0.00320455 9.41866e-05
internal_weight=17292 16162 7589 3008 564 1130 884 8573 2444 4581 358 246 609 471 275 1116 204 206 325 102 206 4443 7411 59 138 85 912 145 88 2209
internal_count=17292 16162 7589 3008 564 1130 884 8573 2444 4581 358 246 609 471 275 1116 204 206 325 102 206 4443 7411 59 138 85 912 145 88 2209
cat_boundaries=0 3 5 42 45 47 50 53 56 61 87 88 91
cat_threshold=548156000 3222728882 1090 537395200 61456 16 0 0 0 0 16384 1179760 402653184 0 0 0 0 0 4624 0 0 1073741824 33554432 1048576 0 4160751616 1 16384 56 0 2148270088 64 0 0 0 0 0 0 0 0 0 131072 2416189440 686014630 2305 16777220 128 8193 2147483648 1 8192 1179650 64 1241728000 503317504 300 80781698 1073905666 2281754704 3423635540 16 0 0 0 0 0 0 0 0 0 0 0 0 0 0 0 0 0 0 0 0 3489662976 3 0 0 0 1090781184 1 537043073 3221749856 6356
is_linear=0
shrinkage=0.01


Tree=5
num_leaves=31
num_cat=13
split_feature=2 27 26 26 2 6 13 13 0 0 13 13 26 16 2 2 9 10 16 3 3 0 7 2 8 26 9 6 8 3
split_gain=174.285 33.595 26.991 78.337 20.517 16.2602 14.5618 14.32 12.9811 10.9897 8.7576 7.27031 7.02364 17.5063 6.85684 6.33139 5.89817 5.32377 4.39067 4.29841 4.04621 4.02536 5.6992 3.76482 3.68382 4.30678 3.53087 3.48339 3.2624 3.1201
threshold=0 123.50000000000001 -31.499999999999996 9.5000000000000018 1 2 -0.42108527284769387 0.53435276464917691 3 4 0.8977101403255705 -0.87792756428346708 -103.49999999999999 1.2424533248940004 5 6 9.5000000000000018 1.0000000180025095e-35 2.1383330595080281 7 8 9 -0.49726094768413653 10 0.40450849718747384 83.500000000000014 3.5000000000000004 11 0.3090169943749474 12
decision_type=9 8 8 8 9 9 2 2 9 9 2 2 10 2 9 9 2 2 2 9 9 9 2 9 2 10 2 9 2 9
left_child=4 5 10 -4 11 23 14 15 -9 -5 21 -1 26 -14 -6 -7 17 24 -11 -17 -10 22 -3 -2 25 -15 -8 -23 -28 -25
right_child=1 2 3 9 6 7 12 8 20 18 -12 -13 13 16 -16 19 -18 -19 -20 -21 -22 27 -24 29 -26 -27 28 -29 -30 -31
leaf_value=-0.010447693740832587 0.0081230967571346811 0.01110195064958122 -0.010700333257923888 -0.010856666111246423 0.014191106644341613 0.0082217669544512335 0.0096478292076464852 8.5617798905875445e-05 0 -0.01074536732660707 -0.010447693740832587 -0.010447693740832587 -0.010447693740832587 -0.010447693740832587 -0.010447693740832587 0.00010660409186389553 -0.010447693740832587 -0.010447693740832587 -0.010522186161864436 0 -0.01070874543503089 0.008220599495210033 -0.010870295520462725 0.014280572878100495 -0.010447693740832587 -0.010447693740832587 -0.010447693740832587 -0.00018658564784997854 -0.010447693740832587 -0.004257254850080861
leaf_weight=21 3000 44 233 124 129 1841 45 1484 534 269 81 225 146 35 146 776 119 38 696 2753 1260 557 58 565 109 24 67 814 26 1073
leaf_count=21 3000 44 233 124 129 1841 45 1484 534 269 81 225 146 35 146 776 119 38 696 2753 1260 557 58 565 109 24 67 814 26 1073
internal_value=-0.000300023 -3.32673e-05 -0.00101321 -0.00206354 -0.00407895 0.000178835 -0.00327293 -7.7616e-05 -0.000598536 -0.000937557 -0.000119691 -0.00673437 -0.00417241 -0.00475372 -0.0014 0.000240223 -0.00346154 -0.00448544 -0.000548718 -8.7595e-06 -0.00116741 5.63476e-05 -0.00176786 0.000655766 -0.00525 -0.00323729 -0.00218841 0.000203476 -0.00330108 0.000265777
internal_weight=17292 16162 2876 1322 1130 13286 884 8648 3278 1089 1554 246 609 471 275 5370 325 206 965 3529 1794 1473 102 4638 168 59 138 1371 93 1638
internal_count=17292 16162 2876 1322 1130 13286 884 8648 3278 1089 1554 246 609 471 275 5370 325 206 965 3529 1794 1473 102 4638 168 59 138 1371 93 1638
cat_boundaries=0 3 5 9 12 14 17 20 57 92 94 97 102 139
cat_threshold=548156000 3222728882 1090 537395200 61456 69735525 8655972 2742289408 590356481 2147664001 3244035648 6228 1 2818572288 8192 1179650 64 1107410944 117441536 28 8192 0 0 0 0 131072 128 131076 0 0 0 0 0 0 1879311744 0 0 201326592 33569792 0 134217728 0 36864 0 0 1075838978 2621440 2 0 0 0 0 0 0 3328 0 1048576 0 0 0 0 0 1024 192 36 0 0 448 0 0 0 0 0 0 0 0 0 2048 0 0 0 0 2159542272 7340032 0 0 0 0 0 0 0 256 1 16777216 20987920 469763584 780 40974 8192 24170688 85983233 5 0 2048 0 54525980 0 6144 0 8 0 0 62914560 0 0 0 0 0 0 15728640 32 1536 0 268435456 0 0 0 0 0 0 0 64 0 0 0 0 7340032 0 69632
is_linear=0
shrinkage=0.01


Tree=6
num_leaves=31
num_cat=11
split_feature=2 27 26 26 2 13 6 0 0 13 13 26 16 2 9 10 13 22 2 3 3 2 26 0 7 27 13 7 8 26
split_gain=179.931 38.1973 25.4583 79.2404 20.517 14.5618 11.13 10.7637 9.56351 8.61733 7.27031 7.02364 17.5063 6.85684 5.89817 5.32377 4.37086 4.38143 4.33297 4.215 4.0484 4.02789 5.30042 3.90838 5.6992 3.74814 3.75556 3.73659 3.68382 4.30678
threshold=0 123.50000000000001 -31.499999999999996 9.5000000000000018 1 -0.42108527284769387 2 3 4 0.8977101403255705 -0.87792756428346708 -103.49999999999999 1.2424533248940004 5 9.5000000000000018 1.0000000180025095e-35 0.5488226286565131 3.0764945494247393 6 7 8 9 10.500000000000002 10 -0.49726094768413653 265.50000000000006 -0.35768498937424859 1.0000000180025095e-35 0.40450849718747384 83.500000000000014
decision_type=9 8 8 8 9 2 9 9 9 2 2 10 2 9 2 2 2 8 9 9 9 9 10 9 2 8 2 2 2 10
left_child=4 6 9 -4 10 13 18 -5 20 23 -1 -7 -13 -6 15 28 25 -18 -2 -10 -8 22 -21 24 -3 27 -27 -9 29 -14
right_child=1 2 3 7 5 11 8 16 19 -11 -12 12 14 -15 -16 -17 17 -19 -20 21 -22 -23 -24 -25 -26 26 -28 -29 -30 -31
leaf_value=-0.01034321680342426 0.0080572676648622537 0.010990931143085407 -0.01059332992534465 2.4582514567202022e-05 0.014049195577898197 -0.01034321680342426 -1.6623804003733383e-06 0.0052246494152892566 0.0048080246819406725 -0.01034321680342426 -0.01034321680342426 -0.01034321680342426 -0.01034321680342426 -0.01034321680342426 -0.01034321680342426 -0.01034321680342426 0.0003011383478693561 -0.010713468526426035 0.0081327536476553802 -0.011305307366898281 0.00021804475570733617 -1.0601914874808216e-06 -0.010706034639442171 0.0028550249171527694 -0.010761592565258098 -0.01060702488592916 -0.010851466100630003 -0.01075380640090187 -0.01034321680342426 -0.01034321680342426
leaf_weight=21 2967 44 233 604 129 138 924 116 640 81 225 146 35 146 119 38 30 166 1508 24 3879 3232 112 1371 58 36 45 92 109 24
leaf_count=21 2967 44 233 604 129 138 924 116 640 81 225 146 35 146 119 38 30 166 1508 24 3879 3232 112 1371 58 36 45 92 109 24
internal_value=-0.000239301 3.16597e-05 -0.00101321 -0.00203328 -0.00407895 -0.00327293 0.000257865 -0.000900826 5.1128e-05 -0.000145431 -0.00673437 -0.00417241 -0.00475372 -0.0014 -0.00346154 -0.00448544 -0.0019899 -0.00318367 0.000663322 -0.000309109 0.000351756 -0.000450562 -0.00208219 2.91922e-05 -0.00176786 -0.00124913 -0.00307407 -0.000538461 -0.00525 -0.00323729
internal_weight=17292 16162 2876 1322 1130 884 13286 1089 8811 1554 246 609 471 275 325 206 485 196 4475 4008 4803 3368 136 1473 102 289 81 208 168 59
internal_count=17292 16162 2876 1322 1130 884 13286 1089 8811 1554 246 609 471 275 325 206 485 196 4475 4008 4803 3368 136 1473 102 289 81 208 168 59
cat_boundaries=0 3 5 9 12 15 18 21 58 86 89 91
cat_threshold=548156000 3222728882 1090 537395200 61456 69735525 8655980 2742289408 590356480 4587536 0 7621 537018769 3231773282 2260 8192 1179650 64 88096784 469763584 780 0 0 0 0 0 131072 41957376 491532 201326592 2 256 268435456 0 0 0 0 8388608 0 512 0 0 10 0 0 0 4194311 0 0 0 0 0 0 0 0 3072 0 1048576 536870944 0 0 0 67108864 0 0 0 0 0 10240 0 0 1053244 268435456 0 4 0 12582912 4096 536872960 0 24576 0 0 2158493792 0 2 16777216 536936448 32 1 16777216
is_linear=0
shrinkage=0.01


Tree=7
num_leaves=31
num_cat=12
split_feature=2 27 26 26 2 13 0 6 13 0 13 26 16 2 9 10 13 2 2 0 7 16 0 3 8 26 9 6 26 8
split_gain=182.978 41.5643 24.568 79.467 20.517 14.5618 10.7639 8.82307 8.4782 7.27231 7.27031 7.02364 17.5063 6.85684 5.89817 5.32377 5.02431 4.33297 4.02212 3.79284 5.6992 3.76942 3.68981 4.19855 3.68382 4.30678 3.53087 3.46743 3.33489 3.2624
threshold=0 123.50000000000001 -31.499999999999996 9.5000000000000018 1 -0.42108527284769387 2 3 0.8977101403255705 4 -0.87792756428346708 -103.49999999999999 1.2424533248940004 5 9.5000000000000018 1.0000000180025095e-35 0.42110087079608943 6 7 8 -0.49726094768413653 2.1383330595080281 9 10 0.40450849718747384 83.500000000000014 3.5000000000000004 11 343.00000000000006 0.3090169943749474
decision_type=9 8 8 8 9 2 9 9 2 9 2 10 2 9 2 2 2 9 9 9 2 2 9 9 2 10 2 9 10 2
left_child=4 7 8 -4 10 13 -5 17 19 16 -1 26 -13 -6 15 24 -9 -2 21 20 -3 -8 -11 -24 25 -14 -7 -21 -20 -28
right_child=1 2 3 6 5 11 18 9 -10 22 -12 12 14 -15 -16 -17 -18 -19 28 27 -22 -23 23 -25 -26 -27 29 -29 -30 -31
leaf_value=-0.010239784635390017 0.0079766949882136302 0.010881021831654554 -0.010487396626091203 -0.010649251189180817 0.013908703622119213 0.0096547830836042643 -0.010575514759583673 1.0601914874897034e-08 -0.010239784635390017 0.0080382419074380897 -0.010239784635390017 -0.010239784635390017 -0.010239784635390017 -0.010239784635390017 -0.010239784635390017 -0.010239784635390017 -0.010768425686010351 0.0080514261111788252 0.0029698848457639544 0.0082120243636311496 -0.010653976639605519 -0.010528059674003609 0.0046889023308298071 -3.0493061205971631e-07 -0.010239784635390017 -0.010239784635390017 -0.010239784635390017 -0.00017738523351194858 -0.010658260234860353 -0.010239784635390017
leaf_weight=21 2967 44 233 124 129 45 112 718 81 1925 225 146 35 146 119 38 654 1508 619 498 58 211 907 4607 109 24 67 873 23 26
leaf_count=21 2967 44 233 124 129 45 112 718 81 1925 225 146 35 146 119 38 654 1508 619 498 58 211 907 4607 109 24 67 873 23 26
internal_value=-0.000206916 6.62874e-05 -0.00102364 -0.00202572 -0.00407895 -0.00327293 -0.000891644 0.000302273 -0.000171171 0.000118014 -0.00673437 -0.00417241 -0.00475372 -0.0014 -0.00346154 -0.00448544 -0.00054848 0.000663322 -0.000507692 2.0367e-06 -0.00176786 -0.0014024 0.000241509 0.000109341 -0.00525 -0.00323729 -0.00218841 0.000145547 -4.29447e-05 -0.00330108
internal_weight=17292 16162 2876 1322 1130 884 1089 13286 1554 8811 246 609 471 275 325 206 1372 4475 965 1473 102 323 7439 5514 168 59 138 1371 642 93
internal_count=17292 16162 2876 1322 1130 884 1089 13286 1554 8811 246 609 471 275 325 206 1372 4475 965 1473 102 323 7439 5514 168 59 138 1371 642 93
cat_boundaries=0 3 5 7 11 14 17 20 22 24 27 64 69
cat_threshold=548156000 3222728882 1090 537395200 61456 1 2818572288 69735525 8655980 2742289408 590356480 4984832 155191296 4353 8192 1179650 64 88096784 469763584 780 521273344 16777732 1 16777216 128 3229618176 208 8192 4 0 61440 0 0 0 0 0 0 0 0 3221225472 3 3758491648 0 128 201326592 14336 0 0 1 32768 0 0 525826 2621440 0 0 0 0 0 0 0 0 0 4 40974 8192 24154240 85983233 5
is_linear=0
shrinkage=0.01


Tree=8
num_leaves=31
num_cat=13
split_feature=2 27 26 26 2 13 0 6 13 13 26 16 2 0 9 10 3 2 26 2 16 0 7 8 26 3 9 13 6 3
split_gain=181.56 40.3465 24.9403 79.2404 20.517 14.5618 10.6872 9.49446 8.51288 7.27031 7.02364 17.5063 6.85684 6.72376 5.89817 5.32377 4.90535 5.0723 5.28498 4.0842 4.04752 3.82159 5.6992 3.68382 4.30678 3.57472 3.53087 3.46245 3.39163 3.34619
threshold=0 123.50000000000001 -31.499999999999996 9.5000000000000018 1 -0.42108527284769387 2 3 0.8977101403255705 -0.87792756428346708 -103.49999999999999 1.2424533248940004 4 5 9.5000000000000018 1.0000000180025095e-35 6 7 10.500000000000002 8 2.1383330595080281 9 -0.49726094768413653 0.40450849718747384 83.500000000000014 10 3.5000000000000004 0.70860043010605911 11 12
decision_type=9 8 8 8 9 2 9 9 2 2 10 2 9 9 2 2 9 9 10 9 2 9 2 2 10 9 2 2 9 9
left_child=4 7 8 -4 9 12 -5 19 21 -1 26 -12 -6 25 15 23 -15 18 -18 -2 -8 22 -3 24 -13 -9 -7 -20 -23 -21
right_child=1 2 3 6 5 10 20 13 -10 -11 11 14 -14 16 -16 -17 17 -19 27 29 -22 28 -24 -25 -26 -27 -28 -29 -30 -31
leaf_value=-0.010137386789036116 0.0078815261630325751 0.010772211613338007 -0.010382522659830291 -0.010542758677289009 0.013769616585898021 0.0095582352527682213 -0.010447155729503868 -4.767864957146995e-05 -0.010137386789036116 -0.010137386789036116 -0.010137386789036116 -0.010137386789036116 -0.010137386789036116 0.00010491005609935655 -0.010137386789036116 -0.010137386789036116 -0.011192254399248447 -4.6878421393423689e-05 0.00053996317398740561 0.014058475043492296 -0.010279967429061376 0.0081299041199948373 -0.010547436873209463 -0.010137386789036116 -0.010137386789036116 0.0002143143207079712 -0.010137386789036116 -0.010610594561815321 -0.00017561138117683006 -0.0043534166171187508
leaf_weight=21 3000 44 233 124 129 45 269 848 81 225 146 35 146 927 119 38 23 2864 57 562 696 498 58 109 24 3883 93 46 873 1076
leaf_count=21 3000 44 233 124 129 45 269 848 81 225 146 35 146 927 119 38 23 2864 57 562 696 498 58 109 24 3883 93 46 873 1076
internal_value=-0.000221952 5.02103e-05 -0.00102364 -0.00203328 -0.00407895 -0.00327293 -0.000900826 0.000282704 -0.000164736 -0.00673437 -0.00417241 -0.00475372 -0.0014 8.63941e-05 -0.00346154 -0.00448544 -0.000219761 -0.000416667 -0.00230882 0.00064716 -0.000517949 8.82556e-06 -0.00176786 -0.00525 -0.00323729 0.000339802 -0.00218841 -0.00152427 0.000152788 0.000241505
internal_weight=17292 16162 2876 1322 1130 884 1089 13286 1554 246 609 471 275 8648 325 206 3917 2990 126 4638 965 1473 102 168 59 4731 138 103 1371 1638
internal_count=17292 16162 2876 1322 1130 884 1089 13286 1554 246 609 471 275 8648 325 206 3917 2990 126 4638 965 1473 102 168 59 4731 138 103 1371 1638
cat_boundaries=0 3 5 7 11 14 17 52 55 58 60 88 93 130
cat_threshold=548156000 3222728882 1090 537395200 61456 1 2818572288 69735525 8655972 2742289408 590356481 8192 1179650 64 147857 3233993444 2260 0 0 0 0 0 131072 41953280 491524 67108864 2 256 268435456 0 0 0 0 8388608 0 3146240 0 1342177280 0 0 0 0 12582926 524288 0 0 0 0 0 0 0 3328 16777216 536936448 32 20987920 469763584 780 1 16777216 536870944 0 0 0 0 0 0 0 0 0 14336 0 0 4660 268435456 0 14 0 48234496 4096 2048 0 16384 0 0 13107296 0 2 40974 8192 24154240 85983233 5 0 2048 0 54525980 0 6144 0 8 0 0 62914560 0 0 0 0 0 0 15728640 0 1792 0 268435456 0 0 0 0 0 0 0 64 0 0 0 0 7340032 0 69632
is_linear=0
shrinkage=0.01


Tree=9
num_leaves=31
num_cat=12
split_feature=2 27 26 26 2 13 6 0 13 0 13 26 16 2 9 10 2 2 0 7 3 2 26 16 8 26 9 6 26 8
split_gain=179.443 37.5388 24.88 79.694 20.517 14.5618 11.1761 10.8408 8.58245 8.2568 7.27031 7.02364 17.5063 6.85684 5.89817 5.32377 4.60218 4.11662 3.87936 5.6992 3.87538 4.19406 5.35091 3.76942 3.68382 4.30678 3.53087 3.40843 3.36274 3.2624
threshold=0 123.50000000000001 -31.499999999999996 9.5000000000000018 1 -0.42108527284769387 2 3 0.8977101403255705 4 -0.87792756428346708 -103.49999999999999 1.2424533248940004 5 9.5000000000000018 1.0000000180025095e-35 6 7 8 -0.49726094768413653 9 10 10.500000000000002 2.1383330595080281 0.40450849718747384 83.500000000000014 3.5000000000000004 11 343.00000000000006 0.3090169943749474
decision_type=9 8 8 8 9 2 9 9 2 9 2 10 2 9 2 2 9 9 9 2 9 9 10 2 2 10 2 9 10 2
left_child=4 6 8 -4 10 13 16 -5 18 -8 -1 26 -13 -6 15 24 -2 23 19 -3 -11 22 -22 -9 25 -14 -7 -20 -19 -28
right_child=1 2 3 7 5 11 9 17 -10 20 -12 12 14 -15 -16 -17 -18 28 27 -21 21 -23 -24 -25 -26 -27 29 -29 -30 -31
leaf_value=-0.010036012921145754 0.007818112776701169 0.010664489497204627 -0.01027869743323199 -0.010437331090516118 0.013631920420039041 0.0094626529002405403 0.0045752633934230662 -0.010365288054692799 -0.010036012921145754 0.00016761056909426306 -0.010036012921145754 -0.010036012921145754 -0.010036012921145754 -0.010036012921145754 -0.010036012921145754 -0.010036012921145754 0.0079811352730255261 0.0030446575546013528 0.0080481015068843975 -0.010441962504477369 -0.011080331855255962 -3.2206493807884764e-06 -0.010380230110829539 -0.010319979402972959 -0.010036012921145754 -0.010036012921145754 -0.010036012921145754 -0.00017385526736506175 -0.010448877958221135 -0.010036012921145754
leaf_weight=21 2967 44 233 124 129 45 4390 112 81 806 225 146 35 146 119 38 1508 619 466 58 24 3478 113 211 109 24 67 905 23 26
leaf_count=21 2967 44 233 124 129 45 4390 112 81 806 225 146 35 146 119 38 1508 619 466 58 24 3478 113 211 109 24 67 905 23 26
internal_value=-0.000244506 2.60945e-05 -0.00100974 -0.00201815 -0.00407895 -0.00327293 0.000250339 -0.000882461 -0.000151866 4.31924e-05 -0.00673437 -0.00417241 -0.00475372 -0.0014 -0.00346154 -0.00448544 0.000656633 -0.000497436 2.24033e-05 -0.00176786 -0.000261566 -0.000401379 -0.00206122 -0.0014024 -0.00525 -0.00323729 -0.00218841 0.00016727 -2.76073e-05 -0.00330108
internal_weight=17292 16162 2876 1322 1130 884 13286 1089 1554 8811 246 609 471 275 325 206 4475 965 1473 102 4421 3615 137 323 168 59 138 1371 642 93
internal_count=17292 16162 2876 1322 1130 884 13286 1089 1554 8811 246 609 471 275 325 206 4475 965 1473 102 4421 3615 137 323 168 59 138 1371 642 93
cat_boundaries=0 3 5 9 11 14 17 20 22 24 61 64 69
cat_threshold=548156000 3222728882 1090 537395200 61456 69735525 8655980 2742289408 590356480 1 2818572288 147857 3230782048 2260 8192 1179650 64 88096784 469763584 780 521273344 16777732 1 16777216 0 0 0 0 0 131072 41953280 491532 67108864 2 256 268435456 0 0 0 0 8388608 0 2097664 0 0 0 0 0 0 29360134 524288 0 0 0 0 0 0 0 3072 0 1048576 16777216 536936448 32 40974 8192 24170624 18874369 5
is_linear=0
shrinkage=0.01


Tree=10
num_leaves=31
num_cat=13
split_feature=2 27 26 26 2 13 6 13 0 13 26 16 2 0 9 3 9 2 10 2 26 0 26 0 7 0 8 26 9 6
split_gain=177.716 36.6714 35.2316 68.6847 20.517 14.5618 11.8869 8.51288 8.21228 7.27031 7.02364 17.5063 6.85684 6.78967 6.85979 6.3157 5.89817 5.33426 5.32377 5.3125 4.13595 3.90003 4.26878 3.82159 5.6992 3.73281 3.68382 4.30678 3.53087 3.39163
threshold=0 152.50000000000003 -31.499999999999996 9.5000000000000018 1 -0.42108527284769387 2 0.8977101403255705 3 -0.87792756428346708 -103.49999999999999 1.2424533248940004 4 5 2.5000000000000004 6 9.5000000000000018 7 1.0000000180025095e-35 8 304.50000000000006 9 94.500000000000014 10 -0.49726094768413653 11 0.40450849718747384 83.500000000000014 3.5000000000000004 12
decision_type=9 8 8 8 9 2 9 2 9 2 10 2 9 9 2 9 2 9 2 9 10 9 10 9 2 9 2 10 2 9
left_child=4 6 7 -4 9 12 17 23 -8 -1 28 -12 -6 20 -15 -10 18 -2 26 -17 -5 22 -19 24 -3 -16 27 -13 -7 -25
right_child=1 2 3 13 5 10 8 -9 15 -11 11 16 -14 14 25 19 -18 21 -20 -21 -22 -23 -24 29 -26 -27 -28 -29 -30 -31
leaf_value=-0.0099356527919342973 0.0077402111349189999 0.010557844602232582 -0.010175910458899668 0.0028338034898934216 0.01349560121583865 0.0093680263712381338 0.0078628584250425935 -0.0099356527919342973 0.0081124448796265312 -0.0099356527919342973 -0.0099356527919342973 -0.0099356527919342973 -0.0099356527919342973 -0.01026366654533388 -0.010338880347201554 -0.010327065809154269 -0.0099356527919342973 -0.010708488415804209 -0.0099356527919342973 -2.3371189422456419e-05 -0.010587721603953453 0.0079198940562480915 -0.010815370678920336 0.0079681240637260453 -0.010337542879432596 -0.01026580887682663 -0.0099356527919342973 -0.0099356527919342973 -0.0099356527919342973 -0.00017211671469141043
leaf_weight=21 3100 44 233 346 129 45 2502 81 543 225 146 35 146 89 102 104 119 98 38 5885 23 1378 23 498 58 182 109 24 93 873
leaf_count=21 3100 44 233 346 129 45 2502 81 543 225 146 35 146 89 102 104 119 98 38 5885 23 1378 23 498 58 182 109 24 93 873
internal_value=-0.000263012 6.30723e-06 -0.00109964 -0.00258974 -0.00407895 -0.00327293 0.000211472 -0.000164736 4.42319e-07 -0.00673437 -0.00417241 -0.00475372 -0.0014 -0.00110243 -0.00202872 -0.000186182 -0.00346154 0.000624647 -0.00448544 -0.000280213 -0.000108179 0.000131875 -0.00151908 8.82556e-06 -0.00176786 -0.00132394 -0.00525 -0.00323729 -0.00218841 0.000152788
internal_weight=17292 16162 2529 975 1130 884 13633 1554 9034 246 609 471 275 742 373 6532 325 4599 206 5989 369 1499 121 1473 102 284 168 59 138 1371
internal_count=17292 16162 2529 975 1130 884 13633 1554 9034 246 609 471 275 742 373 6532 325 4599 206 5989 369 1499 121 1473 102 284 168 59 138 1371
cat_boundaries=0 3 5 9 12 15 18 55 58 60 63 65 67 72
cat_threshold=548156000 3222728882 1090 537395200 61456 69735525 8655980 594805760 590618624 131456 3221225536 2256 8192 1179650 64 6422544 1073741824 4421 8192 4 0 61440 0 0 0 458752 524288 0 0 268435456 1073741824 0 3758490368 0 134217728 201326592 512 0 0 0 32768 0 0 0 524288 0 0 0 0 0 0 0 3072 0 6 155205648 469763584 796 16777216 536936448 134217728 1744830464 1 1 16777216 32769 2818572288 40974 8192 24154240 85983233 5
is_linear=0
shrinkage=0.01


Tree=11
num_leaves=31
num_cat=13
split_feature=2 27 26 26 2 13 6 13 0 13 26 16 2 0 3 9 9 2 10 2 26 0 7 0 8 26 3 9 6 8
split_gain=177.931 36.8357 34.7483 68.9825 20.517 14.5618 12.0935 8.4782 8.09166 7.27031 7.02364 17.5063 6.85684 6.60567 6.43499 6.38385 5.89817 5.40493 5.32377 5.04179 4.13595 3.79284 5.6992 3.73281 3.68382 4.30678 3.59283 3.53087 3.44428 3.2624
threshold=0 152.50000000000003 -31.499999999999996 9.5000000000000018 1 -0.42108527284769387 2 0.8977101403255705 3 -0.87792756428346708 -103.49999999999999 1.2424533248940004 4 5 6 2.5000000000000004 9.5000000000000018 7 1.0000000180025095e-35 8 304.50000000000006 9 -0.49726094768413653 10 0.40450849718747384 83.500000000000014 11 3.5000000000000004 12 0.3090169943749474
decision_type=9 8 8 8 9 2 9 2 9 2 10 2 9 9 9 2 2 9 2 9 10 9 2 9 2 10 9 2 9 2
left_child=4 6 7 -4 9 12 19 21 -8 -1 27 -12 -6 20 -10 -15 18 -16 24 -2 -5 22 -3 -17 25 -13 -19 -7 -23 -29
right_child=1 2 3 13 5 10 8 -9 14 -11 11 16 -14 15 17 23 -18 26 -20 -21 -22 28 -24 -25 -26 -27 -28 29 -30 -31
leaf_value=-0.0098362962640149536 0.0076628090235698098 0.010452266156210257 -0.010074151354310673 0.0028054654549944879 0.013360645203680264 0.0092743461075257532 0.0078341952360779302 -0.0098362962640149536 0.010095741478403366 -0.0098362962640149536 -0.0098362962640149536 -0.0098362962640149536 -0.0098362962640149536 -0.010161029879880542 -0.010223795151062727 -0.010235491543729538 -0.0098362962640149536 5.724799085226939e-05 -0.0098362962640149536 0.0076785836285782486 -0.010481844387913919 0.0079935238623059721 -0.01023416745063827 -0.010163150788058364 -0.0098362962640149536 -0.0098362962640149536 -4.614371879145818e-05 -0.0098362962640149536 -0.00017039554754449737 -0.0098362962640149536
leaf_weight=21 3100 44 233 346 129 45 2183 81 581 225 146 35 146 89 104 102 119 1147 38 1499 23 468 58 182 109 24 5019 67 903 26
leaf_count=21 3100 44 233 346 129 45 2183 81 581 225 146 35 146 89 104 102 119 1147 38 1499 23 468 58 182 109 24 5019 67 903 26
internal_value=-0.000260699 8.78065e-06 -0.00109964 -0.00257949 -0.00407895 -0.00327293 0.000214406 -0.000171171 1.54802e-06 -0.00673437 -0.00417241 -0.00475372 -0.0014 -0.00108895 -0.000167468 -0.00200261 -0.00346154 -0.000261146 -0.00448544 0.000631156 -0.000108179 2.0367e-06 -0.00176786 -0.00132394 -0.00525 -0.00323729 -0.000220855 -0.00218841 0.000145547 -0.00330108
internal_weight=17292 16162 2529 975 1130 884 13633 1554 9034 246 609 471 275 742 6851 373 325 6270 206 4599 369 1473 102 284 168 59 6166 138 1371 93
internal_count=17292 16162 2529 975 1130 884 13633 1554 9034 246 609 471 275 742 6851 373 325 6270 206 4599 369 1473 102 284 168 59 6166 138 1371 93
cat_boundaries=0 3 5 9 12 15 18 55 57 60 62 64 90 95
cat_threshold=548156000 3222728882 1090 537395200 61456 69735525 8655980 594805760 590618624 384 3221225536 2256 8192 1179650 64 6422544 1073741824 4421 8192 4 0 61440 0 0 0 458752 524288 0 0 268435456 3221225472 0 3825601280 0 134217728 201326592 512 0 0 0 32768 0 0 0 0 0 0 0 0 0 0 0 3072 0 6 16777216 536936448 155205648 469763584 796 1 16777216 32769 2818572288 0 0 0 0 0 131072 41953408 201326592 201326592 2 1408 0 0 3 1152 0 8388747 268435456 0 0 2281701376 2 0 0 0 4194310 43022 10240 24154240 18874369 5
is_linear=0
shrinkage=0.01


Tree=12
num_leaves=31
num_cat=13
split_feature=2 27 26 26 2 13 6 13 0 13 26 16 2 0 9 3 9 2 2 10 26 0 26 0 7 0 8 26 9 6
split_gain=178.579 37.5959 35.0449 68.6847 20.517 14.5618 11.1801 8.4782 7.28236 7.27031 7.02364 17.5063 6.85684 6.41081 6.38385 5.95288 5.89817 5.46637 5.33426 5.32377 4.08154 3.90003 4.26878 3.79284 5.6992 3.73281 3.68382 4.30678 3.53087 3.44428
threshold=0 152.50000000000003 -31.499999999999996 9.5000000000000018 1 -0.42108527284769387 2 0.8977101403255705 3 -0.87792756428346708 -103.49999999999999 1.2424533248940004 4 5 2.5000000000000004 6 9.5000000000000018 7 8 1.0000000180025095e-35 304.50000000000006 9 94.500000000000014 10 -0.49726094768413653 11 0.40450849718747384 83.500000000000014 3.5000000000000004 12
decision_type=9 8 8 8 9 2 9 2 9 2 10 2 9 9 2 9 2 9 9 2 10 9 10 9 2 9 2 10 2 9
left_child=4 6 7 -4 9 12 18 23 -8 -1 28 -12 -6 20 -15 -10 19 -17 -2 26 -5 22 -20 24 -3 -16 27 -13 -7 -25
right_child=1 2 3 13 5 10 8 -9 15 -11 11 16 -14 14 25 17 -18 -19 21 -21 -22 -23 -24 29 -26 -27 -28 -29 -30 -31
leaf_value=-0.0097379333013748043 0.0075861809333341128 0.010347743494648154 -0.009973409840767564 0.0027774108004445432 0.013227038751643461 0.0091816026464504961 0.0077056374776474533 -0.0097379333013748043 0.010280827692503687 -0.0097379333013748043 -0.0097379333013748043 -0.0097379333013748043 -0.0097379333013748043 -0.010059419581081737 -0.010133136628292244 -0.0101215571995521 -0.0097379333013748043 -2.4164841165158199e-05 -0.01067818936793195 -0.0097379333013748043 -0.010377025944034779 0.0077639092793998282 -0.010784002808416916 0.0079135886236829118 -0.010131825776131887 -0.01006151928017778 -0.0097379333013748043 -0.0097379333013748043 -0.0097379333013748043 -0.00016869159206905237
leaf_weight=21 3100 44 233 346 129 45 2521 81 556 225 146 35 146 89 102 104 119 5853 98 38 23 1378 23 468 58 182 109 24 93 903
leaf_count=21 3100 44 233 346 129 45 2521 81 556 225 146 35 146 89 102 104 119 5853 98 38 23 1378 23 468 58 182 109 24 93 903
internal_value=-0.000253759 1.62009e-05 -0.0011036 -0.00258974 -0.00407895 -0.00327293 0.000223942 -0.000171171 1.92393e-05 -0.00673437 -0.00417241 -0.00475372 -0.0014 -0.00110243 -0.00200261 -0.000157443 -0.00346154 -0.000250209 0.000624647 -0.00448544 -0.000134565 0.000131875 -0.00151908 2.0367e-06 -0.00176786 -0.00132394 -0.00525 -0.00323729 -0.00218841 0.000145547
internal_weight=17292 16162 2529 975 1130 884 13633 1554 9034 246 609 471 275 742 373 6513 325 5957 4599 206 369 1499 121 1473 102 284 168 59 138 1371
internal_count=17292 16162 2529 975 1130 884 13633 1554 9034 246 609 471 275 742 373 6513 325 5957 4599 206 369 1499 121 1473 102 284 168 59 138 1371
cat_boundaries=0 3 5 9 12 15 18 55 57 60 63 65 67 72
cat_threshold=548156000 3222728882 1090 537395200 61456 69735525 8655980 594805760 590618624 131456 3221487680 2256 8192 1179650 64 6422544 1073741824 4421 8192 4 0 61440 0 0 0 458752 524288 0 0 268435456 3221225472 0 3758490368 0 134217728 201326592 512 0 0 0 32768 0 0 0 0 0 0 0 0 0 0 0 3072 0 6 16777216 536936448 155205648 469763584 796 134217728 1744830464 1 1 16777216 32769 2818572288 43022 10240 24154240 18874369 5
is_linear=0
shrinkage=0.01


Tree=13
num_leaves=31
num_cat=12
split_feature=2 27 26 26 2 13 6 13 2 13 26 16 2 0 9 9 3 0 20 10 13 2 12 26 0 0 7 0 8 26
split_gain=178.579 37.5959 35.0449 68.6847 20.517 14.5618 11.5463 8.4782 7.28614 7.27031 7.02364 17.5063 6.85684 6.41081 6.38385 5.89817 5.73617 5.61127 5.57917 5.32377 5.0492 5.04179 4.2221 4.08154 4.06946 3.79284 5.6992 3.73281 3.68382 4.30678
threshold=0 152.50000000000003 -31.499999999999996 9.5000000000000018 1 -0.42108527284769387 2 0.8977101403255705 3 -0.87792756428346708 -103.49999999999999 1.2424533248940004 4 5 2.5000000000000004 9.5000000000000018 6 7 1.3836696349585424 1.0000000180025095e-35 0.5488226286565131 8 0.81900730237416519 304.50000000000006 9 10 -0.49726094768413653 11 0.40450849718747384 83.500000000000014
decision_type=9 8 8 8 9 2 9 2 9 2 10 2 9 9 2 2 9 9 8 2 2 9 2 10 9 9 2 9 2 10
left_child=4 6 7 -4 9 12 21 25 -8 -1 -7 -12 -6 23 -15 19 -10 18 -18 28 -20 -2 24 -5 -22 26 -3 -16 29 -13
right_child=1 2 3 13 5 10 8 -9 16 -11 11 15 -14 14 27 -17 17 -19 20 -21 22 -23 -24 -25 -26 -27 -28 -29 -30 -31
leaf_value=-0.0096405539683610559 0.0075103191240007703 0.010244266059701673 -0.009873675742359889 0.0027496366924400972 0.013094768364127025 -0.0096405539683610559 0.0077583231807906465 -0.0096405539683610559 0.0082272240621386068 -0.0096405539683610559 -0.0096405539683610559 -0.0096405539683610559 -0.0096405539683610559 -0.0099588253852709203 -0.010031805262009322 -0.0096405539683610559 -0.010815610462286337 -6.4617877969318323e-07 -0.00027941363917405359 -0.0096405539683610559 -0.010453445981833986 0.0075241586994984691 -0.010740103606259148 -0.010273255684594432 -0.010601942645508729 0.0023438230090861373 -0.010030507518370568 -0.0099609040873760036 -0.0096405539683610559 -0.0096405539683610559
leaf_weight=21 3100 44 233 346 129 138 2247 81 565 225 146 35 146 89 102 119 20 4635 885 38 211 1499 35 23 436 1371 58 182 109 24
leaf_count=21 3100 44 233 346 129 138 2247 81 565 225 146 35 146 89 102 119 20 4635 885 38 211 1499 35 23 436 1371 58 182 109 24
internal_value=-0.000253759 1.62009e-05 -0.0011036 -0.00258974 -0.00407895 -0.00327293 0.000223942 -0.000171171 1.59222e-05 -0.00673437 -0.00417241 -0.00475372 -0.0014 -0.00110243 -0.00200261 -0.00346154 -0.000147565 -0.000235558 -0.000747026 -0.00448544 -0.000684748 0.000631156 -0.00133138 -0.000134565 -0.00114838 2.0367e-06 -0.00176786 -0.00132394 -0.00525 -0.00323729
internal_weight=17292 16162 2529 975 1130 884 13633 1554 9034 246 609 471 275 742 373 325 6787 6222 1587 206 1567 4599 682 369 647 1473 102 284 168 59
internal_count=17292 16162 2529 975 1130 884 13633 1554 9034 246 609 471 275 742 373 325 6787 6222 1587 206 1567 4599 682 369 647 1473 102 284 168 59
cat_boundaries=0 3 5 9 12 15 18 53 56 59 62 64 66
cat_threshold=548156000 3222728882 1090 537395200 61456 69735525 8655980 594805760 590618624 180224 100664320 284 8192 1179650 64 6422544 1073741824 4421 8192 0 0 61440 0 0 0 458752 524288 0 1280 268435456 0 0 3825602304 0 134217728 201326592 0 0 0 0 32768 0 0 1536 0 0 0 0 0 0 0 0 3072 2152484865 1233129472 1281 155205648 469763584 796 266240 142606336 257 1 16777216 32769 2818572288
is_linear=0
shrinkage=0.01


Tree=14
num_leaves=31
num_cat=9
split_feature=2 0 27 26 26 26 26 2 6 9 27 13 7 0 16 3 9 7 20 13 13 0 7 13 6 7 6 26 27 8
split_gain=179.202 43.2664 29.4679 27.0776 54.6567 15.1475 31.0427 12.6754 11.4693 8.50267 7.47841 7.84395 7.39581 6.94191 5.94851 5.72165 5.45664 4.27784 4.23932 4.16724 3.9408 3.7664 6.51637 3.42746 3.31587 3.26332 2.96776 2.94433 2.7962 2.72001
threshold=0 1 152.50000000000003 -31.499999999999996 14.500000000000002 -57.999999999999993 1.5000000000000002 2 3 11.500000000000002 74.500000000000014 -0.87792756428346708 0.90854096003979634 4 2.1383330595080281 5 1.5000000000000002 -0.9085409600397959 1.8141392368406133 -0.51235243343851777 0.84750952922804634 6 -0.49726094768413653 0.90515966073569365 7 1.0000000180025095e-35 8 -570.49999999999989 11.500000000000002 0.73907380036690307
decision_type=9 9 8 10 10 8 8 9 9 2 8 2 2 9 2 9 2 2 10 2 2 9 2 2 9 2 9 8 10 2
left_child=2 10 8 9 -5 20 19 12 -1 21 -2 -12 28 26 23 -15 -9 -13 -14 -7 -3 22 -4 -6 -23 29 -10 -26 -8 -21
right_child=1 5 3 4 14 6 7 16 13 -11 11 17 18 15 -16 -17 -18 -19 -20 25 -22 24 -24 -25 27 -27 -28 -29 -30 -31
leaf_value=0.0073852692630531026 -0.0095441484286774448 -0.0095441484286774448 0.010172319695968114 -0.0098350880301841734 -0.0098815359514361507 -0.0095441484286774448 -0.010351979432346474 -0.010201778352625198 0.010092219285594402 -0.0095441484286774448 -0.0095441484286774448 -0.0095441484286774448 -0.010707454357663475 0.0082916223877472824 -0.009847110439579046 -2.4615643169866453e-05 -0.0095441484286774448 -0.0095441484286774448 -0.0096637707782795176 -0.0096278258784222425 -0.0095441484286774448 0.0077059334681380352 -0.009930202443186863 -0.0098346018777462317 0.0050233980449153103 -0.0095578767652270448 -0.00033509577506451771 -0.01088423187929897 0.00076069070041316763 -0.0095441484286774448
leaf_weight=4470 78 336 44 170 146 33 49 39 1715 47 28 29 36 549 446 6026 390 227 26 48 38 460 59 34 360 98 507 446 302 56
leaf_count=4470 78 336 44 170 146 33 49 39 1715 47 28 29 36 549 446 6026 390 227 26 48 38 460 59 34 360 98 507 446 302 56
internal_value=-0.000247398 -0.00321284 0.000101943 -0.000966546 -0.00244221 -0.00240178 -0.00302043 -0.00212352 0.000280169 -0.000137006 -0.00631183 -0.00723944 -0.00079669 7.00579e-05 -0.00107668 -9.3394e-05 -0.00330524 -0.00778906 -0.004 -0.00623404 -0.000684492 6.57418e-06 -0.00174336 -0.00261111 0.000161442 -0.00677228 0.000551971 -0.00022549 -0.000253561 -0.00553846
internal_weight=17292 1813 15479 2212 796 1451 1077 842 13267 1416 362 284 413 8797 626 6575 429 256 62 235 374 1369 103 180 1266 202 2222 806 351 104
internal_count=17292 1813 15479 2212 796 1451 1077 842 13267 1416 362 284 413 8797 626 6575 429 256 62 235 374 1369 103 180 1266 202 2222 806 351 104
cat_boundaries=0 3 6 9 13 16 53 55 60 65
cat_threshold=1599325456 503844361 956 8454465 100663296 4 2149580928 553910276 64 69735525 8655972 561775616 589570112 2147483792 3229618240 2256 8192 4 0 61440 0 0 0 458752 524288 0 256 0 0 0 3825600768 0 134217728 201326592 0 0 0 0 32768 0 0 512 0 0 0 0 0 0 0 0 2100224 32 6 1 16777216 43022 10240 1160777728 18874369 5 10376 10376 1140850832 1145044993 5
is_linear=0
shrinkage=0.01


Tree=15
num_leaves=31
num_cat=11
split_feature=2 27 26 27 26 2 13 6 2 26 0 13 26 16 2 9 9 10 13 3 0 2 0 3 8 26 16 9 13 19
split_gain=179.66 36.4659 26.1841 46.101 33.1276 20.517 14.5618 11.5894 11.3804 9.39136 7.61838 7.27031 7.02364 17.5063 6.85684 6.454 5.89817 5.32377 5.07174 5.04355 5.00832 4.33297 3.98945 3.77742 3.68382 4.30678 3.66984 3.53087 3.36326 4.15109
threshold=0 123.50000000000001 -142.49999999999997 381.50000000000006 -1.0000000180025095e-35 1 -0.42108527284769387 2 3 14.500000000000002 4 -0.87792756428346708 -103.49999999999999 1.2424533248940004 5 11.500000000000002 9.5000000000000018 1.0000000180025095e-35 0.1839915361961289 6 7 8 9 10 0.40450849718747384 83.500000000000014 4.6249247525354482 3.5000000000000004 0.49001051533419898 1.0000000180025095e-35
decision_type=9 8 8 8 10 9 2 9 9 10 9 2 10 2 9 2 2 2 2 9 9 9 9 9 2 10 2 2 2 2
left_child=5 7 15 8 18 11 14 21 26 -6 -9 -1 27 -14 -7 22 17 24 -5 -12 -21 -2 -3 -22 25 -15 -4 -8 -25 -30
right_child=1 2 3 4 9 6 12 10 -10 -11 19 -13 13 16 -16 -17 -18 -19 -20 20 23 -23 -24 28 -26 -27 -28 -29 29 -31
leaf_value=-0.009448706944390671 0.0073610837541453903 -0.0098309004187549943 -0.010030069292928179 0.00022141252711501723 -0.0096885479967529237 0.013059262164772529 0.0092864806294487359 0.0075160772161681705 -0.0029886093791700935 -0.0099894585090063298 0.0048346902525526585 -0.009448706944390671 -0.009448706944390671 -0.0094485696610251742 -0.009448706944390671 -0.009448706944390671 -0.009448706944390671 -0.009448706944390671 -0.010177864826597147 -3.9239068205653354e-07 5.9287511956898075e-05 0.0075186057710274938 0.0047827356505395716 -4.8883759678979289e-05 -0.009448706944390671 -0.009448706944390671 -0.011054492734968637 -0.009448706944390671 -0.010663637400808368 -2.0550131327074123e-06
leaf_weight=21 2967 114 180 112 212 129 45 2274 762 73 750 225 146 35 146 55 119 38 116 3707 549 1508 1222 820 109 24 30 93 508 203
leaf_count=21 2967 114 180 112 212 129 45 2274 762 73 750 225 146 35 146 55 119 38 116 3707 549 1508 1222 820 109 24 30 93 508 203
internal_value=-0.000242193 2.85679e-05 -0.00099235 -0.00191582 -0.00434113 -0.00407895 -0.00327293 0.000249586 -0.000635802 -0.00661403 3.86578e-05 -0.00673437 -0.00417241 -0.00475372 -0.0014 -6.47013e-06 -0.00346154 -0.00448544 -0.0015 -0.000134871 -0.000235122 0.000663322 0.000131737 -0.000626794 -0.00525 -0.00323729 -0.00263636 -0.00218841 -0.000881895 -0.001391
internal_weight=17292 16162 2876 1485 513 1130 884 13286 972 285 8811 246 609 471 275 1391 325 206 228 6537 5787 4475 1336 2080 168 59 210 138 1531 711
internal_count=17292 16162 2876 1485 513 1130 884 13286 972 285 8811 246 609 471 275 1391 325 206 228 6537 5787 4475 1336 2080 168 59 210 138 1531 711
cat_boundaries=0 3 5 9 11 14 17 54 56 59 61 87
cat_threshold=548156000 3222728882 1090 537395200 61456 69735525 8655980 2742289408 590356480 336592912 83952128 16768 3221225536 2256 8192 1179650 64 0 4 0 0 0 0 0 458756 0 0 0 268435456 3221225472 3 3758493440 0 130 201326592 512 0 2147483648 0 32768 0 0 0 0 0 0 0 0 0 0 0 3072 0 4 2952962064 15503010 88096784 469763584 780 1 1090519040 128 0 2147483648 0 0 16908288 262272 16809992 201392128 0 0 536870912 0 1572864 128 0 0 805306368 256 0 134217728 1 28672 0 0 2152726528
is_linear=0
shrinkage=0.01


Tree=16
num_leaves=31
num_cat=11
split_feature=2 27 26 26 2 13 6 0 13 0 13 26 16 2 9 10 2 16 2 26 20 16 0 7 8 26 3 6 9 26
split_gain=178.579 38.0833 24.3978 79.467 20.517 14.5618 11.6365 10.9458 8.4436 7.83398 7.27031 7.02364 17.5063 6.85684 5.89817 5.32377 4.60218 4.55972 4.14963 7.69207 4.09998 3.83846 3.76419 5.6992 3.68382 4.30678 3.61169 3.54404 3.53087 3.4632
threshold=0 123.50000000000001 -31.499999999999996 9.5000000000000018 1 -0.42108527284769387 2 3 0.8977101403255705 4 -0.87792756428346708 -103.49999999999999 1.2424533248940004 5 9.5000000000000018 1.0000000180025095e-35 6 2.3502401828962087 7 11.500000000000002 5.8607389606734399 4.6249247525354482 8 -0.49726094768413653 0.40450849718747384 83.500000000000014 9 10 3.5000000000000004 343.00000000000006
decision_type=9 8 8 8 9 2 9 9 2 9 2 10 2 9 2 2 9 2 9 10 8 2 9 2 2 10 9 9 2 10
left_child=4 6 8 -4 10 13 16 29 22 -8 -1 28 -13 -6 15 24 -2 -9 19 20 -11 -19 23 -3 25 -14 -20 -24 -7 -5
right_child=1 2 3 7 5 11 9 17 -10 18 -12 12 14 -15 -16 -17 -18 21 26 -21 -22 -23 27 -25 -26 -27 -28 -29 -30 -31
leaf_value=-0.009354219874946763 0.0072874729166039365 0.010138409206332522 -0.0095797026249414639 0.0051719226043698821 0.012928669543124804 0.0091936158231542484 0.0073677594094154822 -0.0098143169743805467 -0.009354219874946763 -0.010109124199167971 -0.009354219874946763 -0.009354219874946763 -0.0093540839644149238 -0.009354219874946763 -0.009354219874946763 -0.009354219874946763 0.0074434197133172184 -0.0097384355955232524 -0.00021436550736939557 -0.0096851717049530727 -0.010965062608789383 -0.010677947783985854 0.007669532046460854 -0.0097325914145674451 -0.009354219874946763 -0.009354219874946763 -4.1903218220173957e-07 -0.00022406660127620589 -0.009354219874946763 -0.0097288250129481044
leaf_weight=21 2967 44 233 581 129 45 2825 207 81 29 225 146 35 146 119 38 1508 220 590 213 27 58 498 58 109 24 5127 873 93 23
leaf_count=21 2967 44 233 581 129 45 2825 207 81 29 225 146 35 146 119 38 1508 220 590 213 27 58 498 58 109 24 5127 873 93 23
internal_value=-0.000253759 1.62009e-05 -0.00102712 -0.00202572 -0.00407895 -0.00327293 0.000242059 -0.000891644 -0.000177606 3.07222e-05 -0.00673437 -0.00417241 -0.00475372 -0.0014 -0.00346154 -0.00448544 0.000656633 -0.0019899 -0.000174116 -0.00136559 -0.00471429 -0.00119424 -4.75217e-06 -0.00176786 -0.00525 -0.00323729 -0.000115767 0.000138306 -0.00218841 2.28013e-05
internal_weight=17292 16162 2876 1322 1130 884 13286 1089 1554 8811 246 609 471 275 325 206 4475 485 5986 269 56 278 1473 102 168 59 5717 1371 138 604
internal_count=17292 16162 2876 1322 1130 884 13286 1089 1554 8811 246 609 471 275 325 206 4475 485 5986 269 56 278 1473 102 168 59 5717 1371 138 604
cat_boundaries=0 3 5 9 12 15 18 21 24 26 53 58
cat_threshold=548156000 3222728882 1090 537395200 61456 69735525 8655980 2742289408 590356480 4587536 0 7621 16769 3221227584 2256 8192 1179650 64 88096784 469763584 780 2164260864 536936448 32 1 16777216 262304 0 2147483648 0 0 16384 1703984 48 16777216 0 512 0 0 60 0 0 0 0 8388608 0 0 8 0 0 0 1073741824 2623488 40974 8192 24154240 85983233 5
is_linear=0
shrinkage=0.01


Tree=17
num_leaves=31
num_cat=12
split_feature=2 27 26 26 2 13 6 0 13 0 13 26 16 2 9 3 10 2 2 12 26 2 16 0 7 8 26 6 9 26
split_gain=178.255 37.8128 24.0296 79.694 20.517 14.5618 11.8915 10.8408 8.40906 7.82122 7.27031 7.02364 17.5063 6.85684 5.89817 5.44529 5.32377 4.60218 4.5764 6.77533 4.50667 4.11662 3.76942 3.73562 5.6992 3.68382 4.30678 3.5907 3.53087 3.36274
threshold=0 123.50000000000001 -31.499999999999996 9.5000000000000018 1 -0.42108527284769387 2 3 0.8977101403255705 4 -0.87792756428346708 -103.49999999999999 1.2424533248940004 5 9.5000000000000018 6 1.0000000180025095e-35 7 8 -0.61188073503922691 60.500000000000007 9 2.1383330595080281 10 -0.49726094768413653 0.40450849718747384 83.500000000000014 11 3.5000000000000004 343.00000000000006
decision_type=9 8 8 8 9 2 9 9 2 9 2 10 2 9 2 9 2 9 9 2 10 9 2 9 2 2 10 9 2 10
left_child=4 6 8 -4 10 13 17 -5 23 -8 -1 28 -13 -6 16 -11 25 -2 19 -17 -21 22 -9 24 -3 26 -14 -25 -7 -23
right_child=1 2 3 7 5 11 9 21 -10 15 -12 12 14 -15 -16 18 -18 -19 -20 20 -22 29 -24 27 -26 -27 -28 -29 -30 -31
leaf_value=-0.0092606776761972962 0.0072145981874378977 0.010037025114269196 -0.0094839055986920481 -0.0099158359137594167 0.012799382847693557 0.0091016796649227051 0.0074468122362538738 -0.0096743408405831153 -0.0092606776761972962 0.010010331359372628 -0.0092606776761972962 -0.0092606776761972962 -0.0092605431247707731 -0.0092606776761972962 -0.0092606776761972962 0.0042980935725631777 -0.0092606776761972962 0.0073689855161840458 -4.1044300777738269e-05 -0.01024307381888623 -0.0095306115139030898 0.0035057254264252526 -0.0095984324105037808 0.0076094324957038367 -0.0096352655004217705 -0.0092606776761972962 -0.0092606776761972962 -0.00019107228029122147 -0.0092606776761972962 -0.0096315367628186238
leaf_weight=21 2967 44 233 124 129 45 2114 112 81 562 225 146 35 146 119 88 38 1508 5947 60 40 619 211 468 58 109 24 903 93 23
leaf_count=21 2967 44 233 124 129 45 2114 112 81 562 225 146 35 146 119 88 38 1508 5947 60 40 619 211 468 58 109 24 903 93 23
internal_value=-0.000257229 1.24908e-05 -0.00102712 -0.00201815 -0.00407895 -0.00327293 0.000237543 -0.000882461 -0.000184041 2.39202e-05 -0.00673437 -0.00417241 -0.00475372 -0.0014 -0.00346154 -0.000143581 -0.00448544 0.000656633 -0.000230268 -0.00172727 -0.0036 -0.000497436 -0.0014024 -1.1541e-05 -0.00176786 -0.00525 -0.00323729 0.000131064 -0.00218841 -2.76073e-05
internal_weight=17292 16162 2876 1322 1130 884 13286 1089 1554 8811 246 609 471 275 325 6697 206 4475 6135 188 100 965 323 1473 102 168 59 1371 138 642
internal_count=17292 16162 2876 1322 1130 884 13286 1089 1554 8811 246 609 471 275 325 6697 206 4475 6135 188 100 965 323 1473 102 168 59 1371 138 642
cat_boundaries=0 3 5 9 11 14 17 54 57 59 61 63 68
cat_threshold=548156000 3222728882 1090 537395200 61456 69735525 8655980 2742289408 590356480 1 2818572288 384 3221225536 2256 8192 1179650 64 8192 4 0 61440 0 0 0 458752 0 0 0 268435456 3221225472 1 3758492416 0 0 201326592 512 0 0 0 32768 0 0 0 0 0 0 0 0 0 0 0 3072 0 4 88096784 469763584 780 2164260864 536936448 521273344 16777732 1 16777216 43022 10240 24154240 18874369 5
is_linear=0
shrinkage=0.01


Tree=18
num_leaves=31
num_cat=11
split_feature=2 27 26 26 2 13 6 0 13 0 13 26 16 3 2 9 10 2 2 12 26 16 0 7 8 26 9 6 8 27
split_gain=179.065 38.2362 24.568 79.467 20.517 14.5618 11.3008 10.7639 8.4782 7.3829 7.27031 7.02364 17.5063 6.94238 6.85684 5.89817 5.32377 4.60218 4.36309 6.77533 4.50667 4.12844 3.79284 5.6992 3.68382 4.30678 3.53087 3.44428 3.2624 3.00444
threshold=0 123.50000000000001 -31.499999999999996 9.5000000000000018 1 -0.42108527284769387 2 3 0.8977101403255705 4 -0.87792756428346708 -103.49999999999999 1.2424533248940004 5 6 9.5000000000000018 1.0000000180025095e-35 7 8 -0.61188073503922691 60.500000000000007 2.1383330595080281 9 -0.49726094768413653 0.40450849718747384 83.500000000000014 3.5000000000000004 10 0.3090169943749474 74.500000000000014
decision_type=9 8 8 8 9 2 9 9 2 9 2 10 2 9 9 2 2 9 9 2 10 2 9 2 2 10 2 9 2 8
left_child=4 6 8 -4 10 14 17 -5 22 -8 -1 26 -13 -11 -6 16 24 -2 19 -15 -21 -9 23 -3 25 -14 -7 -24 -28 -12
right_child=1 2 3 7 5 11 9 21 -10 13 29 12 15 18 -16 -17 -18 -19 -20 20 -22 -23 27 -25 -26 -27 28 -29 -30 -31
leaf_value=-0.0091680708994353217 0.007142452205563519 0.0099366548631265039 -0.0093890665427051288 -0.0098166775546218218 0.012671389019216621 0.0090106628682734766 0.0050204033983799355 -0.0095947196897339364 -0.0091680708994353217 0.004048682849070678 -0.0091680708994353217 -0.0091680708994353217 -0.0091679376935230664 0.0042551126368375455 -0.0091680708994353217 -0.0091680708994353217 -0.0091680708994353217 0.0072952956610222051 -4.4763608304820847e-05 -0.010140643080697367 -0.009435305398764058 -0.0093201721947415144 0.0075333381707467974 -0.009538912845417552 -0.0091680708994353217 -0.0091680708994353217 -0.0091680708994353217 -0.00018916155748831007 -0.0091680708994353217 -0.0091680708994353217
leaf_weight=21 2967 44 233 124 129 45 2367 269 81 892 45 146 35 88 146 119 38 1508 5364 60 40 696 468 58 109 24 67 903 26 180
leaf_count=21 2967 44 233 124 129 45 2367 269 81 892 45 146 35 88 146 119 38 1508 5364 60 40 696 468 58 109 24 67 903 26 180
internal_value=-0.000248554 2.17661e-05 -0.00102364 -0.00202572 -0.00407895 -0.00327293 0.000248081 -0.000891644 -0.000171171 3.97914e-05 -0.00673437 -0.00417241 -0.00475372 -0.00013573 -0.0014 -0.00346154 -0.00448544 0.000656633 -0.00026753 -0.00172727 -0.0036 -0.000507692 2.0367e-06 -0.00176786 -0.00525 -0.00323729 -0.00218841 0.000145547 -0.00330108 -0.00753333
internal_weight=17292 16162 2876 1322 1130 884 13286 1089 1554 8811 246 609 471 6444 275 325 206 4475 5552 188 100 965 1473 102 168 59 138 1371 93 225
internal_count=17292 16162 2876 1322 1130 884 13286 1089 1554 8811 246 609 471 6444 275 325 206 4475 5552 188 100 965 1473 102 168 59 138 1371 93 225
cat_boundaries=0 3 5 9 11 14 51 54 57 59 61 66
cat_threshold=548156000 3222728882 1090 537395200 61456 69735525 8655980 2742289408 590356480 1 2818572288 384 3221749824 2256 8192 4 0 61440 0 0 0 458752 0 0 0 268435456 3221225472 1 3758492416 0 0 201326592 50332160 0 402653184 0 32768 0 0 0 0 0 0 0 0 0 0 0 3072 0 4 8192 1179650 64 88096784 469763584 780 2164260864 536936448 1 16777216 43022 10240 24154240 18874369 5
is_linear=0
shrinkage=0.01


Tree=19
num_leaves=31
num_cat=12
split_feature=2 27 26 26 2 13 6 13 2 13 26 16 2 0 9 3 9 2 2 10 26 0 26 0 7 0 8 26 20 9
split_gain=177.877 36.7946 34.7483 68.9825 20.517 14.5618 11.7606 8.4782 7.65026 7.27031 7.02364 17.5063 6.85684 6.60567 6.38385 6.37716 5.89817 5.39957 5.33426 5.32377 4.13595 3.90003 4.26878 3.79284 5.6992 3.73281 3.68382 4.30678 3.65488 3.53087
threshold=0 152.50000000000003 -31.499999999999996 9.5000000000000018 1 -0.42108527284769387 2 0.8977101403255705 3 -0.87792756428346708 -103.49999999999999 1.2424533248940004 4 5 2.5000000000000004 6 9.5000000000000018 7 8 1.0000000180025095e-35 304.50000000000006 9 94.500000000000014 10 -0.49726094768413653 11 0.40450849718747384 83.500000000000014 1.8141392368406133 3.5000000000000004
decision_type=9 8 8 8 9 2 9 2 9 2 10 2 9 9 2 9 2 9 9 2 10 9 10 9 2 9 2 10 8 2
left_child=4 6 7 -4 9 12 18 23 28 -1 29 -12 -6 20 -15 -10 19 -17 -2 26 -5 22 -20 24 -3 -16 27 -13 -8 -7
right_child=1 2 3 13 5 10 8 -9 15 -11 11 16 -14 14 25 17 -18 -19 21 -21 -22 -23 -24 -25 -26 -27 -28 -29 -30 -31
leaf_value=-0.0090763901904409704 0.0070713071694927269 0.0098372883144952385 -0.0092951758772780776 0.0029812951980378428 0.012544675129024454 0.008920556239590741 -0.011603065418656083 -0.0090763901904409704 0.0041119743816061347 -0.0090763901904409704 -0.0090763901904409704 -0.0090762583165878361 -0.0090763901904409704 -0.0094155359901300934 -0.0094742679408029856 -0.0096595801698778835 -0.0090763901904409704 -4.484979504020048e-05 -0.010950519034867257 -0.0090763901904409704 -0.0098802385260750563 0.0072452577502854784 -0.011012620887709077 0.0019673759229107807 -0.0094435237169633764 -0.0094482980413271439 -0.0090763901904409704 -0.0090763901904409704 0.0074136331915237719 -0.0090763901904409704
leaf_weight=21 3100 44 233 346 129 45 22 81 635 225 146 35 146 89 102 104 119 6048 98 38 23 1378 23 1371 58 182 109 24 2225 93
leaf_count=21 3100 44 233 346 129 45 22 81 635 225 146 35 146 89 102 104 119 6048 98 38 23 1378 23 1371 58 182 109 24 2225 93
internal_value=-0.000261277 8.16229e-06 -0.00109964 -0.00257949 -0.00407895 -0.00327293 0.000213673 -0.000171171 3.75944e-06 -0.00673437 -0.00417241 -0.00475372 -0.0014 -0.00108895 -0.00200261 -0.000163749 -0.00346154 -0.000262577 0.000624647 -0.00448544 -0.000108179 0.000131875 -0.00151908 2.0367e-06 -0.00176786 -0.00132394 -0.00525 -0.00323729 0.000508197 -0.00218841
internal_weight=17292 16162 2529 975 1130 884 13633 1554 9034 246 609 471 275 742 373 6787 325 6152 4599 206 369 1499 121 1473 102 284 168 59 2247 138
internal_count=17292 16162 2529 975 1130 884 13633 1554 9034 246 609 471 275 742 373 6787 325 6152 4599 206 369 1499 121 1473 102 284 168 59 2247 138
cat_boundaries=0 3 5 9 12 15 18 53 55 58 61 63 65
cat_threshold=548156000 3222728882 1090 537395200 61456 69735525 8655980 594805760 590618624 180224 100664320 284 8192 1179650 64 6422544 1073741824 4421 8192 0 0 61440 0 0 0 458752 524288 0 0 268435456 0 0 3825601280 0 134217728 201326592 1048576 0 0 8 32768 0 0 16778760 0 0 0 0 0 0 0 0 3072 16777216 536936448 155205648 469763584 796 134217728 1744830464 1 1 16777216 32769 2818572288
is_linear=0
shrinkage=0.01


Tree=20
num_leaves=31
num_cat=12
split_feature=2 27 26 26 2 13 6 0 13 0 13 26 16 2 3 9 10 0 2 13 2 16 0 7 8 26 6 9 20 26
split_gain=177.662 37.3193 24.0296 79.694 20.517 14.5618 12.366 10.8408 8.40906 8.19409 7.27031 7.02364 17.5063 6.85684 6.05833 5.89817 5.32377 4.98435 4.60218 4.60189 4.11662 3.76942 3.73562 5.6992 3.68382 4.30678 3.5907 3.53087 3.45637 3.36274
threshold=0 123.50000000000001 -31.499999999999996 9.5000000000000018 1 -0.42108527284769387 2 3 0.8977101403255705 4 -0.87792756428346708 -103.49999999999999 1.2424533248940004 5 6 9.5000000000000018 1.0000000180025095e-35 7 8 0.45971571054515326 9 2.1383330595080281 10 -0.49726094768413653 0.40450849718747384 83.500000000000014 11 3.5000000000000004 1.2688874965901169 343.00000000000006
decision_type=9 8 8 8 9 2 9 9 2 9 2 10 2 9 9 2 2 9 9 2 9 2 9 2 2 10 9 2 8 10
left_child=4 6 8 -4 10 13 18 -5 22 -8 -1 27 -13 -6 -11 16 24 -16 -2 28 21 -9 23 -3 25 -14 -24 -7 -19 -22
right_child=1 2 3 7 5 11 9 20 -10 14 -12 12 15 -15 17 -17 -18 19 -20 -21 29 -23 26 -25 -26 -27 -28 -29 -30 -31
leaf_value=-0.008985626288536561 0.0070003146118129567 0.0097389154313502861 -0.009202224118505296 -0.0096237680996675741 0.012419228377734211 0.0088313506771948349 0.0072480037479922986 -0.0093871672548666713 -0.008985626288536561 0.0078206179810276517 -0.008985626288536561 -0.008985626288536561 -0.0089854957334219564 -0.008985626288536561 -1.3990401774210958e-05 -0.008985626288536561 -0.008985626288536561 -0.010298753592494278 0.0071498901269091289 -0.010317791690073293 0.0036502517844329706 -0.0093150910044475076 0.0074383310298102214 -0.0093490884797937431 -0.008985626288536561 -0.008985626288536561 -0.00020694370114253589 -0.008985626288536561 -4.6629400831669089e-05 -0.0093432172879822726
leaf_weight=21 2967 44 233 124 129 45 2114 112 81 657 225 146 35 146 3870 119 38 21 1508 1004 619 211 468 58 109 24 903 93 1145 23
leaf_count=21 2967 44 233 124 129 45 2114 112 81 657 225 146 35 146 3870 119 38 21 1508 1004 619 211 468 58 109 24 903 93 1145 23
internal_value=-0.00026359 5.68888e-06 -0.00102712 -0.00201815 -0.00407895 -0.00327293 0.000229264 -0.000882461 -0.000184041 1.145e-05 -0.00673437 -0.00417241 -0.00475372 -0.0014 -0.000159982 -0.00346154 -0.00448544 -0.000259504 0.000656633 -0.000642202 -0.000497436 -0.0014024 -1.1541e-05 -0.00176786 -0.00525 -0.00323729 0.000131064 -0.00218841 -0.000217839 -2.76073e-05
internal_weight=17292 16162 2876 1322 1130 884 13286 1089 1554 8811 246 609 471 275 6697 325 206 6040 4475 2170 965 323 1473 102 168 59 1371 138 1166 642
internal_count=17292 16162 2876 1322 1130 884 13286 1089 1554 8811 246 609 471 275 6697 325 206 6040 4475 2170 965 323 1473 102 168 59 1371 138 1166 642
cat_boundaries=0 3 5 9 11 14 17 54 56 59 61 63 68
cat_threshold=548156000 3222728882 1090 537395200 61456 69735525 8655980 2742289408 590356480 1 2818572288 384 3221225536 2256 8192 1179650 64 8192 4 0 61440 0 0 0 458752 0 0 1024 268435456 3221225472 3 3758493440 0 0 201326592 512 0 0 0 32768 0 0 0 1048576 0 0 0 0 0 0 0 3072 0 4 805478416 16164518 88096784 469763584 780 521273344 16777732 1 16777216 43022 10240 24154240 18874369 5
is_linear=0
shrinkage=0.01


Tree=21
num_leaves=31
num_cat=9
split_feature=2 0 27 26 26 26 26 2 6 9 27 13 7 0 9 9 3 7 20 2 13 13 13 3 12 7 27 8 12 3
split_gain=180.812 43.2664 30.0409 26.3267 55.2043 15.1475 31.0427 12.6754 10.4097 8.47398 7.47841 7.84395 7.39581 6.48113 5.58642 5.45664 5.38872 4.27784 4.23932 4.20324 4.16724 3.9408 3.81349 3.69806 4.68997 3.26332 3.03488 3.026 2.82967 3.16095
threshold=0 1 152.50000000000003 -31.499999999999996 14.500000000000002 -57.999999999999993 1.5000000000000002 2 3 11.500000000000002 74.500000000000014 -0.87792756428346708 0.90854096003979634 4 2.5000000000000004 1.5000000000000002 5 -0.9085409600397959 1.8141392368406133 6 -0.51235243343851777 0.84750952922804634 0.72064045540576316 7 -0.79877197597864613 1.0000000180025095e-35 287.50000000000006 -0.40450849718747361 0.98443735097190643 8
decision_type=9 9 8 10 10 8 8 9 9 2 8 2 2 9 2 2 9 2 10 9 2 2 2 9 2 2 8 2 2 9
left_child=2 10 8 9 -5 21 20 12 -1 19 -2 -12 -8 -10 27 -9 -15 -13 -14 22 -7 -3 -4 24 -18 -22 -16 -6 29 -25
right_child=1 5 3 4 14 6 7 15 13 -11 11 17 18 16 26 -17 23 -19 -20 -21 25 -23 -24 28 -26 -27 -28 -29 -30 -31
leaf_value=0.0069309244991553652 -0.0088957700256511937 -0.0088957700256511937 -0.0092555975949958052 -0.0091703509222935825 -0.0093304054687930217 -0.0088957700256511937 -0.0089988183589850088 -0.0096544769273497529 0.0050909857734732153 -0.0088957700256511937 -0.0088957700256511937 -0.0088957700256511937 -0.010195766056569336 0.0087276777979276767 -0.0090853519999776807 -0.0088957700256511937 -0.00012045458853279369 -0.0088957700256511937 -0.0089600340918437604 0.0048655895376138441 -0.0088957700256511937 -0.0088957700256511937 -0.0090551900907730239 6.2609484434129214e-05 -9.7378834368677151e-05 -0.0088956407760877373 -0.0095431460588619073 -0.0091505009995145638 -0.00018019712857759274 -4.6224335738398613e-05
leaf_weight=4316 78 336 184 170 55 33 351 39 2352 47 28 29 36 554 396 390 131 227 26 1165 104 38 20 1757 422 98 91 84 131 3604
leaf_count=4316 78 336 184 170 55 33 351 39 2352 47 28 29 36 554 396 390 131 227 26 1165 104 38 20 1757 422 98 91 84 131 3604
internal_value=-0.000234097 -0.00321284 0.000116793 -0.000962025 -0.00241709 -0.00240178 -0.00302043 -0.00212352 0.000296751 -0.000144068 -0.00631183 -0.00723944 -0.00079669 0.000101663 -0.00104473 -0.00330524 -5.91617e-05 -0.00778906 -0.004 -7.30423e-07 -0.00623404 -0.000684492 -0.00128972 -0.00014616 -0.000918295 -0.00677228 -0.000540041 -0.00281295 -6.68847e-05 -3.15239e-05
internal_weight=17292 1813 15479 2212 796 1451 1077 842 13267 1416 362 284 413 8951 626 429 6599 256 62 1369 235 374 204 6045 553 202 487 139 5492 5361
internal_count=17292 1813 15479 2212 796 1451 1077 842 13267 1416 362 284 413 8951 626 429 6599 256 62 1369 235 374 204 6045 553 202 487 139 5492 5361
cat_boundaries=0 3 6 9 13 16 53 55 82 117
cat_threshold=1599325456 503844361 956 8454465 100663296 4 2149580928 553910276 64 69735525 8655972 561775616 589570048 1073741968 3221753920 2256 8192 4 0 61440 0 0 0 458752 524288 0 256 0 0 0 3825600512 0 134217728 469762048 0 0 0 0 32768 0 0 512 0 0 0 0 0 0 0 0 2100224 32 6 16400 134220288 262272 0 0 0 0 16384 1703984 29360176 16777216 0 512 0 0 32 0 0 0 0 59768832 0 0 8 0 0 0 1073741832 1572864 0 0 0 0 0 65536 33554560 12 0 0 1152 0 3221225472 3 268437376 0 139 0 0 0 2013267968 0 0 0 0 4456454 0 0 0 0 0 0 0 0 256
is_linear=0
shrinkage=0.01


Tree=22
num_leaves=31
num_cat=10
split_feature=2 0 27 26 26 26 26 6 2 9 27 13 3 13 0 9 12 3 7 0 7 16 23 12 6 13 7 2 8 8
split_gain=182.233 41.0108 28.3054 27.5221 55.3441 18.3404 32.422 11.3796 11.3778 8.61192 7.47841 7.84395 6.47642 5.76583 5.52564 5.45664 4.88387 4.75468 4.27784 3.88558 6.51637 3.78089 5.07055 3.64656 3.64052 3.59625 3.26215 3.19839 3.13843 3.00095
threshold=0 1 152.50000000000003 -31.499999999999996 14.500000000000002 -31.499999999999996 1.5000000000000002 2 3 11.500000000000002 74.500000000000014 -0.87792756428346708 4 0.51972456038539816 5 1.5000000000000002 0.7266007961912001 6 -0.9085409600397959 7 -0.49726094768413653 3.8606743063089755 0.22015183797468538 -0.84753307444029546 8 0.75546532993267157 0.90854096003979634 9 -0.3090169943749474 0.10452846326765323
decision_type=9 9 8 10 10 8 8 9 9 2 8 2 9 2 9 2 2 9 2 9 2 2 10 2 9 2 2 9 2 2
left_child=2 10 7 9 -5 24 28 27 26 19 -2 -12 23 -6 -14 -10 21 -16 -13 20 -4 22 -15 -9 -3 -26 -8 -1 -7 -28
right_child=1 5 3 4 13 6 8 12 15 -11 11 18 14 16 17 -17 -18 -19 -20 -21 -22 -23 -24 -25 25 -27 29 -29 -30 -31
leaf_value=0.0068570193634216606 -0.0088068123253946824 0.0076301864303698142 0.0097645785498501995 -0.0090786474130706476 -0.0089944984799779047 -0.008806684368326859 -0.0088310414982099537 -0.0001256191075509505 -0.0095579321580762568 -0.0088068123253946824 -0.0088068123253946824 -0.0088068123253946824 0.005445662786343528 -0.0096909381086622576 0.0037708846511041783 -0.0088068123253946824 -0.0090897552614824777 -4.2771563777205334e-05 -0.0088068123253946824 0.00049135001987987486 -0.0091630416190458478 0.010020934996371226 0.0064461862846246342 -4.6777720338629582e-05 -0.0088068123253946824 -0.0088068123253946824 -0.0094529151182373115 0.0070808366019996117 -0.0088068123253946824 -0.0097174654613609978
leaf_weight=2898 78 121 44 173 337 64 268 193 39 47 28 29 2325 128 735 390 37 5005 227 1264 59 73 39 566 228 39 37 1640 152 29
leaf_count=2898 78 121 44 173 337 64 268 193 39 47 28 29 2325 128 735 390 37 5005 227 1264 59 73 39 566 228 39 37 1640 152 29
internal_value=-0.000236988 -0.00330707 0.000106145 -0.000944571 -0.00244346 -0.00247131 -0.00321859 0.0002793 -0.00225033 -0.000110325 -0.00631183 -0.00723944 6.95042e-05 -0.00103583 0.000152941 -0.00330524 -0.00210469 -1.3913e-05 -0.00778906 3.43819e-05 -0.00174336 -0.00158333 -0.00241317 -0.000807542 -0.000649484 -0.00127437 -0.000773256 0.000685576 -0.00663889 -0.00278788
internal_weight=17292 1729 15563 2201 787 1367 979 13362 763 1414 362 284 8824 614 8065 429 277 5740 256 1367 103 240 167 759 388 267 334 4538 216 66
internal_count=17292 1729 15563 2201 787 1367 979 13362 763 1414 362 284 8824 614 8065 429 277 5740 256 1367 103 240 167 759 388 267 334 4538 216 66
cat_boundaries=0 3 6 10 13 50 53 90 92 96 99
cat_threshold=3746809104 503844361 828 8454465 100663296 4 69735533 8655980 561251328 593764352 2097280 553910276 192 262304 0 0 0 0 16384 131104 566231040 0 0 0 0 0 4128 0 2097152 0 0 51380224 4096 2147483648 8 0 0 0 1073741832 1573120 4096 0 0 0 0 0 0 0 0 512 1610613136 3221226048 6352 8192 4 0 61440 0 0 0 458752 524288 0 256 0 1073741824 0 3825601280 0 134217728 201326592 0 0 1073741824 2 32768 0 0 0 0 0 0 0 0 0 0 0 2097152 32 6 1 16777216 128 0 69206016 69206016 20987920 469763584 268
is_linear=0
shrinkage=0.01


Tree=23
num_leaves=31
num_cat=10
split_feature=2 0 27 26 26 26 26 6 2 9 27 13 0 13 9 3 12 7 0 7 16 23 6 13 3 12 7 2 8 8
split_gain=181.41 41.0108 27.8915 27.5221 55.3441 18.3404 32.422 11.8886 11.3778 8.61192 7.47841 7.84395 6.7222 5.76583 5.45664 5.37828 4.88387 4.27784 3.88558 6.51637 3.78089 5.07055 3.64052 3.59625 3.47809 3.46014 3.26215 3.19839 3.13843 3.00095
threshold=0 1 152.50000000000003 -31.499999999999996 14.500000000000002 -31.499999999999996 1.5000000000000002 2 3 11.500000000000002 74.500000000000014 -0.87792756428346708 4 0.51972456038539816 1.5000000000000002 5 0.7266007961912001 -0.9085409600397959 6 -0.49726094768413653 3.8606743063089755 0.22015183797468538 7 0.75546532993267157 8 -0.79877197597864613 0.90854096003979634 9 -0.3090169943749474 0.10452846326765323
decision_type=9 9 8 10 10 8 8 9 9 2 8 2 9 2 2 9 2 2 9 2 2 10 9 2 9 2 2 9 2 2
left_child=2 10 7 9 -5 22 28 27 26 18 -2 -12 -9 -6 -10 -14 20 -13 19 -4 21 -15 -3 -24 25 -17 -8 -1 -7 -28
right_child=1 5 3 4 13 6 8 12 14 -11 11 17 15 16 -16 24 -18 -19 -20 -21 -22 -23 23 -25 -26 -27 29 -29 -30 -31
leaf_value=0.0067884491697874439 -0.0087187442021407352 0.0075538845660661161 0.0096669327643516979 -0.0089878609389399417 -0.008904553495178125 -0.0087186175246435904 -0.0087427310832278535 0.0069245823006116279 -0.0094623528364954929 -0.0087187442021407352 -0.0087187442021407352 -0.0087187442021407352 0.0080644199711091165 -0.0095940287275756361 -0.0087187442021407352 -6.8717154698736324e-05 -0.0089988577088676545 -0.0087187442021407352 0.00048643651968107717 -0.0090714112028553902 0.0099207256464075144 0.0063817244217783875 -0.0087187442021407352 -0.0087187442021407352 -4.0083122823678923e-05 -6.8419357321132247e-05 -0.0093583859670549382 0.0070100282359796149 -0.0087187442021407352 -0.0096202908067473877
leaf_weight=2898 78 121 44 173 337 64 268 2275 39 47 28 29 543 128 390 205 37 227 1264 59 73 39 228 39 5172 629 37 1640 152 29
leaf_count=2898 78 121 44 173 337 64 268 2275 39 47 28 29 543 128 390 205 37 227 1264 59 73 39 228 39 5172 629 37 1640 152 29
internal_value=-0.000243928 -0.00330707 9.84396e-05 -0.000944571 -0.00244346 -0.00247131 -0.00321859 0.000270319 -0.00225033 -0.000110325 -0.00631183 -0.00723944 5.59203e-05 -0.00103583 -0.00330524 -0.000106876 -0.00210469 -0.00778906 3.43819e-05 -0.00174336 -0.00158333 -0.00241317 -0.000649484 -0.00127437 -0.000193484 -0.000789099 -0.000773256 0.000685576 -0.00663889 -0.00278788
internal_weight=17292 1729 15563 2201 787 1367 979 13362 763 1414 362 284 8824 614 429 6549 277 256 1367 103 240 167 388 267 6006 834 334 4538 216 66
internal_count=17292 1729 15563 2201 787 1367 979 13362 763 1414 362 284 8824 614 429 6549 277 256 1367 103 240 167 388 267 6006 834 334 4538 216 66
cat_boundaries=0 3 6 10 13 16 53 55 59 86 89
cat_threshold=3746809104 503844361 828 8454465 100663296 4 69735533 8655980 561251328 593764352 2097280 553910276 192 400 3225419840 2256 8192 4 0 61440 0 0 0 458752 524288 0 256 0 3221225472 0 3825601280 0 134217728 201326592 0 0 0 0 32768 0 0 0 0 0 0 0 0 0 0 0 2097152 32 6 1 16777216 128 0 69206016 69206016 262304 0 2147483648 0 0 16384 1703984 29360176 16777216 0 512 0 0 44 0 0 0 0 63963136 0 2147483648 8 0 0 0 1073741832 1572864 20987920 469763584 268
is_linear=0
shrinkage=0.01


Tree=24
num_leaves=31
num_cat=11
split_feature=2 27 26 27 26 2 13 6 2 26 0 13 26 16 2 9 9 10 13 3 2 26 0 2 8 26 16 13 9 3
split_gain=178.741 36.2117 25.7913 46.101 33.1276 20.517 14.5618 12.3313 11.3804 9.39136 8.37064 7.27031 7.02364 17.5063 6.85684 6.39884 5.89817 5.32377 5.07174 5.00405 4.95873 5.22641 3.92162 3.84349 3.68382 4.30678 3.66984 3.61115 3.53087 3.4933
threshold=0 123.50000000000001 -142.49999999999997 381.50000000000006 -1.0000000180025095e-35 1 -0.42108527284769387 2 3 14.500000000000002 4 -0.87792756428346708 -103.49999999999999 1.2424533248940004 5 11.500000000000002 9.5000000000000018 1.0000000180025095e-35 0.1839915361961289 6 7 10.500000000000002 8 9 0.40450849718747384 83.500000000000014 4.6249247525354482 0.70860043010605911 3.5000000000000004 10
decision_type=9 8 8 8 10 9 2 9 9 10 9 2 10 2 9 2 2 2 2 9 9 10 9 9 2 10 2 2 2 9
left_child=5 7 15 8 18 11 14 23 26 -6 -9 -1 28 -14 -7 22 17 24 -5 -12 21 -21 -3 -2 25 -15 -4 -23 -8 -22
right_child=1 2 3 4 9 6 12 10 -10 -11 19 -13 13 16 -16 -17 -18 -19 -20 20 29 27 -24 -25 -26 -27 -28 -29 -30 -31
leaf_value=-0.0086315567601193272 0.0067091456600722648 -0.0089806970908268367 -0.0091939293797719656 0.00023849601925788122 -0.0088579485036323086 0.012559249359488734 0.0090081580221789935 0.0039845864311753932 -0.0022948873122827017 -0.0092299744994709786 1.889747592945801e-05 -0.0086315567601193272 -0.0086315567601193272 -0.0086314313493971537 -0.0086315567601193272 -0.0086315567601193272 -0.0086315567601193272 -0.0086315567601193272 -0.0096862753780171135 -0.010852348321428552 2.5049281558746967e-06 0.0016042429830946093 0.0047908920895281875 0.0068716843367031379 -0.0086315567601193272 -0.0086315567601193272 -0.010820082516117175 -0.0094585156610549788 -0.0086315567601193272 -9.204802189634392e-05
leaf_weight=21 3000 114 180 112 212 129 45 3835 762 73 1179 225 146 35 146 55 119 38 116 23 1371 57 1222 1638 109 24 30 45 93 2138
leaf_count=21 3000 114 180 112 212 129 45 3835 762 73 1179 225 146 35 146 55 119 38 116 23 1371 57 1222 1638 109 24 30 45 93 2138
internal_value=-0.000252024 1.80559e-05 -0.000999305 -0.00191582 -0.00434113 -0.00407895 -0.00327293 0.000238296 -0.000635802 -0.00661403 1.47841e-05 -0.00673437 -0.00417241 -0.00475372 -0.0014 -2.08483e-05 -0.00346154 -0.00448544 -0.0015 -0.0002627 -0.000446213 -0.00233333 0.000116767 0.000653614 -0.00525 -0.00323729 -0.00263636 -0.00154902 -0.00218841 -0.000372549
internal_weight=17292 16162 2876 1485 513 1130 884 13286 972 285 8648 246 609 471 275 1391 325 206 228 4813 3634 125 1336 4638 168 59 210 102 138 3509
internal_count=17292 16162 2876 1485 513 1130 884 13286 972 285 8648 246 609 471 275 1391 325 206 228 4813 3634 125 1336 4638 168 59 210 102 138 3509
cat_boundaries=0 3 5 9 11 14 17 54 57 59 62 99
cat_threshold=548156000 3222728882 1090 537395200 61456 69735525 8655972 2742289408 590356481 336592912 83952128 147857 3221307970 2260 8192 1179650 64 0 0 0 0 0 131072 58734592 491524 201326592 2 256 268435456 0 0 0 0 25165824 0 512 0 536872960 2 0 0 0 18874374 0 0 0 0 0 0 0 0 3328 0 1572864 16777216 536936448 32 1 1090519040 20987920 469763584 780 0 131072 0 0 0 16777216 67387520 486539264 2147549184 5 192 0 1073741824 0 0 0 71303168 33554432 2097408 0 402653184 0 0 0 0 5505024 0 16 0 0 0 0 0 0 0 0 393216
is_linear=0
shrinkage=0.01


Tree=25
num_leaves=31
num_cat=11
split_feature=2 27 26 26 2 13 6 0 0 13 13 26 16 2 9 10 16 2 16 2 26 7 3 12 0 7 8 26 6 9
split_gain=176.962 37.2406 24.0592 79.467 20.517 14.5618 12.9845 10.9458 8.71941 8.3746 7.27031 7.02364 17.5063 6.85684 5.89817 5.32377 4.55972 4.0842 3.83846 3.71081 7.92491 5.1791 4.15844 8.25816 3.70715 5.6992 3.68382 4.30678 3.665 3.53087
threshold=0 123.50000000000001 -31.499999999999996 9.5000000000000018 1 -0.42108527284769387 2 3 4 0.8977101403255705 -0.87792756428346708 -103.49999999999999 1.2424533248940004 5 9.5000000000000018 1.0000000180025095e-35 2.3502401828962087 6 4.6249247525354482 7 1.0000000180025095e-35 -0.97278920583171324 8 -0.80900950266415272 9 -0.49726094768413653 0.40450849718747384 83.500000000000014 10 3.5000000000000004
decision_type=9 8 8 8 9 2 9 9 9 2 2 10 2 9 2 2 2 9 2 9 10 2 9 2 9 2 2 10 9 2
left_child=4 6 9 -4 10 13 17 -5 -8 24 -1 29 -13 -6 15 26 -9 -2 -18 22 -21 -22 23 -10 25 -3 27 -14 -26 -7
right_child=1 2 3 7 5 11 8 16 19 -11 -12 12 14 -15 -16 -17 18 -19 -20 20 21 -23 -24 -25 28 -27 -28 -29 -30 -31
leaf_value=-0.0085452411925181354 0.0066420542034715414 0.0096295741107529902 -0.0087506202134972379 0.00026564604829621303 0.012433656865893846 0.0089180764419572022 0.0049912631132364282 -0.0091315735413932449 -7.3770118602937266e-05 -0.0085452411925181354 -0.0085452411925181354 -0.0085452411925181354 -0.0085451170359031828 -0.0085452411925181354 -0.0085452411925181354 -0.0085452411925181354 -0.0089349064443428293 0.0068029674933361064 -0.010460309878265519 -0.010743824838214266 -0.0097865594515079372 -0.0086096154947363779 -3.5549747099804061e-05 -3.6869035182958322e-05 0.0072576050378450919 -0.0088908901199185684 -0.0085452411925181354 -0.0085452411925181354 -0.00026290231915535148 -0.0085452411925181354
leaf_weight=21 3000 44 233 604 129 45 3255 207 178 81 225 146 35 146 119 38 220 1638 58 36 24 352 4308 495 468 58 109 24 903 93
leaf_count=21 3000 44 233 604 129 45 3255 207 178 81 225 146 35 146 119 38 220 1638 58 36 24 352 4308 495 468 58 109 24 903 93
internal_value=-0.000271108 -2.3497e-06 -0.00103408 -0.00202572 -0.00407895 -0.00327293 0.000220985 -0.000891644 -8.31597e-06 -0.000190476 -0.00673437 -0.00417241 -0.00475372 -0.0014 -0.00346154 -0.00448544 -0.0019899 0.00064716 -0.00119424 -0.000254858 -0.0011564 -0.000755319 -0.000178121 -0.000903367 -1.83299e-05 -0.00176786 -0.00525 -0.00323729 0.000123823 -0.00218841
internal_weight=17292 16162 2876 1322 1130 884 13286 1089 8648 1554 246 609 471 275 325 206 485 4638 278 5393 412 376 4981 673 1473 102 168 59 1371 138
internal_count=17292 16162 2876 1322 1130 884 13286 1089 8648 1554 246 609 471 275 325 206 485 4638 278 5393 412 376 4981 673 1473 102 168 59 1371 138
cat_boundaries=0 3 5 9 12 15 18 21 24 51 53 58
cat_threshold=548156000 3222728882 1090 537395200 61456 69735525 8655972 2742289408 590356481 4587536 0 7621 147857 3221226048 2260 8192 1179650 64 20987920 469763584 780 301989888 268438024 512 262272 0 0 0 0 16384 1703984 48 16777216 0 0 0 0 0 0 0 0 0 51380224 0 2147483648 9 0 0 0 1073741832 1572864 1 16777216 43022 10240 24154240 18874369 5
is_linear=0
shrinkage=0.01


Tree=26
num_leaves=31
num_cat=13
split_feature=2 27 26 26 2 13 6 0 0 13 13 26 16 2 9 10 3 2 3 9 2 11 4 2 8 16 0 7 8 26
split_gain=177.393 37.0961 24.0296 79.694 20.517 14.5618 12.5848 10.8408 8.84522 8.40906 7.27031 7.02364 17.5063 6.85684 5.89817 5.32377 5.21949 4.60218 4.32363 4.25577 4.65307 14.7499 10.7984 4.11662 3.83992 3.76942 3.73562 5.6992 3.68382 4.30678
threshold=0 123.50000000000001 -31.499999999999996 9.5000000000000018 1 -0.42108527284769387 2 3 4 0.8977101403255705 -0.87792756428346708 -103.49999999999999 1.2424533248940004 5 9.5000000000000018 1.0000000180025095e-35 6 7 8 10.500000000000002 9 0.87837969732492682 10 11 -0.66913060635885813 2.1383330595080281 12 -0.49726094768413653 0.40450849718747384 83.500000000000014
decision_type=9 8 8 8 9 2 9 9 9 2 2 10 2 9 2 2 9 9 9 2 9 2 1 9 2 2 9 2 2 10
left_child=4 6 9 -4 10 13 17 -5 19 26 -1 -7 -13 -6 15 28 -10 -2 -18 -8 21 24 -23 25 -21 -9 27 -3 29 -14
right_child=1 2 3 7 5 11 8 23 16 -11 -12 12 14 -15 -16 -17 18 -19 -20 20 -22 22 -24 -25 -26 -27 -28 -29 -30 -31
leaf_value=-0.0084597887805929542 0.0065910355367357456 0.0095332783696454593 -0.0086631140113622648 -0.0090842348157850403 0.012309320297234907 -0.0084597887805929542 0.0048777639387840343 -0.008981378111432483 9.1721061108450163e-06 -0.0084597887805929542 -0.0084597887805929542 -0.0084597887805929542 -0.0084596658655441501 -0.0084597887805929542 -0.0084597887805929542 -0.0084597887805929542 -3.8756701592817371e-05 0.0067314268139683003 -0.0092778343494970671 -0.011323957003423145 8.9485581722117404e-05 0.0097663189645774973 -0.011441280459836124 -0.00016499370023602148 0.0046860978416287183 -0.0087664615472482603 0.0016944004309413288 -0.0088019812187193815 -0.0084597887805929542 -0.0084597887805929542
leaf_weight=21 2967 44 233 124 129 138 3546 112 1317 81 225 146 35 146 119 38 1528 1508 1413 27 645 21 46 642 268 211 1371 58 109 24
leaf_count=21 2967 44 233 124 129 138 3546 112 1317 81 225 146 35 146 119 38 1528 1508 1413 27 645 21 46 642 268 211 1371 58 109 24
internal_value=-0.000266482 2.59712e-06 -0.00102712 -0.00201815 -0.00407895 -0.00327293 0.000225501 -0.000882461 5.78169e-06 -0.000184041 -0.00673437 -0.00417241 -0.00475372 -0.0014 -0.00346154 -0.00448544 -0.000321462 0.000656633 -0.000555405 0.000311856 -0.000261172 -0.00115054 -0.00541791 -0.000497436 -0.000220339 -0.0014024 -1.1541e-05 -0.00176786 -0.00525 -0.00323729
internal_weight=17292 16162 2876 1322 1130 884 13286 1089 8811 1554 246 609 471 275 325 206 4258 4475 2941 4553 1007 362 67 965 295 323 1473 102 168 59
internal_count=17292 16162 2876 1322 1130 884 13286 1089 8811 1554 246 609 471 275 325 206 4258 4475 2941 4553 1007 362 67 965 295 323 1473 102 168 59
cat_boundaries=0 3 5 9 11 14 17 54 57 94 95 96 98 100
cat_threshold=548156000 3222728882 1090 537395200 61456 69735525 8655980 2742289408 590356480 1 2818572288 156049 3229647552 2260 8192 1179650 64 0 0 2147483648 0 0 16908288 262272 491532 201392128 0 0 805306368 0 8 0 0 0 33554432 2097920 0 0 0 0 0 0 14942214 0 16 0 0 0 0 0 0 3072 0 1572864 88096784 469763584 780 128 0 0 0 0 0 64 0 0 0 0 0 3221225472 1 0 0 0 0 12582912 0 2013267968 2 0 0 0 18350081 6291456 2 0 0 0 0 0 0 0 0 393216 1107361808 2 521273344 16777732 1 16777216
is_linear=0
shrinkage=0.01


Tree=27
num_leaves=31
num_cat=14
split_feature=2 27 26 26 2 13 0 6 13 0 13 26 16 3 2 9 10 2 3 2 16 0 7 8 26 6 0 9 26 3
split_gain=180.419 39.8939 23.8612 79.694 20.517 14.5618 10.8408 10.2038 8.3746 8.13235 7.27031 7.02364 17.5063 6.86407 6.85684 5.89817 5.32377 4.60218 4.25523 4.11662 3.76942 3.70715 5.6992 3.68382 4.30678 3.665 3.57039 3.53087 3.36274 3.32825
threshold=0 123.50000000000001 -31.499999999999996 9.5000000000000018 1 -0.42108527284769387 2 3 0.8977101403255705 4 -0.87792756428346708 -103.49999999999999 1.2424533248940004 5 6 9.5000000000000018 1.0000000180025095e-35 7 8 9 2.1383330595080281 10 -0.49726094768413653 0.40450849718747384 83.500000000000014 11 12 3.5000000000000004 343.00000000000006 13
decision_type=9 8 8 8 9 2 9 9 2 9 2 10 2 9 9 2 2 9 9 9 2 9 2 2 10 9 9 2 10 9
left_child=4 7 8 -4 10 14 -5 17 21 13 -1 27 -13 -9 -6 16 23 -2 -11 20 -8 22 -3 24 -14 -23 -20 -7 -21 -28
right_child=1 2 3 6 5 11 19 9 -10 18 -12 12 15 -15 -16 -17 -18 -19 26 28 -22 25 -24 -25 -26 -27 29 -29 -30 -31
leaf_value=-0.0083751908927870242 0.0065251251813683879 0.009437945585949006 -0.0085764828712486425 -0.0089933924676271898 0.012186227094262559 0.0089134935653435617 -0.0088915643303181576 0.0048287382006027418 -0.0083751908927870242 0.0034845704090538461 -0.0083751908927870242 -0.0083751908927870242 -0.0083750692068887099 -0.0093480533862144236 -0.0083751908927870242 -0.0083751908927870242 -0.0083751908927870242 0.0066641125458286182 0.0050734254391658221 0.0035255582595826152 -0.0086787969317757771 0.0071680849831572283 -0.0087139614065321874 -0.0083751908927870242 -0.0083751908927870242 -0.00027721730027321147 6.8500526398337867e-05 -0.0083751908927870242 -0.008870996054884759 -4.0279190913859095e-05
leaf_weight=21 2967 44 233 124 129 45 112 596 81 902 225 146 35 1340 146 119 38 1508 1819 619 211 468 58 109 24 903 704 93 23 3450
leaf_count=21 2967 44 233 124 129 45 112 596 81 902 225 146 35 1340 146 119 38 1508 1819 619 211 468 58 109 24 903 704 93 23 3450
internal_value=-0.000234097 3.72249e-05 -0.0010306 -0.00201815 -0.00407895 -0.00327293 -0.000882461 0.000268403 -0.000190476 7.04002e-05 -0.00673437 -0.00417241 -0.00475372 -0.000500514 -0.0014 -0.00346154 -0.00448544 0.000656633 0.000231663 -0.000497436 -0.0014024 -1.83299e-05 -0.00176786 -0.00525 -0.00323729 0.000123823 0.000134214 -0.00218841 -2.76073e-05 -2.78578e-05
internal_weight=17292 16162 2876 1322 1130 884 1089 13286 1554 8811 246 609 471 1936 275 325 206 4475 6875 965 323 1473 102 168 59 1371 5973 138 642 4154
internal_count=17292 16162 2876 1322 1130 884 1089 13286 1554 8811 246 609 471 1936 275 325 206 4475 6875 965 323 1473 102 168 59 1371 5973 138 642 4154
cat_boundaries=0 3 5 7 11 14 49 52 55 78 80 82 87 90 127
